{"lstm.weight_ih_l0": [[0.8909916281700134], [1.3793717622756958], [-0.4401892423629761], [0.7870709896087646], [-0.8439657092094421], [-0.06211436167359352], [-0.25064295530319214], [0.25383344292640686], [-0.8698620200157166], [-0.8052359223365784], [-0.32952243089675903], [1.286260962486267], [0.9498497247695923], [-1.095705270767212], [-0.7955936193466187], [-0.8137133717536926], [1.3543965816497803], [0.5064635276794434], [-1.1729716062545776], [0.5707135200500488], [1.5733872652053833], [1.2313017845153809], [1.4599556922912598], [-0.9608127474784851], [0.5258775353431702], [1.615573763847351], [-1.1044460535049438], [0.30867478251457214], [-1.00271737575531], [-0.7832409143447876], [-0.2408846914768219], [0.24096842110157013], [-1.1460392475128174], [-0.7883132100105286], [-0.3444269895553589], [1.7830806970596313], [0.7606205940246582], [-1.0421401262283325], [-0.8995556831359863], [-0.9069350957870483], [0.7262511253356934], [-0.08331010490655899], [-1.3940623998641968], [0.6545018553733826], [1.593101143836975], [0.8889488577842712], [0.9965369701385498], [-0.8865135908126831], [0.77730393409729], [-0.7085959911346436], [-0.4754851162433624], [1.4390127658843994], [-0.45868974924087524], [1.4302313327789307], [0.2892519235610962], [1.3978321552276611], [1.0066750049591064], [-0.6686811447143555], [-0.35139569640159607], [-0.8120532631874084], [0.3538306653499603], [0.9331985116004944], [-0.4065261781215668], [0.1331552118062973], [-0.40390923619270325], [-2.2605936527252197], [-0.8520815968513489], [-1.7907968759536743], [1.6972764730453491], [-0.5402146577835083], [1.6237189769744873], [0.7570435404777527], [0.9024173617362976], [1.1296656131744385], [-0.4665853977203369], [0.41647467017173767], [-0.8570161461830139], [0.20588214695453644], [-0.4069793224334717], [0.9554177522659302], [-0.8349925875663757], [-0.8232987523078918], [-0.2842264771461487], [1.5254385471343994], [0.8874062299728394], [-1.0328657627105713], [-0.7659015655517578], [-0.7690253257751465], [0.6180466413497925], [0.3224206268787384], [-0.9621111154556274], [0.7729038000106812], [1.7514212131500244], [1.0854883193969727], [0.5950630307197571], [-0.9293171167373657]], "lstm.weight_hh_l0": [[-0.4649149179458618, 0.8108073472976685, -0.134354367852211, 0.3349854648113251, -0.2661295533180237, -0.38334235548973083, -0.7778877019882202, -0.3871535658836365, 0.5611706376075745, -0.6983265280723572, -0.5746976733207703, 0.44148683547973633, -0.5672483444213867, 0.4499260485172272, -0.5698731541633606, 0.6425448656082153, 0.6718134880065918, 0.5285739302635193, -0.07421467453241348, 0.32023873925209045, 0.48266491293907166, 0.3457477390766144, 0.5975757241249084, 0.8217222690582275], [-0.4881097376346588, 0.29619300365448, -0.1603051871061325, 0.3770662546157837, -0.2585519850254059, -0.18978069722652435, -0.8773825168609619, -0.2699829041957855, 0.7304770350456238, -0.8445584177970886, -0.43604233860969543, 0.5488231182098389, -0.3583531081676483, 0.5338002443313599, -0.8907477259635925, 0.9719541072845459, 0.17784245312213898, 0.29104098677635193, -0.12262682616710663, 0.18670576810836792, 0.4306253492832184, 0.41352662444114685, 0.20835167169570923, 0.5149288177490234], [0.16737723350524902, -0.5430106520652771, 0.4083713889122009, -0.5369292497634888, 0.3687783479690552, 0.401318222284317, 0.7075496315956116, 0.16720935702323914, -0.5319631099700928, 0.73448646068573, 0.8882017731666565, -0.39157673716545105, 0.37582266330718994, -0.6264675259590149, 0.7862738966941833, -1.1542092561721802, -0.5673862099647522, -0.18027068674564362, 0.49069735407829285, -0.444900780916214, -0.15129366517066956, -0.24063436686992645, -0.5136381387710571, -0.8362797498703003], [0.04397129639983177, 0.12851227819919586, -0.6572485566139221, 0.35798734426498413, -0.5203298330307007, -0.05880090594291687, -0.5400485396385193, -0.07443030178546906, 0.6828351020812988, -0.8537855744361877, -0.5633257031440735, 0.10020408034324646, -0.3457012474536896, 0.8155718445777893, -0.7793545722961426, 0.8792333602905273, 0.3382827639579773, 0.18367904424667358, -0.5418411493301392, 0.0059065185487270355, 0.09267953038215637, 0.42088383436203003, 0.4379555583000183, 0.9091050624847412], [0.31703251600265503, -0.24286717176437378, 0.5648908615112305, -0.34195858240127563, 0.5330721735954285, 0.4871746301651001, 0.6837889552116394, 0.5784852504730225, -0.660227358341217, 0.9623064994812012, 0.9497537612915039, -0.5837307572364807, 0.7855672836303711, -0.8613206148147583, 0.8010146021842957, -1.0744590759277344, -0.5657986402511597, -0.6615123152732849, 0.13575974106788635, -0.6754789352416992, -0.10808692127466202, -0.7464487552642822, -0.28027066588401794, -0.8031032085418701], [-0.29096096754074097, 0.38720715045928955, -0.4396049976348877, 0.21032503247261047, -0.4324489235877991, -0.02389451116323471, -0.6035417318344116, -0.17235715687274933, 0.7113963961601257, -0.7809102535247803, -0.5033249855041504, 0.030673004686832428, -0.3863324820995331, 0.4958992898464203, -0.5814123153686523, 0.550264835357666, 0.11067270487546921, -0.02184758521616459, -0.21012534201145172, 0.33339405059814453, 0.3014266788959503, 0.4012562334537506, 0.192154198884964, 0.5582528114318848], [-0.11454036831855774, 0.5990132689476013, 0.5838842391967773, 0.39392903447151184, 0.056173112243413925, -0.21787260472774506, 0.11034120619297028, -0.15143558382987976, -0.10987474024295807, 0.20025889575481415, 0.4494251012802124, 0.053074005991220474, -0.6847319602966309, 0.3199062943458557, -0.20010018348693848, -0.2776575982570648, 0.30079859495162964, 0.03749977797269821, -0.07648424804210663, 0.37073567509651184, 0.22076073288917542, 0.18770869076251984, 0.6933813095092773, 0.2313804030418396], [0.524176299571991, -0.3543955087661743, -0.44267427921295166, -0.8790891766548157, -0.10151730477809906, 0.5430933833122253, -0.8456759452819824, -0.28501224517822266, 0.599829912185669, -0.2544606924057007, -0.6604356169700623, 0.3410063683986664, -0.056648071855306625, -0.017149336636066437, -0.2144523411989212, 1.2086329460144043, -0.4119846224784851, 0.0834493562579155, -0.18701238930225372, -0.45028671622276306, -0.7502939701080322, -0.4266849458217621, -0.5372856259346008, 0.13839204609394073], [-0.6019932627677917, 0.5270480513572693, 0.007337752263993025, 0.35146066546440125, 0.020305562764406204, -0.4029499292373657, -0.1268414705991745, -0.4604572355747223, -0.069377601146698, -0.01590096764266491, 0.32411545515060425, 0.33691105246543884, -0.3283810019493103, -0.045164357870817184, 0.012541744858026505, -0.13692881166934967, 0.5425896048545837, 0.6819299459457397, 0.1119215115904808, 0.5410273671150208, 0.5958839654922485, 0.38983938097953796, 0.2810225188732147, -0.2557193338871002], [0.23230038583278656, 0.18683739006519318, -0.4123486280441284, 0.06467637419700623, -0.45804688334465027, -0.2841946482658386, -0.08298134803771973, -0.09877712279558182, 0.25420790910720825, -0.010135420598089695, -0.10743158310651779, -0.21176482737064362, -0.33863312005996704, 0.5298609137535095, -0.34788778424263, -0.33026018738746643, -0.03716577962040901, -0.042924053966999054, -0.367879182100296, 0.19887657463550568, 0.19867900013923645, 0.07467048615217209, 0.26259127259254456, 0.22192420065402985], [0.3293108344078064, -0.5678794384002686, 0.7953432202339172, -0.554114818572998, 0.886189877986908, 0.22295156121253967, 0.8142963647842407, 0.19607582688331604, -0.7392628788948059, 0.96626216173172, 0.7279949188232422, -0.6394986510276794, 0.3713317811489105, -0.6354694366455078, 0.6929711699485779, -0.8530584573745728, -0.5574750304222107, -0.3613014817237854, 0.9222730398178101, -0.15543347597122192, -0.22473064064979553, -0.5344346761703491, -0.5882390737533569, -0.8562541007995605], [0.3334386944770813, -0.18726585805416107, 0.27756473422050476, -0.5708818435668945, 0.1007981151342392, 0.5813344120979309, -0.13656936585903168, -0.05452847108244896, -0.16694718599319458, 0.47026175260543823, -0.03720661252737045, -0.1689467430114746, 0.26191583275794983, -0.3110080659389496, 0.061123427003622055, 0.5410021543502808, -0.17213685810565948, -0.27306583523750305, 0.16895559430122375, -0.289509654045105, -0.6222785711288452, -0.35933488607406616, -0.2105976641178131, -0.47641369700431824], [-0.27826064825057983, 0.4085378348827362, -0.5123978853225708, 0.09061698615550995, -0.3453240692615509, -0.21917621791362762, -0.8637548089027405, -0.1114388182759285, 0.7505415081977844, -0.8931602835655212, -0.5107432007789612, 0.029492197558283806, -0.4054490327835083, 0.8114113211631775, -0.8478184938430786, 0.6199600696563721, 0.3635733425617218, 0.3164519667625427, -0.1918964385986328, 0.21900467574596405, 0.13413195312023163, 0.20505307614803314, 0.18636199831962585, 0.94818514585495], [0.03879163786768913, 0.13962271809577942, 0.702375054359436, 0.3139755129814148, 0.2662988305091858, -0.2826341390609741, 0.08888690173625946, 0.18675754964351654, -0.5308171510696411, 0.07306124269962311, 0.8608332276344299, -0.35973337292671204, -0.2705304026603699, 0.3930068612098694, -0.5329245924949646, -0.3366183042526245, 0.10540112853050232, -0.17027400434017181, 0.2028406262397766, 0.3484399914741516, 0.032835718244314194, 0.016678158193826675, 0.3269391357898712, 0.4821469485759735], [-0.1593630462884903, 0.17266389727592468, -0.2132408171892166, 0.23758947849273682, -0.3335910141468048, -0.3375432789325714, -0.20906536281108856, -0.2640489339828491, 0.23572514951229095, -0.29494184255599976, -0.04874927178025246, -0.11089427024126053, -0.4828151762485504, 0.4104103446006775, -0.3785935640335083, -0.02947918325662613, 0.5938109159469604, 0.4310622215270996, -0.26430708169937134, 0.476972371339798, 0.42569151520729065, 0.2912546396255493, 0.28013983368873596, 0.14442625641822815], [-0.07173195481300354, 0.31567293405532837, 1.0423589944839478, 0.6173873543739319, 1.4830904006958008, -0.2811208963394165, 0.2956446707248688, 0.3910517990589142, -1.2773971557617188, 0.979474663734436, 1.1477662324905396, 0.23692312836647034, 0.0895795226097107, -1.2951183319091797, 1.1568868160247803, -0.9807814359664917, 0.19373153150081635, 0.07851273566484451, 0.9626476168632507, 0.0005599691648967564, 0.5522375106811523, -0.03424445539712906, 0.5666932463645935, -1.4501532316207886], [-0.17987148463726044, 0.25917378067970276, -0.25854477286338806, 0.4432177245616913, -0.269100546836853, -0.3375565707683563, -0.772651731967926, -0.48714253306388855, 0.645096480846405, -0.8901112079620361, -0.6724942922592163, 0.26484522223472595, -0.24373488128185272, 0.7592236399650574, -0.7123895883560181, 0.7970044016838074, 0.21284806728363037, 0.09346447139978409, -0.2974524199962616, 0.15053214132785797, 0.38480523228645325, 0.20546214282512665, 0.30452319979667664, 0.7575216293334961], [-0.42879700660705566, 0.5003636479377747, -0.47369542717933655, 0.2704205811023712, -0.4623580574989319, -0.49643588066101074, -0.7938107848167419, -0.5588775277137756, 0.43226805329322815, -0.8063086271286011, -0.8451688885688782, 0.621204674243927, -0.2718595862388611, 0.2578319311141968, -0.6292985677719116, 1.3070160150527954, 0.48718053102493286, 0.4100019633769989, -0.3373345732688904, 0.24808306992053986, 0.23800553381443024, 0.33166834712028503, 0.29676178097724915, 0.40250492095947266], [-0.0712464451789856, 0.36706438660621643, 0.1886945217847824, 0.329977422952652, 0.48440369963645935, -0.35811200737953186, -0.08439131826162338, 0.6224744915962219, -0.6787034273147583, 0.7935134768486023, 0.926605761051178, -0.6324782371520996, 0.2258102148771286, -0.5697152018547058, 0.5675306916236877, -1.2176357507705688, 0.0539516843855381, -0.14730870723724365, 0.2985494136810303, -0.09018402546644211, 0.3780846893787384, 0.08010924607515335, 0.41085025668144226, -0.44409123063087463], [-0.3376365303993225, 0.40646064281463623, -0.3439050018787384, 0.2486003339290619, -0.20028415322303772, -0.2452765703201294, -0.6525765657424927, -0.08594964444637299, 0.6351163983345032, -0.6623239517211914, -0.6875708699226379, 0.2463436722755432, -0.5005497932434082, 0.6046546101570129, -0.7215490341186523, 0.8617413640022278, 0.189489483833313, 0.1852855533361435, -0.04878156632184982, 0.3801364302635193, 0.38129639625549316, 0.3538266122341156, 0.4590105414390564, 0.5357367992401123], [-0.46131712198257446, 0.21681100130081177, -0.6564698815345764, 0.14711429178714752, -0.4930960237979889, -0.4442863166332245, -0.9772380590438843, -0.31567883491516113, 0.5268563628196716, -0.8693665266036987, -0.8942261338233948, 0.5118183493614197, -0.3610054552555084, 0.7894144654273987, -0.5616006255149841, 0.6292529702186584, 0.3769383132457733, 0.46565935015678406, -0.5087481141090393, 0.2737424969673157, 0.4093819856643677, 0.3792077600955963, 0.25575652718544006, 0.8913385272026062], [-0.3335055112838745, 0.39141932129859924, -0.2272467464208603, 0.31027913093566895, -0.30624547600746155, -0.14913561940193176, -0.760578453540802, -0.11626458913087845, 0.5443946123123169, -0.6045473217964172, -0.5853053331375122, 0.5542728304862976, -0.25305649638175964, 0.4767354726791382, -0.9014877080917358, 0.8608142137527466, 0.24891288578510284, 0.3873518407344818, -0.17231203615665436, 0.1839049756526947, 0.3269621729850769, 0.13791507482528687, 0.378271222114563, 0.5934399962425232], [-0.257976233959198, 0.22925801575183868, -0.3626812994480133, 0.3044308125972748, -0.8006333708763123, -0.08671790361404419, -0.9494808912277222, -0.17934471368789673, 0.5212153792381287, -0.7687391638755798, -0.875785231590271, 0.2546178698539734, -0.26360848546028137, 0.6166217923164368, -0.6662321090698242, 0.6169484853744507, 0.20149780809879303, 0.2755877375602722, -0.21770912408828735, 0.11500008404254913, 0.014170842245221138, 0.22287142276763916, 0.2568306624889374, 0.8442178964614868], [-0.4757722020149231, 0.5063701272010803, 0.025876473635435104, 0.49169567227363586, 0.04373551160097122, -0.29715558886528015, -0.36722972989082336, -0.4250451922416687, -0.018238471820950508, -0.01530107669532299, -0.09424977004528046, 0.19514237344264984, -0.2994862496852875, 0.4651738703250885, -0.21101005375385284, -0.11227443814277649, 0.3212035000324249, 0.11277385801076889, -0.3335862159729004, 0.5544514656066895, 0.37963536381721497, 0.2984800636768341, 0.35403919219970703, 0.4252244830131531], [-0.44678381085395813, 0.8683902621269226, -0.4211101531982422, 0.8245882391929626, -0.6184186935424805, -0.49676331877708435, -0.545429527759552, -0.26891788840293884, 0.623462975025177, -0.7868731617927551, -0.6451220512390137, 0.3567763566970825, -0.5094223022460938, 0.9693917036056519, -0.7636773586273193, 0.8175409436225891, 0.7179836630821228, 0.29513096809387207, -0.09394378960132599, 0.7164226174354553, 0.40117764472961426, 0.6504538655281067, 0.7618283629417419, 0.6921530961990356], [-0.26938575506210327, 0.15075159072875977, -0.6159936189651489, 0.3167802691459656, -0.5917772650718689, -0.476212739944458, -0.9659646153450012, -0.28755664825439453, 0.8499687910079956, -0.7616726756095886, -0.740277111530304, 0.4708369970321655, -0.2549799978733063, 0.6599632501602173, -0.6736225485801697, 0.8197780847549438, 0.07995542138814926, 0.21968156099319458, -0.2728126049041748, 0.4466416835784912, 0.2564240097999573, 0.26552560925483704, 0.30450987815856934, 0.9317325949668884], [0.3579687476158142, -0.0611216202378273, 0.471517413854599, -0.33462825417518616, 0.1931304931640625, 0.3987123966217041, 0.8269299268722534, 0.422089546918869, -0.6835303902626038, 0.6801630258560181, 0.829550564289093, -0.4602096378803253, 0.2180485725402832, -0.27763932943344116, 0.8737522959709167, -0.975202739238739, -0.28571704030036926, -0.3480907678604126, 0.31422415375709534, -0.3974894881248474, -0.23255977034568787, -0.39503514766693115, -0.5118098855018616, -0.6186402440071106], [-0.13324663043022156, 0.2695818543434143, -0.488337904214859, 0.30891430377960205, -0.6505796313285828, -0.12816588580608368, -0.7783571481704712, -0.021337129175662994, 0.5702281594276428, -0.874603271484375, -0.8338841199874878, 0.1663191169500351, -0.4361675977706909, 0.9090237021446228, -0.8460881114006042, 0.9236843585968018, 0.12503710389137268, 0.2931431233882904, -0.8001822233200073, 0.2226557731628418, 0.3748226761817932, 0.20442214608192444, 0.2989838421344757, 0.7732818722724915], [0.4186399579048157, -0.1551046371459961, 0.35004180669784546, -0.186294287443161, 0.34476998448371887, 0.24637307226657867, 0.9459389448165894, 0.27223801612854004, -0.4800926446914673, 0.5333291888237, 0.6789016723632812, -0.4359637200832367, 0.367794007062912, -0.3536425232887268, 0.9182061553001404, -1.2482290267944336, -0.3937709331512451, -0.4198841154575348, 0.2762147784233093, -0.14169372618198395, -0.14320167899131775, -0.27258020639419556, -0.43253257870674133, -0.5634198188781738], [0.05419633537530899, 0.10435634106397629, -0.6808338761329651, 0.15073706209659576, -0.7505630850791931, -0.1174372211098671, -0.7285336852073669, -0.24701081216335297, 0.5881339907646179, -0.8099737167358398, -0.6005324721336365, 0.03139421343803406, -0.2239387333393097, 0.6876162886619568, -0.8826785683631897, 0.8372536301612854, 0.4175378978252411, 0.008295577019453049, -0.6530877947807312, 0.12412972748279572, 0.35698825120925903, 0.3396260738372803, 0.33148425817489624, 0.584677517414093], [-0.2989475131034851, 0.7782331109046936, 0.3916698694229126, 0.6986182332038879, -0.10494410246610641, -0.7278043031692505, -0.07244137674570084, -0.34654664993286133, -0.3416109085083008, 0.2562556862831116, 0.24938176572322845, 0.11228056997060776, -0.6053598523139954, 0.2955892086029053, -0.1725625842809677, -0.23727361857891083, 0.7687422037124634, 0.3774220943450928, 0.07551465183496475, 0.671360433101654, 0.6481727957725525, 0.4134206771850586, 0.550930380821228, 0.047482606023550034], [1.119324803352356, -0.6950923800468445, -0.35245954990386963, -1.0038284063339233, -0.3074667751789093, 0.584013819694519, -0.5392240285873413, 0.04168509691953659, 0.6826198101043701, -0.05796978995203972, -0.8733264207839966, 0.024072499945759773, 0.34890425205230713, -0.13374121487140656, -0.48135432600975037, 1.2154473066329956, -0.6806866526603699, -0.18561768531799316, -0.3611908555030823, -0.8047470450401306, -1.0917786359786987, -0.6093801259994507, -0.6127775311470032, 0.07997836917638779], [-1.0041652917861938, 0.9746106266975403, 0.3155454993247986, 0.8814310431480408, 0.22320502996444702, -0.9072990417480469, -0.19948217272758484, -0.604185938835144, -0.28508231043815613, -0.07950078696012497, 0.35401102900505066, 0.8975480198860168, -0.6588869690895081, -0.6365087628364563, 0.6664606928825378, 0.03774000704288483, 1.0085278749465942, 0.9213489890098572, 0.17825573682785034, 0.9166436791419983, 1.2148183584213257, 0.9284920692443848, 0.8529271483421326, -0.34936702251434326], [-0.5081300139427185, 0.6296175718307495, -0.5282838940620422, 0.7772598266601562, -0.13017752766609192, -0.3524600863456726, -0.2542688250541687, -0.36102423071861267, 0.27975112199783325, -0.25813618302345276, -0.21929915249347687, 0.196330726146698, -0.33172696828842163, 0.5591162443161011, -0.2244359254837036, 0.09999030828475952, 0.7154220342636108, 0.5752586126327515, -0.5970340371131897, 0.5671060681343079, 0.5271820425987244, 0.5857470631599426, 0.6523432731628418, 0.4414702355861664], [-0.014987030997872353, 0.02128504030406475, 0.7905101180076599, -0.33376049995422363, 0.6744930744171143, 0.0396462045609951, 0.7524939179420471, 0.16418801248073578, -0.625430703163147, 0.8290116786956787, 0.9857696294784546, -0.45213818550109863, 0.22229017317295074, -0.7583672404289246, 1.0012261867523193, -1.0542105436325073, -0.19680730998516083, -0.4258326292037964, 0.6575118899345398, -0.24167025089263916, -0.2946973145008087, -0.2468072921037674, -0.4804272949695587, -0.6292807459831238], [0.4172763228416443, -0.16380001604557037, 0.39861971139907837, -0.3841596245765686, 0.34923624992370605, 0.4658254086971283, 0.030387409031391144, 0.04002239182591438, -0.4124772846698761, 0.39843350648880005, 0.1782742589712143, -0.06041213124990463, 0.6928853392601013, -0.4477222263813019, 0.3457091450691223, 0.256925106048584, -0.5607960224151611, -0.2724126875400543, 0.3615291118621826, -0.3928188979625702, -0.3085571229457855, -0.540068507194519, -0.18580789864063263, -0.27679935097694397], [-0.20480790734291077, 0.11058173328638077, -0.516066312789917, 0.16903528571128845, -0.77423095703125, -0.37491458654403687, -0.7778671383857727, -0.266624391078949, 0.7963711023330688, -0.689031183719635, -0.6273145079612732, 0.3190256357192993, -0.4096994698047638, 0.7651214003562927, -0.6165063977241516, 0.8394169211387634, 0.2714065909385681, 0.14380940794944763, -0.4333374500274658, 0.1270136833190918, 0.1913444846868515, 0.29015877842903137, 0.02062774822115898, 0.7686203718185425], [-0.23144575953483582, 0.6092162132263184, 1.2118170261383057, 0.7782257199287415, 0.8086383938789368, -0.46914607286453247, -0.1822904348373413, 0.004646876826882362, -0.8224760890007019, 0.193219855427742, 0.6536986231803894, 0.29842421412467957, -0.7397547960281372, 0.17748688161373138, -0.4241958260536194, -0.2553790211677551, 0.7883455157279968, -0.07541993260383606, 0.4542974531650543, 0.9006874561309814, -0.03619945049285889, 0.4223804771900177, 0.5582125186920166, 0.3562639057636261], [-0.5477802753448486, 0.7099669575691223, -0.16337592899799347, 0.4934295415878296, -0.03897460177540779, -0.6092163920402527, -0.2222355306148529, -0.49557211995124817, 0.20648306608200073, -0.2838888168334961, -0.09401341527700424, 0.401774138212204, -0.5613663196563721, 0.2010624259710312, -0.14640238881111145, 0.1988157480955124, 0.42569079995155334, 0.5681254863739014, -0.18316341936588287, 0.703559935092926, 0.5239083170890808, 0.34936732053756714, 0.4878951907157898, 0.259484201669693], [-0.6270947456359863, 0.903809666633606, 1.183616042137146, 1.04923677444458, 1.3430061340332031, -0.7844638824462891, 1.1738173961639404, 0.04309231415390968, -1.2544432878494263, 0.8933934569358826, 0.8069950938224792, 0.2003086507320404, 0.6726498603820801, -1.2550989389419556, 1.1585049629211426, -0.6112287044525146, 0.6265368461608887, -0.043109867721796036, 1.3077174425125122, 0.451483815908432, 1.153247356414795, 0.4441685676574707, 0.9983325600624084, -1.1390589475631714], [-0.16915014386177063, 0.08346273750066757, -0.6497615575790405, 0.15161070227622986, -0.7445076704025269, -0.3379049003124237, -0.9391093254089355, -0.09784174710512161, 0.9227117300033569, -0.6220722198486328, -0.9324880242347717, 0.32722005248069763, -0.3761824071407318, 0.8108025789260864, -0.8126058578491211, 0.8698375225067139, 0.3174579441547394, 0.28588277101516724, -0.30723443627357483, 0.456522136926651, 0.3075549006462097, 0.37206509709358215, 0.06987972557544708, 0.812586784362793], [-0.03583512082695961, 0.7652440071105957, -0.6073607802391052, 0.26539820432662964, -0.4933473765850067, -0.42924338579177856, -0.5606000423431396, -0.6079585552215576, 0.8245533108711243, -0.5402876138687134, -1.064508080482483, 0.6219016313552856, -0.222871333360672, 0.2616969645023346, -0.8321953415870667, 1.152957558631897, 0.33025047183036804, 0.32628461718559265, -0.28719624876976013, 0.11498560756444931, 0.4986584186553955, 0.47167301177978516, 0.7680879831314087, 0.7386960983276367], [-0.010940559208393097, 0.3187888562679291, 0.23056668043136597, 0.33642783761024475, 0.30412694811820984, -0.44071540236473083, 1.0455775260925293, 0.697778046131134, -0.4968065917491913, 0.531465470790863, 0.6390044093132019, -0.6286875009536743, 0.41548800468444824, -0.4523577094078064, 0.8025587797164917, -1.2291858196258545, -0.027423987165093422, -0.5248357057571411, 0.15249374508857727, -0.08661527931690216, 0.5577355623245239, -0.2483576387166977, 0.29034969210624695, -0.3954232335090637], [-0.2431853860616684, 0.3095233142375946, -0.7246082425117493, 0.5410963296890259, -0.8076538443565369, -0.1293620467185974, -0.8244409561157227, -0.3446389436721802, 0.7270288467407227, -0.5210374593734741, -0.9421435594558716, 0.19996954500675201, -0.18107004463672638, 0.7276811003684998, -0.9064584970474243, 0.7133777141571045, 0.17800752818584442, -0.0049735624343156815, -0.39498957991600037, 0.2654252052307129, 0.08757131546735764, 0.36388319730758667, 0.26008516550064087, 0.637428343296051], [-0.7109750509262085, 0.3354094624519348, -0.7717013955116272, 0.44042709469795227, -0.9456360936164856, -0.38361459970474243, -0.8871126770973206, -0.5426157116889954, 0.608099639415741, -0.8107210993766785, -0.9294062852859497, 0.6513550877571106, -0.3372747600078583, 0.7326512932777405, -0.6442453265190125, 0.7348607182502747, 0.4149912893772125, 0.28959983587265015, -0.6438242197036743, 0.46356645226478577, 0.26280343532562256, 0.4559110701084137, 0.18804728984832764, 0.9420592784881592], [-0.4522862732410431, 0.5274567604064941, -0.45539215207099915, 0.36985740065574646, -0.5299092531204224, -0.31939080357551575, -0.872191309928894, -0.18061378598213196, 0.7524845600128174, -0.9523354768753052, -0.7871790528297424, 0.40660130977630615, -0.44363996386528015, 0.6698036789894104, -0.8435713648796082, 0.7596254348754883, 0.5347241759300232, 0.42474597692489624, -0.309775173664093, 0.5092712640762329, 0.5634596347808838, 0.3875681757926941, 0.4933052957057953, 0.732399582862854], [-0.35341107845306396, 0.12136910855770111, -0.6566276550292969, 0.09745444357395172, -0.7247408032417297, -0.151890367269516, -0.8454836010932922, -0.2950252294540405, 0.9043190479278564, -0.8100905418395996, -0.8573780059814453, 0.2174222767353058, -0.4302141070365906, 0.7381793260574341, -0.782950222492218, 0.7565876245498657, 0.3870684504508972, 0.3299883008003235, -0.657678484916687, 0.035810913890600204, 0.09689201414585114, 0.10914087295532227, 0.40088513493537903, 0.6755748987197876], [-0.7996741533279419, 0.7698735594749451, 0.08583034574985504, 0.6688912510871887, -0.3009248375892639, -0.654024064540863, -0.10998393595218658, -0.6341808438301086, -0.053481366485357285, -0.05757930129766464, 0.05031721293926239, 0.29676875472068787, -0.5080604553222656, 0.3706505596637726, -0.10550141334533691, -0.0878184512257576, 0.4300549626350403, 0.4929461181163788, -0.24981571733951569, 0.6645196676254272, 0.4846295416355133, 0.6389455199241638, 0.44470760226249695, 0.2053268551826477], [-0.2749621868133545, -0.05773473158478737, -1.1674846410751343, 0.004766732454299927, -0.9719858765602112, -0.5934526920318604, -1.1040226221084595, -0.3362978398799896, 1.078525424003601, -1.0694420337677002, -1.088814616203308, 0.679209291934967, 0.12117224931716919, 0.6026825308799744, -0.7716460227966309, 0.9834093451499939, 0.001502873608842492, 0.6912581920623779, -1.3312766551971436, 0.00030587997753173113, 0.6553194522857666, 0.05856180936098099, -0.027028901502490044, 0.7312605977058411], [0.0974150002002716, -0.10765094310045242, 1.1770758628845215, -0.2969352602958679, 0.9520218372344971, 0.2010345757007599, 0.9451673030853271, 0.4833654463291168, -0.9100492596626282, 0.9150378108024597, 0.7627164125442505, -0.5092913508415222, 0.30553138256073, -0.9026110768318176, 0.6148684024810791, -1.0533726215362549, -0.19017042219638824, -0.27540406584739685, 1.1846086978912354, -0.16676229238510132, -0.5517396926879883, -0.36340904235839844, -0.10735943168401718, -0.9577040672302246], [0.7808700203895569, -1.1452734470367432, -0.8620871305465698, -1.1296801567077637, -0.497294157743454, 1.1366018056869507, 0.24864007532596588, 1.0665760040283203, 0.5512675046920776, -0.03746447339653969, -0.43028098344802856, -1.2187613248825073, 0.7661757469177246, 0.4120953679084778, -0.1534477174282074, -0.3846336603164673, -0.9557759761810303, -1.054447054862976, -0.7537990808486938, -1.038078784942627, -0.7565046548843384, -0.9543043375015259, -1.1240934133529663, 0.5005959272384644], [-0.0066860211081802845, -0.151894673705101, 1.0137375593185425, -0.14659783244132996, 0.9173251986503601, 0.25907769799232483, 0.910417914390564, 0.2899894118309021, -0.8285199999809265, 0.9325180649757385, 0.8187246918678284, -0.24695487320423126, 0.36246833205223083, -0.731047511100769, 0.8587744235992432, -0.5996530652046204, -0.10614223778247833, -0.15889108180999756, 0.8050532937049866, -0.30073922872543335, -0.3709542751312256, -0.08868392556905746, -0.36880508065223694, -0.6793515682220459], [0.9880767464637756, -0.8057034015655518, -0.6313623189926147, -0.9894726276397705, -0.4744104743003845, 0.8471642732620239, 0.16032113134860992, 1.1630597114562988, 0.7138866186141968, 0.05618609860539436, -0.35216525197029114, -1.200203537940979, 0.9115256667137146, 0.7798871397972107, -0.19718006253242493, -0.45408666133880615, -1.1417824029922485, -1.163502812385559, -0.7683990597724915, -1.0848274230957031, -1.1452062129974365, -0.9986622929573059, -1.1628296375274658, 0.3308769762516022], [-0.2480510026216507, 0.3404344320297241, -0.8208585381507874, 0.05945473536849022, -0.8645650148391724, -0.12149960547685623, -0.6758299469947815, -0.23854506015777588, 0.6684976816177368, -0.8015630841255188, -0.7594341039657593, 0.5206243991851807, -0.1727449893951416, 0.8554039597511292, -0.9457363486289978, 0.9336099028587341, 0.23307877779006958, 0.41397470235824585, -0.8619565963745117, 0.08989669382572174, 0.4833429753780365, 0.09927807003259659, 0.13728994131088257, 0.921311616897583], [0.5896453261375427, -0.48725563287734985, -0.5094432234764099, -0.41341742873191833, -0.38109052181243896, 0.5594053864479065, -0.35516035556793213, 0.9549667239189148, 0.46159014105796814, 0.07116515189409256, -0.12920042872428894, -0.6359176635742188, 0.9812288880348206, 0.4598970115184784, -0.3559119999408722, 0.05625591427087784, -0.5606656670570374, -0.5890923142433167, -0.5357492566108704, -0.6530727744102478, -0.1353597193956375, -0.8514401912689209, -0.44303756952285767, 0.615099310874939], [0.9003909826278687, -1.0627648830413818, -1.1181753873825073, -1.2048975229263306, -0.9825968742370605, 1.1572825908660889, -0.8796508312225342, -0.016341442242264748, 0.8851226568222046, -1.02116060256958, -1.0512772798538208, -0.3778039216995239, 0.8546913266181946, 0.8936047554016113, -0.722399115562439, 0.8363810777664185, -1.0799275636672974, -0.9500402808189392, -0.9682234525680542, -0.6780387759208679, -1.0911182165145874, -1.2767808437347412, -1.080344319343567, 0.888780415058136], [-0.6434940695762634, 0.34302982687950134, 0.610348641872406, -0.15868809819221497, 0.3792587220668793, -0.4540369510650635, 0.11292815953493118, -1.0266889333724976, -0.50727778673172, -0.09999772161245346, 0.17670081555843353, 1.2465466260910034, -0.481338769197464, -0.5978456735610962, 0.5673629641532898, 0.39701977372169495, 0.10504203289747238, 0.7964884638786316, 0.9404680728912354, 0.42351534962654114, 0.13147693872451782, 0.4165012240409851, -0.2979651987552643, -0.7296762466430664], [0.2543390095233917, -0.14629468321800232, -0.8045614957809448, 0.13295383751392365, -0.511763870716095, 0.2858087420463562, -0.1090526282787323, 1.1855969429016113, 0.3654038906097412, 0.10939347743988037, -0.14734087884426117, -1.1645832061767578, 0.8989914059638977, 0.8917707204818726, -0.5491801500320435, -0.4134402871131897, -0.27053502202033997, -1.0306428670883179, -0.8736589550971985, -0.5014216303825378, -0.05134439468383789, -0.31591758131980896, 0.07985400408506393, 0.5813801288604736], [0.9282264709472656, -0.8379364609718323, -0.7570151686668396, -1.087506890296936, -0.38555172085762024, 0.8951728343963623, 0.07213620096445084, 1.1666291952133179, 0.4900582432746887, 0.19661149382591248, -0.15402227640151978, -1.3451803922653198, 0.9723964929580688, 0.38921263813972473, -0.3144576847553253, -0.22813543677330017, -0.9816582798957825, -1.0883010625839233, -0.6890982985496521, -1.0768511295318604, -1.1427836418151855, -0.7537561655044556, -1.1982585191726685, 0.48490697145462036], [-0.8801261186599731, 1.1522809267044067, 1.1490544080734253, 1.4178351163864136, 1.2106068134307861, -1.1758254766464233, 0.987088143825531, -0.6709915399551392, -0.9939339756965637, 0.9614748954772949, 0.8856315612792969, 0.9641739130020142, -0.8633015155792236, -0.6464435458183289, 0.4821538031101227, -0.7183589935302734, 1.053888201713562, 0.7319613099098206, 1.087135672569275, 0.7130141854286194, 1.243137240409851, 1.1202672719955444, 1.3923588991165161, -0.6016817688941956], [0.28768038749694824, -0.3551272749900818, -0.8624029159545898, 0.07464408129453659, -0.9406985640525818, 0.033776041120290756, -0.883874237537384, 0.28396138548851013, 0.7320140600204468, -0.7509832382202148, -0.8943712115287781, -0.1432005614042282, -0.16563518345355988, 0.9021456837654114, -0.9249439835548401, 0.572400689125061, 0.13056433200836182, -0.18791237473487854, -1.2596436738967896, 0.1554265171289444, -0.2876238226890564, 0.19818536937236786, -0.29377439618110657, 0.8487524390220642], [-0.6225863099098206, -0.7221728563308716, -0.8847531676292419, -0.8623296618461609, -0.8059788346290588, -0.3807745575904846, -0.690176784992218, -1.477182388305664, 0.9295070171356201, -0.808609127998352, -0.7386477589607239, 1.128957986831665, -0.4270135164260864, -0.13727237284183502, 0.09750194847583771, 0.688234269618988, 0.008942957036197186, 1.2297618389129639, -0.7574530839920044, 0.09050054103136063, 0.5408062934875488, 0.853449285030365, 0.009777114726603031, -0.005152658559381962], [0.060511402785778046, 0.005587720312178135, -0.5493246912956238, 0.2992069125175476, -0.47050899267196655, -0.18091869354248047, -0.7012318968772888, 0.9212985634803772, 0.6861699819564819, -0.3112221956253052, -0.3801907002925873, -0.8469434380531311, -0.010729392059147358, 0.6907196044921875, -0.9516634941101074, -0.12284901738166809, 0.24495939910411835, -0.24922685325145721, -0.5510585904121399, -0.001772928866557777, 0.1504867970943451, -0.0292345080524683, 0.2557128369808197, 0.5564413666725159], [-0.690028190612793, 0.6852527856826782, 0.8737019300460815, 0.7336496114730835, 0.7738341093063354, -0.8215857148170471, 0.2556423544883728, -1.293403148651123, -0.6202537417411804, 0.21901224553585052, 0.6586495041847229, 1.4122246503829956, -0.9560068249702454, -0.7777125835418701, 0.3476859927177429, 0.6529853343963623, 0.9933620691299438, 1.0928810834884644, 0.8641101717948914, 1.042451024055481, 0.8301573395729065, 1.2376103401184082, 1.063589096069336, -0.42990759015083313], [0.2852639853954315, 0.018554681912064552, 0.8438820838928223, 0.17097602784633636, 0.8127782344818115, 0.24585099518299103, 0.9215983152389526, 0.32320019602775574, -1.128922462463379, 0.6685218811035156, 0.9848319292068481, -0.43923595547676086, 0.13206222653388977, -0.9130691885948181, 0.7400745153427124, -0.7415412068367004, -0.09382209926843643, -0.2401094287633896, 1.2648154497146606, -0.27039337158203125, -0.44721919298171997, -0.025544552132487297, 0.09652318060398102, -0.8883547782897949], [-0.42884156107902527, 0.9243085384368896, 1.0233088731765747, 0.18245986104011536, 1.1277204751968384, -0.5601410269737244, 0.751456081867218, 0.04843445494771004, -0.6019871830940247, 0.8662546873092651, 0.9562898874282837, -0.03664142265915871, 0.0026328335516154766, -1.1894909143447876, 1.0566422939300537, -0.5558922290802002, 0.22529613971710205, 0.5960471630096436, 1.295698642730713, 0.4817623198032379, 0.37876513600349426, 0.2988981008529663, 0.14500106871128082, -1.1285150051116943], [0.9170846343040466, -0.38361141085624695, -0.27986228466033936, -0.5450182557106018, -0.0038496616762131453, 0.4709891676902771, 0.22461673617362976, 1.3318312168121338, -0.0671052560210228, 0.3037991225719452, 0.016775621101260185, -1.058273196220398, 0.9134577512741089, 0.2979918122291565, 0.05950739234685898, -0.36480653285980225, -0.8605954647064209, -0.8063912391662598, -0.6150633096694946, -0.845878005027771, -0.40111446380615234, -0.9880491495132446, -0.4891809821128845, 0.07835809886455536], [0.33385169506073, 0.2398461252450943, 1.1500736474990845, 0.2339591532945633, 0.7723965644836426, 0.09439718723297119, 0.7866684794425964, 0.4404793679714203, -1.1991183757781982, 1.035020112991333, 1.0480239391326904, -0.2544018626213074, -0.03582257777452469, -0.9579418301582336, 0.6586134433746338, -1.134131669998169, -0.1466827690601349, -0.33622539043426514, 1.3015074729919434, -0.24161313474178314, -0.6208526492118835, -0.06162889301776886, 0.11778663843870163, -0.9094050526618958], [-0.2086239755153656, -0.21949531137943268, 0.9318118095397949, -0.5666589140892029, 0.862941563129425, 0.25476858019828796, 0.7831051349639893, 0.12871208786964417, -0.8852289319038391, 0.7136886119842529, 0.7432158589363098, 0.13371843099594116, 0.42506492137908936, -0.972553551197052, 0.6527055501937866, -0.4674864113330841, -0.1374928057193756, 0.0625355988740921, 0.6794222593307495, -0.01148695033043623, -0.14856545627117157, -0.20636558532714844, -0.4690719246864319, -0.7073252201080322], [0.01904350332915783, 0.059585995972156525, 0.9172824621200562, -0.13580557703971863, 1.0916649103164673, 0.024312281981110573, 0.979900598526001, 0.08077248185873032, -0.8278383016586304, 0.6961737871170044, 1.0116596221923828, 0.06518068164587021, 0.316200852394104, -1.1065109968185425, 0.8262902498245239, -0.5643529891967773, -0.017387550324201584, -0.04616296663880348, 1.1317033767700195, 0.0163856353610754, 0.011116642504930496, -0.21743033826351166, 0.02457958646118641, -0.719221830368042], [0.1982901394367218, -0.28012415766716003, 0.7019861936569214, -0.21429303288459778, 0.8790271878242493, 0.10627174377441406, 0.6666289567947388, 0.20485512912273407, -0.5894179940223694, 0.8625699877738953, 0.8195917010307312, -0.07716714590787888, 0.15691553056240082, -0.8705831170082092, 0.830694854259491, -0.7900042533874512, -0.39445632696151733, -0.2753514349460602, 0.751648485660553, -0.10973259806632996, -0.30462154746055603, -0.2913811206817627, -0.3069131374359131, -0.7701039910316467], [0.026370571926236153, -0.594955325126648, 0.051487669348716736, -0.5100211501121521, -0.14609307050704956, 0.15312345325946808, 0.34651103615760803, -0.9944639205932617, -0.18315601348876953, -0.43312862515449524, -0.3199305236339569, 1.0033421516418457, 0.2741813659667969, -0.6250705122947693, 0.8593510985374451, 0.46214428544044495, -0.6359639763832092, 0.47928422689437866, 0.36817121505737305, -0.10889923572540283, -0.08337904512882233, -0.06883139908313751, -0.3514516353607178, -0.7345778942108154], [-0.28791505098342896, 0.4060969352722168, -0.24735990166664124, 0.5667727589607239, -0.5471082329750061, -0.556081235408783, -0.9224489331245422, -0.41180211305618286, 0.5053671002388, -0.6760273575782776, -0.6908782124519348, 0.2798706889152527, -0.34947094321250916, 0.816431999206543, -1.0375022888183594, 0.6740947961807251, 0.6254182457923889, 0.47977328300476074, -0.402259886264801, 0.5916264057159424, 0.42303141951560974, 0.39788275957107544, 0.38597628474235535, 0.6663439869880676], [-0.4411962926387787, 0.3765972852706909, -0.3147355616092682, 0.5510131120681763, -0.3798079788684845, -0.5793032646179199, -0.9855157136917114, -0.5055798292160034, 0.6993880271911621, -0.6819135546684265, -0.8838154077529907, 0.32530534267425537, -0.4421618580818176, 0.8319278359413147, -0.873688817024231, 1.0344754457473755, 0.37955623865127563, 0.4457692801952362, -0.20267701148986816, 0.505122184753418, 0.3790534734725952, 0.19841796159744263, 0.5494919419288635, 0.6150017380714417], [0.12837569415569305, -0.5259289741516113, 0.29628926515579224, -0.3026551902294159, 0.5117920637130737, 0.41783371567726135, 0.9324613213539124, 0.17171113193035126, -0.5313761830329895, 0.7528622150421143, 0.6833743453025818, -0.3882807791233063, 0.33654460310935974, -0.716820240020752, 0.8630948662757874, -0.9686732888221741, -0.4374234974384308, -0.2660745680332184, 0.2689424455165863, -0.20518729090690613, -0.3287653625011444, -0.5556887984275818, -0.47785577178001404, -0.8971216678619385], [-0.6300559639930725, 0.637920618057251, -0.6431037187576294, 0.4756661653518677, -0.8275364637374878, -0.4387257695198059, -0.6395130753517151, -0.6155746579170227, 0.7460625171661377, -0.7777146697044373, -0.6278453469276428, 0.7785197496414185, -0.6632016897201538, 0.6259244084358215, -0.9363604784011841, 0.873664915561676, 0.46571534872055054, 0.6772453784942627, -0.7377920150756836, 0.5990898013114929, 0.6645229458808899, 0.4064483642578125, 0.5554414987564087, 0.946850597858429], [0.6489214897155762, 0.012776599265635014, 0.5554767847061157, -0.5141520500183105, 0.36838993430137634, 0.3968072831630707, 1.0281084775924683, 0.4384111166000366, -0.6024546027183533, 0.8491718173027039, 0.8888318538665771, -0.7052819728851318, 0.4215141236782074, -0.7668322920799255, 0.8464146256446838, -0.8588843941688538, -0.7442638874053955, -0.4064466953277588, 0.48769500851631165, -0.719063401222229, -0.29456302523612976, -0.5963859558105469, -0.5202777981758118, -0.9424142241477966], [-0.3159964680671692, 0.4471237063407898, -0.475309282541275, 0.50682532787323, -0.47777459025382996, -0.4649430513381958, -0.8890712857246399, -0.7563894987106323, 0.7164201736450195, -0.9400988817214966, -0.8499031662940979, 0.732111930847168, -0.6666315793991089, 0.7291659712791443, -0.6919211149215698, 0.6461558938026428, 0.5061632394790649, 0.6933950781822205, -0.6210823059082031, 0.5140059590339661, 0.3943535387516022, 0.713443398475647, 0.5746320486068726, 0.7757110595703125], [-0.2933829426765442, 0.676227867603302, 0.22960297763347626, 0.6859920024871826, -0.04231521859765053, -0.3826243281364441, -0.2098272740840912, -0.11302735656499863, -0.13143125176429749, -0.10459615290164948, 0.2169988602399826, 0.08589006215333939, -0.722183346748352, 0.41858038306236267, -0.2559755742549896, -0.29669156670570374, 0.5003820061683655, 0.0525197833776474, -0.21435777842998505, 0.19185471534729004, 0.40740835666656494, 0.2607552409172058, 0.7614417672157288, 0.149643674492836], [-0.15105809271335602, 0.4780389964580536, 0.05795695260167122, 0.23181000351905823, 0.2174205780029297, -0.22777159512043, 0.25041893124580383, -0.1613253802061081, 0.15886254608631134, 0.263029009103775, -0.32642748951911926, 0.14831258356571198, -0.4461754560470581, -0.3673468828201294, 0.12369789928197861, -0.001532325055450201, 0.46675893664360046, 0.18519525229930878, 0.3761996328830719, 0.4266934096813202, 0.2995055615901947, 0.3408277630805969, 0.255709707736969, -0.3339272439479828], [-0.5226315855979919, 0.4627734124660492, 0.015847425907850266, 0.5606501698493958, -0.16985853016376495, -0.7692747712135315, -0.3000650107860565, -0.37220221757888794, -0.11026901751756668, -0.36668136715888977, 0.25105711817741394, 0.21531884372234344, -0.47818687558174133, -0.14780980348587036, 0.15880455076694489, -0.037831954658031464, 0.45303764939308167, 0.6831868886947632, -0.20376574993133545, 0.7363283038139343, 0.49301403760910034, 0.24163219332695007, 0.5546469688415527, -0.1724638193845749], [0.06583765894174576, 0.09065932035446167, -0.4314093589782715, 0.4781191945075989, -0.37589794397354126, -0.07057328522205353, 0.018510332331061363, -0.13818350434303284, 0.03803715482354164, -0.2509740889072418, 0.10515638440847397, 0.025554008781909943, -0.17250323295593262, 0.19373150169849396, -0.2202008217573166, -0.01730417273938656, 0.05709892883896828, 0.18455787003040314, -0.4351363182067871, 0.031041167676448822, 0.03227044641971588, 0.270616739988327, 0.4539550244808197, 0.2890492081642151], [0.31507638096809387, -0.4068584740161896, 0.883963406085968, -0.5463091135025024, 0.8246718645095825, 0.2588346600532532, 0.5894272923469543, 0.5005313754081726, -0.6809245347976685, 0.6316773295402527, 0.969856321811676, -0.587256908416748, 0.3535788655281067, -0.7418358325958252, 0.7636954188346863, -0.959510326385498, -0.4974876046180725, -0.4194524586200714, 0.7090118527412415, -0.37745824456214905, -0.2618568539619446, -0.6316266655921936, -0.7476938962936401, -0.8227080702781677], [-0.3265988230705261, 0.18251514434814453, 0.17833511531352997, 0.4825669825077057, 0.4981054961681366, -0.49506255984306335, 0.06475558131933212, -0.3335129916667938, -0.2065199464559555, 0.136415034532547, -0.02271205186843872, 0.37021368741989136, -0.4508289098739624, 0.007020959164947271, 0.03875996172428131, 0.16866686940193176, 0.3837703466415405, 0.4726184010505676, 0.501719057559967, 0.44982072710990906, 0.4878041744232178, 0.21744725108146667, 0.43990692496299744, -0.3115750849246979], [-0.5842844247817993, 0.35371750593185425, -0.46381551027297974, 0.6193848252296448, -0.7964382171630859, -0.5462082624435425, -0.7413288950920105, -0.49505409598350525, 0.8809618949890137, -0.6518731713294983, -0.9596112370491028, 0.3945144712924957, -0.5955553650856018, 0.8307912945747375, -0.7365177273750305, 0.9207517504692078, 0.5369730591773987, 0.42661482095718384, -0.5854352116584778, 0.5127759575843811, 0.5872693061828613, 0.3289976716041565, 0.646079957485199, 0.7003310322761536], [-0.0738367885351181, 0.41343721747398376, 0.43803372979164124, 0.4104442596435547, 0.10963454842567444, -0.13426725566387177, -0.057183071970939636, -0.10350023955106735, -0.1748526692390442, -0.006904529873281717, 0.3416835069656372, -0.01867108792066574, -0.7001395225524902, 0.3251236379146576, -0.5818312764167786, -0.06969361752271652, 0.4123215973377228, 0.16586041450500488, 0.11041908711194992, 0.6167967319488525, 0.22370018064975739, 0.4654989540576935, 0.23422782123088837, 0.18226495385169983], [-0.4926218092441559, 0.3686369061470032, -0.18751667439937592, 0.41232621669769287, -0.38867294788360596, -0.4450760781764984, -0.15063397586345673, -0.49489134550094604, 0.09160108864307404, -0.26259297132492065, 0.022010844200849533, 0.406742125749588, -0.6817755103111267, 0.42820248007774353, -0.1332901120185852, 0.23780427873134613, 0.3609425127506256, 0.6210728883743286, -0.4769543707370758, 0.6419950723648071, 0.2460688203573227, 0.4117720127105713, 0.6107560396194458, 0.11042576283216476], [0.2615450918674469, 0.48428431153297424, 1.1509441137313843, 0.6205980777740479, 1.1911875009536743, -0.1438206285238266, 0.30521848797798157, 0.6245486736297607, -1.0932698249816895, 1.2177032232284546, 0.9774633646011353, -0.009710725396871567, 0.4154702126979828, -0.8361093997955322, 0.6932730078697205, -0.9196215271949768, 0.23628206551074982, -0.3609432280063629, 1.0820127725601196, -0.029299557209014893, 0.3956531882286072, 0.21310272812843323, 0.8767579197883606, -1.2014254331588745], [-0.6943046450614929, 0.33308684825897217, -0.620436429977417, 0.42258745431900024, -0.8713773488998413, -0.5473029017448425, -0.7232340574264526, -0.6679429411888123, 0.6896827220916748, -0.847385585308075, -0.7632299065589905, 0.606120228767395, -0.6749252080917358, 0.5815088152885437, -0.9387726187705994, 0.9596326947212219, 0.5474897027015686, 0.7881789803504944, -0.26841437816619873, 0.40586352348327637, 0.3635590076446533, 0.6319735646247864, 0.42915838956832886, 0.8978939652442932], [-0.3899552822113037, 0.41676560044288635, -0.30350884795188904, 0.6128898859024048, -0.4913887083530426, -0.31486570835113525, -0.7189216613769531, -0.2952638268470764, 0.3778645396232605, -0.6527893543243408, -0.8821799159049988, 0.5926603078842163, -0.3389049768447876, 0.6284950971603394, -0.6161126494407654, 0.833787202835083, 0.5816864967346191, 0.55281662940979, -0.14873194694519043, 0.1910400390625, 0.4038781523704529, 0.22573372721672058, 0.4357798993587494, 0.7908244729042053], [0.11976175755262375, 0.22085720300674438, 0.34069228172302246, 0.17446352541446686, 0.5403704643249512, -0.09131859242916107, 0.1569831222295761, 0.9649056792259216, -0.22744649648666382, 0.6377209424972534, 0.5953640341758728, -0.6751205921173096, 0.3220902681350708, -0.1034558042883873, 0.6800116896629333, -1.5185974836349487, 0.1426876336336136, -0.5752191543579102, -0.07503765821456909, 0.054539576172828674, 0.19455763697624207, -0.24598826467990875, 0.24458572268486023, -0.43970441818237305], [-0.3044341802597046, 0.5014587640762329, -0.610551655292511, 0.2660585045814514, -0.7288186550140381, -0.4176330864429474, -0.6221362948417664, -0.4492884576320648, 0.7347185611724854, -0.7829949855804443, -0.6983755230903625, 0.42332518100738525, -0.370711088180542, 0.6917270421981812, -0.9748205542564392, 0.9384377598762512, 0.5290294885635376, 0.2766442894935608, -0.3239080607891083, 0.5891844034194946, 0.3966975808143616, 0.48563408851623535, 0.5224078297615051, 0.8312739133834839], [-0.6070486307144165, 0.3856707215309143, -0.36920925974845886, 0.6099098324775696, -0.6247289180755615, -0.5437934994697571, -0.9521616101264954, -0.5656014680862427, 0.6082258820533752, -0.701442539691925, -0.8230988383293152, 0.6313921213150024, -0.5158869624137878, 0.8740357160568237, -0.7692862153053284, 0.9508674144744873, 0.544249951839447, 0.5028505325317383, -0.6221598982810974, 0.664465069770813, 0.37884774804115295, 0.5233796238899231, 0.5573140382766724, 0.9783039689064026], [-0.5774084329605103, 0.47393637895584106, -0.7740456461906433, 0.5084870457649231, -0.8616607785224915, -0.4524492025375366, -0.7234861850738525, -0.7217985391616821, 0.8335098028182983, -0.794735312461853, -0.946629524230957, 0.37309378385543823, -0.38711997866630554, 0.6279016733169556, -0.6700538992881775, 0.6777036786079407, 0.6843967437744141, 0.48676246404647827, -0.32427215576171875, 0.37680289149284363, 0.40399858355522156, 0.4488997757434845, 0.5656284689903259, 0.9116296768188477], [-0.5600491166114807, 0.422769159078598, -0.6972444653511047, 0.7475049495697021, -0.8505305051803589, -0.4057950973510742, -0.6710720658302307, -0.6180181503295898, 0.8561931848526001, -0.642167866230011, -0.7220053672790527, 0.681548535823822, -0.6579796075820923, 0.6826096773147583, -0.7751973867416382, 0.7719888687133789, 0.5424697399139404, 0.640256941318512, -0.3132902681827545, 0.3981887102127075, 0.6564985513687134, 0.44974058866500854, 0.6951662302017212, 0.8632070422172546], [-0.4147174656391144, 0.3533163368701935, -0.08362562954425812, 0.2748587429523468, -0.04229261353611946, -0.5514708161354065, -0.17608053982257843, -0.46462690830230713, 0.09141139686107635, -0.15980030596256256, 0.14950478076934814, 0.2348700314760208, -0.41424670815467834, 0.2974635362625122, -0.37093737721443176, -0.060568876564502716, 0.4748065173625946, 0.15252158045768738, -0.33170297741889954, 0.3481876850128174, 0.44452160596847534, 0.49021655321121216, 0.605035662651062, 0.2675397992134094]], "lstm.bias_ih_l0": [-0.27141180634498596, 0.09041799604892731, -0.21794524788856506, -0.6447734832763672, -0.23668581247329712, -0.5899903774261475, -1.33539879322052, 0.10959354043006897, -0.4221128821372986, -0.5489612817764282, -0.07955465465784073, 0.5200066566467285, -0.41659021377563477, -0.5694414973258972, -0.7742668390274048, -0.45322149991989136, -0.11114409565925598, 0.24932986497879028, -0.19187910854816437, 0.07766853272914886, -0.7120529413223267, -0.28420203924179077, -0.727283775806427, -1.0617988109588623, -0.06334060430526733, 0.1672983467578888, -0.6080472469329834, -0.22988750040531158, -0.6088365912437439, -0.3576328158378601, -1.0375715494155884, 0.6097851395606995, -0.3809240758419037, -0.6781136393547058, -0.33438873291015625, 0.8860125541687012, -0.13100764155387878, -0.49910619854927063, -1.0727900266647339, 0.5178659558296204, -0.1743464171886444, 0.563925564289093, -0.4103529751300812, -0.19393770396709442, -0.37781965732574463, -0.12936675548553467, -0.15833064913749695, -0.8334171772003174, 0.041395436972379684, 0.15921476483345032, 0.2011302411556244, 0.18153466284275055, 0.20790381729602814, -0.41666179895401, 0.5542643666267395, -0.22870895266532898, -0.33774062991142273, 0.34366458654403687, 0.24434132874011993, -0.02508402056992054, 0.026484627276659012, -0.34910306334495544, 0.450435608625412, -0.20023998618125916, 0.02672509290277958, 0.26856735348701477, 0.6780635118484497, 0.01001477986574173, 0.2952873110771179, -0.05724255368113518, 0.3734973073005676, -0.607905924320221, -0.3851113021373749, -0.32671257853507996, -0.4429689347743988, -0.5541092753410339, -0.41607576608657837, -0.5755885243415833, -1.386224627494812, -0.41793227195739746, -0.6577364206314087, -0.5128175020217896, -0.1416478306055069, -0.2820519804954529, -0.4899674952030182, -0.9501359462738037, -0.9006641507148743, -0.24181292951107025, -0.44408538937568665, -0.2408037632703781, -0.5560641884803772, -0.5812047123908997, -0.8125740885734558, -0.6238530874252319, -0.5709683895111084, -0.8629122376441956], "lstm.bias_hh_l0": [-0.3148990869522095, -0.13722962141036987, -0.4193207025527954, -0.6618603467941284, -0.11783117055892944, -0.3101661205291748, -1.3107763528823853, -0.01889808289706707, -0.42907875776290894, -0.3676474988460541, 0.057315416634082794, 0.20593544840812683, -0.47645625472068787, -0.57712322473526, -0.8932372331619263, -0.4709129333496094, -0.0860452950000763, 0.15360988676548004, -0.12229611724615097, 0.20323613286018372, -0.5875878930091858, -0.3222685158252716, -0.5339213609695435, -1.0948901176452637, -0.2531997263431549, -0.01582132652401924, -0.6377142667770386, -0.18417346477508545, -0.2615630030632019, -0.1564759761095047, -0.8781096339225769, 0.7088446617126465, -0.4326246976852417, -0.7860609889030457, -0.33845680952072144, 0.9603332877159119, 0.011613339185714722, -0.3316699266433716, -0.7681812047958374, 0.5450794696807861, -0.24814924597740173, 0.48779189586639404, -0.34951648116111755, -0.20232851803302765, -0.2174765169620514, -0.008412663824856281, -0.3198339343070984, -0.8116282820701599, 0.03982264921069145, 0.14800716936588287, 0.3168851137161255, 0.33574289083480835, 0.2693771719932556, -0.26725900173187256, 0.563141942024231, -0.03812487795948982, -0.5626298189163208, 0.32883986830711365, 0.16896748542785645, 0.19324228167533875, -0.26939815282821655, -0.30460023880004883, 0.6030162572860718, -0.2737583518028259, 0.05305463448166847, -0.03823106363415718, 0.653150200843811, 0.06470316648483276, 0.34278276562690735, 0.10638707131147385, 0.1836002618074417, -0.5487169027328491, -0.5451762080192566, -0.6242288947105408, -0.3545137047767639, -0.8172694444656372, -0.023235458880662918, -0.4907388687133789, -1.4393444061279297, -0.23651960492134094, -0.6349388360977173, -0.3949739933013916, 0.006970913615077734, -0.2038389891386032, -0.672949492931366, -0.8844693303108215, -1.0956666469573975, -0.4586186707019806, -0.728553056716919, -0.37727487087249756, -0.25902700424194336, -0.5066784024238586, -0.6490241289138794, -0.6779631972312927, -0.8078775405883789, -0.7136422395706177], "dense.weight": [[-0.15400472283363342, 0.1011839285492897, -0.01548842154443264, 0.18478348851203918, 0.07614997774362564, -0.028680900111794472, 0.11875437945127487, 0.03137275576591492, 0.03300029784440994, 0.1182015985250473, -0.07186420261859894, 0.17341698706150055, 0.014045012183487415, -0.08424417674541473, 0.07864665240049362, -0.041813917458057404, 0.0631813257932663, -0.008964491076767445, 0.19354814291000366, 0.01104988157749176, 0.2261696755886078, 0.07026857882738113, 0.19959871470928192, -0.09083359688520432]], "dense.bias": [-0.031441934406757355]}