{"lstm.weight_ih_l0": [[0.43814536929130554], [0.12400113046169281], [0.35450389981269836], [0.12161239981651306], [0.17310459911823273], [0.6314858198165894], [0.29082465171813965], [0.20015399158000946], [0.5352093577384949], [0.17023487389087677], [-0.21228550374507904], [0.694556713104248], [0.142941415309906], [-0.05735044926404953], [0.35529324412345886], [0.22111915051937103], [-0.02076191082596779], [0.35945501923561096], [-0.4870125353336334], [0.43755775690078735], [0.47340190410614014], [0.297381728887558], [-0.07167793065309525], [0.18031743168830872], [0.07263992726802826], [0.05567232519388199], [0.07174704223871231], [-0.049799080938100815], [-0.26054897904396057], [0.3776761293411255], [0.018676389008760452], [0.4346023499965668], [0.5381304025650024], [-0.0013123293174430728], [-0.18887950479984283], [0.6943594813346863], [0.3476168215274811], [-0.01529323123395443], [0.1292952299118042], [0.028101693838834763], [0.027228226885199547], [0.29800480604171753], [-0.5522196888923645], [0.3020761013031006], [0.28473976254463196], [0.1241484209895134], [-0.01350916363298893], [0.5575500726699829], [-0.5179981589317322], [0.50368732213974], [0.0682133287191391], [0.2666057348251343], [-0.6570078730583191], [-0.5070809125900269], [-0.3613385856151581], [0.2542904019355774], [-0.3418324887752533], [0.3866165578365326], [0.25400057435035706], [0.37907880544662476], [-0.17369616031646729], [-0.10704003274440765], [-0.01930234394967556], [0.019892297685146332], [-0.01127413846552372], [-0.48587068915367126], [0.01626463234424591], [-0.06271746754646301], [-0.417158842086792], [-0.5266388654708862], [-0.11916069686412811], [-0.4331112205982208], [0.6089591383934021], [-0.046067796647548676], [-0.07679674029350281], [0.18344539403915405], [0.18813300132751465], [0.20785370469093323], [0.43498337268829346], [-0.48628267645835876], [0.11315023899078369], [-0.13891158998012543], [-0.28207826614379883], [0.29954785108566284], [0.3105800151824951], [0.17693215608596802], [0.08597726374864578], [0.04841972514986992], [-0.11890628933906555], [0.3869274854660034], [-0.7767137885093689], [0.23018167912960052], [0.3534683287143707], [0.18668876588344574], [-0.2612181007862091], [-0.1011379137635231]], "lstm.weight_hh_l0": [[0.08830155432224274, -0.4258510172367096, 0.2671188414096832, 0.003046046942472458, -0.2861005663871765, 0.21477514505386353, -0.7108970880508423, 0.21851114928722382, -0.26410216093063354, 0.5908840298652649, -0.16576482355594635, 0.19884563982486725, -1.021816611289978, 0.04560522735118866, 0.5642927885055542, -0.3220769464969635, 0.514778733253479, -0.17403817176818848, -0.5384580492973328, 0.2130132019519806, -0.18124860525131226, -0.5079190731048584, 0.35618168115615845, -0.3978801965713501], [0.26600518822669983, -0.37110403180122375, 0.3855266571044922, 0.30182138085365295, -0.5187875032424927, 0.365751713514328, -0.32565051317214966, 0.2949103116989136, -0.3179657757282257, 0.24367301166057587, -0.1910926252603531, 0.24248944222927094, -0.43784233927726746, 0.7459058165550232, 0.18230180442333221, -0.613467276096344, 0.6726435422897339, -0.21285344660282135, -0.29217788577079773, 0.3428511619567871, -0.8716287612915039, -0.22599449753761292, 0.6377481818199158, -0.5280910134315491], [-0.4749555289745331, 0.6443631052970886, -0.16324861347675323, -0.5084917545318604, 0.36332181096076965, -0.2093908041715622, 0.7840050458908081, -0.4502493441104889, 0.18292053043842316, -0.7665467262268066, 0.2846250534057617, -0.16141442954540253, 0.8293812870979309, -0.2759525179862976, -0.49264150857925415, 0.5583260655403137, -0.7514810562133789, 0.4480944573879242, 0.42198652029037476, -0.43866318464279175, 0.2670096457004547, 0.5154602527618408, -0.27429434657096863, 0.3580217659473419], [0.043208666145801544, -0.26507002115249634, 0.4462035596370697, 0.17582906782627106, -0.2310468554496765, 0.18328051269054413, -0.7301000356674194, 0.500163733959198, -0.2065654993057251, 0.6824269890785217, 0.08828931301832199, 0.6047441959381104, -0.5804355144500732, 0.09123220294713974, 0.6856743097305298, -0.09141916781663895, 0.4070400297641754, -0.20797114074230194, -0.3624141216278076, 0.4967741072177887, -0.28145885467529297, -0.4191400110721588, -0.014173995703458786, -0.28624701499938965], [-0.4401785433292389, 0.5686360597610474, -0.47905486822128296, -0.46004435420036316, 0.09409307688474655, -0.17638792097568512, 0.47358939051628113, -0.41865092515945435, 0.1726282685995102, -0.5392645597457886, 0.20304308831691742, -0.22623762488365173, 0.434722363948822, -0.23772037029266357, -0.39733463525772095, 0.33846625685691833, -0.6135661005973816, 0.31098589301109314, 0.43151748180389404, -0.2149614840745926, 0.6834718585014343, 0.136827751994133, -0.5002486705780029, 0.23129896819591522], [0.12512578070163727, -0.21990670263767242, 0.33282971382141113, 0.08042687922716141, -0.11505451798439026, 0.14301840960979462, -0.858290433883667, 0.38031983375549316, -0.43391677737236023, 0.6271653771400452, 0.036572787910699844, 0.5189172625541687, -0.7387439012527466, 0.07176146656274796, 0.7069379091262817, -0.2321186512708664, 0.7465279698371887, 0.05814940482378006, -0.5485169291496277, 0.458623468875885, -0.0410597138106823, -0.385620653629303, 0.2434401512145996, -0.1538621038198471], [-0.2939324378967285, -0.48369961977005005, 0.48609453439712524, 0.17206093668937683, -0.5915786623954773, -0.12945644557476044, 0.3026992678642273, 0.5272611379623413, -0.6148950457572937, -0.20965997874736786, 0.16602841019630432, 0.3650111258029938, 0.29624077677726746, -0.19875051081180573, -0.16333426535129547, 0.07527781277894974, -0.23606112599372864, -0.018728530034422874, -0.3185510039329529, 0.38901540637016296, -0.08111633360385895, -0.47838133573532104, -0.19029316306114197, -0.5822640657424927], [-0.4948498010635376, 0.27031606435775757, -0.5267667770385742, -0.6457202434539795, 0.18385230004787445, -0.3292202651500702, 0.4182778596878052, -0.33790650963783264, 0.5303645730018616, -0.559252917766571, 0.30526331067085266, -0.38289502263069153, 0.5969006419181824, -0.364869087934494, -0.6831902861595154, 0.5656669735908508, -0.406063437461853, 0.2740776538848877, 0.35137036442756653, -0.3459961712360382, 0.3876142203807831, 0.4060611128807068, -0.4259704053401947, 0.4198601543903351], [-0.4468328058719635, 0.3466123342514038, -0.3726177513599396, -0.3228861391544342, 0.2929390072822571, -0.2582337260246277, 0.5262207388877869, -0.1863546222448349, 0.275945782661438, -0.6701151132583618, 0.14592689275741577, -0.2661304771900177, 0.8349288105964661, -0.23233778774738312, -0.5637375116348267, 0.43883299827575684, -0.722766637802124, 0.4381767809391022, 0.3022417724132538, -0.2543449401855469, 0.552800178527832, 0.5242139101028442, -0.35584279894828796, 0.2640019655227661], [0.5153358578681946, -0.5459843873977661, 0.4933827519416809, 0.5412505865097046, -0.4229564964771271, 0.6522703766822815, 0.3129706084728241, 0.4534239172935486, -0.5545245409011841, 0.2975650727748871, -0.44144922494888306, 0.2885410189628601, 0.21385179460048676, 0.5098510980606079, -0.16435694694519043, -0.116739921271801, -0.010454830713570118, -0.14940807223320007, -0.6187576651573181, 0.23887217044830322, -0.5394200086593628, -0.5839908123016357, 0.728637158870697, -0.4673820734024048], [0.018330765888094902, -0.3793465495109558, 0.3331041932106018, 0.13785602152347565, -0.2737732529640198, 0.07826440036296844, -0.6352136135101318, 0.1828182190656662, -0.3416864573955536, 0.8717133402824402, 0.023541301488876343, 0.4454891085624695, -0.5777977108955383, 0.16033223271369934, 0.9769173264503479, -0.322879821062088, 0.5627352595329285, -0.2699838876724243, -0.4263747036457062, 0.41925716400146484, -0.011203241534531116, -0.28704774379730225, 0.1928481161594391, -0.39372944831848145], [-0.5645904541015625, 0.6240341663360596, -0.2089635133743286, -0.4479009211063385, 0.16676194965839386, -0.3059065341949463, 0.719150960445404, -0.28014811873435974, 0.4283362627029419, -0.7877619862556458, 0.3804479241371155, -0.38202568888664246, 0.4942324161529541, -0.555844783782959, -0.7319874167442322, 0.4552224278450012, -0.9092406034469604, 0.5213603377342224, 0.42817503213882446, -0.2896331548690796, 0.4809856116771698, 0.42618492245674133, -0.41844654083251953, 0.42554107308387756], [-0.0849001482129097, -0.2800830006599426, 0.23592714965343475, -0.16669109463691711, -0.4637545645236969, -0.19584369659423828, -0.3145919740200043, 0.35340699553489685, -0.38332051038742065, -0.06269685178995132, -0.18740203976631165, 0.3199619948863983, -0.22451217472553253, -0.17579089105129242, 0.2638374865055084, 0.2977648675441742, -0.06211239844560623, -0.29219475388526917, -0.4704709053039551, 0.35735079646110535, 0.040206924080848694, -0.36233246326446533, -0.09910152107477188, -0.42916548252105713], [0.2725226581096649, -0.30956995487213135, 0.5058700442314148, 0.4472822844982147, -0.5057180523872375, -0.03654317185282707, -0.2629714906215668, 0.30231571197509766, -0.2548711597919464, 0.2829584777355194, -0.20404808223247528, 0.34651151299476624, -0.04737390577793121, 0.31268152594566345, 0.15192566812038422, -0.1367577761411667, -0.07973279058933258, -0.2602493166923523, -0.3087916970252991, 0.38166725635528564, 0.023335471749305725, -0.5145683288574219, 0.2778959572315216, -0.43815818428993225], [-0.09477441012859344, -0.35027244687080383, 0.4498608410358429, 0.15711785852909088, -0.4191642105579376, 0.11996176838874817, 0.22251924872398376, 0.4638713598251343, -0.35093849897384644, -0.0728173702955246, -0.08034712821245193, 0.48476043343544006, 0.2062290906906128, 0.1493385285139084, 0.05184711515903473, 0.21529200673103333, -0.012464707717299461, -0.2696598768234253, -0.2137741893529892, 0.2842541038990021, -0.21456676721572876, -0.545268177986145, 0.08522627502679825, -0.638888955116272], [0.3591617941856384, -0.8576315641403198, 0.32408609986305237, 0.4651199281215668, -0.39153116941452026, 0.7484211921691895, 0.051055025309324265, 0.21593326330184937, -0.33314648270606995, 0.36619457602500916, -0.8839805126190186, 0.2974974513053894, 0.05230473726987839, 0.05962618440389633, -0.028151048347353935, -0.013430830091238022, 0.11459831148386002, -0.34545594453811646, -0.34351179003715515, 0.4725862741470337, -0.1064290851354599, -0.18918955326080322, 0.3151167929172516, -0.3236881494522095], [-0.10948358476161957, -0.12712576985359192, 0.4167998731136322, 0.44817277789115906, -0.3192528188228607, -0.27681419253349304, -0.2548525929450989, 0.5211650133132935, -0.44672513008117676, -0.028429342433810234, -0.4475051462650299, 0.2787286639213562, -0.48542532324790955, 0.33163654804229736, 0.13572770357131958, 0.1187734603881836, -0.4558654725551605, -0.3553623557090759, -0.40086042881011963, 0.43501606583595276, -0.2537432909011841, -0.36815568804740906, -0.08661148697137833, -0.48941370844841003], [-0.7391570210456848, 0.5754417777061462, -0.5243933796882629, -0.6182141304016113, 0.1643078625202179, -0.6682848930358887, 0.42775559425354004, -0.49473837018013, 0.5429187417030334, -0.6684441566467285, 0.743226945400238, -0.4339424669742584, 0.6773816347122192, -0.6743995547294617, -0.6812249422073364, 0.7268714308738708, -0.715433657169342, 0.4488326907157898, 0.5087815523147583, -0.41093459725379944, 0.871053159236908, 0.5361449122428894, -0.8587237000465393, 0.4246719479560852], [-0.36030343174934387, 0.39107048511505127, -0.3576151430606842, -0.24117207527160645, 0.4999731481075287, -0.1904914528131485, 0.7231022715568542, -0.5471099615097046, 0.4643241763114929, -0.37744995951652527, 0.2900119423866272, -0.5648096799850464, 0.5513409972190857, -0.6074584126472473, -0.7324537634849548, 0.30046820640563965, -0.6763672828674316, 0.1905558854341507, 0.3899878263473511, -0.3002236485481262, 0.37687090039253235, 0.15752024948596954, -0.5846302509307861, 0.25437936186790466], [-0.6256909370422363, 0.46558523178100586, -0.5227376818656921, -0.7576467990875244, 0.24331364035606384, -0.7282281517982483, 0.3470284640789032, -0.47051307559013367, 0.3902193009853363, -0.39873310923576355, 0.5812946557998657, -0.1394193470478058, 0.6279271841049194, -0.451809287071228, -0.5930013656616211, 0.6829899549484253, -0.5256602764129639, 0.21842853724956512, 0.5373259782791138, -0.41288283467292786, 0.6790627837181091, 0.41367778182029724, -0.7267376780509949, 0.34652000665664673], [0.33742010593414307, -0.6272786259651184, 0.3337544798851013, 0.24933487176895142, -0.24730847775936127, 0.014262204058468342, -0.2696754038333893, 0.1882995367050171, -0.43091270327568054, 0.07910747081041336, 0.021197892725467682, 0.4286385774612427, -0.07265844941139221, 0.2724311053752899, 0.05440552160143852, -0.11467102915048599, 0.19705495238304138, -0.35431694984436035, -0.513597846031189, 0.2836400270462036, -0.15597504377365112, -0.2038789689540863, 0.09991160035133362, -0.5328631401062012], [-0.2415570318698883, 0.37512871623039246, -0.246294304728508, -0.24153536558151245, 0.28428372740745544, -0.05859117954969406, 0.6914291381835938, -0.24720314145088196, 0.26564136147499084, -0.7026544809341431, 0.35270950198173523, -0.4729261100292206, 0.5097535848617554, -0.6139039397239685, -0.5242522358894348, 0.42403078079223633, -0.501413106918335, 0.23830826580524445, 0.4158773124217987, -0.23130755126476288, 0.6189185976982117, 0.5076625943183899, -0.3264133036136627, 0.34768590331077576], [0.32982802391052246, -0.2446913868188858, 0.24238745868206024, 0.12575732171535492, -0.3346087634563446, 0.13169822096824646, -0.40591350197792053, 0.32311227917671204, -0.5412664413452148, 0.2822343409061432, 0.00013202373520471156, 0.32242295145988464, -0.515251874923706, 0.27657920122146606, 0.5881313681602478, -0.19557549059391022, 0.2384757399559021, -0.23943108320236206, -0.3412955701351166, 0.15439251065254211, -0.33233827352523804, -0.4845190644264221, 0.40625208616256714, -0.22189389169216156], [-0.4834294021129608, 0.39366909861564636, -0.3292214274406433, -0.48024922609329224, 0.2743518352508545, -0.29064053297042847, 0.6109846234321594, -0.5163167715072632, 0.5443633198738098, -0.417244553565979, 0.217381551861763, -0.19591686129570007, 0.5725022554397583, -0.6293269395828247, -0.4800206124782562, 0.4178454875946045, -0.5498172640800476, 0.42284494638442993, 0.5183529257774353, -0.32562708854675293, 0.48414480686187744, 0.5255721807479858, -0.4470216929912567, 0.5337799191474915], [-0.08931460231542587, -0.39559030532836914, 0.5707017183303833, -0.04932611063122749, -0.4711727499961853, 0.1625341773033142, -0.8593215346336365, 0.25266993045806885, -0.47189533710479736, 0.8616465330123901, -0.17730039358139038, 0.4195044934749603, -0.6280538439750671, 0.15943479537963867, 0.6492920517921448, -0.03942786902189255, 0.6398372650146484, 0.029649948701262474, -0.28252285718917847, 0.3412463963031769, -0.3870270252227783, -0.1125003919005394, 0.14103958010673523, -0.3384959399700165], [0.18535427749156952, -0.08166269958019257, 0.33797919750213623, 0.3481781482696533, -0.2660410702228546, 0.040930405259132385, -0.6091925501823425, 0.2815934121608734, -0.5584902763366699, 0.23748905956745148, -0.16064192354679108, 0.6189815402030945, -0.45117053389549255, 0.5191429257392883, 0.44690820574760437, -0.1352131962776184, 0.2746228873729706, -0.11793077737092972, -0.5328394174575806, 0.3187122046947479, -0.5887601375579834, -0.24729354679584503, 0.5118693709373474, -0.5265991687774658], [-0.6048381328582764, 0.6700419187545776, -0.5482093691825867, -0.5121160745620728, 0.3237776458263397, -0.27261969447135925, 0.48049160838127136, -0.380073219537735, 0.41290679574012756, -0.4565567970275879, 0.25277167558670044, -0.3407493531703949, 0.6799366474151611, -0.42606058716773987, -0.47258466482162476, 0.7583706378936768, -0.6072183847427368, 0.1860429048538208, 0.43936190009117126, -0.52412348985672, 0.6811966300010681, 0.24690547585487366, -0.642092764377594, 0.2186916470527649], [0.27507585287094116, -0.23255300521850586, 0.5461965799331665, -0.11473064124584198, -0.47451046109199524, 0.20669034123420715, -0.867329478263855, 0.5590893030166626, -0.6332206726074219, 0.745553195476532, 0.10192898660898209, 0.41190052032470703, -0.5558192729949951, -0.09116892516613007, 0.7847782373428345, 0.03174690902233124, 0.39087092876434326, -0.22995078563690186, -0.4535798728466034, 0.4824118912220001, -0.04405177757143974, -0.4353405237197876, -0.03228702396154404, -0.4480363428592682], [-0.556498110294342, 0.630302369594574, -0.196851447224617, -0.6622308492660522, 0.4411792457103729, -0.6375256180763245, 0.5149447321891785, -0.2574863135814667, 0.4596271812915802, -0.45914992690086365, 0.3766773045063019, -0.20823951065540314, 0.5550246834754944, -0.5918000340461731, -0.4558051526546478, 0.3367619514465332, -0.5610962510108948, 0.20763802528381348, 0.33540078997612, -0.350456565618515, 0.35506656765937805, 0.44141802191734314, -0.5158979296684265, 0.5438173413276672], [-0.10549230873584747, -0.10854419320821762, 0.4613499641418457, -0.07084918767213821, -0.5008350610733032, 0.12787874042987823, -0.7493734955787659, 0.4708172082901001, -0.2747456133365631, 0.6265404224395752, -0.09097437560558319, 0.45418453216552734, -0.6305046677589417, 0.01455956045538187, 0.7345314025878906, -0.08590100705623627, 0.3445928394794464, 0.07706576585769653, -0.588070273399353, 0.18089032173156738, -0.0624743290245533, -0.18969590961933136, 0.20967403054237366, -0.15388447046279907], [-0.11857286095619202, -0.582932710647583, 0.5123432278633118, 0.023731335997581482, -0.747570812702179, 0.0024786358699202538, 0.24588565528392792, 0.195781871676445, -0.44107291102409363, -0.11180837452411652, -0.15239496529102325, 0.29878902435302734, 0.2747277021408081, -0.21511583030223846, -0.1176871508359909, 0.32755035161972046, -0.3452676236629486, 0.05228714644908905, -0.34216922521591187, 0.34587952494621277, 0.04445498809218407, -0.6878981590270996, -0.23840661346912384, -0.4102432131767273], [-0.5554731488227844, 0.6655231714248657, -0.522018313407898, -0.5000124573707581, 0.2851399779319763, -0.4769478142261505, 0.7565796375274658, -0.3449844419956207, 0.25705182552337646, -0.3670614957809448, 0.5115399360656738, -0.2698093056678772, 0.6008306741714478, -0.5153637528419495, -0.5625609755516052, 0.3771214187145233, -0.4595794379711151, 0.44265106320381165, 0.2279089242219925, -0.2552857995033264, 0.6581132411956787, 0.3875540792942047, -0.4401126801967621, 0.18535116314888], [-0.42558038234710693, 0.48581549525260925, -0.28084105253219604, -0.39538511633872986, 0.34870287775993347, -0.43037593364715576, 0.5678235292434692, -0.19971370697021484, 0.4479881227016449, -0.6065468788146973, 0.2719961702823639, -0.1506642997264862, 0.7002732157707214, -0.3695659041404724, -0.7191498279571533, 0.4251635670661926, -0.5771774053573608, 0.35869571566581726, 0.475827157497406, -0.21112658083438873, 0.6284746527671814, 0.18449759483337402, -0.40571409463882446, 0.543455958366394], [0.23350180685520172, -0.3030272126197815, 0.1328696310520172, 0.3834332823753357, -0.24906976521015167, 0.5615346431732178, 0.3618564307689667, 0.4796980619430542, -0.2522013485431671, -0.11666826158761978, -0.3685483932495117, 0.3186773955821991, 0.1165015920996666, 0.5163390040397644, -0.5012513399124146, -0.010476638562977314, -0.12959691882133484, -0.13317319750785828, -0.44978761672973633, 0.5233128666877747, -0.5558254718780518, -0.5172061324119568, 0.8853304982185364, -0.4502416253089905], [0.26357501745224, -0.5061502456665039, 0.6612379550933838, 0.1615765243768692, -0.26611876487731934, -0.12365587800741196, -0.6524953842163086, 0.3665580451488495, -0.274930477142334, 1.098785638809204, -0.21622081100940704, 0.3363094627857208, -0.7366233468055725, 0.032033633440732956, 0.7464581727981567, -0.01399756409227848, 0.6218718886375427, -0.21773187816143036, -0.2948007583618164, 0.5380591154098511, -0.17350007593631744, -0.6053260564804077, 0.061101239174604416, -0.287832111120224], [-0.5520907640457153, 0.4767122268676758, -0.1848147064447403, -0.36820733547210693, 0.3771806061267853, -0.30703821778297424, 0.4053070843219757, -0.30492252111434937, 0.20165809988975525, -0.5945209264755249, 0.5696719288825989, -0.2626039683818817, 0.49760913848876953, -0.4835266172885895, -0.7419608235359192, 0.624157726764679, -0.8560639023780823, 0.25620174407958984, 0.27018705010414124, -0.23030339181423187, 0.6580386757850647, 0.4540523588657379, -0.6539225578308105, 0.5374716520309448], [-0.2619800567626953, -0.07761523127555847, 0.31477370858192444, 0.06469397991895676, -0.5344269871711731, 0.05602981522679329, -0.10921980440616608, 0.18199793994426727, -0.25870469212532043, -0.19392257928848267, 0.17216694355010986, 0.522783637046814, -0.16678664088249207, -0.404811292886734, 0.053833458572626114, 0.34882673621177673, -0.07468612492084503, -0.20357313752174377, -0.5348115563392639, 0.4162536561489105, 0.43802934885025024, -0.6447127461433411, -0.4804571866989136, -0.4779874384403229], [0.022022856399416924, -0.2655169367790222, 0.23368553817272186, -0.0011183213209733367, -0.6741708517074585, 0.16483452916145325, -0.07138993591070175, 0.5168049335479736, -0.46991631388664246, 0.06631286442279816, -0.1480276733636856, 0.39675605297088623, -0.2447354942560196, 0.115637868642807, 0.1991569846868515, 0.23213854432106018, -0.007942039519548416, -0.1122758686542511, -0.1925489455461502, 0.5092203617095947, 0.25151970982551575, -0.40056684613227844, 0.14623461663722992, -0.48087814450263977], [-0.036316730082035065, -0.4624674320220947, 0.48185476660728455, 0.0013414773857221007, -0.5729492902755737, -0.20248828828334808, 0.3296574354171753, 0.23349983990192413, -0.5437021851539612, -0.08212323486804962, -0.010586448013782501, 0.29752713441848755, 0.006430492270737886, -0.11644423007965088, -0.18436722457408905, 0.23706942796707153, -0.2641388773918152, -0.22515477240085602, -0.3588176369667053, 0.32313409447669983, 0.2639119029045105, -0.6510318517684937, -0.04690498858690262, -0.6043967008590698], [0.3802882432937622, -0.9888431429862976, 0.3110397458076477, 0.37538042664527893, -0.6091316938400269, 0.8165818452835083, 0.2814871072769165, 0.32684314250946045, -0.4905262291431427, -0.019206250086426735, -0.6016408205032349, 0.5230221748352051, 0.007686131168156862, -0.06559894979000092, 0.06950315833091736, 0.061572350561618805, 0.02619924768805504, -0.05289768427610397, -0.32236939668655396, 0.08160276710987091, 0.015559195540845394, -0.3026239573955536, 0.03969898447394371, -0.40393340587615967], [-0.34758853912353516, 0.004681529477238655, 0.28866657614707947, 0.17820589244365692, -0.4212373197078705, -0.2533121407032013, -0.21355336904525757, 0.398538202047348, -0.2621983587741852, -0.0372854508459568, -0.19397638738155365, 0.5111711621284485, -0.19283311069011688, 0.14233557879924774, -0.06424947082996368, 0.03290126472711563, -0.5608664155006409, -0.44303223490715027, -0.2307250201702118, 0.217420756816864, 0.0006273832987062633, -0.5107521414756775, -0.23698072135448456, -0.39071381092071533], [-0.6900849938392639, 0.41269418597221375, -0.18146811425685883, -0.7398205399513245, 0.5225630402565002, -0.7001217007637024, 0.5586230158805847, -0.2585248053073883, 0.4827316105365753, -0.6181902885437012, 0.5947698950767517, -0.1980171501636505, 0.6795845627784729, -0.7803086042404175, -0.5211824178695679, 0.5537318587303162, -0.7200348377227783, 0.1496482640504837, 0.3542795181274414, -0.2515801191329956, 0.7148500084877014, 0.2733308970928192, -0.8165828585624695, 0.14123386144638062], [-0.5243071913719177, 0.7287715673446655, -0.3299197852611542, -0.47927436232566833, 0.39767661690711975, -0.37140747904777527, 0.5995368361473083, -0.5481054186820984, 0.18738298118114471, -0.4439975917339325, 0.3902372419834137, -0.33912622928619385, 0.772725522518158, -0.4180905818939209, -0.6824372410774231, 0.71502685546875, -0.6078647971153259, 0.3696770966053009, 0.3856087028980255, -0.4788872003555298, 0.7346419095993042, 0.18589632213115692, -0.47808703780174255, 0.3940783143043518], [-0.5764368772506714, 0.6789286136627197, -0.44019848108291626, -0.6601744890213013, 0.21426379680633545, -0.6531999707221985, 0.5001620650291443, -0.22279392182826996, 0.4664718806743622, -0.7382569313049316, 0.5645692348480225, -0.1372162401676178, 0.5950694680213928, -0.4187871515750885, -0.5321978330612183, 0.6404358744621277, -0.6960285902023315, 0.5402819514274597, 0.20433573424816132, -0.39582258462905884, 0.47364166378974915, 0.4426153302192688, -0.7097693085670471, 0.1580507606267929], [0.1031820997595787, -0.5979757308959961, 0.5652583837509155, 0.20169800519943237, -0.6528427600860596, 0.2822403907775879, 0.08402465283870697, 0.3690783977508545, -0.35662707686424255, -0.1680753380060196, -0.22487741708755493, 0.3609176278114319, -0.19848453998565674, 0.09589294344186783, 0.18281152844429016, 0.2471049427986145, 0.1894484907388687, -0.17666514217853546, -0.2245158553123474, 0.3884391784667969, -0.10378993302583694, -0.35144832730293274, -0.152031809091568, -0.5633652806282043], [-0.436214804649353, 0.5251797437667847, -0.539452314376831, -0.4902946949005127, 0.3862595856189728, -0.2648696303367615, 0.4785844683647156, -0.5461486577987671, 0.27240070700645447, -0.6847090125083923, 0.23388279974460602, -0.49946507811546326, 0.7942826151847839, -0.6780053377151489, -0.5651944279670715, 0.4741256535053253, -0.7850143909454346, 0.36199817061424255, 0.4774492084980011, -0.28425782918930054, 0.37221306562423706, 0.37396347522735596, -0.45699912309646606, 0.45706188678741455], [0.06332074850797653, -0.13319198787212372, 0.526988685131073, 0.2351638376712799, -0.5040075778961182, 0.0336446650326252, -0.3756107985973358, 0.5298765301704407, -0.35894542932510376, 0.5106943845748901, -0.16183970868587494, 0.438539057970047, -0.4385472238063812, -0.043845273554325104, 0.6638270616531372, -0.045341331511735916, 0.17799165844917297, -0.26001736521720886, -0.45336857438087463, 0.22276434302330017, -0.10051652789115906, -0.29136884212493896, 0.2984916865825653, -0.23506969213485718], [-0.7219351530075073, 0.7408751845359802, -0.3396364152431488, -0.4121933579444885, 0.5421528816223145, -0.32970818877220154, 0.5922497510910034, -0.49639075994491577, 0.16594460606575012, -0.6343473196029663, 0.5355058312416077, -0.2234993726015091, 0.6679781079292297, -0.6458842754364014, -0.785878598690033, 0.3761303424835205, -0.6043211817741394, 0.47483396530151367, 0.20639902353286743, -0.37862858176231384, 0.49884510040283203, 0.1666942685842514, -0.43073877692222595, 0.49768170714378357], [-0.4317454993724823, 0.5335068702697754, 0.6750442981719971, -0.5554328560829163, -0.4110117256641388, -0.5410557985305786, -0.2966219186782837, 0.5517369508743286, -0.5743649005889893, 0.016761625185608864, 0.7770618200302124, 0.5389220118522644, 0.0031693875789642334, -0.12573906779289246, 0.4256837069988251, 0.2785830795764923, 0.2663806080818176, -0.9077377319335938, -0.8141410946846008, 0.7841569185256958, 0.17083780467510223, -0.6771181225776672, -0.3470565974712372, -0.8327930569648743], [0.2864293158054352, -0.5374435782432556, -0.7944386601448059, 0.23683759570121765, 0.3406355381011963, 0.8019158840179443, 0.28591591119766235, -0.7680202722549438, 0.4867246747016907, -0.08053471893072128, -0.8104276061058044, -0.5114155411720276, 0.32259318232536316, -0.06082906201481819, -0.5559390783309937, -0.4418677091598511, -0.18525384366512299, 0.8490973711013794, 0.8910502195358276, -1.000817894935608, -0.0616326779127121, 0.7280851602554321, 0.43290361762046814, 0.5816584825515747], [-0.6800939440727234, 0.6984923481941223, -0.5481135845184326, -0.7708055973052979, 0.24729642271995544, -0.7817532420158386, 0.2346520721912384, -0.1211831197142601, 0.35464003682136536, -0.4517187476158142, 0.8111552596092224, -0.4960192143917084, 0.34172114729881287, -0.7088668346405029, -0.4210132658481598, 0.649326741695404, -0.5265653133392334, 0.18232721090316772, 0.1889507919549942, -0.27618223428726196, 0.4200660288333893, 0.4754762649536133, -0.6627828478813171, 0.3953838348388672], [-0.2704443335533142, 0.350551962852478, 0.8471147418022156, -0.3786781132221222, -0.5108281970024109, -0.5163292288780212, -0.1275072693824768, 1.0398435592651367, -0.6828734278678894, 0.06330494582653046, 0.44758787751197815, 0.6066808700561523, 0.2198581099510193, -0.4706538915634155, 0.034542426466941833, 0.8429509401321411, 0.15621916949748993, -0.6064992547035217, -0.8649904131889343, 0.974372386932373, 0.4420245289802551, -0.552577793598175, -0.3697717487812042, -0.7492155432701111], [0.5381708741188049, -0.7039819955825806, 0.2928232252597809, 0.44512391090393066, -0.42583003640174866, 0.2686651945114136, -0.5155856609344482, 0.47056159377098083, -0.4923420548439026, 0.4572528600692749, -0.6262662410736084, 0.43033406138420105, -0.6629127860069275, 0.667892575263977, 0.37711822986602783, -0.7101423144340515, 0.41184601187705994, -0.3730151951313019, -0.5325602293014526, 0.37032124400138855, -0.5481022596359253, -0.3585624098777771, 0.6663240194320679, -0.4992263615131378], [-0.39760226011276245, 0.5074130296707153, 0.483486533164978, -0.3599749803543091, -0.40221089124679565, -0.3796750605106354, -0.5103134512901306, 0.8713693022727966, -0.7321100831031799, 0.2988014221191406, 0.47441017627716064, 0.595215380191803, -0.051665909588336945, -0.15765804052352905, 0.39485788345336914, 0.5199388861656189, 0.5299502611160278, -0.6151993870735168, -0.5643885135650635, 0.7863774299621582, -0.01231924444437027, -0.5880017876625061, -0.34546414017677307, -0.46765029430389404], [0.2007436901330948, -0.04708194360136986, -0.6119315028190613, -0.05544688180088997, 0.2952929139137268, 0.0710340067744255, -0.3638928532600403, -0.8089280128479004, 0.4924895465373993, 0.5848578810691833, -0.2939140200614929, -0.4565246105194092, -0.5271379351615906, 0.1687726080417633, 0.4443802535533905, -0.41659802198410034, 0.05981084331870079, 0.19862930476665497, 0.3642987608909607, -0.552788496017456, -0.38304612040519714, 0.551801323890686, -0.02871900610625744, 0.7387412786483765], [-0.6524748206138611, 0.9829281568527222, -0.36700499057769775, -0.839217483997345, 0.19832991063594818, -0.6830805540084839, 0.3581604063510895, -0.1965743452310562, 0.42758211493492126, -0.48311302065849304, 0.9574782252311707, -0.32081347703933716, 0.42390090227127075, -0.6200839877128601, -0.29242438077926636, 0.5875133872032166, -0.4195972681045532, 0.389018714427948, 0.31977835297584534, -0.3811507821083069, 0.4443266987800598, 0.17362017929553986, -0.764468789100647, 0.31706008315086365], [0.6647801995277405, -0.7294341921806335, 0.5299645662307739, 0.7564437985420227, -0.21450431644916534, 0.6398788690567017, -0.08503440767526627, 0.16981586813926697, -0.4077875316143036, 0.698767900466919, -0.8319587707519531, 0.2482806146144867, -0.2072143852710724, 0.5773266553878784, 0.39188602566719055, -0.530686616897583, 0.12224351614713669, -0.19912663102149963, -0.22273807227611542, 0.37932273745536804, -0.43715324997901917, -0.3144032955169678, 0.8192130327224731, -0.15131504833698273], [-0.7877241373062134, 0.5971701145172119, 0.8498362302780151, -0.5344265699386597, -0.6280843615531921, -0.6871323585510254, 0.4624514579772949, 0.6549039483070374, -0.6640194058418274, -0.47865429520606995, 0.8839371800422668, 0.39063552021980286, 0.44712960720062256, -0.3527330160140991, -0.5149624943733215, 0.6076678037643433, -0.40275096893310547, -0.8601464033126831, -0.5912867784500122, 0.6383668184280396, 0.2042815089225769, -0.8781090378761292, -0.42971161007881165, -0.7008581757545471], [0.062154196202754974, 0.2389908730983734, -0.7406608462333679, 0.10896673798561096, 0.3694165349006653, 0.08124423772096634, 0.18360725045204163, -0.6977037191390991, 0.37811824679374695, -0.6037610769271851, -0.2232082486152649, -0.36021241545677185, 0.04140143096446991, 0.5139725804328918, -0.06594561785459518, -0.6462327837944031, -0.29013243317604065, 0.7428911328315735, 0.6560481190681458, -0.7120972275733948, -0.2470240741968155, 0.5935276746749878, 0.057494644075632095, 0.6033914685249329], [-0.18446633219718933, 0.5109109878540039, -0.3984352946281433, -0.5801510214805603, 0.3923582434654236, -0.3356199264526367, 0.30493125319480896, -0.33124732971191406, 0.2118135690689087, -0.27381661534309387, 0.6832961440086365, -0.5680700540542603, 0.4634946584701538, -0.8339993357658386, -0.47086942195892334, 0.49423888325691223, -0.29870012402534485, 0.2784201502799988, 0.539448618888855, -0.4998428523540497, 0.4557684659957886, 0.24318039417266846, -0.38987797498703003, 0.41384628415107727], [-0.12838734686374664, 0.15551920235157013, -0.6508272290229797, -0.5767613649368286, 0.4734402000904083, -0.12568189203739166, -0.48853951692581177, -0.4197199046611786, 0.39334553480148315, 0.31593939661979675, 0.12066993862390518, -0.42525598406791687, -0.4684143662452698, -0.07369628548622131, 0.4351046085357666, -0.4313015937805176, -0.00760954525321722, 0.4930799603462219, 0.6809704899787903, -0.44160205125808716, -0.14239341020584106, 0.47030749917030334, 0.09144874662160873, 0.5296897292137146], [0.08879411220550537, -0.6966214776039124, 0.7001043558120728, -0.25476762652397156, -0.3711784780025482, 0.14430898427963257, -0.026707075536251068, 0.7420197129249573, -0.6695903539657593, 0.138624370098114, 0.2073616087436676, 0.5800169706344604, 0.06654205173254013, -0.7077896595001221, 0.06990014016628265, 0.24255016446113586, -0.10939613729715347, -0.43596839904785156, -0.5265971422195435, 0.5737310647964478, 0.572492241859436, -0.3833034038543701, -0.08862795680761337, -0.48915091156959534], [-0.271373987197876, 0.03898504376411438, 0.5766655802726746, -0.021045096218585968, -0.6034064888954163, 0.021599946543574333, 0.3530394434928894, 0.5356513261795044, -0.5707862973213196, -0.21478286385536194, 0.08109150826931, 0.5423799157142639, 0.3900330364704132, -0.4540090262889862, -0.6498513221740723, 0.512127161026001, -0.3187885284423828, -0.5536892414093018, -0.5059239268302917, 0.622655987739563, 0.3027922511100769, -0.3513171076774597, -0.30487680435180664, -0.5614896416664124], [-0.4764840304851532, 0.7001749277114868, -0.4493713080883026, -0.5308189988136292, 0.5507296323776245, -0.5898258090019226, -0.47699642181396484, -0.5842510461807251, 0.5112358331680298, -0.02804076299071312, 0.42416325211524963, -0.5221205353736877, -0.3594004213809967, 0.08355849981307983, 0.2948155105113983, -0.15326155722141266, 0.010204335674643517, 0.4077211916446686, 0.6077080965042114, -0.4522814452648163, -0.07242461293935776, 0.6751282811164856, -0.014475860632956028, 0.5039229393005371], [-0.8772580623626709, 0.4761680066585541, 0.47753360867500305, -0.6117570996284485, -0.6374592185020447, -0.8508936166763306, 0.3003216087818146, 0.6268603205680847, -0.587385356426239, -0.6059181690216064, 0.5783222913742065, 0.5166508555412292, 0.35862675309181213, -0.12981244921684265, 0.09745533764362335, 0.44027671217918396, -0.7872149348258972, -0.782939076423645, -0.49766620993614197, 0.6554750204086304, 0.584162712097168, -0.7398068904876709, -0.8197605609893799, -0.8354957699775696], [0.8715136051177979, -0.837118923664093, 0.05461261048913002, 0.8224777579307556, 0.07804208993911743, 0.6611746549606323, -0.3198385238647461, 0.19774341583251953, -0.3878951966762543, 0.7086561322212219, -0.6196223497390747, 0.03455761447548866, -0.45434996485710144, 0.9458959698677063, 0.50546795129776, -0.7662827372550964, 0.4137212336063385, -0.17251910269260406, -0.30303019285202026, 0.1948641538619995, -0.7446917295455933, -0.038219280540943146, 0.6941313147544861, -0.05435663461685181], [0.8513687252998352, -0.9306522607803345, 0.4222027659416199, 0.6556134819984436, -0.32125189900398254, 1.043052077293396, -0.2064436376094818, 0.4569729268550873, -0.4241180121898651, 0.6997029781341553, -1.0210702419281006, 0.24214352667331696, -0.175653874874115, 0.49274829030036926, 0.25717276334762573, -0.4661501348018646, 0.6202942728996277, -0.41224727034568787, -0.27835923433303833, 0.3143037259578705, -0.3155016005039215, -0.29187947511672974, 0.5906323194503784, -0.3597702383995056], [-0.8750064373016357, 1.011061191558838, -0.19087129831314087, -0.9318597912788391, 0.25328272581100464, -0.9299577474594116, 0.19538533687591553, -0.3694341480731964, 0.308102548122406, -0.43784281611442566, 0.9931684732437134, -0.3333768844604492, 0.08410298824310303, -0.47460314631462097, 0.05875258892774582, 0.6699295043945312, -0.6749687790870667, 0.3409245014190674, 0.13332229852676392, -0.3662269115447998, 0.5759344100952148, 0.18927940726280212, -0.5711246728897095, 0.26801252365112305], [0.17653928697109222, 0.06275969743728638, -0.6947527527809143, 0.2509887218475342, 0.3735639750957489, 0.4040476679801941, 0.024655813351273537, -0.6637772917747498, 0.6712107062339783, -0.02295016124844551, -0.35573047399520874, -0.3850001394748688, -0.10397126525640488, 0.4926516115665436, -0.15584884583950043, -0.6795997619628906, 0.15254484117031097, 0.5422595143318176, 0.5651254653930664, -0.6768175363540649, -0.46586668491363525, 0.7296030521392822, 0.3978443443775177, 0.7780064940452576], [0.4126942455768585, -0.7397920489311218, 0.37829524278640747, 0.8260931372642517, -0.2250579446554184, 0.6758593916893005, -0.45132991671562195, 0.38391512632369995, -0.5438048839569092, 0.4634541869163513, -0.6491168737411499, 0.4762910008430481, -0.7503926157951355, 0.8335591554641724, 0.48100584745407104, -0.7357084155082703, 0.4671171307563782, -0.22382591664791107, -0.35976794362068176, 0.3112643361091614, -0.6171517968177795, -0.465589702129364, 0.7240245342254639, -0.1501498520374298], [-0.3299233913421631, -0.02415819838643074, 0.8803253769874573, -0.27088502049446106, -0.7403836846351624, -0.3375001847743988, 0.09590818732976913, 0.42942121624946594, -0.8342061638832092, 0.21108458936214447, 0.3430037200450897, 0.49052780866622925, -0.10180968791246414, -0.5822062492370605, 0.39418885111808777, 0.49886929988861084, -0.3507646322250366, -0.4646655023097992, -0.6451433300971985, 0.7943994402885437, 0.8680858612060547, -0.6962108612060547, -0.8100176453590393, -0.5034807920455933], [0.5684381127357483, -0.8026062250137329, 0.30219268798828125, 0.7936134338378906, -0.3138732314109802, 0.4599900245666504, -0.4569622576236725, 0.26561033725738525, -0.13295333087444305, 0.4536356031894684, -1.008896827697754, 0.2503988444805145, -0.553839385509491, 0.9022509455680847, 0.48239901661872864, -0.9931836724281311, 0.31712570786476135, -0.37363961338996887, -0.17303355038166046, 0.2878290116786957, -0.5979962348937988, -0.22682660818099976, 0.6529385447502136, -0.3516623377799988], [0.08399879187345505, -0.3219985067844391, 0.5485110282897949, 0.12398997694253922, -0.23989905416965485, 0.1642795354127884, -0.8059898018836975, 0.42137041687965393, -0.43515846133232117, 0.5879307389259338, 0.10191718488931656, 0.57180255651474, -0.6684616804122925, 0.13260667026042938, 0.7911607623100281, -0.3126550316810608, 0.44320958852767944, -0.13117101788520813, -0.5430013537406921, 0.09663356840610504, -0.4381454288959503, -0.47077712416648865, 0.2172771692276001, -0.44416821002960205], [0.34796538949012756, -0.3937087953090668, 0.29932790994644165, 0.3443632423877716, -0.5601312518119812, 0.18235036730766296, -0.6888840794563293, 0.28688183426856995, -0.3348795175552368, 0.21283096075057983, -0.3967813551425934, 0.5035980939865112, -0.571122407913208, 0.5685002207756042, 0.0833297148346901, -0.3241371810436249, 0.4823378026485443, -0.3859187662601471, -0.2933492064476013, 0.30225351452827454, -0.7451159358024597, -0.22531874477863312, 0.873318612575531, -0.21298488974571228], [-0.5128515362739563, 0.3376551866531372, -0.45610418915748596, -0.36686623096466064, 0.3832646608352661, -0.22493180632591248, 0.5068943500518799, -0.26332035660743713, 0.17763888835906982, -0.5505935549736023, 0.34432661533355713, -0.3634405732154846, 0.6500802636146545, -0.4895974099636078, -0.8483193516731262, 0.5462322235107422, -0.6786743402481079, 0.15739957988262177, 0.22921323776245117, -0.35144808888435364, 0.3381589353084564, 0.23838737607002258, -0.50444495677948, 0.5505250096321106], [0.0414845235645771, -0.3203883469104767, 0.5319227576255798, 0.12666639685630798, -0.2857322096824646, 0.3136841058731079, -0.6413915157318115, 0.24153214693069458, -0.34387409687042236, 0.6136266589164734, 0.06674119830131531, 0.2507084906101227, -0.6786607503890991, 0.1287192851305008, 0.7386201620101929, -0.1052602082490921, 0.6466394662857056, -0.43682992458343506, -0.31853532791137695, 0.501528263092041, -0.35897910594940186, -0.22901372611522675, -0.01613057591021061, -0.46238818764686584], [-0.5961807370185852, 0.3929561972618103, -0.2049727737903595, -0.48640164732933044, 0.11173665523529053, -0.5213515758514404, 0.7967036366462708, -0.2179378718137741, 0.14549292623996735, -0.6121814250946045, 0.2451976239681244, -0.2390579730272293, 0.4990907907485962, -0.42029544711112976, -0.42737650871276855, 0.4779824912548065, -0.7723806500434875, 0.5122968554496765, 0.32556262612342834, -0.5878592729568481, 0.5813767313957214, 0.3998976945877075, -0.34272482991218567, 0.3072522282600403], [0.09306704252958298, -0.04625343531370163, 0.6220924258232117, 0.20391544699668884, -0.37211424112319946, 0.2202526032924652, -0.90362548828125, 0.20474852621555328, -0.5111340880393982, 0.7499931454658508, -0.14372503757476807, 0.2623709440231323, -0.7033425569534302, 0.29941996932029724, 0.44956114888191223, -0.09769408404827118, 0.537112832069397, 0.06877422332763672, -0.2876735329627991, 0.34270334243774414, -0.09135439991950989, -0.1267268806695938, 0.34184253215789795, -0.2701902389526367], [-0.09035906195640564, -0.29904648661613464, 0.5395035743713379, 0.09167471528053284, -0.576288104057312, 0.20218655467033386, -0.10367850214242935, 0.17743101716041565, -0.3229948878288269, -0.14286470413208008, -0.17150971293449402, 0.454818993806839, 0.15133023262023926, 0.09493578225374222, -0.0643085390329361, 0.1318139135837555, -0.07555440813302994, -0.25726574659347534, -0.2505331039428711, 0.3437263071537018, 0.09655306488275528, -0.4114462733268738, 0.024835053831338882, -0.3361651301383972], [-0.3640731871128082, 0.6016190648078918, -0.40347373485565186, -0.5306747555732727, 0.4113391935825348, -0.17244984209537506, 0.3843831419944763, -0.1532067209482193, 0.4696182608604431, -0.6680785417556763, 0.6389617323875427, -0.5510340332984924, 0.4735868573188782, -0.5865494012832642, -0.4936462640762329, 0.41295936703681946, -0.4983915686607361, 0.26684027910232544, 0.314704030752182, -0.3477259874343872, 0.691412091255188, 0.45651018619537354, -0.6694620251655579, 0.17706550657749176], [-0.4577268660068512, 0.49226927757263184, -0.3693087100982666, -0.5631775259971619, 0.25106123089790344, -0.20884238183498383, 0.787912905216217, -0.5164853930473328, 0.2862392067909241, -0.6437034606933594, 0.29160675406455994, -0.2892117202281952, 0.7056006193161011, -0.30064576864242554, -0.6302356123924255, 0.6595410108566284, -0.7667019367218018, 0.34446385502815247, 0.4158516526222229, -0.18482325971126556, 0.4726974666118622, 0.5577489733695984, -0.4673750102519989, 0.3814413845539093], [0.4388865828514099, -0.44729742407798767, 0.47206708788871765, 0.37604382634162903, -0.3040047287940979, 0.31536731123924255, -0.024595262482762337, 0.21247117221355438, -0.49729788303375244, -0.06400943547487259, -0.5332156419754028, 0.4806104898452759, 0.10188513249158859, 0.5282842516899109, -0.3344576358795166, 0.000662964943330735, -0.17215146124362946, -0.35395383834838867, -0.4796440601348877, 0.43521323800086975, -0.47406744956970215, -0.25517165660858154, 0.8549979329109192, -0.4739118218421936], [0.20305699110031128, -0.6951931715011597, 0.3740082383155823, 0.2605687081813812, -0.42697539925575256, 0.15283282101154327, -0.6164896488189697, 0.4036927819252014, -0.29742032289505005, 0.8463377356529236, -0.11974422633647919, 0.4161597490310669, -0.9676295518875122, 0.29328373074531555, 0.6108996868133545, -0.1214134693145752, 0.7417622208595276, -0.37288182973861694, -0.40541619062423706, 0.25444480776786804, -0.31127017736434937, -0.4386603832244873, 0.3169352114200592, -0.44604071974754333], [-0.3344089686870575, 0.6322973370552063, -0.34251710772514343, -0.45932501554489136, 0.2766134440898895, -0.17050136625766754, 0.4476079046726227, -0.4059593081474304, 0.4106072783470154, -0.42413970828056335, 0.4829218089580536, -0.3445664346218109, 0.5988471508026123, -0.5953305959701538, -0.7859732508659363, 0.6636256575584412, -0.8891887068748474, 0.1788250356912613, 0.47874370217323303, -0.32673323154449463, 0.5639206171035767, 0.25167012214660645, -0.5154914855957031, 0.4720844030380249], [-0.09984582662582397, -0.06223173812031746, 0.5763064622879028, -0.07055633515119553, -0.5679284334182739, -0.21046049892902374, -0.12823140621185303, 0.4708346426486969, -0.3140558898448944, 0.0644831508398056, 0.08571593463420868, 0.2871355712413788, -0.33108359575271606, 0.08287845551967621, 0.4684949517250061, 0.2457266002893448, -0.3039895296096802, -0.23028434813022614, -0.19348008930683136, 0.28130707144737244, 0.33258557319641113, -0.6507270336151123, -0.09045396000146866, -0.6015805602073669], [0.33751705288887024, -0.23030591011047363, 0.38498979806900024, 0.4099762439727783, -0.2844502627849579, 0.19793058931827545, -0.18626593053340912, 0.20872700214385986, -0.24299368262290955, 0.31083670258522034, -0.16785083711147308, 0.42402899265289307, -0.34825900197029114, 0.3649183511734009, 0.2985610067844391, -0.1696191132068634, -0.036183953285217285, -0.21020032465457916, -0.4716508090496063, 0.5115798115730286, 0.040391385555267334, -0.2132323980331421, 0.14844855666160583, -0.43931785225868225], [-0.08895894140005112, -0.30201390385627747, 0.21001550555229187, 0.2664819359779358, -0.6429612636566162, -0.1783166229724884, -0.050277337431907654, 0.19810235500335693, -0.37349098920822144, -0.1004520058631897, -0.28686997294425964, 0.4276290833950043, 0.012953609228134155, 0.030478987842798233, 0.11517131328582764, -0.060279808938503265, -0.12104193866252899, -0.4739310145378113, -0.19112977385520935, 0.1252547651529312, 0.08088157325983047, -0.33505186438560486, 0.27537089586257935, -0.5216687917709351], [0.5819035768508911, -0.7670695185661316, 0.3531871736049652, 0.6076621413230896, -0.6044942736625671, 0.7487507462501526, -0.08409895747900009, 0.20280808210372925, -0.2022801786661148, 0.2601637542247772, -0.8441191911697388, 0.20820465683937073, 0.02033570222556591, 0.2848292291164398, 0.000894744589459151, 0.014013475738465786, -0.13303408026695251, -0.17480391263961792, -0.32300180196762085, 0.2424144148826599, -0.02989453449845314, -0.37268248200416565, 0.30762308835983276, -0.20425988733768463], [-0.12873321771621704, -0.1505058854818344, 0.39544564485549927, 0.3824657201766968, -0.5765341520309448, -0.28493744134902954, -0.12185738980770111, 0.17893071472644806, -0.23240984976291656, 0.01532678585499525, -0.3990725576877594, 0.26201537251472473, -0.6255590915679932, 0.18464960157871246, 0.39613091945648193, 0.0564151294529438, -0.2448204755783081, -0.16373248398303986, -0.31287363171577454, 0.3696705400943756, 0.0479801744222641, -0.5875997543334961, -0.2231319546699524, -0.3362543284893036], [-0.5629550218582153, 0.48148083686828613, -0.46336278319358826, -0.49148091673851013, 0.4014236032962799, -0.7985701560974121, 0.5469369888305664, -0.3526018559932709, 0.5269295573234558, -0.6669023036956787, 0.4673982262611389, -0.5475258827209473, 0.7069512009620667, -0.49668943881988525, -0.4483054280281067, 0.8468260765075684, -0.4297327399253845, 0.3742215037345886, 0.4849211573600769, -0.169062539935112, 0.6482319235801697, 0.3917555510997772, -0.6529939770698547, 0.4622381925582886], [-0.42322519421577454, 0.5109159350395203, -0.30308985710144043, -0.5552763938903809, 0.5045331120491028, -0.10092448443174362, 0.5178391933441162, -0.3093653917312622, 0.5272653102874756, -0.28595536947250366, 0.4785553514957428, -0.29568296670913696, 0.6092697978019714, -0.4951309263706207, -0.45177212357521057, 0.6307377815246582, -0.48863905668258667, 0.44467395544052124, 0.43189191818237305, -0.2834544777870178, 0.7059090733528137, 0.3609921932220459, -0.6549223065376282, 0.15761150419712067], [-0.6323816180229187, 0.4545999765396118, -0.5448567271232605, -0.4290288984775543, 0.5193646550178528, -0.7686861753463745, 0.6489312052726746, -0.5386840105056763, 0.27372244000434875, -0.3251975178718567, 0.7658441066741943, -0.30660152435302734, 0.666378915309906, -0.6043608784675598, -0.615132212638855, 0.5678810477256775, -0.4839840829372406, 0.2856999933719635, 0.39182332158088684, -0.2233608514070511, 0.5824386477470398, 0.4175214171409607, -0.6574416756629944, 0.365742564201355], [0.12579701840877533, -0.4760148227214813, 0.20098461210727692, 0.3139197826385498, -0.31682074069976807, 0.23600129783153534, -0.1551423817873001, 0.4049737751483917, -0.25333172082901, 0.09898507595062256, -0.17673154175281525, 0.23986217379570007, -0.3112379312515259, 0.06576928496360779, 0.059491727501153946, 0.16877233982086182, 0.3050663471221924, -0.2722332179546356, -0.30541282892227173, 0.3811551630496979, -0.1913982629776001, -0.18567362427711487, 0.14859887957572937, -0.4446643888950348], [-0.5999165773391724, 0.5243951082229614, -0.318905234336853, -0.21311575174331665, 0.35680660605430603, -0.41535577178001404, 0.7433770298957825, -0.32192015647888184, 0.3565942645072937, -0.4774779975414276, 0.18925824761390686, -0.21023638546466827, 0.48801389336586, -0.6034747362136841, -0.5167602300643921, 0.5332601070404053, -0.864478588104248, 0.17589180171489716, 0.4084990322589874, -0.5366680026054382, 0.6774458289146423, 0.31047874689102173, -0.3025582730770111, 0.24891002476215363], [0.376764178276062, -0.3762393295764923, 0.5084536075592041, 0.38717952370643616, -0.47457125782966614, 0.2730365991592407, -0.5552637577056885, 0.2706945836544037, -0.25166818499565125, 0.23312535881996155, -0.07646431028842926, 0.31162092089653015, -0.6732771396636963, 0.3948229253292084, 0.6088582873344421, -0.41566362977027893, 0.09207924455404282, -0.11577127128839493, -0.3962177634239197, 0.1590050607919693, -0.498196542263031, -0.365043580532074, 0.1744210571050644, -0.303378701210022], [-0.43988025188446045, 0.4995589852333069, -0.2943271994590759, -0.4498520493507385, 0.4412228763103485, -0.3431406319141388, 0.6373030543327332, -0.2824538052082062, 0.5625357031822205, -0.6322988867759705, 0.2597365081310272, -0.3709646463394165, 0.4446990191936493, -0.4289683401584625, -0.6402142643928528, 0.5881481766700745, -0.4549683630466461, 0.30090874433517456, 0.2711184322834015, -0.17963923513889313, 0.5389044284820557, 0.40041637420654297, -0.4345872700214386, 0.533155620098114]], "lstm.bias_ih_l0": [-0.17055746912956238, -0.367779940366745, -0.19710491597652435, -0.2806459665298462, -0.3728201985359192, -0.41021567583084106, -0.3817702531814575, -0.15011169016361237, -0.3077152669429779, -0.349421888589859, -0.11325731128454208, -0.2998996078968048, -0.506400465965271, 0.18237699568271637, -0.2930595576763153, -0.1956312507390976, -0.2698725461959839, -0.272531121969223, -0.1353197693824768, -0.1828368455171585, -0.03509337827563286, -0.35570046305656433, -0.08356209844350815, -0.1349492371082306, -0.653762698173523, -0.41710707545280457, -0.4359607696533203, -0.43524226546287537, -0.26342064142227173, -0.6400924324989319, -0.6110554933547974, -0.39152100682258606, -0.4055682122707367, -0.34723374247550964, -0.2573885917663574, -0.19962690770626068, -0.7022210955619812, -0.1315726637840271, -0.4398275911808014, -0.3932815492153168, -0.4551573097705841, -0.20488984882831573, -0.3774994909763336, -0.3726193308830261, -0.4904009997844696, -0.3534676134586334, -0.18763934075832367, -0.35948458313941956, 0.24162395298480988, -0.3185175657272339, 0.15348351001739502, 0.26388755440711975, 0.28011277318000793, 0.4682103395462036, -0.2806302309036255, -0.1549197882413864, 0.1349363476037979, 0.2422872930765152, -0.19155403971672058, -0.15412575006484985, -0.3467543125152588, 0.029095949605107307, 0.12117032706737518, -0.18101701140403748, 0.06255053728818893, 0.0374959260225296, 0.1597011536359787, -0.08143343031406403, -0.16382814943790436, 0.08793707937002182, 0.26900389790534973, 0.1494458019733429, -0.4832521378993988, -0.1911720335483551, -0.12051435559988022, -0.16800007224082947, -0.19944022595882416, -0.4361961781978607, -0.20918817818164825, -0.446738064289093, -0.17340131103992462, -0.058669816702604294, 0.044116467237472534, -0.21687962114810944, -0.5612860321998596, -0.17867372930049896, -0.266663134098053, 0.14885929226875305, -0.2566370964050293, -0.5108824968338013, -0.28673702478408813, -0.1954382359981537, -0.2327646017074585, -0.29237210750579834, -0.009686396457254887, -0.14283739030361176], "lstm.bias_hh_l0": [-0.5270615816116333, -0.42404571175575256, -0.13545136153697968, -0.2793402075767517, -0.5071784257888794, -0.32607999444007874, -0.44650742411613464, -0.1690472662448883, -0.21200323104858398, -0.1154613271355629, -0.030534202232956886, -0.25769108533859253, -0.5282972455024719, 0.0051391045562922955, -0.07785654067993164, 0.07833535224199295, -0.2039400190114975, -0.4376368224620819, -0.06929223239421844, -0.18979404866695404, -0.01159724872559309, -0.04265059530735016, -0.06775239109992981, -0.1106288954615593, -0.5565797686576843, -0.42453595995903015, -0.21515029668807983, -0.2658946216106415, -0.4852718710899353, -0.4352516531944275, -0.3756438195705414, -0.1763845831155777, -0.27818986773490906, -0.2858261168003082, -0.3996201753616333, -0.4144672751426697, -0.43827399611473083, -0.4360489547252655, -0.26043078303337097, -0.22104135155677795, -0.3054027259349823, -0.4448513388633728, -0.28444811701774597, -0.44638997316360474, -0.4874528646469116, -0.43333208560943604, -0.23404738306999207, -0.4594910740852356, 0.44129273295402527, -0.2630249559879303, -0.09464140236377716, 0.15388624370098114, 0.26103532314300537, 0.3247733414173126, -0.1550930142402649, 0.10267389565706253, -0.13400349020957947, 0.17748694121837616, -0.2444409728050232, -0.23257574439048767, -0.1734868288040161, 0.23098433017730713, 0.19422252476215363, -0.08394105732440948, 0.3639971613883972, 0.18136265873908997, -0.07260355353355408, 0.017077002674341202, -0.19914507865905762, 0.2992587089538574, 0.2385866641998291, 0.1914050281047821, -0.2070598602294922, -0.36432912945747375, -0.31800636649131775, -0.2263723909854889, -0.5092648863792419, -0.572220504283905, -0.5034735202789307, -0.20896725356578827, -0.3107966184616089, -0.21839094161987305, 0.07808423042297363, -0.3547361195087433, -0.3891509473323822, -0.006181118544191122, -0.18068182468414307, -0.14417874813079834, -0.28023168444633484, -0.2636704444885254, -0.2802690863609314, -0.5026884078979492, 0.07029403746128082, -0.34867095947265625, -0.2665570378303528, -0.17407864332199097], "dense.weight": [[0.29238754510879517, -0.3695922791957855, 0.22914133965969086, 0.11154177039861679, 0.06900807470083237, 0.25242140889167786, -0.14044417440891266, 0.04763852432370186, -0.04227028414607048, 0.14377285540103912, -0.16169480979442596, -0.061619289219379425, -0.13241413235664368, -0.00172560871578753, -0.03766489401459694, -0.12679238617420197, 0.23576626181602478, 0.0672183707356453, -0.022178195416927338, 0.13344097137451172, -0.14540895819664001, 0.12881137430667877, 0.21004123985767365, 0.11183886975049973]], "dense.bias": [-0.08282870799303055]}