{"lstm.weight_ih_l0": [[0.28092360496520996], [0.29394400119781494], [-0.31678271293640137], [0.3895484209060669], [0.12093942612409592], [-0.12410494685173035], [-0.3672623932361603], [-0.33420267701148987], [-0.32066863775253296], [0.3598361313343048], [-0.259841650724411], [0.21787169575691223], [-0.3891323506832123], [-0.2089700847864151], [0.3546951115131378], [0.2365824580192566], [0.3234277665615082], [-0.11311027407646179], [0.27803370356559753], [-0.3147840201854706], [0.34194594621658325], [-0.10803788155317307], [-0.26085910201072693], [-0.23130793869495392], [0.38166970014572144], [-0.35656386613845825], [0.19542476534843445], [-0.3490033745765686], [0.33003610372543335], [0.39923837780952454], [-0.24677833914756775], [-0.3617468774318695], [-0.21178719401359558], [0.2263423055410385], [-0.3778758645057678], [-0.05966145917773247], [-0.22872959077358246], [-0.2971755564212799], [0.38996440172195435], [0.029353028163313866], [-0.15101546049118042], [0.3645228445529938], [0.4066341519355774], [-0.41045498847961426], [-0.03137223422527313], [0.20473597943782806], [0.23735292255878448], [0.36683493852615356], [-0.0032362041529268026], [0.19896477460861206], [0.24652524292469025], [-0.2563885450363159], [-0.3195171058177948], [0.330400288105011], [-0.285344660282135], [0.36956942081451416], [-0.0373091883957386], [-0.35356301069259644], [0.30391114950180054], [0.17611946165561676], [-0.3046964108943939], [0.2506585419178009], [-0.25750747323036194], [0.3397720754146576], [-0.0961262434720993], [-0.10409608483314514], [0.09063547849655151], [-0.04465086758136749], [0.060746803879737854], [0.12281562387943268], [-0.04985138773918152], [0.12288163602352142], [0.04679790139198303], [-0.10530099272727966], [-0.08820834755897522], [0.005312040448188782], [0.05316491425037384], [0.021257132291793823], [0.12234652042388916], [-0.08412636816501617], [-0.03743736445903778], [0.02640560269355774], [-0.10922503471374512], [0.0038132816553115845], [0.08673687279224396], [0.11279171705245972], [-0.013753354549407959], [-0.08889886736869812], [-0.07520581781864166], [-0.040845274925231934], [-0.08141322433948517], [-0.09272901713848114], [-0.06515100598335266], [0.09173581004142761], [0.06650660932064056], [-0.055225878953933716], [0.06803058087825775], [0.08008627593517303], [-0.013650879263877869], [0.055815815925598145], [-0.06997276842594147], [0.013696521520614624], [-0.07711830735206604], [0.05552598834037781], [0.046636417508125305], [-0.10908438265323639], [-0.09540542960166931], [-0.006145954132080078], [0.05068366229534149], [-0.06547291576862335], [0.06056898832321167], [-0.12408523261547089], [0.005875095725059509], [-0.07256793975830078], [-0.11287623643875122], [0.11852891743183136], [-0.09017281234264374], [0.014422401785850525], [-0.011985242366790771], [-0.031911224126815796], [-0.02335473895072937], [0.09022311866283417], [-0.0861629992723465], [-0.016132041811943054], [-0.09324748814105988], [-0.03413364291191101], [0.014146968722343445], [0.03330889344215393], [0.3055993914604187], [-0.3880847692489624], [0.28331848978996277], [-0.18957166373729706], [-0.056614674627780914], [-0.20764458179473877], [0.2513434588909149], [0.301557719707489], [-0.3713855743408203], [0.2335660457611084], [-0.17343467473983765], [0.05952485278248787], [-0.3626817464828491], [-0.25060468912124634], [-0.3670650124549866], [0.35574638843536377], [-0.34734460711479187], [-0.3250221312046051], [0.3187675178050995], [0.29867860674858093], [0.18170008063316345], [0.11857329308986664], [-0.07857319712638855], [0.3227922320365906], [0.2499818652868271], [-0.35386648774147034], [0.3683649003505707], [-0.32006314396858215], [0.32854336500167847], [0.32976070046424866], [0.33448824286460876], [0.37881869077682495], [-0.2952127158641815], [0.357516884803772], [0.1776193380355835], [-0.2695196866989136], [0.30903691053390503], [-0.2943766415119171], [-0.2248746156692505], [0.04012107476592064], [0.3182128965854645], [0.3149692714214325], [-0.07998618483543396], [0.23724599182605743], [-0.07814204692840576], [0.28699952363967896], [0.2730517089366913], [-0.2811918258666992], [0.06712902337312698], [0.29354190826416016], [0.23186416923999786], [0.28823500871658325], [0.3672392666339874], [0.19445465505123138], [-0.25140082836151123], [-0.20105767250061035], [-0.14813728630542755], [-0.38122767210006714], [-0.22479881346225739], [0.2625689208507538], [-0.32227623462677], [-0.3435084819793701], [0.24727371335029602], [0.2667282819747925], [0.2427351474761963], [0.2843596935272217], [-0.29565978050231934], [0.44616857171058655], [-0.035556964576244354], [0.04418511316180229], [-0.3681116998195648], [-0.3364277482032776], [-0.25861841440200806], [0.34058621525764465], [-0.40091410279273987], [0.1946268528699875], [-0.1957635134458542], [-0.2941495478153229], [0.20769141614437103], [0.35974928736686707], [0.21849575638771057], [-0.21203182637691498], [0.25655847787857056], [-0.36531364917755127], [0.1775563359260559], [-0.045355912297964096], [-0.35728973150253296], [-0.22413340210914612], [0.22477784752845764], [-0.2308959811925888], [0.3565974533557892], [-0.38976335525512695], [0.2467128485441208], [0.2699599266052246], [-0.3655720055103302], [-0.23028695583343506], [-0.3262975215911865], [0.08873581886291504], [-0.302333265542984], [-0.15126065909862518], [-0.2674890160560608], [-0.22627733647823334], [0.16297686100006104], [-0.08857955783605576], [-0.35801631212234497], [0.2803855836391449], [0.28590482473373413], [-0.24968288838863373], [0.05013042315840721], [0.2606540024280548], [0.30328789353370667], [0.3565432131290436], [0.07641170918941498], [0.13893245160579681], [0.2164507508277893], [-0.3057134747505188], [-0.3242052495479584], [0.223567396402359], [-0.1349675953388214], [0.3575333058834076], [-0.042279623448848724], [-0.2549390494823456], [0.21429021656513214], [0.31094151735305786], [-0.16008739173412323], [0.24236159026622772], [-0.3341367244720459], [0.37138915061950684]], "lstm.weight_hh_l0": [[-0.006354883313179016, -0.08945254981517792, 0.0344613641500473, -0.1225023865699768, -0.08242407441139221, 0.008902415633201599, 0.07362702488899231, -0.04929722845554352, -0.0597958117723465, 0.041994839906692505, 0.10593336820602417, -0.014881417155265808, -0.07504525780677795, 0.07468515634536743, -0.027415812015533447, 0.022507309913635254, -0.06343860924243927, 0.050789088010787964, -0.001588180661201477, 0.050980910658836365, -0.08452264964580536, -0.06594754755496979, -0.10608533024787903, -0.08133041858673096, -0.03934255242347717, 0.12393441796302795, -0.10681372880935669, -0.07961001992225647, 0.023931175470352173, -0.12438550591468811, -0.048174887895584106, -0.013392716646194458, -0.10516084730625153, -0.11845730245113373, 0.012379378080368042, -0.08773696422576904, -0.02354639768600464, 0.032995909452438354, 0.11426062881946564, -0.01755140721797943, -0.03519144654273987, -0.11596541106700897, -0.10908918082714081, 0.07906651496887207, 0.06265582144260406, -0.010441452264785767, -0.10782228410243988, -0.07692578434944153, 0.0968078076839447, -0.11998498439788818, -0.11941151320934296, -0.11529983580112457, -0.08781048655509949, -0.03938920795917511, -0.10691411793231964, 0.09258508682250977, 0.034858256578445435, -0.08887100219726562, 0.08667461574077606, -0.10818324983119965, 0.1094726026058197, -0.07303787767887115, 0.08336673676967621, -0.04587385058403015], [0.108127161860466, -0.10512305796146393, -0.07184897363185883, -0.018219798803329468, -0.014252617955207825, 0.021953582763671875, 0.02991969883441925, 0.09627558290958405, -0.013768166303634644, -0.10055837035179138, 0.07844020426273346, 0.10662895441055298, -0.012095287442207336, 0.012689828872680664, -0.07481539249420166, -0.0001611560583114624, 0.10731449723243713, -0.016261115670204163, 0.04950176179409027, -0.05011887848377228, -0.09540507197380066, 0.051385194063186646, 0.059440284967422485, -0.03591693937778473, 0.028983458876609802, -0.008675247430801392, 0.016559705138206482, 0.032128676772117615, -0.11778222024440765, -0.11352232098579407, -0.04552103579044342, -0.043347641825675964, 0.11563611030578613, -0.014599934220314026, 0.0743001401424408, -0.027803704142570496, 0.0009011328220367432, -0.05204717814922333, -0.117325559258461, 0.03624133765697479, 0.04790295660495758, 0.08046507835388184, -0.1032438725233078, -0.07721152901649475, 0.01388479769229889, -0.09680987894535065, -0.10616542398929596, -0.0912640243768692, -0.07031543552875519, -0.010348156094551086, -0.039789438247680664, 0.007032841444015503, -0.11651039123535156, -0.07236987352371216, -0.024365141987800598, -0.019420236349105835, -0.04261814057826996, -0.01671828329563141, -0.12325170636177063, -0.11902283132076263, 0.006841942667961121, 0.10360488295555115, -0.09819130599498749, -0.047853291034698486], [-0.12005336582660675, 0.11869287490844727, -0.10021120309829712, 0.11807844042778015, 0.0651496946811676, -0.025011196732521057, 0.08880303800106049, 0.018427148461341858, 0.08214136958122253, -0.05674104392528534, 0.060863807797431946, 0.016979873180389404, 0.028666287660598755, -0.0005382001399993896, 0.003397926688194275, -0.10067823529243469, -0.07044637203216553, -0.06823937594890594, -0.02582208812236786, -0.07399158179759979, -0.11641645431518555, 0.013780847191810608, -0.12311170995235443, 0.09490296244621277, 0.12227252125740051, 0.0974455177783966, -0.024025022983551025, 0.12252338230609894, -0.08881039917469025, 0.06169809401035309, -0.04583282768726349, 0.06620161235332489, 0.0914146900177002, 0.09044350683689117, -0.03646989166736603, -0.06616269052028656, 0.0702952891588211, -0.08691480755805969, 0.12184461951255798, 0.04182581603527069, -0.0518781840801239, -0.021875888109207153, -0.1072806715965271, 0.05089540779590607, 0.07676267623901367, -0.009546920657157898, 0.10220487415790558, -0.07123751938343048, 0.02067658305168152, -0.05750633776187897, -0.0430494099855423, -0.029029980301856995, -0.09783788025379181, 0.056892916560173035, -0.07373851537704468, -0.10313643515110016, -0.05646912753582001, 0.07751144468784332, -0.10783059895038605, -0.09425140917301178, 0.06117865443229675, 0.09547244012355804, -0.10014110803604126, -0.01611708104610443], [-0.08926396071910858, -0.0779111385345459, 0.022418424487113953, -0.007837280631065369, -0.02793927490711212, -0.10945102572441101, 0.10300569236278534, -0.04956461489200592, 0.0864451676607132, 0.0597490519285202, -0.08999183773994446, 0.007983684539794922, -0.1090499758720398, -0.08295616507530212, 0.08882693946361542, -0.11372105777263641, -0.046349793672561646, 0.003489762544631958, 0.02729305624961853, 0.039652019739151, 0.09442459046840668, -0.005703449249267578, -0.0958242267370224, -0.11925828456878662, -0.11511676013469696, 0.039326056838035583, -0.1041627824306488, 0.051713764667510986, -0.04378816485404968, 0.04111076891422272, -0.09314903616905212, -0.0888693630695343, -0.10035975277423859, 0.008685186505317688, 0.0800224095582962, -0.03674827516078949, 0.08866491913795471, 0.04263859987258911, 0.049033552408218384, 0.010480031371116638, -0.07706356048583984, -0.10384908318519592, 0.09980234503746033, -0.060917407274246216, 0.11634241044521332, 0.10910315811634064, -0.05825883150100708, 0.021589234471321106, 0.02556312084197998, 0.007791489362716675, -0.0008374452590942383, 0.09585502743721008, 0.11096617579460144, 0.0669267475605011, -0.07943275570869446, -0.05666884779930115, 0.02391105890274048, -0.017800375819206238, -0.016560718417167664, -0.057657837867736816, 0.03253929316997528, -0.09036868810653687, -0.03054000437259674, 0.10762955248355865], [0.05400612950325012, 0.0075676292181015015, 0.023385316133499146, 0.08617259562015533, -0.07800784707069397, 0.05934828519821167, 0.0660293698310852, 0.09846849739551544, 0.11665095388889313, -0.08392748236656189, 0.013130724430084229, 0.09203997254371643, 0.09511065483093262, -0.05278213322162628, -0.059560179710388184, -0.027994230389595032, 0.025311067700386047, -0.08200278878211975, 0.11736726760864258, -0.04220229387283325, 0.1160125881433487, 0.008411020040512085, -0.03861275315284729, 0.10145609080791473, 0.0427081435918808, 0.08068275451660156, -0.03933189809322357, 0.09172174334526062, -0.04884657263755798, -0.1234741359949112, -0.0002974271774291992, -0.05412636697292328, 0.07681220769882202, -0.09229576587677002, -0.022901251912117004, 0.043249279260635376, -0.11476489901542664, 0.10820430517196655, -0.03151419758796692, 0.0071544349193573, -0.08444926142692566, 0.10109037160873413, -0.04472924768924713, 0.013666749000549316, -0.010018259286880493, -0.06731100380420685, 0.021363139152526855, -0.043883368372917175, 0.007997199892997742, -0.03766912221908569, -0.11902551352977753, 0.0808342695236206, -0.09719030559062958, -0.0009989440441131592, -0.10824023187160492, 0.02262696623802185, 0.006250515580177307, -0.08826854825019836, -0.081321120262146, 0.11609604954719543, -0.022244468331336975, -0.11428388953208923, -0.005700066685676575, 0.03001280128955841], [-0.010897472500801086, 0.09655079245567322, -0.08949188888072968, 0.044602230191230774, 0.053741708397865295, 0.0974569320678711, -0.09226371347904205, -0.10975821316242218, 0.12197694182395935, -0.018772810697555542, 0.0826309323310852, 0.12383021414279938, -0.0796772837638855, -0.09463952481746674, -0.062470003962516785, -0.07237517833709717, -0.032597899436950684, -0.015145361423492432, 0.024379312992095947, 0.019526779651641846, -0.028733447194099426, 0.08706335723400116, 0.06695771217346191, -0.014655962586402893, -0.08879464864730835, -0.05861982703208923, 0.0693439394235611, 0.02630220353603363, -0.097690150141716, 0.04913507401943207, -0.006311148405075073, -0.11976583302021027, 0.02518753707408905, 0.06615103781223297, 0.039694711565971375, -0.09148620069026947, -0.1154426634311676, -0.12172748148441315, -0.1240512877702713, 0.1011384129524231, 0.08053469657897949, -0.01923803985118866, 0.09043508768081665, -0.03826266527175903, 0.12190715968608856, -0.06366738677024841, -0.06209063529968262, 0.05177898705005646, -0.09704872965812683, -0.004513189196586609, 0.0834275484085083, -0.04181915521621704, 0.012648984789848328, -0.12186829745769501, -0.07156500220298767, -0.10434979200363159, 0.11829094588756561, -0.050400733947753906, -0.05437806248664856, 0.05456000566482544, -0.036099523305892944, -0.11408895254135132, -0.029531612992286682, 0.11314986646175385], [-0.07946266233921051, 0.08020582795143127, 0.10158541798591614, 0.07718600332736969, -0.006681472063064575, 0.07028169929981232, -0.08231167495250702, -0.03717896342277527, -0.010063216090202332, -0.08091877400875092, 0.04421621561050415, 0.011624172329902649, -0.05633793771266937, -0.010526701807975769, -0.1112995445728302, -0.02597777545452118, -0.016844213008880615, -0.1239800751209259, -0.064405158162117, 0.09769071638584137, -0.09005799889564514, -0.0016532987356185913, -0.06277528405189514, 0.0633835643529892, 0.03423669934272766, -0.007369190454483032, 0.03075239062309265, -0.09367206692695618, -0.03974278271198273, -0.05814124643802643, 0.06786462664604187, 0.025057315826416016, -0.06448142230510712, 0.052938446402549744, 0.08544901013374329, 0.04583199322223663, -0.1140122264623642, -0.08414290845394135, 0.08776877820491791, 0.06472894549369812, -0.1173451840877533, -0.10704562067985535, -0.06392475962638855, -0.06460759043693542, 0.09500733017921448, 0.07740071415901184, -0.04526259005069733, -0.05414898693561554, 0.11937186121940613, 0.11659067869186401, 0.11936639249324799, -0.003211408853530884, -0.07020969688892365, 0.003953695297241211, 0.10195091366767883, -0.08661618828773499, 0.02080637216567993, 0.07252804934978485, 0.09791329503059387, -0.02056223154067993, 0.008425623178482056, -0.12380747497081757, -0.1029169112443924, -0.12122370302677155], [-0.04624144732952118, -0.1017172783613205, 0.12245690822601318, 0.004881739616394043, 0.07125884294509888, -0.05192723870277405, 0.019564256072044373, -0.06997701525688171, 0.03870214521884918, 0.01198507845401764, -0.07939456403255463, 0.023295536637306213, 0.0771448165178299, 0.07339432835578918, -0.11265893280506134, -0.024208471179008484, -0.05647294223308563, -0.04699026048183441, 0.0036012381315231323, -0.11280350387096405, -0.017668038606643677, 0.02885277569293976, -0.10590709745883942, 0.09505017101764679, -0.10604627430438995, -0.09087355434894562, -0.12142233550548553, -0.0632246881723404, 0.09865671396255493, -0.04666741192340851, 0.10115417838096619, 0.0007730275392532349, -0.10242977738380432, -0.08837662637233734, 0.09255671501159668, -0.07225440442562103, 0.10170011222362518, -0.10364045202732086, -0.04187028110027313, -0.09223534166812897, -0.017535880208015442, -0.10947759449481964, 0.0001891106367111206, -0.10813485085964203, -0.11673246324062347, 0.10166944563388824, 0.11834946274757385, -0.10450141131877899, 0.11453065276145935, -0.1202101856470108, 0.05949726700782776, 0.0988515317440033, -0.08037671446800232, -0.03483805060386658, 0.10473369061946869, 0.08426681160926819, -0.016957193613052368, -0.10583670437335968, -0.05256564915180206, 0.0629313588142395, -0.002528265118598938, -0.06681260466575623, 0.11549223959445953, -0.024852529168128967], [-0.010450363159179688, -0.0535053014755249, 0.0018861591815948486, -0.11486980319023132, 0.02151346206665039, -0.03681030869483948, -0.0026411712169647217, 0.018766596913337708, 0.12463212013244629, -0.013884544372558594, 0.08821047842502594, -0.09997522830963135, -0.030845388770103455, 0.019113406538963318, -0.0522291362285614, 0.11052478849887848, -0.05972526967525482, -0.06454050540924072, -0.11734141409397125, 0.004475578665733337, 0.10325028002262115, -0.025552764534950256, 0.07604005932807922, 0.07667189836502075, -0.12124533951282501, -0.09321105480194092, 0.003123044967651367, -0.017674371600151062, 0.050111353397369385, -0.051564738154411316, 0.039020463824272156, -0.048270776867866516, -0.09389129281044006, 0.025721684098243713, -0.006596863269805908, -0.08136580884456635, -0.06456780433654785, 0.01916337013244629, -0.013477370142936707, -0.054420843720436096, -0.06519116461277008, 0.09568826854228973, -0.10548558831214905, -0.025511786341667175, -0.03906477987766266, 0.06693464517593384, -0.08901026844978333, 0.08785884082317352, -0.016926303505897522, -0.11580878496170044, -0.06258794665336609, -0.08514094352722168, 0.12309019267559052, 0.09520076215267181, -0.11564412713050842, -0.09707216918468475, 0.06427907943725586, -0.10272599756717682, -0.05752961337566376, 0.039035096764564514, -0.11786128580570221, -0.05931612849235535, 0.08604788780212402, 0.0002710670232772827], [0.08089086413383484, -0.06800694763660431, 0.08447897434234619, 0.0063129812479019165, 0.005733877420425415, 0.10728158056735992, -0.12337818741798401, -0.10984857380390167, 0.09951481223106384, 0.013974025845527649, 0.07977418601512909, 0.10711877048015594, -0.03993353247642517, 0.0665995180606842, -0.008127853274345398, 0.027995005249977112, -0.11931769549846649, 0.07032042741775513, 0.00801856815814972, 0.11561687290668488, 0.022408902645111084, 0.0739525854587555, 0.048192098736763, -0.0865299254655838, 0.011716485023498535, -0.007449999451637268, 0.06146115064620972, 0.005231782793998718, -0.09765270352363586, -0.027985751628875732, 0.1200975775718689, -0.004101753234863281, -0.07775929570198059, -0.09029364585876465, -0.10956282913684845, 0.03979663550853729, 0.09359949827194214, 0.013349443674087524, -0.03243127465248108, -0.001080542802810669, 0.0020135194063186646, 0.08016343414783478, -0.10965970158576965, -0.08827254176139832, 0.028004750609397888, 0.04072295129299164, -0.05749791860580444, 0.09016591310501099, 0.08756299316883087, 0.05393990874290466, -0.01705455780029297, 0.08032055199146271, -0.04430961608886719, -0.03881390392780304, 0.09919171035289764, 0.06386658549308777, -0.0782160609960556, -0.10016612708568573, -0.0344233512878418, 0.08736717700958252, 0.07677330076694489, -0.06812649965286255, 0.06496644020080566, 0.09607721865177155], [-0.05075913667678833, 0.07321307063102722, 0.015194296836853027, -0.04902900755405426, -0.10559357702732086, -0.10243597626686096, 0.07669287919998169, -0.03824204206466675, -0.011789128184318542, 0.08542896807193756, 0.07799187302589417, 0.10429511964321136, 0.11623263359069824, 0.014757409691810608, -0.03632590174674988, -0.0631367564201355, -0.05097302794456482, 0.0033143162727355957, -0.011825010180473328, 0.12230825424194336, -0.006537839770317078, 0.036285653710365295, -0.10136039555072784, -0.12093119323253632, -0.05479027330875397, 0.1249934732913971, 0.07620999217033386, 0.11019325256347656, 0.0442633330821991, -0.02582782506942749, 0.04282635450363159, -0.07612128555774689, 0.017218783497810364, 0.03573286533355713, 0.05247165262699127, 0.024952441453933716, -0.01835840940475464, 0.04348292946815491, -0.08474086225032806, 0.10608173906803131, 0.10063052177429199, -0.0498824417591095, -0.09991723299026489, 0.007877320051193237, -0.006425321102142334, -0.06871300935745239, 0.07640045881271362, -0.1152258962392807, 0.020821452140808105, -0.06944817304611206, -0.005592778325080872, 0.027778223156929016, -0.09929074347019196, -0.09513239562511444, -0.028352811932563782, -0.06281572580337524, 0.04520617425441742, 0.07484546303749084, 0.09910181164741516, -0.01534031331539154, -0.09470289945602417, 0.059810519218444824, 0.08604037761688232, 0.009345754981040955], [0.11405301094055176, 0.1196863055229187, -0.1041400283575058, 0.04005090892314911, -0.09630583226680756, -0.06427522003650665, 0.04314514994621277, -0.09457923471927643, -0.009655565023422241, 0.06740999221801758, -0.08110733330249786, -0.05081191658973694, 0.028035879135131836, 0.06568370759487152, 0.004529476165771484, -0.015773072838783264, -0.07870429754257202, 0.02721823751926422, 0.005509883165359497, 0.07148653268814087, -0.05335476994514465, -0.04862402379512787, -0.06094667315483093, 0.08607597649097443, -0.11548680067062378, -0.04869183897972107, 0.021179407835006714, -0.015323862433433533, 0.05884464085102081, 0.013400658965110779, 0.01593475043773651, 0.013793781399726868, 0.08416858315467834, -0.012606099247932434, -0.04132620990276337, 0.04233011603355408, 0.06605806946754456, -0.0073970407247543335, 0.021584823727607727, -0.06394295394420624, 0.07765036821365356, -0.08277426660060883, 0.023848041892051697, 0.1095072329044342, -0.09538275003433228, -0.1129690408706665, 0.11363323032855988, 0.020151391625404358, -0.08598953485488892, -0.06462724506855011, -0.09712977707386017, 0.09011927247047424, 0.09168373048305511, 0.12158329784870148, 0.07888054847717285, -0.021804749965667725, -0.0077728331089019775, 0.12158779799938202, 0.029772818088531494, -0.03909890353679657, -0.06476026773452759, -0.1116366982460022, -0.0015352368354797363, 0.03550758957862854], [-0.11705851554870605, 0.04920482635498047, -0.061068758368492126, -0.0196133553981781, -0.1126142144203186, -0.011532694101333618, 0.0026705265045166016, 0.09783351421356201, 0.05066555738449097, 0.11973734200000763, 0.09445500373840332, 0.07066544890403748, -0.05743883550167084, 0.11683829128742218, 0.10592332482337952, 0.11149545013904572, 0.0643949806690216, 0.026386767625808716, 0.04749813675880432, 0.06071682274341583, -0.04016660153865814, -0.04331354796886444, -0.039441898465156555, 0.06924217939376831, 0.1237436830997467, -0.07539379596710205, 0.09486119449138641, -0.022844746708869934, 0.04656870663166046, 0.09728899598121643, 0.0696847140789032, -0.11899001896381378, -0.06690844893455505, -0.06327523291110992, 0.07238975167274475, -0.021971777081489563, 0.0841345489025116, -0.05614912509918213, 0.11217993497848511, 0.009920626878738403, 0.07202893495559692, 0.1050366461277008, -0.07063162326812744, -0.0827447772026062, 0.05107326805591583, 0.020234674215316772, 0.052780866622924805, -0.03665037453174591, 0.08714251220226288, 0.12101282179355621, -0.0707513689994812, -0.03920857608318329, -0.05627027153968811, 0.09501078724861145, -0.007638677954673767, 0.044379860162734985, -0.1091858446598053, 0.08771294355392456, 0.012438550591468811, 0.010064497590065002, -0.03925067186355591, -0.053727343678474426, -0.04923698306083679, 0.08791020512580872], [-0.029983460903167725, -0.12206777930259705, -0.0645589679479599, -0.09510500729084015, 0.06676290929317474, -0.015376105904579163, 0.0004460364580154419, -0.1091499775648117, 0.0846584141254425, -0.0924467146396637, 0.04416058957576752, -0.0027196407318115234, -0.05777174234390259, -0.0213482528924942, -0.00486399233341217, -0.07679209113121033, -0.11041741073131561, 0.04531620442867279, -0.11107303202152252, 0.039259642362594604, -0.10740314424037933, 0.0912608802318573, 0.02950972318649292, -0.051378726959228516, 0.030084416270256042, 0.11503195762634277, -0.0693911463022232, -0.10315355658531189, 0.016045644879341125, 0.08204610645771027, 0.0563400536775589, 0.10279139876365662, -0.07675206661224365, 0.04322659969329834, 0.07479247450828552, -0.04017789661884308, 0.07551132142543793, -0.07201652228832245, -0.11774730682373047, -0.06490115821361542, 0.11459022760391235, 0.05676361918449402, 0.08876967430114746, 0.07318119704723358, 0.11747558414936066, 0.01869545876979828, 0.08548398315906525, 0.06297044456005096, 0.03702658414840698, 0.06665608286857605, 0.014124199748039246, -0.11514809727668762, -0.10870921611785889, 0.04797302186489105, -0.08025278151035309, 0.060672029852867126, -0.10204833745956421, 0.04914991557598114, -0.04142466187477112, -0.11431430280208588, 0.09057854115962982, -0.011596128344535828, -0.07934118807315826, -0.07617342472076416], [0.0981535017490387, -0.09102486073970795, 0.051233261823654175, -0.023721963167190552, 0.09024424850940704, 0.025443002581596375, -0.11958031356334686, -0.08202005922794342, -0.008747830986976624, 0.04473176598548889, 0.05075626075267792, 0.06492823362350464, -0.06737810373306274, -0.010797187685966492, -0.01739451289176941, 0.10073739290237427, -0.11797483265399933, -0.0257309228181839, -0.019298791885375977, 0.042756885290145874, 0.027864187955856323, -0.025404691696166992, 0.034166887402534485, -0.08715683221817017, 0.11302299797534943, 0.027110815048217773, -0.06587767601013184, -0.022650793194770813, 0.12132656574249268, -0.07886876165866852, -0.053077295422554016, -0.02468051016330719, -0.023124977946281433, 0.08013075590133667, -0.02173970639705658, 0.034040749073028564, 0.10225662589073181, -0.07720795273780823, -0.06959083676338196, -0.0429694801568985, 0.11739885807037354, 0.11928263306617737, 0.020241662859916687, -0.02181030809879303, 0.08587922155857086, 0.012653186917304993, -0.05912601947784424, 0.07450637221336365, 0.07162359356880188, 0.048805102705955505, -0.034907639026641846, -0.03315378725528717, 0.12080079317092896, 0.1168636679649353, -0.004524156451225281, 0.006753802299499512, 0.07851842045783997, -0.07374849915504456, 0.08231683075428009, -0.05856035649776459, -0.06374768912792206, -0.08139267563819885, 0.12093473970890045, -0.04296064376831055], [0.03895755112171173, -0.1211404949426651, 0.06438443064689636, -0.08861012756824493, 0.036139801144599915, 0.017589524388313293, 0.08678409457206726, 0.0857088565826416, -0.10390831530094147, 0.06800635159015656, -0.06245894730091095, -0.08202598989009857, 0.026983514428138733, 0.007359951734542847, -0.08728715777397156, 0.066155806183815, -0.02383914589881897, 0.021793678402900696, 0.003602147102355957, 0.01773791015148163, 0.10827220976352692, -0.016573205590248108, -0.08144211769104004, 0.028885439038276672, 0.035068050026893616, 0.0991189032793045, -0.08754391968250275, 0.01817546784877777, 0.06698451936244965, -0.08190286159515381, -0.11209888756275177, -0.0866529792547226, 0.10315872728824615, 0.004352167248725891, 0.0299375057220459, -0.005479097366333008, 0.043787434697151184, -0.09850567579269409, -0.00876586139202118, -0.026155591011047363, -0.11356697976589203, -0.0644603818655014, -0.1210891455411911, 0.0008945316076278687, 0.060592636466026306, 0.0033120959997177124, 0.08388411998748779, -0.028623834252357483, -0.02383914589881897, -0.1213797926902771, -0.03133101761341095, 0.0752732902765274, -0.03670279681682587, 0.11512650549411774, -0.07777385413646698, 0.10342226922512054, -0.12006621062755585, -0.05233342945575714, 0.11873580515384674, 0.08026427030563354, -0.08036747574806213, -0.026742979884147644, -0.004826053977012634, 0.077959805727005], [0.050618767738342285, -0.00494423508644104, -0.03364521265029907, 0.10941001772880554, 0.10256744921207428, 0.07462379336357117, 0.07717341184616089, -0.027062565088272095, 0.10239516198635101, -0.11195601522922516, 0.07691825926303864, 0.031749606132507324, -0.09882114827632904, 0.03351166844367981, 0.014227837324142456, 0.07344040274620056, -0.11346566677093506, -0.12361778318881989, 0.10979136824607849, 0.04374001920223236, 0.0011908113956451416, -0.05755728483200073, 0.0897461324930191, 0.056662872433662415, -0.06895102560520172, 0.10771444439888, -0.07112593948841095, 0.046080127358436584, 0.038694173097610474, -0.02920450270175934, 0.03126548230648041, 0.014775797724723816, -0.09103786945343018, 0.030017584562301636, -0.00018075108528137207, 0.08612996339797974, -0.007178470492362976, -0.003620922565460205, -0.01782582700252533, 0.016922757029533386, -0.12052024900913239, -0.0824865847826004, -0.05900593101978302, -0.12035021185874939, -0.07176141440868378, -0.05168752372264862, -0.08013029396533966, -0.0614582896232605, 0.12308250367641449, 0.06713418662548065, -0.01611541211605072, 0.06072632968425751, 0.023054510354995728, -0.11283543705940247, -0.07345488667488098, -0.003761604428291321, -0.01071910560131073, 0.10660524666309357, 0.0037093758583068848, -0.0985216498374939, -0.09563681483268738, 0.03596901893615723, 0.01624186336994171, -0.07767440378665924], [0.013515442609786987, 0.010197818279266357, -0.07612349092960358, -0.10097086429595947, -0.06553356349468231, 0.04565426707267761, 0.008724495768547058, -0.06847135722637177, -0.028438329696655273, -0.0895083099603653, -0.08597555756568909, -0.1065187007188797, 0.12222027778625488, -0.03884519636631012, -0.10554279386997223, -0.07386568188667297, -0.12299153208732605, -0.05840463936328888, -0.051223188638687134, -0.0608053058385849, 0.024472728371620178, 0.0014115720987319946, -0.04859010875225067, 0.010200545191764832, 0.022946760058403015, 0.05843131244182587, -0.12116125226020813, -0.009543657302856445, -0.10726150870323181, 0.0410873144865036, 0.01886686682701111, 0.0860624760389328, -0.08130232989788055, -0.017624780535697937, 0.03132502734661102, -0.02751860022544861, -0.07452256977558136, -0.042223989963531494, -0.0529838502407074, -0.019352927803993225, 0.09427645802497864, -0.11445888876914978, -0.05217723548412323, -0.04770287871360779, 0.0008070766925811768, 0.0763920396566391, -0.10307428240776062, -0.09061484038829803, 0.035420358180999756, -0.02263912558555603, 0.0796440839767456, -0.007300153374671936, -0.026423171162605286, -0.05225828289985657, 0.06448018550872803, 0.05272379517555237, 0.06808708608150482, 0.0592087060213089, -0.002583429217338562, 0.09804399311542511, -0.07654818892478943, 0.019569918513298035, 0.05379495024681091, 0.08449821174144745], [0.09856650233268738, 0.001148134469985962, -0.034822240471839905, -0.05912525951862335, -0.07415749132633209, -0.07546976208686829, 0.014442145824432373, 0.04346106946468353, 0.0006362497806549072, -0.03056536614894867, 0.0075792670249938965, -0.07628920674324036, 0.026584327220916748, -0.11596696078777313, 0.09239062666893005, -0.04513441026210785, -0.07758073508739471, -0.0898120254278183, -0.09031902253627777, -0.08848382532596588, -0.033866554498672485, -0.02270662784576416, -0.028467372059822083, -0.00714169442653656, -0.03371037542819977, 0.006809040904045105, 0.04003727436065674, -0.11933067440986633, -0.05029137432575226, 0.006659910082817078, 0.005819782614707947, 0.02428397536277771, 0.08469542860984802, -0.03255583345890045, 0.040541574358940125, 0.0686621367931366, 0.04273758828639984, 0.07771632075309753, 0.11443987488746643, 0.12063470482826233, 0.09278659522533417, 0.1108153760433197, -0.09393800795078278, -0.018728390336036682, 0.0004334002733230591, -0.041692182421684265, 0.020763278007507324, -0.11234794557094574, 0.042662665247917175, 0.07315360009670258, -0.10876451432704926, -0.05138731002807617, 0.018246009945869446, -0.038593098521232605, -0.12157662212848663, 0.0946846604347229, 0.10245198011398315, 0.05211646854877472, -0.04621399939060211, -0.06170870363712311, 0.09476710855960846, -0.07076020538806915, -0.10322690010070801, 0.08286452293395996], [0.030019253492355347, -0.09368832409381866, -0.015537381172180176, -0.08267754316329956, -0.006316691637039185, -0.00957539677619934, -0.06487518548965454, 0.03422205150127411, -0.1201564371585846, 0.08567841351032257, 0.10004228353500366, 0.009938299655914307, 0.030753716826438904, -0.11398829519748688, -0.06050825119018555, -0.015817001461982727, 0.05337473750114441, 0.0785292536020279, -0.07111169397830963, -0.040860071778297424, -0.004622608423233032, -0.04606342315673828, 0.08819395303726196, 0.01752835512161255, -0.07146267592906952, -0.06766222417354584, -0.1045178771018982, -0.045505642890930176, 0.054793715476989746, -0.011545062065124512, 0.08165746927261353, -0.07694929838180542, 0.11024433374404907, -0.0778379738330841, 0.028557583689689636, 0.05238442122936249, 0.11339405179023743, 0.07170683145523071, 0.09223000705242157, -0.06584714353084564, -0.12226879596710205, -0.11287488043308258, -0.052654579281806946, 0.0894227921962738, -0.05702023208141327, 0.015736207365989685, -0.027778208255767822, 0.10323551297187805, 0.12118105590343475, -0.10099436342716217, -0.03253434598445892, 0.09395293891429901, 0.1241292953491211, -0.05294725298881531, 0.09112207591533661, 0.05028878152370453, 0.007804960012435913, -0.12307688593864441, -0.03485831618309021, 0.09544597566127777, 0.0932684987783432, -0.08068610727787018, 0.0792483389377594, 0.04458685219287872], [-0.07158482074737549, 0.03919064998626709, -0.11415523290634155, -0.02302660048007965, 0.07061348855495453, -0.0323413610458374, 0.106803759932518, -0.09526057541370392, 0.05771610140800476, -0.07418477535247803, 0.09773707389831543, 0.06313927471637726, -0.08170944452285767, 0.11996923387050629, -0.043563589453697205, -0.058238908648490906, -0.08299748599529266, -0.040629222989082336, -0.1029328852891922, -0.11311118304729462, 0.03982532024383545, 0.030958890914916992, 0.013200446963310242, 0.1031876802444458, -0.07666553556919098, 0.11679890751838684, -0.0653940886259079, -0.08031454682350159, 0.01715974509716034, -0.1034640222787857, -0.023717179894447327, -0.0484607070684433, 0.06703956425189972, -0.1101950854063034, 0.019897326827049255, 0.04436109960079193, 0.1142181009054184, 0.11621007323265076, 0.06575094163417816, 0.11196756362915039, 0.10298624634742737, 0.02898922562599182, 0.012607425451278687, -0.09676314890384674, -0.07810437679290771, 0.0005661249160766602, -0.05960047245025635, -0.07463604211807251, -0.05932796001434326, 0.06077846884727478, -0.02806219458580017, 0.11925968527793884, -0.031026184558868408, 0.05548357963562012, -0.031637147068977356, -0.061514079570770264, -0.03888896107673645, -0.01379634439945221, 0.020416587591171265, 0.001889646053314209, 0.05160596966743469, -0.04280921816825867, 0.12359631061553955, 0.11379009485244751], [0.008412301540374756, 0.060955360531806946, -0.011928766965866089, -0.10644441843032837, 0.01699867844581604, -0.020546317100524902, -0.003551587462425232, 0.11483681201934814, -0.001935318112373352, -0.01889730989933014, 0.0830145925283432, -0.042347997426986694, -0.006836459040641785, -0.04671035706996918, 0.08675141632556915, 0.024868518114089966, 0.05408523976802826, -0.11398178339004517, 0.07994745671749115, 0.05704103410243988, 0.003920599818229675, -0.11399509012699127, -0.12123143672943115, 0.10134710371494293, 0.019831791520118713, 0.02136695384979248, 0.010336846113204956, -0.10014921426773071, -0.0481681227684021, -0.08298331499099731, 0.05593836307525635, 0.016342893242836, 0.033574774861335754, 0.04106526076793671, 0.048808753490448, -0.0803639143705368, 0.05717813968658447, -0.10676421225070953, -0.10073205828666687, 0.03275249898433685, -0.009547591209411621, -0.12144473195075989, 0.03986440598964691, -0.05470927059650421, 0.03429850935935974, -0.02989952266216278, -0.08012247085571289, 0.10291613638401031, 0.07129649817943573, 0.07976001501083374, -0.01918855309486389, -0.03474068641662598, 0.07272683084011078, -0.03610077500343323, 0.1022687703371048, -0.08448120951652527, -0.003660246729850769, -0.08843328058719635, 0.03525252640247345, -0.040954530239105225, 0.10648508369922638, -0.0026894211769104004, 0.08490529656410217, -0.0448710173368454], [-0.03938573598861694, 0.03616340458393097, -0.09935000538825989, 0.08149784803390503, -0.03640790283679962, 0.11770309507846832, 0.038966670632362366, 0.09552048146724701, -0.00941796600818634, -0.05063289403915405, -0.03475967049598694, -0.01784491539001465, 0.0675232857465744, -0.08903171122074127, -0.07218043506145477, 0.057536497712135315, -0.05206528306007385, -0.03744891285896301, -0.06790655851364136, -0.11999243497848511, 0.12342511117458344, -0.060240089893341064, -0.09797291457653046, 0.012989774346351624, -0.10976707935333252, -0.06756201386451721, 0.039268627762794495, -0.11185342073440552, -0.108426034450531, 0.05798950791358948, -0.01872768998146057, 0.06179983913898468, -0.12433677911758423, 0.02736864984035492, -0.008417963981628418, 0.06916682422161102, 0.04035992920398712, 0.057528555393218994, 0.09576438367366791, -0.11761271953582764, 0.08453647792339325, 0.04445292055606842, 0.05272451043128967, 0.05604465305805206, 0.11364704370498657, 0.06504376232624054, -0.0021987855434417725, -0.09443855285644531, -0.032021790742874146, 0.03104710578918457, 0.08236804604530334, -0.07264529168605804, -0.10940995812416077, -0.011307582259178162, -0.06240466237068176, -0.010860458016395569, -0.08273492753505707, -0.0705290287733078, -0.009555190801620483, 0.03165684640407562, -0.10676215589046478, -0.10990104079246521, 0.013091877102851868, -0.007644787430763245], [0.060690879821777344, 0.07189673185348511, 0.1190464049577713, 0.07890406250953674, -0.006381496787071228, -0.10373954474925995, -0.003737330436706543, -0.08445301651954651, 0.018099606037139893, -0.010011017322540283, -0.011164367198944092, 0.11207801103591919, -0.009791016578674316, 0.12234500050544739, 0.03703543543815613, 0.07978110015392303, 0.029007256031036377, -0.06970357894897461, -0.11341695487499237, -0.07463738322257996, 0.0271441787481308, -0.05961515009403229, 0.030010893940925598, -0.0666070431470871, 0.005083560943603516, -0.03238891065120697, 0.0705728679895401, -0.09162338078022003, -0.10973630845546722, 0.05676886439323425, -0.042662590742111206, -0.0746401697397232, -0.10573819279670715, 0.00997859239578247, 0.03111003339290619, 0.023057788610458374, -0.07939666509628296, -0.09298157691955566, 0.016509294509887695, 0.09213344752788544, 0.08304727077484131, 0.05059255659580231, -0.0025152862071990967, -0.02437429130077362, -0.12492476403713226, -0.02585919201374054, -0.018368422985076904, -0.0746125727891922, 0.12102179229259491, 0.0695457011461258, -0.06972597539424896, -0.08092187345027924, 0.03489519655704498, 0.04809790849685669, -0.11047723889350891, 0.0909850001335144, 0.06694816052913666, -0.06704078614711761, -0.07008154690265656, 0.11469492316246033, -0.038800179958343506, -0.10320992767810822, 0.08095583319664001, 0.06623844802379608], [-0.007193729281425476, -0.08001182973384857, -0.11614455282688141, -0.12243866920471191, -0.10376204550266266, 0.11281348764896393, 0.017046838998794556, 0.035995274782180786, -0.003870740532875061, 0.06231614947319031, -0.017019405961036682, -0.03911389410495758, -0.09481684863567352, 0.033238306641578674, -0.06173910200595856, 0.12032701075077057, 0.10925553739070892, 0.006206691265106201, 0.11749781668186188, 0.03729139268398285, -0.02713744342327118, 0.11015258729457855, -0.07041013240814209, -0.05581320822238922, 0.1216755360364914, 0.09316404163837433, -0.016435205936431885, -0.10425612330436707, -0.03220811486244202, 0.028616905212402344, 0.07874348759651184, -0.01795653998851776, -0.0207216739654541, 0.0280124694108963, -0.005597800016403198, 0.04420781135559082, 0.08028160035610199, -0.07807709276676178, 0.12349574267864227, -0.0666944682598114, -0.10415180027484894, -0.10759355127811432, -0.001652553677558899, -0.07934845983982086, 0.07192444801330566, -0.025122806429862976, 0.115388885140419, -0.08941173553466797, -0.11277292668819427, -0.040067434310913086, 0.0896359533071518, 0.07742723822593689, 0.09014041721820831, -0.10343201458454132, 0.09876815974712372, 0.08252933621406555, -0.05959917604923248, 0.10366609692573547, -0.06882984936237335, 0.04987552762031555, -0.09252867102622986, -0.04125469923019409, -0.061666518449783325, 0.06102918088436127], [-0.02970053255558014, 0.1241503357887268, 0.0028723180294036865, -0.07156169414520264, -0.11026297509670258, 0.06671293079853058, -0.07669039070606232, -0.004603445529937744, -0.03823390603065491, -0.048761919140815735, -0.07699854671955109, 0.07907335460186005, 0.12279200553894043, -0.11925916373729706, -0.06206193566322327, -0.12469908595085144, -0.11672215163707733, -0.06799687445163727, 0.05972091853618622, -0.0002620816230773926, -0.10905830562114716, 0.06279397010803223, -0.0014008283615112305, 0.03551375865936279, -0.11451731622219086, 0.07044455409049988, -0.07394823431968689, -0.12412448227405548, 0.025143131613731384, 0.06291310489177704, -0.0726330578327179, -0.06793633103370667, -0.023826241493225098, -0.003877967596054077, -0.04548220336437225, 0.0008552074432373047, 0.1103629320859909, -0.07575148344039917, 0.00270041823387146, 0.10874748229980469, 0.08377274870872498, -0.1230948269367218, 0.051498740911483765, -0.035265952348709106, 0.11985662579536438, -0.11048130691051483, 0.015858396887779236, -0.08837781846523285, -0.11696289479732513, -0.04748190939426422, -0.09036065638065338, -0.04279893636703491, -0.06738793849945068, 0.020523682236671448, -0.05053161084651947, 0.04629726707935333, -0.04124791920185089, 0.036497920751571655, -0.051364779472351074, 0.11353486776351929, -0.08759813010692596, -0.029149219393730164, 0.07967223227024078, -0.02601844072341919], [-0.0300309956073761, -0.06001424789428711, 0.09597158432006836, -0.11711271107196808, -0.07584585249423981, -0.02915222942829132, -0.0002957582473754883, 0.041473388671875, -0.00014804303646087646, 0.002905130386352539, 0.062137752771377563, -0.03465132415294647, -0.028896868228912354, -0.0717240422964096, -0.037908732891082764, 0.06719435751438141, -0.1195363998413086, -0.05675654113292694, 0.05610811710357666, -0.0658939778804779, 0.10938279330730438, -0.11629068851470947, -0.06793425977230072, 0.08870279788970947, 0.11329108476638794, -0.08993448317050934, -0.10486385226249695, 0.005765363574028015, -0.002550363540649414, 0.11243221163749695, -0.07644222676753998, 0.1014946699142456, 0.0180865079164505, 0.06965772807598114, 0.027413785457611084, 0.05522152781486511, 0.10852912068367004, 0.023531511425971985, 0.08169937133789062, 0.12466776371002197, -0.0762881338596344, -0.12012737989425659, -0.04086577892303467, -0.07368399202823639, -0.07988621294498444, -0.08842705190181732, -0.12179219722747803, 0.045064449310302734, -0.03585010766983032, 0.10813327133655548, -0.06935134530067444, -0.011894553899765015, -0.008560895919799805, -0.0037736743688583374, 0.07870063185691833, -0.09098140895366669, -0.12322193384170532, 0.09966498613357544, 0.12327918410301208, 0.02403855323791504, 0.06753608584403992, -0.07570792734622955, -0.01325252652168274, -0.05573567748069763], [0.07009853422641754, 0.08465087413787842, 0.028507769107818604, -0.09985986351966858, 0.10887312889099121, 0.12454146146774292, -0.057399824261665344, -0.1019788384437561, -0.014026418328285217, -0.0020212382078170776, -0.03527967631816864, -0.11636923253536224, -0.010928034782409668, -0.002625197172164917, -0.09523092210292816, -0.061100393533706665, -0.08984345197677612, -0.005271062254905701, 0.08189313113689423, 0.02052001655101776, -0.04977543652057648, -0.09008535742759705, 0.03346729278564453, 0.007693365216255188, 0.03496260941028595, 0.11828739941120148, 0.07538731396198273, -0.03194151818752289, -0.051870375871658325, -0.04860334098339081, 0.07224683463573456, -0.10081399977207184, 0.04535873234272003, -0.08272626996040344, -0.019121035933494568, 0.055365562438964844, -0.07962824404239655, -0.029248103499412537, 0.012966036796569824, -0.06670543551445007, 0.07220986485481262, 0.11912555992603302, 0.07180176675319672, -0.06656567752361298, 0.04011012613773346, -0.041572391986846924, -0.031528860330581665, -0.08364531397819519, -0.115760937333107, 0.10663355886936188, 0.022431954741477966, 0.007353603839874268, -0.02064467966556549, 0.12090860307216644, 0.06735163927078247, 0.12318000197410583, 0.11009655892848969, -0.022089466452598572, 0.005516156554222107, 0.09275208413600922, -0.08275255560874939, -0.09216383099555969, -0.10077549517154694, -0.0028550922870635986], [0.010882988572120667, -0.042389482259750366, -0.07078157365322113, -0.01967202126979828, -0.03976644575595856, 0.01257304847240448, 0.12297937273979187, 0.10406424105167389, 0.0521460622549057, 0.07792805135250092, -0.03663258254528046, -0.09640400111675262, 0.027982249855995178, 0.10758580267429352, 0.09461194276809692, -0.05162358283996582, -0.01313917338848114, -0.08700327575206757, 0.014088109135627747, 0.06273967027664185, 0.048921093344688416, 0.0648670494556427, -0.10357603430747986, -0.08077260851860046, -0.09264335036277771, -0.0401008278131485, -0.03755606710910797, 0.01608961820602417, 0.08465059101581573, 0.11357244849205017, 0.1163695752620697, 0.07710893452167511, -0.07815909385681152, 0.10773125290870667, 0.07611671090126038, 0.035710424184799194, 0.030705705285072327, 0.08474110066890717, -0.05085836350917816, -0.08995413780212402, -0.0655834823846817, 0.06515525281429291, -0.12101227045059204, 0.027048155665397644, -0.07343026995658875, 0.0183870792388916, 0.01397143304347992, 0.061050355434417725, 0.07026451826095581, -0.05361691117286682, -0.04187797009944916, 0.05605447292327881, -0.009015142917633057, -0.013368964195251465, 0.09355193376541138, -0.0028571337461471558, 0.05815121531486511, 0.034443676471710205, -0.11761936545372009, -0.01657247543334961, 0.06930135190486908, -0.10603673756122589, -0.10464538633823395, 0.006794944405555725], [0.051458731293678284, -0.038783371448516846, -0.059987664222717285, 0.11934821307659149, 0.09701643884181976, 0.07606425881385803, -0.011565133929252625, 0.0737648606300354, -0.017441213130950928, -0.1009664535522461, 0.10015183687210083, -0.028108224272727966, -0.11604572832584381, 0.06350021064281464, -0.036446407437324524, -0.09228943288326263, 0.07291395962238312, -0.021966055035591125, 0.011302411556243896, -0.10794377326965332, 0.11417177319526672, 0.07669048011302948, 0.008627727627754211, 0.06013853847980499, -0.08009606599807739, -0.03039337694644928, 0.0654519647359848, 0.10755972564220428, 0.05408935248851776, 0.10532239079475403, -0.06306429207324982, 0.07280422747135162, -0.03488519787788391, -0.10382254421710968, -0.008687302470207214, 0.10558883845806122, 0.09998787939548492, 0.023237869143486023, 0.033168137073516846, -0.09324932098388672, 0.018239587545394897, -0.008440658450126648, 0.01720847189426422, 0.012205913662910461, -0.08698472380638123, -0.0798858255147934, -0.05002422630786896, -0.029619470238685608, 0.04560527205467224, 0.04665747284889221, 0.08444073796272278, 0.11859267950057983, 0.039228200912475586, -0.004792347550392151, -0.06322287023067474, -0.12294676899909973, -0.07969936728477478, 0.07828591763973236, 0.003642737865447998, -0.10214938223361969, -0.050286173820495605, 0.03304797410964966, -0.08850693702697754, -0.0626835972070694], [-0.1100473701953888, 0.06880411505699158, -0.08118580281734467, 0.0460759699344635, 0.06826472282409668, -0.013025715947151184, -0.08359284698963165, 0.04851663112640381, 0.030057117342948914, 0.05801187455654144, 0.10978002846240997, -0.09785035252571106, 0.10197649896144867, 0.04752889275550842, 0.12103457748889923, -0.00909075140953064, 0.10537554323673248, 0.008481651544570923, -0.015154063701629639, -0.04391081631183624, -0.014091864228248596, 0.05431555211544037, -0.1229078620672226, 0.025095149874687195, 0.0621020644903183, 0.048503220081329346, -0.06298960745334625, -0.09082069993019104, -0.1057252287864685, -0.051789671182632446, 0.022637292742729187, 0.08661086857318878, -0.034276947379112244, -0.06830340623855591, 0.035488829016685486, 0.11799424886703491, -0.03890471160411835, 0.021134555339813232, -0.10385206341743469, -0.004573807120323181, -0.11661587655544281, 0.08929593861103058, -0.0003449767827987671, 0.10477994382381439, 0.040507227182388306, 0.07454755902290344, -0.003079652786254883, -0.041139379143714905, 0.08779166638851166, -0.053416699171066284, 0.11617599427700043, 0.0354781448841095, 0.0034255683422088623, -0.120531365275383, -0.030587852001190186, 0.1022813469171524, -0.10430973768234253, -0.06556704640388489, -0.03449910879135132, -0.05676357448101044, 0.09732872247695923, -0.06120724976062775, -0.08074072003364563, 0.12416377663612366], [0.048007309436798096, -0.061169326305389404, 0.10579036176204681, 0.0486244261264801, 0.013821125030517578, -0.062062278389930725, -0.047716543078422546, 0.07762052118778229, 0.007686108350753784, 0.08528900146484375, 0.11579449474811554, 0.05873008072376251, 0.030305013060569763, -0.027693167328834534, -0.02821826934814453, 0.07175056636333466, 0.017800942063331604, -0.10869604349136353, 0.07442422211170197, -0.09319271147251129, -0.08169138431549072, 0.0570969432592392, -0.09360018372535706, -0.04583355784416199, 0.03614901006221771, 0.005740314722061157, 0.004201352596282959, 0.10183820128440857, 0.1202717125415802, -0.02663607895374298, 0.07612888514995575, -0.025445565581321716, -0.05019795894622803, -0.12461653351783752, -0.10941588878631592, -0.0010076910257339478, -0.04615435004234314, 0.06104665994644165, 0.09105849266052246, 0.058036282658576965, 0.10615195333957672, 0.016425594687461853, 0.07033097743988037, -0.07151347398757935, 0.05140914022922516, -0.03468628227710724, -0.07625330984592438, 0.04830029606819153, -0.10958589613437653, 0.09227582812309265, -0.118485227227211, -0.020871266722679138, -0.07817906141281128, 0.10724355280399323, 0.0874786525964737, -0.03282840549945831, -0.1138203889131546, -0.115634486079216, -0.019547849893569946, -0.11566780507564545, 0.05617712438106537, 0.12186673283576965, 0.054285869002342224, -0.01258803904056549], [0.10859508812427521, -0.0722246915102005, 0.06904250383377075, 0.10292059183120728, 0.11686675250530243, -0.08990423381328583, -0.08236829936504364, -0.024559229612350464, -0.01714092493057251, 0.09605877101421356, 0.11308684945106506, -0.11253257095813751, -0.07809959352016449, -0.08848366141319275, -0.08358284831047058, -0.06414236128330231, -0.061224982142448425, 0.03029775619506836, 0.011732876300811768, -0.017460867762565613, -0.027119755744934082, -0.02680899202823639, 0.0006664097309112549, 0.07497532665729523, 0.10841409862041473, 0.10763542354106903, 0.0875643640756607, -0.056669995188713074, -0.04207679629325867, -0.10376493632793427, 0.042774468660354614, -0.05529756844043732, -0.12307637929916382, 0.03728313744068146, -0.0890556275844574, 0.009468868374824524, 0.10232691466808319, 0.04080374538898468, -0.07580935955047607, -0.09843896329402924, -0.038940563797950745, -0.09950868785381317, 0.06764091551303864, -0.008097395300865173, 0.0421757698059082, -0.05555786192417145, 0.12222543358802795, -0.08308039605617523, 0.1101369857788086, 0.06477242708206177, 0.04886963963508606, 0.008953958749771118, 0.07689379155635834, -0.036162808537483215, -0.09483663737773895, 0.012158110737800598, -0.00547066330909729, 0.010503068566322327, -0.03780578076839447, -0.07185208797454834, -0.11077733337879181, -0.04994179308414459, -0.011726632714271545, -0.10694774985313416], [0.003315061330795288, -0.009551063179969788, 0.04922068119049072, -0.11559106409549713, 0.06286048889160156, 0.09595222771167755, 0.030896872282028198, 0.012572810053825378, -0.006073430180549622, -0.105064257979393, 0.10925593972206116, 0.08877599239349365, 0.050411537289619446, 0.0967465490102768, -0.05427968502044678, -0.05173236131668091, -0.10539251565933228, -0.06735429167747498, 0.08246295154094696, 0.10671675205230713, -0.08945302665233612, 0.04222594201564789, -0.11193980276584625, -0.0430523157119751, -0.08760936558246613, 0.01249532401561737, 0.03465850651264191, -0.12289004027843475, -0.12016434967517853, 0.07374262809753418, 0.08794155716896057, 0.001901090145111084, -0.03453868627548218, 0.11733818054199219, 0.09313169121742249, -0.010560199618339539, 0.010614767670631409, 0.008774012327194214, 0.021243229508399963, -0.01655369997024536, -0.09524615108966827, 0.030628859996795654, -0.11398597061634064, -0.051436930894851685, 0.11381050944328308, 0.11585789918899536, 0.05632409453392029, 0.021775439381599426, 0.07069408893585205, 0.09768974781036377, 0.09526143968105316, -0.07957231998443604, -0.0017558187246322632, 0.07244151830673218, 0.10070578753948212, 0.11298774182796478, -0.060486048460006714, 0.02158978581428528, 0.07424913346767426, -0.0010100901126861572, 0.12369702756404877, 0.08775001764297485, 0.030975326895713806, -0.029785364866256714], [0.047467440366744995, -0.07074199616909027, -0.05615071952342987, -0.05270703136920929, -0.11154656112194061, -0.06714601814746857, -0.09485819935798645, -0.1046200841665268, -0.08202441036701202, -0.05351266264915466, -0.10866773128509521, -0.11991557478904724, 0.11846242845058441, -0.05974738299846649, 0.0205705463886261, 0.10769841074943542, -0.03867432475090027, 0.12221620976924896, -0.008536428213119507, 0.09433674812316895, 0.011018559336662292, -0.07700817286968231, -0.08698469400405884, -0.00432172417640686, -0.021265819668769836, 0.10862046480178833, 0.11821594834327698, 0.00601351261138916, -0.0793502926826477, -0.09909375011920929, -0.041345998644828796, 0.062496453523635864, 0.10606150329113007, 0.1182033121585846, -0.10768933594226837, 0.050290778279304504, 0.04373528063297272, -0.0420994758605957, 0.05400992929935455, -0.03141018748283386, -0.10102933645248413, 0.07717272639274597, 0.12116281688213348, 0.07724709808826447, 0.08385133743286133, 0.009796440601348877, -0.02468201518058777, -0.036556050181388855, 0.06267240643501282, 0.11025199294090271, -0.05596466362476349, 0.09726345539093018, 0.1069880872964859, 0.051175668835639954, 0.08068017661571503, -0.10390974581241608, 0.03615802526473999, 0.07461963593959808, 0.0683230310678482, -0.06311477720737457, 0.03499835729598999, -0.038358673453330994, -0.07021279633045197, -0.10182835161685944], [-0.042825669050216675, -0.06839315593242645, -0.08749961853027344, 0.12204986810684204, -0.02357521653175354, -0.021448329091072083, -0.10071364045143127, 0.00391213595867157, -0.027730867266654968, 0.03469546139240265, 0.10482704639434814, 0.048792764544487, -0.08467189967632294, 0.014767423272132874, -0.12334458529949188, 0.004947498440742493, -0.0009441226720809937, -0.06367574632167816, 0.11639969050884247, -0.12313082814216614, 0.09511847794055939, -0.07147407531738281, 0.1159302294254303, 0.01860716938972473, -0.07423865795135498, 0.08832915127277374, -0.004130274057388306, -0.005040287971496582, 0.11282867193222046, 0.0920487493276596, -0.11613558232784271, -0.03354896605014801, -0.02740064263343811, -0.02999792993068695, 0.07871422171592712, -0.08908264338970184, -0.05511520802974701, 0.05749979615211487, -0.02344435453414917, 0.009490400552749634, -0.0643637627363205, -0.02899417281150818, 0.028109729290008545, 0.09784764051437378, 0.08567775785923004, 0.0158882737159729, -0.06715220212936401, 0.08038930594921112, 0.015960678458213806, 0.0790938287973404, -0.08942227065563202, 0.0037168413400650024, -0.06233718991279602, -0.01839318871498108, -0.020121440291404724, -0.06541275978088379, 0.012179911136627197, -0.013916179537773132, 0.0004945248365402222, -0.05755205452442169, -0.04901599884033203, -0.11200384795665741, -0.11671300232410431, -0.006204366683959961], [0.04288013279438019, 0.0017063915729522705, -0.02129945158958435, 0.04788675904273987, -0.04073387384414673, -0.009062513709068298, -0.11884951591491699, -0.08843021094799042, -0.018358781933784485, 0.1222069263458252, 0.030779555439949036, 0.038929447531700134, 0.04486896097660065, 0.0829266756772995, -0.08974878489971161, -0.021395206451416016, -0.05786415934562683, 0.08533807098865509, 0.12243814766407013, -0.1185067892074585, -0.05320218205451965, -0.056059762835502625, 0.02177952229976654, -0.07452374696731567, -0.046527355909347534, 0.03178364038467407, 0.1152816116809845, -0.04083086550235748, -0.07600529491901398, 0.10863496363162994, -0.08710765838623047, 0.0657695084810257, -0.02052585780620575, -0.02165190875530243, 0.12023404240608215, -0.07401412725448608, 0.018440723419189453, -0.11128786206245422, -0.06668679416179657, -0.04708270728588104, 0.05693884193897247, -0.0033665597438812256, -0.07774117588996887, 0.09560112655162811, 0.1061156839132309, 0.0004912614822387695, 0.035004422068595886, 0.0825052261352539, -0.06929124891757965, 0.09064167737960815, 0.09737226366996765, 0.017530322074890137, -0.07743214070796967, 0.00652042031288147, -0.00845511257648468, 0.1223701685667038, -0.05047449469566345, -0.0010919272899627686, -0.10723447799682617, -0.11414393782615662, -0.06723129749298096, -0.047546014189720154, 0.09421573579311371, 0.00945541262626648], [0.03938940167427063, -0.014456182718276978, 0.058692336082458496, -0.043193548917770386, 0.017278358340263367, 0.01148417592048645, -0.09347780048847198, 0.09543228149414062, -0.07640796899795532, 0.001986488699913025, 0.040679603815078735, 0.029039204120635986, -0.008775100111961365, -0.03683212399482727, 0.09511202573776245, 0.07105836272239685, -0.06240852177143097, 0.0972064882516861, 0.012241676449775696, -0.043234989047050476, 0.09059296548366547, 0.10287225246429443, 0.01157793402671814, -0.08145992457866669, 0.08880521357059479, 0.02470003068447113, 0.00819176435470581, 0.09707674384117126, -0.07725752890110016, 0.11741368472576141, -0.011872753500938416, -0.03629700839519501, -0.03984132409095764, -0.069184809923172, -0.0681241899728775, 0.03582252562046051, -0.03876033425331116, -0.06265543401241302, -0.10597632825374603, -0.08762998878955841, 0.06619715690612793, 0.007238075137138367, 0.11709846556186676, 0.058867305517196655, -0.11445890367031097, 0.004424229264259338, -0.07572856545448303, -0.012221917510032654, -0.08990129828453064, 0.02913406491279602, -0.10499608516693115, -0.11131788790225983, -0.1100672036409378, 0.046976953744888306, 0.09936529397964478, -0.0666416585445404, 0.11719763278961182, 0.09179732203483582, 0.036420345306396484, 0.11657498776912689, -0.010074228048324585, 0.021181315183639526, -0.043270885944366455, -0.07205154001712799], [-0.1106080412864685, 0.11515453457832336, -0.05362290143966675, -0.044966861605644226, -0.029769480228424072, 0.08585375547409058, -0.0899616926908493, 0.0855238288640976, 0.01966792345046997, -0.11689282953739166, 0.06030818819999695, 0.11948342621326447, -0.022918537259101868, -0.007546335458755493, -0.007160872220993042, 0.021893933415412903, 0.08083288371562958, 0.0037638843059539795, -0.0527668297290802, 0.0810219794511795, 0.11354868113994598, -0.06504392623901367, -0.021888509392738342, -0.05901405215263367, -0.09925435483455658, -0.023133844137191772, 0.07945460081100464, -0.048906564712524414, 0.023188859224319458, -0.09773117303848267, 0.056425899267196655, -0.03195933997631073, -0.004762366414070129, -0.08988536894321442, 0.0566314160823822, -0.010676473379135132, 0.05497583746910095, 0.005978822708129883, 0.004165515303611755, 0.0037312209606170654, 0.020066291093826294, 0.11414696276187897, 0.0914912223815918, -0.0002496689558029175, 0.07289756834506989, -0.0755172073841095, -0.05217759311199188, 0.08443164825439453, 0.07715028524398804, 0.022551491856575012, -0.059819117188453674, -0.03311063349246979, 0.08166895806789398, -0.006367385387420654, 0.035649850964546204, -0.11383163928985596, 0.0816124975681305, 0.040087491273880005, 0.04971471428871155, -0.1136997789144516, 0.09631243348121643, -0.045386284589767456, 0.12300163507461548, 0.11920911073684692], [0.12210449576377869, -0.09205502271652222, -0.005460679531097412, 0.11797891557216644, 0.04872995615005493, 0.1132248193025589, -0.0766105055809021, -0.10396386682987213, -0.0335010290145874, 0.1102554053068161, 0.09305110573768616, 0.022797122597694397, 0.033005326986312866, 0.02965119481086731, 0.11859241127967834, 0.1017322987318039, -0.042817190289497375, -0.1184043437242508, -0.06689453125, 0.07361806929111481, 0.12455838918685913, 0.06441250443458557, -0.12322811782360077, 0.08920826017856598, 0.12366041541099548, -0.06730875372886658, -0.12348894774913788, 0.0922994613647461, -0.09713174402713776, -0.12355336546897888, -0.07904012501239777, 0.026985928416252136, -0.03576217591762543, 0.027465060353279114, 0.09325563907623291, 0.00947713851928711, 0.011676028370857239, 0.043602168560028076, 0.08089524507522583, 0.09815014898777008, -0.026049837470054626, -0.004875659942626953, -0.04550158977508545, 0.005274474620819092, -0.07102267444133759, -0.10290250182151794, 0.04265971481800079, 0.0439753383398056, 0.06731623411178589, -0.0177047997713089, -0.07613016664981842, 0.040528059005737305, 0.014429047703742981, 0.09612223505973816, -0.0533742755651474, 0.013389959931373596, 0.046071335673332214, 0.1171174943447113, 0.05472615361213684, -0.10611850023269653, -0.09974370896816254, -0.01969093084335327, -0.06288041174411774, -0.07586301863193512], [-0.09514307975769043, 0.004732072353363037, -0.06262342631816864, 0.001578494906425476, -0.040621474385261536, 0.0977906733751297, -0.05881620943546295, 0.08534933626651764, -0.01280336081981659, 0.05880165100097656, -0.10356026887893677, -0.07407750189304352, 0.06367549300193787, -0.11236384510993958, -0.05092787742614746, -0.08545154333114624, -0.015892475843429565, 0.039733678102493286, -0.030910789966583252, 0.12426285445690155, -0.12146607041358948, -0.08464919030666351, -0.036006852984428406, 0.09910750389099121, 0.0573163777589798, -0.10007108747959137, -0.11927105486392975, 0.0535697340965271, 0.024325773119926453, -0.046277791261672974, 0.09942835569381714, -0.012198597192764282, 0.09381251037120819, 0.10279464721679688, -0.09024904668331146, -0.06360256671905518, -0.031078040599822998, -0.06746020913124084, -0.0601554811000824, -0.0834764838218689, 0.019818603992462158, 0.11179885268211365, 0.09546570479869843, 0.09094394743442535, -0.01682238280773163, 0.04068996012210846, 0.10403290390968323, 0.06092140078544617, -0.011323243379592896, -0.0757279098033905, -0.05193251371383667, -0.004961058497428894, 0.036253780126571655, -0.027007758617401123, 0.10355713963508606, 0.10977821052074432, -0.07237164676189423, 0.08883127570152283, 0.034465402364730835, -0.09624671936035156, -0.005773171782493591, 0.013375774025917053, -0.11740334331989288, -0.038295820355415344], [0.09968447685241699, -0.032277628779411316, 0.025628134608268738, -0.11783011257648468, 0.12486597895622253, -0.04568442702293396, -0.051397427916526794, 0.07770907878875732, -0.09469324350357056, -0.006089270114898682, -0.0009012967348098755, 0.048180848360061646, -0.03564856946468353, 0.01680546998977661, 0.051721394062042236, 0.12433242797851562, -0.04137566685676575, -0.0077522993087768555, -0.009746134281158447, 0.11864152550697327, 0.02276819944381714, 0.03489598631858826, -0.12467056512832642, 0.05152316391468048, 0.003540545701980591, -0.014023959636688232, -0.1144801676273346, -0.08516193926334381, -0.020088180899620056, -0.007390812039375305, -0.04556453227996826, 0.08082199096679688, 0.10489660501480103, -0.09548400342464447, 0.09065194427967072, 0.08002455532550812, -0.002758309245109558, -0.04605565965175629, 0.0644671618938446, 0.1207944005727768, 0.03518436849117279, -0.08461032807826996, 0.04018069803714752, 0.0869503915309906, 0.0767747312784195, -0.07808780670166016, -0.07377329468727112, 0.09593275189399719, 0.05852228403091431, 0.012817680835723877, 0.03164061903953552, -0.029365703463554382, -0.06889215111732483, 0.020731419324874878, 0.02748015522956848, -0.11509551107883453, -0.07225032150745392, 0.07108338177204132, -0.05501575767993927, -0.06387276947498322, 0.0103331059217453, 0.12079493701457977, -0.05596187710762024, -0.07192879915237427], [-0.10645407438278198, 0.03177349269390106, 0.004547134041786194, 0.06721837818622589, 0.06722195446491241, 0.04669800400733948, -0.05487090349197388, -0.00798623263835907, 0.11237926781177521, 0.05303652584552765, 0.04302684962749481, 0.10722540318965912, -0.05118836462497711, -0.11126792430877686, 0.006119519472122192, 0.08270414173603058, 0.12243494391441345, -0.0713314563035965, 0.10974662005901337, -0.11471402645111084, -0.06911873817443848, -0.03208048641681671, -0.07164314389228821, 0.07052171230316162, 0.04500317573547363, 0.07570591568946838, -0.09779748320579529, -0.048388123512268066, -0.01214541494846344, -0.03793439269065857, -0.018071651458740234, -0.12281148135662079, -0.08988767862319946, -0.031627967953681946, 0.028622746467590332, 0.029897227883338928, 0.041012465953826904, 0.016589254140853882, -0.023546352982521057, -0.11770159006118774, 0.12435254454612732, 0.08997505903244019, -0.10918419063091278, 0.06337164342403412, 0.09539224207401276, -0.11450091004371643, -0.04763054847717285, -0.10285399854183197, -0.024115368723869324, 0.022224336862564087, 0.08185367286205292, -0.10918256640434265, -0.061672091484069824, 0.08945353329181671, 0.006950289011001587, 0.09965044260025024, -0.055334270000457764, 0.0937938243150711, -0.028618916869163513, -0.082735076546669, -0.08817741274833679, 0.12090680003166199, 0.05122239887714386, 0.02074301242828369], [0.01734977960586548, -0.117622509598732, -0.10603725910186768, -0.02136005461215973, 0.09429651498794556, -0.03396673500537872, -0.09832093119621277, -0.03795705735683441, -0.03242671489715576, -0.07824152708053589, -0.005300283432006836, 0.030760735273361206, 0.1216888427734375, 0.005150958895683289, -0.007239148020744324, -0.059738755226135254, 0.031153306365013123, -0.0345848947763443, -0.08627305924892426, 0.0838831216096878, 0.005062788724899292, -0.053102388978004456, 0.0981450229883194, 0.0048944950103759766, 0.10139837861061096, -0.002960026264190674, -0.09706565737724304, -0.06947043538093567, -0.08474022150039673, 0.10453431308269501, 0.10135573148727417, -0.09985703229904175, 0.062301769852638245, 0.03509494662284851, -0.05601343512535095, -0.038439005613327026, -0.10870721936225891, 0.002047106623649597, 0.03473977744579315, -0.10646924376487732, 0.08164969086647034, 0.037692368030548096, 0.0839197039604187, -0.08996699750423431, -0.0971069186925888, -0.001514047384262085, -0.018739163875579834, -0.018948718905448914, 0.012088477611541748, 0.06989212334156036, 0.01704534888267517, -0.07452483475208282, -0.11955836415290833, 0.12042698264122009, 0.06269815564155579, 0.0002648681402206421, 0.015374243259429932, 0.06254084408283234, 0.003813803195953369, -0.043155401945114136, 0.02537854015827179, 0.0056859999895095825, -0.005235001444816589, 0.06057478487491608], [-0.0684690922498703, 0.03073360025882721, -0.08437985181808472, 0.004103109240531921, -0.019641339778900146, -0.11489212512969971, -0.09827964007854462, -0.00480613112449646, -0.07464894652366638, -0.07227484881877899, -0.004262149333953857, -0.00751572847366333, 0.07435081899166107, 0.09281426668167114, 0.036793842911720276, -0.12049610912799835, -0.030792102217674255, -0.10795606672763824, -0.015430152416229248, -0.05126611888408661, -0.0930434912443161, 0.02891179919242859, -0.03127206861972809, 0.11260417103767395, 0.014922872185707092, 0.04761908948421478, -0.053304627537727356, 0.11931484937667847, 0.12253113090991974, -0.03307074308395386, 0.07459725439548492, -0.056768447160720825, 0.043073371052742004, -0.010745912790298462, 0.026142984628677368, -0.03762461245059967, 0.045730188488960266, 0.04484063386917114, -0.03165233135223389, 0.0003856867551803589, 0.04848755896091461, -0.09794412553310394, 0.08758389949798584, 0.11319680511951447, -0.08539147675037384, -0.031616032123565674, -0.055407002568244934, 0.0037546902894973755, 0.10144895315170288, 0.0445922315120697, 0.1178937703371048, 0.03576260805130005, -0.02427823841571808, 0.08580775558948517, 0.06372906267642975, 0.03293679654598236, -0.03837348520755768, -0.07210968434810638, 0.029949501156806946, -0.03469249606132507, -0.01356939971446991, -0.09904240071773529, 0.10092148184776306, -0.07373499870300293], [-0.12146665155887604, 0.08970941603183746, 0.05757349729537964, -0.10665857791900635, 0.050415828824043274, -0.0024787336587905884, -0.05763229727745056, -0.02376018464565277, 0.12270455062389374, 0.07195520401000977, 0.06043298542499542, 0.1246570497751236, 0.07830546796321869, -0.05709226429462433, -0.041364118456840515, 0.04279276728630066, -0.07869341969490051, 0.04271520674228668, 0.12026861310005188, 0.05313728749752045, 0.0930115282535553, -0.09620490670204163, 0.0011322647333145142, 0.10000252723693848, 0.08762796223163605, -0.0701761543750763, -0.032012104988098145, -0.0416908860206604, -0.10877962410449982, 0.01153784990310669, -0.12182155251502991, 0.016867652535438538, 0.04626061022281647, 0.0823601633310318, -0.05070437490940094, 0.07780736684799194, 0.05201756954193115, 0.08847126364707947, 0.05373391509056091, 0.08986033499240875, 0.008590906858444214, 0.1017439216375351, -0.08852148056030273, -0.09525075554847717, 0.09362030029296875, 0.005416512489318848, 0.046699538826942444, 0.08883757889270782, 0.041866183280944824, 0.0437631756067276, -0.04201401770114899, -0.019238144159317017, -0.0751378983259201, -0.030494481325149536, -0.06719914078712463, -0.07060976326465607, -0.039773598313331604, -0.08295994997024536, -0.05365261435508728, -0.1242242157459259, 0.12056244909763336, 0.03836408257484436, 0.018456384539604187, 0.044454947113990784], [0.03178858757019043, -0.05679316818714142, 0.020328238606452942, 0.011435404419898987, 0.06839868426322937, 0.037066251039505005, 0.04594917595386505, -0.032692283391952515, 0.06847232580184937, 0.11294932663440704, 0.08635792136192322, -0.0651506632566452, -0.025731578469276428, -0.07369755208492279, -0.10736142098903656, 0.04302865266799927, 0.11018452048301697, -0.06480404734611511, -0.07692043483257294, -0.0809355229139328, 0.02273257076740265, 0.002021700143814087, -0.0616367906332016, -0.00739935040473938, 0.0826149582862854, 0.07356500625610352, -0.0129128098487854, 0.031630441546440125, -0.08637546002864838, 0.12009899318218231, 0.10501378774642944, -0.07876855134963989, -0.05894093215465546, -0.11201296746730804, -0.010561123490333557, 0.057549357414245605, -0.06374770402908325, 0.075991690158844, -0.09928345680236816, 0.10668495297431946, 0.08073221147060394, -0.09838318824768066, -0.049557074904441833, -0.0919131487607956, 0.08020231127738953, -0.026935920119285583, 0.06309674680233002, 0.03237798810005188, 0.10746867954730988, 0.10560742020606995, -0.07078243792057037, 0.021703749895095825, -0.10641902685165405, 0.09802474081516266, 0.021987199783325195, 0.04082174599170685, -0.052473053336143494, 0.023745983839035034, -0.10938365757465363, 0.08907721936702728, 0.12261652946472168, -0.012489035725593567, 0.09750822186470032, -0.037635013461112976], [-0.09121166169643402, -0.02048496901988983, -0.0678895115852356, -0.03335581719875336, -0.1084032952785492, -0.11316677927970886, 0.04889354109764099, 0.02419506013393402, 0.10855187475681305, -0.09052042663097382, 0.05507098138332367, 0.04091860353946686, -0.04446563124656677, 0.08274786174297333, 0.100479856133461, 0.07104963064193726, -0.06129568815231323, 0.10517145693302155, -0.08888663351535797, 0.021064087748527527, -0.08487962186336517, -0.07794599235057831, 0.09506206214427948, -0.006183981895446777, 0.08083905279636383, 0.04222266376018524, 0.08617670834064484, -0.03643292188644409, 0.062118396162986755, 0.12189826369285583, 0.09689897298812866, 0.1095413863658905, -0.019344612956047058, -0.017236843705177307, -0.12295186519622803, -0.07963615655899048, 0.04448913037776947, -0.058552488684654236, -0.06525138020515442, 0.0866418331861496, -0.04769854247570038, -0.013971641659736633, -0.05912512540817261, -0.06036226451396942, -0.11988335847854614, -0.043037012219429016, 0.05757182836532593, -0.10158200562000275, -0.028224870562553406, -0.03167442977428436, -0.08250771462917328, 0.09001035988330841, -0.04042205214500427, -0.04817979037761688, 0.12136109173297882, -0.003390878438949585, 0.0029487311840057373, 0.004435181617736816, 0.08194997906684875, -0.10658611357212067, -0.09873424470424652, -0.006175994873046875, -0.08868159353733063, 0.08077037334442139], [-0.004880145192146301, -0.021759897470474243, 0.00843764841556549, 0.02427235245704651, -0.06569990515708923, 0.006526440382003784, -0.11807703971862793, 0.07370087504386902, -0.08175329864025116, -0.09823410212993622, 0.09483663737773895, -0.0830562561750412, 0.09591999650001526, -0.10274723172187805, 0.03675001859664917, 0.012194812297821045, -0.06563827395439148, 0.008001402020454407, -0.0022950172424316406, 0.028820008039474487, 0.11771909892559052, 0.09149084985256195, 0.04120171070098877, 0.11905297636985779, 0.04816119372844696, 0.07723021507263184, -0.03917047381401062, -0.04270040988922119, -0.051410332322120667, 0.09286211431026459, 0.029268041253089905, 0.0969008058309555, 0.11995595693588257, -0.11609402298927307, -0.06367947161197662, -0.07649369537830353, 0.031984731554985046, 0.08244931697845459, -0.018732741475105286, -0.0951998233795166, 0.0022613555192947388, 0.08478470146656036, -0.06288023293018341, -0.017069250345230103, 0.019065678119659424, -0.10424181818962097, 0.12007375061511993, 0.012577950954437256, -0.03944361209869385, -0.11266472935676575, 0.0682072788476944, 0.11494201421737671, 0.09156359732151031, -0.019082635641098022, -0.0008932203054428101, 0.01268865168094635, -0.08612951636314392, -0.00962837040424347, -0.0985679030418396, -0.015612006187438965, -0.011401429772377014, 0.040157169103622437, -0.09294670820236206, -0.027213335037231445], [0.08497445285320282, 0.09577322006225586, -0.08065757155418396, -0.06525616347789764, 0.114047110080719, -0.05055737495422363, -0.012757942080497742, 0.07048921287059784, -0.04302765429019928, 0.046276673674583435, -0.05661195516586304, -0.06299176812171936, -0.11842332780361176, -0.07154732942581177, 0.06544974446296692, -0.11225731670856476, -0.0766150951385498, 0.016585946083068848, -0.045196667313575745, 0.01731407642364502, -0.07443301379680634, 0.052734360098838806, -0.09797284007072449, 0.05863647162914276, 0.03941158950328827, -0.07169373333454132, 0.11565692722797394, 0.06776604056358337, -0.03988105058670044, 0.10539449751377106, -0.011131048202514648, -0.06595531105995178, 0.021296709775924683, -0.05070751905441284, -0.09636175632476807, 0.05975843966007233, -0.015933603048324585, 0.08978268504142761, -0.07356640696525574, -0.12466081976890564, -0.08593860268592834, 0.06277012825012207, -0.055590271949768066, 0.058988749980926514, -0.06919169425964355, -0.005510047078132629, -0.021476075053215027, 0.0213395357131958, -0.04496541619300842, 0.09404028952121735, 0.01114894449710846, 0.05717049539089203, -0.050157129764556885, -0.04470713436603546, 0.07052181661128998, 0.031134217977523804, -0.08509519696235657, -0.0020550042390823364, -0.09137777984142303, 0.1002899706363678, -0.049039989709854126, -0.07759135961532593, -0.03971646726131439, -0.08984117209911346], [-0.08082421123981476, -0.009041771292686462, -0.025638580322265625, -0.08296602964401245, 0.09328919649124146, 0.024594008922576904, -0.04134586453437805, 0.025339126586914062, 0.11666563153266907, -0.011390134692192078, 0.0623384565114975, -0.08198358118534088, 0.10081055760383606, 0.052035391330718994, -0.005538374185562134, -0.019798219203948975, -0.022092372179031372, -0.008883252739906311, -0.04986150562763214, 0.11212797462940216, 0.09660929441452026, 0.06732067465782166, 0.11713320016860962, 0.10655693709850311, 0.07342956960201263, 0.03662216663360596, 0.00036156177520751953, -0.1109134703874588, -0.11250641942024231, -0.05714535713195801, 0.019318878650665283, 0.02161160111427307, -0.07945451140403748, -0.10717886686325073, -0.07215215265750885, 0.038151368498802185, 0.12462364137172699, -0.03458285331726074, 0.09252163767814636, -0.0901317149400711, 0.07686440646648407, -0.10446260869503021, -0.03390304744243622, -0.08108372986316681, -0.09160582721233368, -0.058831989765167236, 0.03575092554092407, -0.10255327820777893, -0.07425059378147125, -0.0808941125869751, -0.06585244834423065, -0.07680295407772064, -0.0681905448436737, -0.004603788256645203, 0.036970898509025574, 0.06509765982627869, -0.028088554739952087, 0.10118579864501953, 0.07641354203224182, 0.004143700003623962, 0.08378642797470093, 0.011451303958892822, 0.10191594064235687, -0.05204954743385315], [-0.07237578928470612, -0.06205242872238159, -0.08445164561271667, -0.10158051550388336, 0.08464214205741882, -0.1222698837518692, -0.005655750632286072, -0.10783183574676514, 0.09839363396167755, -0.06337922811508179, 0.0838480293750763, 0.03433993458747864, 0.08340741693973541, -0.022181138396263123, 0.009697496891021729, -0.06833140552043915, -0.12101370096206665, -0.07944613695144653, 0.11781765520572662, 0.027272731065750122, 0.11444735527038574, 0.03362317383289337, -0.09579180181026459, -0.01750364899635315, 0.062188878655433655, 0.09097553789615631, 0.011326640844345093, -0.08038376271724701, -0.09586894512176514, -0.1133260577917099, 0.013902127742767334, -0.08343850076198578, 0.08055903017520905, 0.04345420002937317, 0.07324421405792236, 0.0902395099401474, 0.09453654289245605, -0.05446085333824158, -0.09841202199459076, -0.01698838174343109, 0.021587848663330078, 0.09507347643375397, -0.04417647421360016, -0.02228027582168579, 0.09541870653629303, 0.0539105087518692, -0.08787859976291656, 0.09325475990772247, -0.10248926281929016, 0.07765969634056091, -0.037902072072029114, -0.017811954021453857, 0.06609891355037689, 0.10030485689640045, 0.050559163093566895, -0.10426533222198486, 0.014691680669784546, -0.03132075071334839, 0.050959452986717224, 0.051091328263282776, -0.09326580166816711, 0.11449137330055237, 0.02376513183116913, -0.07239872217178345], [0.01490873098373413, -0.08502544462680817, 0.05087648332118988, 0.042379721999168396, 0.05101701617240906, -0.052327960729599, 0.002284809947013855, -0.09196081757545471, 0.05531869828701019, 0.06405232846736908, 0.0741877555847168, -0.03676678240299225, -0.01902681589126587, -0.02095910906791687, -0.0180770605802536, 0.005263015627861023, 0.048831403255462646, 0.08682553470134735, -0.1006365716457367, -0.033434152603149414, 0.05152274668216705, 0.016398578882217407, 0.11064867675304413, 0.05035100877285004, 0.06625111401081085, 0.1065649539232254, -0.11930698156356812, 0.07491691410541534, -0.03146609663963318, -0.05936560034751892, 0.10549910366535187, 0.12441179156303406, -0.07127955555915833, -0.08577029407024384, 0.03264656662940979, 0.11259576678276062, -0.029220938682556152, -0.06966087222099304, -0.029917895793914795, -0.059015482664108276, 0.0303250253200531, -0.01748068630695343, 0.09424977004528046, -0.10856969654560089, 0.0695222020149231, -0.09972193837165833, -0.053323209285736084, -0.03711523115634918, 0.06811287999153137, 0.11750881373882294, -0.0923403799533844, 0.09058649837970734, -0.06498144567012787, 0.1164512038230896, 0.07026807963848114, 0.08444991707801819, 0.08672454953193665, -0.007967978715896606, -0.055114731192588806, 0.0048303306102752686, 0.01167762279510498, -0.09024405479431152, -0.027177900075912476, -0.06501580774784088], [-0.050321564078330994, 0.09442561864852905, 0.11824676394462585, 0.003907397389411926, 0.11961260437965393, 0.08264420926570892, -0.048782408237457275, -0.03560926020145416, -0.08754728734493256, 0.06218305230140686, -0.093634694814682, -0.05827514827251434, 0.014151841402053833, 0.0348772257566452, -0.03456072509288788, 0.03118005394935608, -0.04420718550682068, -0.06514780223369598, 0.051941320300102234, 0.03515969216823578, -0.01677963137626648, -0.10271461308002472, 0.10288484394550323, 0.06855334341526031, 0.04293873906135559, 0.0068209171295166016, 0.00732596218585968, -0.03112044930458069, 0.1110331118106842, -0.026498883962631226, 0.009396165609359741, 0.07122063636779785, -0.011595085263252258, 0.09775467216968536, -0.0108509361743927, -0.049667760729789734, -0.12012553215026855, 0.07783190906047821, -0.08566637337207794, -0.045442044734954834, 0.08017534017562866, -0.11470314860343933, -0.059267207980155945, 0.06283734738826752, -0.10973004996776581, 0.12364980578422546, 0.03479495644569397, -0.06790535151958466, -0.0644119381904602, 0.043343380093574524, -0.03917089104652405, -0.12099333107471466, 0.028977036476135254, -0.07311564683914185, 0.11530515551567078, 0.021509796380996704, -0.008167758584022522, -0.07269465923309326, -0.08540889620780945, 0.05046936869621277, -0.07232946157455444, 0.08337312936782837, 0.1110985279083252, 0.036176517605781555], [-0.0688263475894928, -0.07376503944396973, -0.03612525761127472, 0.05837394297122955, -0.042272791266441345, -0.10754862427711487, -0.06684447824954987, -0.0062982141971588135, 0.10797996819019318, 0.06665492057800293, -0.11218249797821045, -0.003910690546035767, -0.007873520255088806, 0.12176848948001862, 0.10844427347183228, 0.05214481055736542, -0.1036345362663269, -0.042136818170547485, -0.10790321230888367, 0.03880937397480011, -0.12388436496257782, -0.012139439582824707, 0.013082548975944519, 0.07077880203723907, 0.06248597800731659, 0.04147683084011078, 0.04014104604721069, -0.00845789909362793, 0.040830954909324646, -0.07429748773574829, -0.03426177799701691, -0.11024034023284912, 0.1171380877494812, 0.09387457370758057, 0.056830838322639465, 0.12326306104660034, -0.07187598943710327, -0.05335673689842224, 0.006046295166015625, 0.08527950942516327, 0.0339362770318985, 0.12381339073181152, 0.04208536446094513, -0.05665867030620575, -0.03447046875953674, 0.06341995298862457, -0.09018604457378387, -0.07195831835269928, 0.06874614953994751, -0.10279437899589539, -0.11889570951461792, -0.019588306546211243, -0.08043645322322845, -0.10030154883861542, -0.07374118268489838, 0.011229395866394043, 0.05179870128631592, -0.12392611801624298, 0.11977267265319824, 0.011517539620399475, -0.09578651189804077, 0.05984167754650116, 0.12409184873104095, 0.005165398120880127], [-0.08196555078029633, -0.015098020434379578, 0.009856238961219788, -0.07280184328556061, 0.043734461069107056, 0.028853967785835266, -0.07560358941555023, 0.10983844101428986, -0.04644888639450073, -0.015380308032035828, 0.105321004986763, -0.0357438325881958, -0.050412535667419434, 0.01910550892353058, -0.07127547264099121, -0.008086919784545898, -0.056463077664375305, 0.05206288397312164, -0.05298973619937897, -0.031738534569740295, 0.008596286177635193, 0.08663949370384216, 0.10868135094642639, 0.012452751398086548, 0.007760331034660339, -0.07132071256637573, 0.009628266096115112, -0.09159828722476959, -0.07906514406204224, -0.08418171107769012, -0.07670430839061737, -0.10497279465198517, 0.07673323154449463, -0.027665182948112488, -0.10240514576435089, 0.00461241602897644, -0.04144473373889923, 0.019311100244522095, 0.06272713840007782, -0.029047682881355286, 0.0029461681842803955, -0.11023251712322235, -0.024611592292785645, 0.05276523530483246, 0.10357719659805298, 0.09327235817909241, 0.12209877371788025, 0.00533585250377655, -0.09008598327636719, -0.08084677159786224, -0.06390750408172607, 0.042787253856658936, 0.08428676426410675, -0.09811687469482422, -0.0311354398727417, 0.09517352283000946, 0.06714233756065369, -0.09296277165412903, 0.0696239322423935, 0.05227044224739075, -0.040706560015678406, -0.09207101166248322, 0.0758906900882721, -0.023702368140220642], [-0.05354966223239899, 0.12027736008167267, -0.09510879218578339, 0.12225790321826935, 0.002503320574760437, 0.0028947442770004272, -0.001057446002960205, 0.019357755780220032, 0.0032919198274612427, -0.007940173149108887, 0.10923933982849121, 0.014956817030906677, 0.039025574922561646, -0.04517070949077606, 0.0664341002702713, 0.07261908054351807, 0.10624013841152191, -0.10310865938663483, -0.027031034231185913, -0.09285768866539001, 0.10788887739181519, 0.09851129353046417, 0.0568011999130249, -0.08976450562477112, -0.0959043949842453, 0.005186885595321655, 0.06488180160522461, 0.12490519881248474, -0.05661435425281525, 0.11425893008708954, -0.11935767531394958, 0.05030025541782379, -0.0570899099111557, 0.04446090757846832, -0.11471688747406006, -0.049282774329185486, -0.11645188927650452, 0.061940744519233704, -0.08772875368595123, 0.014361009001731873, 0.024428024888038635, -0.023351192474365234, 0.054363980889320374, 0.04068668186664581, -0.01840554177761078, 0.017415329813957214, 0.006952956318855286, 0.05528029799461365, 0.094498410820961, -0.10785771906375885, -0.017849326133728027, 0.038878798484802246, -0.11839577555656433, -0.0688139796257019, -0.003553733229637146, 0.09484553337097168, -0.1036750078201294, 0.06169182062149048, -0.04346787929534912, 0.07425673305988312, -0.06484447419643402, 0.11409302055835724, -0.0006028711795806885, 0.10177227854728699], [-0.05609443783760071, -0.04946456849575043, -0.016293972730636597, 0.05349192023277283, 0.06424088776111603, 0.07978717982769012, 0.021996617317199707, -0.02026122808456421, -0.09613195061683655, -0.07967443764209747, -0.06846585869789124, -0.09787985682487488, 0.07885158061981201, -0.10314257442951202, -0.03345465660095215, -0.008813738822937012, -0.0361926406621933, 0.053924351930618286, 0.06793391704559326, -0.01748223602771759, -0.09984038770198822, -0.014986306428909302, -0.016559556126594543, -0.01419132947921753, -0.014763742685317993, -0.04995271563529968, -0.09136967360973358, 0.06400342285633087, -0.05551739037036896, 0.05845998227596283, -0.04205469787120819, 0.01670221984386444, -0.06323811411857605, 0.017869487404823303, -0.0831277072429657, 0.08752788603305817, -0.03151202201843262, -0.04614536464214325, -0.09860417246818542, 0.06822137534618378, 0.11350324749946594, 0.018853992223739624, 0.029828161001205444, 0.028523191809654236, -0.12302197515964508, -0.032580211758613586, 0.043254554271698, -0.02218174934387207, 0.10093130171298981, 0.08738863468170166, 0.12313316762447357, -0.12209029495716095, -0.04435145854949951, -0.08242516219615936, 0.12388795614242554, -0.0076694488525390625, -0.11905664205551147, -0.10188311338424683, 0.03514309227466583, -0.09075099229812622, 0.11857661604881287, -0.05376783013343811, -0.013619810342788696, -0.10103146731853485], [0.029873907566070557, 0.0027836859226226807, -0.056831032037734985, 0.0459299236536026, 0.026214808225631714, 0.04602254927158356, 0.019007712602615356, -0.12262435257434845, 0.09672152996063232, 0.11619828641414642, -0.02159591019153595, -0.10554328560829163, -0.11039112508296967, 0.04193982481956482, 0.1181073784828186, 0.08188587427139282, -0.04974949359893799, -0.09050685167312622, 0.11951020359992981, 0.09342506527900696, 0.07793357968330383, -0.12273286283016205, 0.04078388214111328, 0.10897670686244965, 0.12308990955352783, 0.02657933533191681, 0.05000174045562744, 0.09665735065937042, 0.10879853367805481, -0.013497680425643921, 0.0052762627601623535, -0.11797994375228882, -0.11288116872310638, 0.05280822515487671, -0.05499380826950073, -0.10303531587123871, -0.003394514322280884, 0.07943721115589142, -0.06885771453380585, 0.11216910183429718, -0.0395473837852478, -0.008608683943748474, -0.055568546056747437, 0.013694673776626587, -0.10575743019580841, 0.08927318453788757, -0.05139577388763428, 0.12208250164985657, -0.014555573463439941, -0.08593803644180298, -0.07756303250789642, 0.023758411407470703, 0.11035527288913727, 0.09627582132816315, 0.05339306592941284, 0.07889993488788605, 0.03558729588985443, 0.1160876601934433, -0.07539510726928711, -0.11394457519054413, 0.055021733045578, 0.01964712142944336, 0.002978712320327759, -0.06500698626041412], [-0.008721873164176941, 0.10330882668495178, -0.0028126388788223267, -0.02675427496433258, 0.07552765309810638, -0.09734031558036804, -0.01788601279258728, 0.011461257934570312, 0.08173002302646637, -0.0944223403930664, -0.03505769371986389, 0.05171017348766327, -0.11414283514022827, 0.09327006340026855, 0.037336573004722595, -0.03210084140300751, 0.032007068395614624, 0.026747360825538635, -0.0814296305179596, -0.08189721405506134, 0.09099268913269043, 0.10714666545391083, -0.060651734471321106, 0.06174863874912262, -0.048723042011260986, -0.0036062896251678467, -0.04413081705570221, 0.02055664360523224, 0.0577310174703598, 0.02061772346496582, 0.0823628306388855, -0.11247608065605164, 0.10504390299320221, 0.08573919534683228, -0.08678466081619263, 0.04324568808078766, -0.0653662234544754, 0.09722000360488892, 0.01644548773765564, -0.06807520985603333, 0.04374741017818451, -0.010388657450675964, -0.08713243901729584, -0.10820421576499939, 0.07791593670845032, -0.03977733850479126, -0.10500998795032501, 0.0033852308988571167, -0.0081920325756073, 0.11776086688041687, -0.10648487508296967, 0.0826127678155899, 0.05964483320713043, 0.05724740028381348, 0.04974490404129028, -0.004766836762428284, -0.013081610202789307, 0.11935622990131378, -0.09092682600021362, -0.0683051198720932, -0.01601564884185791, -0.055842578411102295, 0.03650139272212982, -0.029308676719665527], [0.03707502782344818, 0.004356250166893005, -0.01660981774330139, 0.0352037250995636, 0.009239345788955688, 0.10084699094295502, 0.05187492072582245, 0.10347296297550201, 0.08558677136898041, -0.037427231669425964, 0.00015337765216827393, -0.0803031474351883, 0.06500807404518127, 0.0937141478061676, 0.031732335686683655, -0.019881591200828552, 0.05805504322052002, -0.04681776463985443, -0.10907156765460968, -0.08524182438850403, -0.03569544851779938, 0.008536174893379211, -0.0016663819551467896, 0.11523297429084778, -0.0758630633354187, -0.11243730783462524, -0.04435299336910248, -0.1111985296010971, -0.0918758362531662, -0.12492141127586365, 0.002621859312057495, 0.0896565318107605, -0.11910688877105713, 0.04589596390724182, 0.09586088359355927, -0.047532036900520325, 0.040472567081451416, -0.03491672873497009, -0.09850896894931793, 0.11869892477989197, -0.07656064629554749, 0.0683608204126358, -0.058930277824401855, -0.007085055112838745, 0.04770217835903168, 0.10078105330467224, -0.12064400315284729, -0.11287537217140198, -0.06975729763507843, -0.04815302789211273, -0.08319200575351715, 0.11716018617153168, -0.04196600615978241, -0.09415934979915619, -0.04692201316356659, -0.053594738245010376, -0.09315600991249084, -0.04764805734157562, -0.010457858443260193, 0.016185954213142395, -0.11495968699455261, -0.08019928634166718, -0.08849096298217773, 0.08795753121376038], [-0.039135828614234924, -0.009439542889595032, -0.015280485153198242, -0.024822920560836792, -0.019908249378204346, 0.11223909258842468, -0.060918793082237244, 0.06502033770084381, 0.1022801548242569, -0.01172754168510437, -0.11573807895183563, -0.07217007875442505, 0.09492209553718567, -0.09253408014774323, 0.10525205731391907, -0.0002126246690750122, -0.10253041982650757, 0.052567824721336365, 0.04631955921649933, 0.0028152018785476685, -0.042185813188552856, 0.01472558081150055, -0.060201242566108704, -0.10222312808036804, 0.1218610554933548, 0.0016039907932281494, 0.03933951258659363, 0.10289695858955383, 0.12015034258365631, -0.027229279279708862, 0.03213120996952057, 0.018540754914283752, -0.0725770890712738, -0.04470698535442352, -0.0026627331972122192, -0.11497762799263, 0.07640963792800903, -0.0694257915019989, 0.049747347831726074, -0.03136855363845825, -0.0027803629636764526, -0.06309789419174194, -0.01267080008983612, 0.05462728440761566, -0.06169116497039795, 0.009198427200317383, -0.07863353192806244, -0.09218436479568481, -0.12088331580162048, -0.012289494276046753, -0.07513806223869324, -0.028487518429756165, -0.10900002717971802, 0.10232743620872498, 0.05311797559261322, 0.023397088050842285, 0.036865100264549255, 0.02124856412410736, 0.09504581987857819, -0.10265481472015381, -0.10742470622062683, 0.09814897179603577, 0.08584600687026978, 0.04915304481983185], [-0.08716428279876709, 0.006196886301040649, -0.0617317259311676, -0.04162000119686127, 0.031881436705589294, -0.0543133020401001, -0.10341291129589081, 0.02708059549331665, -0.04028297960758209, 0.03392566740512848, 0.09979155659675598, 0.06693480908870697, 0.024250730872154236, -0.05464199185371399, 0.10166576504707336, -0.006288632750511169, 0.062315717339515686, -0.0023203492164611816, 0.08869317173957825, 0.09560461342334747, 0.010911226272583008, -0.08461378514766693, -0.05629993975162506, -0.10299277305603027, -0.04329769313335419, -0.067425936460495, 0.015924736857414246, -0.0326664000749588, 0.12137629091739655, 0.08279053866863251, 0.025597572326660156, -0.06701615452766418, -0.05568744242191315, 0.06507034599781036, 0.018656805157661438, 0.030499115586280823, -0.12288069725036621, -0.04045414924621582, 0.09895922243595123, -0.09356990456581116, -0.05471055209636688, -0.0448182076215744, 0.028140217065811157, -0.021200507879257202, -0.10886980593204498, -0.0642566829919815, -0.10790593922138214, -0.012401774525642395, -0.07152283191680908, -0.017073318362236023, -0.12330631911754608, 0.10274957120418549, 0.010320797562599182, -0.04782462120056152, -0.10316109657287598, 0.09200316667556763, -0.12386605143547058, 0.04908536374568939, -0.07011982798576355, 0.007291883230209351, 0.08185172080993652, 0.003132447600364685, 0.07419770956039429, -0.006720542907714844], [-0.043368518352508545, -0.027106016874313354, -0.09420417249202728, -0.04786044359207153, 0.04075723886489868, 0.03581385314464569, 0.0962599366903305, 0.06778693199157715, 0.006533697247505188, 0.06676115095615387, 0.09065712988376617, -0.08704091608524323, 0.0008846521377563477, -0.014417320489883423, 0.031932324171066284, 0.020738452672958374, 0.023491695523262024, -0.0038846731185913086, 0.09634029865264893, 0.11366753280162811, -0.06886026263237, -0.11658890545368195, 0.1036888062953949, 0.09799139201641083, 0.023073598742485046, 0.039071083068847656, -0.03278063237667084, 0.04515355825424194, -0.08887477219104767, 0.026697322726249695, 0.11796338856220245, 0.04177677631378174, -0.046441689133644104, 0.11264517903327942, -0.06812575459480286, -0.11146791279315948, 0.00469265878200531, -0.004267066717147827, -0.08429624140262604, 0.07868905365467072, 0.12160556018352509, -0.10093645751476288, -0.025378301739692688, -0.04161866009235382, -0.10845687985420227, -0.027175143361091614, 0.11919295787811279, 0.1013997495174408, -0.007170960307121277, -0.08728829026222229, -0.0053252726793289185, -0.07608425617218018, 0.05220913887023926, -0.07453091442584991, 0.03508378565311432, 0.06571665406227112, -0.020949646830558777, 0.02401338517665863, 0.10135571658611298, -0.12044776976108551, 0.04917891323566437, -0.03167837858200073, -0.09752662479877472, 0.016211509704589844], [-0.02558739483356476, -0.033823221921920776, -0.09815463423728943, 0.011796131730079651, -0.07412365078926086, -0.11819431185722351, 0.08600236475467682, 0.08428782224655151, -0.09394471347332001, -0.11457931995391846, 0.09257721900939941, 0.0991552472114563, -0.03716972470283508, -0.018953487277030945, 0.02270454168319702, 0.10104170441627502, 0.012674763798713684, 0.018169686198234558, -0.12420503795146942, -0.07416693866252899, -0.025765448808670044, -0.004364684224128723, -0.03235413134098053, 0.05458641052246094, 0.05034251511096954, -0.012560352683067322, 0.07155783474445343, 0.0005477368831634521, 0.05608952045440674, 0.10976086556911469, 0.10312440991401672, 0.11131571233272552, -0.045191630721092224, 0.018635138869285583, -0.032843440771102905, 0.0028255879878997803, -0.11457966268062592, 0.06756596267223358, 0.11625473201274872, -0.09733588993549347, -0.06477849185466766, -0.015605881810188293, 0.07321660220623016, -0.09001906216144562, 0.040811702609062195, -0.018520161509513855, 0.07217420637607574, 0.009261146187782288, -0.10226467251777649, 0.11422687768936157, -0.09877297282218933, 0.10096859931945801, -0.08481334149837494, -0.07493031024932861, -0.053793683648109436, 0.1003136932849884, 0.04571729898452759, 0.08881190419197083, 0.0762576162815094, 0.02984476089477539, -0.013317495584487915, -0.0769353061914444, 0.0668080747127533, 0.04328073561191559], [-0.12069760262966156, -0.07683546841144562, 0.004530563950538635, -0.014295458793640137, -0.08363981544971466, 0.05950932204723358, 0.09990860521793365, 0.07385939359664917, -0.06287457048892975, -0.04040756821632385, -0.0859525054693222, -0.07659308612346649, -0.03398677706718445, -0.05634413659572601, -0.03438404202461243, 0.11371614038944244, -0.0876007080078125, -0.011367306113243103, -0.1161353588104248, -0.024945974349975586, -0.01376168429851532, 0.05989116430282593, 0.00630614161491394, -0.08641588687896729, -0.07045455276966095, -0.07740940153598785, 0.0006878376007080078, -0.09402719140052795, 0.08869569003582001, 0.031567275524139404, -0.11316253244876862, -0.08827874064445496, -0.1169540286064148, -0.07431033253669739, 0.0558367520570755, 0.06865216791629791, -0.020950764417648315, -0.05026082694530487, 0.11376561224460602, -0.10759103298187256, -0.08063444495201111, 0.020126014947891235, -0.12451593577861786, 0.0800529420375824, -0.03350624442100525, 0.026373982429504395, -0.005259320139884949, 0.040478840470314026, 0.09915882349014282, -0.09885260462760925, 0.08287742733955383, -0.07553817331790924, 0.09556436538696289, 0.05824832618236542, -0.09422905743122101, 0.08594761788845062, 0.023636072874069214, 0.07441951334476471, 0.08750414848327637, 0.06404955685138702, 0.0017089396715164185, -0.05562889575958252, 0.06465029716491699, 0.030096620321273804], [0.017941564321517944, 0.07770462334156036, -0.0033108144998550415, -0.010794281959533691, 0.02578061819076538, -0.11406147480010986, -0.05879998207092285, 0.10689829289913177, -0.04831284284591675, 0.03926292061805725, 0.11326143145561218, -0.09092824161052704, 0.10147707164287567, -0.05231639742851257, 0.020544499158859253, -0.09167112410068512, 0.020662739872932434, 0.11423955857753754, -0.10906262695789337, 0.017928868532180786, 0.0812516063451767, -0.029499202966690063, 0.026236414909362793, -0.07565341889858246, -0.0728270560503006, 0.09441475570201874, -0.0509742796421051, -0.044489890336990356, -0.11717624962329865, -0.01642477512359619, -0.03455500304698944, -0.08182331919670105, 0.07002227008342743, -0.0873643308877945, 0.053606197237968445, -0.10438136756420135, 0.050142332911491394, -0.009051084518432617, 0.019078582525253296, -0.0821811705827713, -0.09252823889255524, -0.024913668632507324, 0.07002821564674377, -0.051712438464164734, 0.05675956606864929, -0.03779631853103638, -0.03717038035392761, -0.018870174884796143, 0.03742681443691254, -0.08488988876342773, 0.017615467309951782, -0.00189991295337677, -0.015431329607963562, -0.10685727000236511, 0.04787927865982056, -0.06657800078392029, 0.04301939904689789, -0.026360511779785156, -0.02067360281944275, 0.10024406015872955, 0.11934499442577362, 0.05851595103740692, -0.10161899030208588, 0.0809750109910965], [0.036974117159843445, -0.10127316415309906, -0.11101788282394409, 0.009662538766860962, 0.036329954862594604, -0.08170607686042786, 0.038300350308418274, -0.018284901976585388, 0.1229514330625534, 0.015644103288650513, 0.0454377681016922, 0.0462929904460907, 0.09116190671920776, 0.0744684487581253, 0.08125638961791992, -0.06681950390338898, -0.10509710013866425, 0.12185853719711304, -0.019870474934577942, -0.09732641279697418, -0.1243981271982193, -0.019627392292022705, 0.005149558186531067, -0.08196710050106049, 0.00945766270160675, -0.05140921473503113, -0.06272552907466888, -0.08072105050086975, -0.1008978933095932, 0.10078336298465729, -0.057114675641059875, 0.09941995143890381, -0.02686278522014618, 0.1217297613620758, -0.052992478013038635, -0.027631700038909912, -0.07068987190723419, 