{
    "in_shape": [
        null,
        null,
        1
    ],
    "layers": [
        {
            "type": "conv1d",
            "activation": "",
            "shape": [
                null,
                null,
                36
            ],
            "kernel_size": [
                12
            ],
            "dilation": [
                1
            ],
            "groups": 1,
            "weights": [
                [
                    [
                        [
                            0.03870241343975067,
                            0.009671106934547424,
                            -0.03838155418634415,
                            0.03722107410430908,
                            0.07299855351448059,
                            0.0028139352798461914,
                            -0.03513523191213608,
                            -1.3135373592376709e-05,
                            -0.04554329067468643,
                            -0.043583884835243225,
                            0.01884359121322632,
                            0.059285134077072144,
                            0.11499454081058502,
                            0.07808500528335571,
                            0.0013185963034629822,
                            0.04274274408817291,
                            0.10942639410495758,
                            -0.06903193145990372,
                            -0.005879171192646027,
                            -0.020289592444896698,
                            0.0723881721496582,
                            0.06583939492702484,
                            -0.04414176940917969,
                            0.04246886074542999,
                            0.008449628949165344,
                            0.030526652932167053,
                            -0.07014216482639313,
                            0.018287524580955505,
                            -0.007316336035728455,
                            0.06834737956523895,
                            0.009725481271743774,
                            -0.04400843381881714,
                            -0.0076982006430625916,
                            0.11595642566680908,
                            -0.021854497492313385,
                            -0.06224723532795906
                        ]
                    ],
                    [
                        [
                            -0.04213305562734604,
                            0.002290390431880951,
                            0.07295861840248108,
                            -0.02020370215177536,
                            -0.1047462746500969,
                            0.021704301238059998,
                            -0.03000282496213913,
                            0.10309742391109467,
                            0.04043148458003998,
                            -0.003035634756088257,
                            -0.01364857703447342,
                            -0.025821901857852936,
                            -0.03807920962572098,
                            0.10442899167537689,
                            0.04482521116733551,
                            0.00629781186580658,
                            -0.051498740911483765,
                            -0.11282332241535187,
                            0.08787961304187775,
                            0.013261362910270691,
                            -0.10932741314172745,
                            -0.044289328157901764,
                            -0.08178500831127167,
                            0.11187145113945007,
                            0.07060612738132477,
                            0.01604267954826355,
                            0.0288534015417099,
                            0.005176916718482971,
                            -0.056944411247968674,
                            0.05138632655143738,
                            0.015201002359390259,
                            -0.0018829703330993652,
                            -0.05974920094013214,
                            -0.0803331583738327,
                            0.015611782670021057,
                            -0.019860416650772095
                        ]
                    ],
                    [
                        [
                            -0.0002947300672531128,
                            0.048978954553604126,
                            0.05780656635761261,
                            0.01720002293586731,
                            -0.10944312810897827,
                            -0.07701332867145538,
                            -0.08563631772994995,
                            -0.05472749471664429,
                            0.07680091261863708,
                            0.10776926577091217,
                            0.07057264447212219,
                            0.1108456701040268,
                            0.011099547147750854,
                            -0.10229602456092834,
                            0.006534285843372345,
                            0.09026429057121277,
                            0.01309126615524292,
                            0.09712573885917664,
                            0.04081955552101135,
                            0.05461305379867554,
                            0.11527368426322937,
                            0.10469317436218262,
                            -0.05263496935367584,
                            0.0394870787858963,
                            0.043094709515571594,
                            -0.030726760625839233,
                            -0.08330238610506058,
                            -0.075688436627388,
                            0.006998412311077118,
                            -0.0719665139913559,
                            -0.03994130343198776,
                            -0.023352384567260742,
                            -0.016689836978912354,
                            -0.10625851899385452,
                            0.030724570155143738,
                            0.043093711137771606
                        ]
                    ],
                    [
                        [
                            0.10486176609992981,
                            -0.11264403164386749,
                            0.047859206795692444,
                            -0.07103147357702255,
                            -0.0261671245098114,
                            0.058696091175079346,
                            -0.04013922065496445,
                            0.06881733238697052,
                            -0.1024087443947792,
                            0.10043971240520477,
                            0.07855498790740967,
                            0.10903565585613251,
                            -0.09301343560218811,
                            0.06303706765174866,
                            -0.04622010886669159,
                            0.07179109752178192,
                            0.03110790252685547,
                            -0.10304085165262222,
                            0.11465775966644287,
                            0.037295714020729065,
                            0.10898168385028839,
                            -0.09206032007932663,
                            -0.06516580283641815,
                            -0.06124623119831085,
                            -0.02899744361639023,
                            0.09129872918128967,
                            -0.02734687179327011,
                            -0.11537399142980576,
                            0.009560912847518921,
                            -0.09304990619421005,
                            0.09658001363277435,
                            0.10707543790340424,
                            0.10900819301605225,
                            -0.10431981831789017,
                            -0.03336320072412491,
                            0.019563212990760803
                        ]
                    ],
                    [
                        [
                            -0.023743368685245514,
                            0.06335341930389404,
                            0.07081195712089539,
                            -0.0008026733994483948,
                            0.009573295712471008,
                            -0.10184533894062042,
                            -0.10342133045196533,
                            0.00041725486516952515,
                            0.10066044330596924,
                            -0.1153484582901001,
                            -0.030379340052604675,
                            -0.1095830649137497,
                            0.10816895961761475,
                            0.09242713451385498,
                            0.00883321464061737,
                            0.020511284470558167,
                            0.10970994830131531,
                            0.0867510586977005,
                            0.11019319295883179,
                            -0.0928434506058693,
                            0.022233977913856506,
                            0.04855121672153473,
                            0.0554337203502655,
                            -0.10166588425636292,
                            -0.06116269528865814,
                            -0.03725355863571167,
                            0.07719126343727112,
                            0.02769245207309723,
                            0.014963090419769287,
                            0.00730472058057785,
                            -0.028872862458229065,
                            -0.00379132479429245,
                            -0.030558742582798004,
                            0.06814423203468323,
                            0.0346459299325943,
                            -0.10911627858877182
                        ]
                    ],
                    [
                        [
                            -0.05452154204249382,
                            0.058160990476608276,
                            -0.04471883922815323,
                            0.07186248898506165,
                            -0.06508736312389374,
                            0.07340234518051147,
                            -0.010614216327667236,
                            -0.03743994981050491,
                            -0.09721861034631729,
                            0.032579272985458374,
                            0.04593746364116669,
                            -0.08568551391363144,
                            -0.10299783945083618,
                            -0.03135564923286438,
                            -0.045093439519405365,
                            0.05229087173938751,
                            -0.018381483852863312,
                            -0.05717611312866211,
                            -0.09858573973178864,
                            0.05634641647338867,
                            0.07048024237155914,
                            -0.08701508492231369,
                            -0.11095476150512695,
                            0.02172127366065979,
                            -0.07384723424911499,
                            -0.008444085717201233,
                            -0.06465325504541397,
                            0.09576849639415741,
                            0.038009703159332275,
                            0.06820209324359894,
                            -0.06952828913927078,
                            -0.07002218067646027,
                            -0.09973055869340897,
                            -0.11075679212808609,
                            -0.03288660943508148,
                            -0.08195185661315918
                        ]
                    ],
                    [
                        [
                            -0.0870639756321907,
                            0.11441375315189362,
                            0.03208182752132416,
                            0.09918774664402008,
                            -0.09373165667057037,
                            0.0437551885843277,
                            0.027569562196731567,
                            -0.005130544304847717,
                            0.009286254644393921,
                            -0.06417812407016754,
                            -0.072015680372715,
                            -0.030791394412517548,
                            0.01712222397327423,
                            0.0002795085310935974,
                            -0.08081372082233429,
                            -0.05718999728560448,
                            0.09678076207637787,
                            0.03901812434196472,
                            0.030287742614746094,
                            -0.07859009504318237,
                            0.01743793487548828,
                            0.09244240820407867,
                            0.01843796670436859,
                            0.034019291400909424,
                            -0.03874759376049042,
                            -0.0016910359263420105,
                            -0.039858378469944,
                            0.07912257313728333,
                            -0.09508232027292252,
                            0.08846716582775116,
                            -0.0416707843542099,
                            -0.06817693263292313,
                            -0.10791341960430145,
                            0.07651503384113312,
                            0.0018764808773994446,
                            -0.027582786977291107
                        ]
                    ],
                    [
                        [
                            0.020215123891830444,
                            0.025891408324241638,
                            0.09492796659469604,
                            0.03764936327934265,
                            -0.022260695695877075,
                            -0.04559224098920822,
                            0.10436911880970001,
                            -0.08066851645708084,
                            -0.08865036070346832,
                            -0.06770086288452148,
                            -0.04628235846757889,
                            0.06591783463954926,
                            -0.014699772000312805,
                            0.08132177591323853,
                            -0.021396689116954803,
                            0.008441448211669922,
                            0.07992614805698395,
                            0.0697721540927887,
                            0.014002829790115356,
                            0.0750761479139328,
                            0.019607871770858765,
                            -0.09946554154157639,
                            0.05395445227622986,
                            -0.08585169911384583,
                            0.07722693681716919,
                            0.03814519941806793,
                            0.07297669351100922,
                            -0.08417609333992004,
                            -0.02764977514743805,
                            -0.06029389426112175,
                            0.09448868036270142,
                            0.0881732702255249,
                            0.006150342524051666,
                            -0.055169861763715744,
                            0.041123464703559875,
                            -0.06066326051950455
                        ]
                    ],
                    [
                        [
                            0.06177288293838501,
                            0.025577396154403687,
                            -0.0010215714573860168,
                            -0.06164940819144249,
                            -0.06727267801761627,
                            0.06680819392204285,
                            0.008645184338092804,
                            -0.0701618641614914,
                            -0.02948024868965149,
                            -0.029066063463687897,
                            0.055392056703567505,
                            -0.06726616621017456,
                            0.07941707968711853,
                            -0.06354865431785583,
                            0.08613499999046326,
                            0.09944970905780792,
                            -0.023584723472595215,
                            0.09280376136302948,
                            0.030815884470939636,
                            -0.09445935487747192,
                            -0.00942230224609375,
                            0.01918119192123413,
                            -0.09267070144414902,
                            -0.02387574315071106,
                            -0.03214441239833832,
                            -0.05434352159500122,
                            -0.10096969455480576,
                            0.059424713253974915,
                            -0.013404563069343567,
                            -0.06222367659211159,
                            -0.04096287488937378,
                            0.07954519987106323,
                            -0.06716226041316986,
                            -0.08431142568588257,
                            -0.11498034000396729,
                            0.04679040610790253
                        ]
                    ],
                    [
                        [
                            0.11448130011558533,
                            -0.04281677305698395,
                            -0.10387503355741501,
                            -0.07563744485378265,
                            0.10120363533496857,
                            -0.01954728364944458,
                            0.020305201411247253,
                            -0.06838379800319672,
                            -0.09380936622619629,
                            -0.0045123472809791565,
                            -0.05661171302199364,
                            -0.0012843385338783264,
                            0.050040364265441895,
                            0.021860092878341675,
                            -0.0911710113286972,
                            0.10264623165130615,
                            -0.031764790415763855,
                            -0.061467789113521576,
                            0.054771557450294495,
                            -0.05086579918861389,
                            0.08611005544662476,
                            -0.1049329936504364,
                            -0.11155851930379868,
                            -0.08914034068584442,
                            -0.011906646192073822,
                            -0.026329122483730316,
                            -0.07115389406681061,
                            -0.08395500481128693,
                            -0.04527229070663452,
                            -0.10577762871980667,
                            0.09513990581035614,
                            0.08614151179790497,
                            -0.00048211216926574707,
                            0.02636323869228363,
                            0.001807473599910736,
                            -0.10975257307291031
                        ]
                    ],
                    [
                        [
                            -0.09484853595495224,
                            -0.09108880162239075,
                            -0.04738258570432663,
                            -0.10806699097156525,
                            -0.05045602470636368,
                            0.07964886724948883,
                            0.013782709836959839,
                            0.013206928968429565,
                            -0.06285029649734497,
                            -0.06027089059352875,
                            -0.07163187861442566,
                            -0.013472825288772583,
                            0.09154170751571655,
                            -0.04823107272386551,
                            -0.026214905083179474,
                            0.03225685656070709,
                            -0.09517979621887207,
                            0.012148275971412659,
                            -0.026414990425109863,
                            -0.08045832067728043,
                            0.011470630764961243,
                            0.0533427894115448,
                            -0.010411366820335388,
                            -0.006488330662250519,
                            -0.03825777769088745,
                            -0.0675293579697609,
                            0.023781344294548035,
                            0.08277174830436707,
                            -0.0034341588616371155,
                            0.05995568633079529,
                            -0.049125343561172485,
                            -0.05045890808105469,
                            0.01937699317932129,
                            0.07522711157798767,
                            0.059221744537353516,
                            -0.07489383220672607
                        ]
                    ],
                    [
                        [
                            -0.08021212369203568,
                            0.01615467667579651,
                            0.0019001811742782593,
                            -0.10628554224967957,
                            0.06020171940326691,
                            0.03174494206905365,
                            -0.006930343806743622,
                            0.006034679710865021,
                            -0.06846365332603455,
                            -0.0886186808347702,
                            -0.01803908497095108,
                            -0.011957839131355286,
                            -0.030410081148147583,
                            0.015920281410217285,
                            0.09190289676189423,
                            0.07906818389892578,
                            -0.049810051918029785,
                            0.10988485813140869,
                            0.06823161244392395,
                            -0.08364259451627731,
                            0.0695231556892395,
                            -0.1029517725110054,
                            -0.02120816707611084,
                            0.08617502450942993,
                            -0.0605308897793293,
                            -0.0893583595752716,
                            0.08777773380279541,
                            -0.006791569292545319,
                            0.036013126373291016,
                            0.01216726005077362,
                            0.056959882378578186,
                            -0.05782410129904747,
                            0.06463390588760376,
                            -0.07569071650505066,
                            -0.047596268355846405,
                            0.06492412090301514
                        ]
                    ]
                ],
                [
                    0.0,
                    0.0,
                    0.0,
                    0.0,
                    0.0,
                    0.0,
                    0.0,
                    0.0,
                    0.0,
                    0.0,
                    0.0,
                    0.0,
                    0.0,
                    0.0,
                    0.0,
                    0.0,
                    0.0,
                    0.0,
                    0.0,
                    0.0,
                    0.0,
                    0.0,
                    0.0,
                    0.0,
                    0.0,
                    0.0,
                    0.0,
                    0.0,
                    0.0,
                    0.0,
                    0.0,
                    0.0,
                    0.0,
                    0.0,
                    0.0,
                    0.0
                ]
            ]
        },
        {
            "type": "conv1d",
            "activation": "",
            "shape": [
                null,
                null,
                36
            ],
            "kernel_size": [
                3
            ],
            "dilation": [
                1
            ],
            "groups": 1,
            "weights": [
                [
                    [
                        [
                            0.08760584890842438,
                            -0.16565942764282227,
                            0.11026172339916229,
                            0.10504026710987091,
                            -0.13533231616020203,
                            -0.06156341731548309,
                            0.033223703503608704,
                            -0.06149240583181381,
                            -0.05592024326324463,
                            0.06163041293621063,
                            0.13292039930820465,
                            -0.06925054639577866,
                            0.05518956482410431,
                            -0.026782438158988953,
                            0.06367230415344238,
                            -0.09629511833190918,
                            -0.07792830467224121,
                            0.05982334911823273,
                            0.06949858367443085,
                            -0.13153719902038574,
                            0.05753155052661896,
                            0.09030397236347198,
                            -0.15724627673625946,
                            0.00017909705638885498,
                            0.1305929571390152,
                            -0.062138721346855164,
                            -0.14791028201580048,
                            -0.1520330160856247,
                            -0.03888416290283203,
                            0.037804439663887024,
                            -0.16628167033195496,
                            -0.04903125762939453,
                            0.07651519775390625,
                            -0.13519132137298584,
                            0.1256532222032547,
                            -0.14765986800193787
                        ],
                        [
                            0.07733066380023956,
                            -0.1146833524107933,
                            -0.020770907402038574,
                            -0.05157577991485596,
                            0.015162751078605652,
                            -0.07292330265045166,
                            0.15618257224559784,
                            -0.08456885814666748,
                            -0.07917551696300507,
                            -0.03505496680736542,
                            -0.10497089475393295,
                            0.046065375208854675,
                            -0.08934192359447479,
                            0.06624877452850342,
                            -0.048290371894836426,
                            -0.013338282704353333,
                            0.09624303877353668,
                            0.10470278561115265,
                            0.16430826485157013,
                            -0.10353454202413559,
                            0.009155824780464172,
                            0.004125908017158508,
                            0.018802881240844727,
                            -0.10563445091247559,
                            0.1074017733335495,
                            -0.030507445335388184,
                            0.13607992231845856,
                            0.018657803535461426,
                            0.15765409171581268,
                            0.06604795157909393,
                            0.06729035079479218,
                            -0.09141465276479721,
                            -0.116017185151577,
                            -0.0548885315656662,
                            -0.009095907211303711,
                            -0.025278016924858093
                        ],
                        [
                            -0.08720608800649643,
                            0.03266577422618866,
                            0.07709412276744843,
                            0.07818420231342316,
                            0.11811594665050507,
                            0.10251443088054657,
                            -0.07565271854400635,
                            0.02180933952331543,
                            0.07411821186542511,
                            -0.09278075397014618,
                            -0.0034307241439819336,
                            0.07669727504253387,
                            -0.08109569549560547,
                            0.0022697895765304565,
                            0.08066320419311523,
                            0.06773070991039276,
                            0.03744097054004669,
                            -0.021140098571777344,
                            -0.06865235418081284,
                            0.11932583153247833,
                            0.09154339134693146,
                            0.1659124344587326,
                            0.11311526596546173,
                            0.04929859936237335,
                            0.04397785663604736,
                            0.06325829029083252,
                            0.07202665507793427,
                            0.10866717994213104,
                            -0.06553304195404053,
                            -0.09927301108837128,
                            0.018767639994621277,
                            0.07362551987171173,
                            0.015218853950500488,
                            -0.14252714812755585,
                            0.02206258475780487,
                            -0.016483351588249207
                        ],
                        [
                            0.1432218700647354,
                            -0.1548861712217331,
                            -0.1300729215145111,
                            -0.06754275411367416,
                            0.008218720555305481,
                            0.119479700922966,
                            -0.09119995683431625,
                            -0.14608392119407654,
                            0.13899068534374237,
                            -0.11809873580932617,
                            -0.13250653445720673,
                            0.12905319035053253,
                            0.029043197631835938,
                            0.12092535197734833,
                            0.16061775386333466,
                            -0.0499626025557518,
                            -0.1031440943479538,
                            0.0030092447996139526,
                            -0.13455288112163544,
                            -0.03927600383758545,
                            -0.05126333236694336,
                            -0.07560455799102783,
                            -0.11006629467010498,
                            0.11440505087375641,
                            0.05077385902404785,
                            -0.0741371363401413,
                            -0.0918176993727684,
                            -0.0803472250699997,
                            -0.16021764278411865,
                            0.09798933565616608,
                            0.023805618286132812,
                            -0.07789608091115952,
                            0.05866558849811554,
                            0.10790662467479706,
                            0.11799992620944977,
                            -0.15619497001171112
                        ],
                        [
                            0.0906618982553482,
                            -0.10875507444143295,
                            -0.008618876338005066,
                            -0.032319024205207825,
                            -0.10333820432424545,
                            0.12381120026111603,
                            0.0077279359102249146,
                            0.07747757434844971,
                            -0.0922374352812767,
                            0.10127048194408417,
                            0.1346159130334854,
                            -0.10832910239696503,
                            -0.031084850430488586,
                            -0.15505509078502655,
                            0.04999275505542755,
                            0.14949645102024078,
                            -0.11978523433208466,
                            0.05965261161327362,
                            0.04191441833972931,
                            0.09647814929485321,
                            -0.010536357760429382,
                            -0.13524270057678223,
                            0.039064645767211914,
                            -0.16121956706047058,
                            -0.06640692800283432,
                            -0.15980164706707,
                            -0.029236912727355957,
                            -0.11058398336172104,
                            -0.10702407360076904,
                            0.03609664738178253,
                            -0.10445153713226318,
                            -0.009199023246765137,
                            -0.018525078892707825,
                            0.12532223761081696,
                            0.06402881443500519,
                            -0.0450700968503952
                        ],
                        [
                            -0.14359614253044128,
                            -0.15205025672912598,
                            0.035344645380973816,
                            0.02227926254272461,
                            -0.049226805567741394,
                            0.12936784327030182,
                            -0.09604708850383759,
                            -0.132163405418396,
                            0.03683066368103027,
                            0.009050562977790833,
                            -0.14558999240398407,
                            -0.15341298282146454,
                            0.03454168140888214,
                            0.11564953625202179,
                            0.11035682260990143,
                            0.020548537373542786,
                            0.12489946186542511,
                            -0.15795385837554932,
                            -0.09832052886486053,
                            -0.1472749412059784,
                            -0.15452727675437927,
                            0.04653477668762207,
                            -0.10256000608205795,
                            -0.09871669858694077,
                            -0.13148674368858337,
                            0.06306473910808563,
                            0.0413823127746582,
                            -0.07738566398620605,
                            -0.13588199019432068,
                            0.04735267162322998,
                            -0.1543453186750412,
                            0.04955728352069855,
                            0.03562498092651367,
                            -0.1413925588130951,
                            -0.1297139823436737,
                            -0.017902567982673645
                        ],
                        [
                            -0.07379122823476791,
                            0.10257865488529205,
                            0.10826857388019562,
                            -0.053191542625427246,
                            -0.13524386286735535,
                            -0.08610093593597412,
                            -0.07522603124380112,
                            0.09982208907604218,
                            -0.16335320472717285,
                            0.1551138311624527,
                            -0.06844385713338852,
                            -0.0780719518661499,
                            0.14197523891925812,
                            -0.06846809387207031,
                            -0.04588540643453598,
                            0.03668411076068878,
                            0.026069089770317078,
                            0.0950646847486496,
                            -0.0011652261018753052,
                            -0.07527796924114227,
                            -0.1073610782623291,
                            -0.09717540442943573,
                            -0.1456216275691986,
                            0.01934814453125,
                            -0.11509561538696289,
                            0.0153578519821167,
                            -0.07836266607046127,
                            0.14076443016529083,
                            0.1346135288476944,
                            0.10189105570316315,
                            0.11056597530841827,
                            0.15591295063495636,
                            0.08135569095611572,
                            -0.04520110785961151,
                            -0.04186948388814926,
                            -0.12310938537120819
                        ],
                        [
                            0.0031734704971313477,
                            0.10453380644321442,
                            0.13381828367710114,
                            -0.05784015357494354,
                            -0.1160150021314621,
                            0.04493141174316406,
                            0.02622079849243164,
                            -0.09556500613689423,
                            -0.08679144084453583,
                            0.06921570003032684,
                            0.08642055094242096,
                            -0.10552354902029037,
                            0.04245805740356445,
                            -0.030483201146125793,
                            0.08797900378704071,
                            0.10473890602588654,
                            0.11788289248943329,
                            0.025864794850349426,
                            -0.005602642893791199,
                            0.09558050334453583,
                            0.024187207221984863,
                            -0.029306218028068542,
                            0.14291991293430328,
                            0.040733978152275085,
                            0.06761367619037628,
                            -0.12899625301361084,
                            0.15870429575443268,
                            -0.05521810054779053,
                            -0.14329230785369873,
                            0.14706994593143463,
                            0.1549375206232071,
                            -0.14114920794963837,
                            0.15858329832553864,
                            -0.1208755224943161,
                            -0.12634694576263428,
                            0.04453253746032715
                        ],
                        [
                            0.0006587952375411987,
                            -0.015645265579223633,
                            -0.14191830158233643,
                            0.04995095729827881,
                            -0.07576914876699448,
                            -0.12054948508739471,
                            -0.1286768615245819,
                            0.0012119263410568237,
                            -0.09809128940105438,
                            -0.014226838946342468,
                            0.13789381086826324,
                            -0.018433809280395508,
                            0.14445723593235016,
                            -0.06890356540679932,
                            0.01777184009552002,
                            0.00991685688495636,
                            0.047374844551086426,
                            -0.16244284808635712,
                            -0.009917661547660828,
                            0.10077126324176788,
                            0.11775894463062286,
                            -0.11177639663219452,
                            0.08960993587970734,
                            -0.04246652126312256,
                            -0.10766522586345673,
                            0.09882773458957672,
                            -0.018163755536079407,
                            0.02550475299358368,
                            0.06579430401325226,
                            0.11231829226016998,
                            -0.10772764682769775,
                            -0.019493624567985535,
                            0.06324274837970734,
                            -0.10553538799285889,
                            0.11705489456653595,
                            -0.14197254180908203
                        ],
                        [
                            -0.14527475833892822,
                            -0.04496590793132782,
                            -0.03547561168670654,
                            -0.03165900707244873,
                            -0.11537250131368637,
                            0.015453577041625977,
                            0.11623592674732208,
                            -0.10162353515625,
                            -0.13620877265930176,
                            0.13282470405101776,
                            -0.06437253952026367,
                            -0.032964348793029785,
                            0.10009054839611053,
                            0.13567997515201569,
                            -0.1643887460231781,
                            -0.094263955950737,
                            0.03368373215198517,
                            -0.053693853318691254,
                            -0.11007408797740936,
                            -0.11831140518188477,
                            0.07647375762462616,
                            0.10035912692546844,
                            0.08954848349094391,
                            -0.00514829158782959,
                            -0.15736886858940125,
                            0.13369609415531158,
                            -0.003913715481758118,
                            -0.05582372844219208,
                            -0.09912034124135971,
                            -0.06420747935771942,
                            0.04719860851764679,
                            0.09835685789585114,
                            0.11695273220539093,
                            -0.1058189868927002,
                            -0.05000384896993637,
                            -0.1021813154220581
                        ],
                        [
                            -0.1305943727493286,
                            -0.07433287799358368,
                            0.11800797283649445,
                            -0.13191580772399902,
                            0.11038215458393097,
                            -0.018926382064819336,
                            -0.052033744752407074,
                            0.009301140904426575,
                            -0.019698381423950195,
                            -0.04970411956310272,
                            0.03714573383331299,
                            0.012565970420837402,
                            -0.0697612389922142,
                            -0.07147233188152313,
                            0.1413906067609787,
                            0.15729285776615143,
                            -0.04435150325298309,
                            -0.03021197021007538,
                            0.14187903702259064,
                            0.11695416271686554,
                            -0.11311197280883789,
                            0.14179639518260956,
                            -0.09559556096792221,
                            -0.02204139530658722,
                            -0.05922333896160126,
                            0.02086310088634491,
                            0.11515249311923981,
                            -0.02267289161682129,
                            0.0874442309141159,
                            -0.03149974346160889,
                            0.03007631003856659,
                            0.06310184299945831,
                            -0.09124644845724106,
                            -0.010695740580558777,
                            -0.05634173005819321,
                            -0.009887218475341797
                        ],
                        [
                            -0.15366804599761963,
                            0.026462316513061523,
                            -0.06972289085388184,
                            0.07048027217388153,
                            0.16010217368602753,
                            -0.14896032214164734,
                            -0.0036965608596801758,
                            -0.11274075508117676,
                            -0.03932364284992218,
                            -0.1652282476425171,
                            0.1545049399137497,
                            -0.12634825706481934,
                            -0.011740759015083313,
                            0.07944095134735107,
                            -0.037509799003601074,
                            0.11302964389324188,
                            -0.13482865691184998,
                            -0.07750507444143295,
                            -0.020390912890434265,
                            0.036211445927619934,
                            0.020552754402160645,
                            -0.10812445729970932,
                            0.012317702174186707,
                            -0.14417967200279236,
                            0.1477719098329544,
                            0.03866930305957794,
                            0.10567982494831085,
                            0.09069432318210602,
                            -0.12805470824241638,
                            0.11786819994449615,
                            -0.012213155627250671,
                            0.1476753205060959,
                            -0.03620938956737518,
                            -0.15228399634361267,
                            0.0092344731092453,
                            -0.026975393295288086
                        ],
                        [
                            0.09756068885326385,
                            0.09665025770664215,
                            0.06179936230182648,
                            0.09279097616672516,
                            0.10805900394916534,
                            -0.0007807016372680664,
                            0.07623100280761719,
                            0.05767066776752472,
                            -0.13460397720336914,
                            0.06206505000591278,
                            -0.06598977744579315,
                            0.11706246435642242,
                            0.12907637655735016,
                            -0.014142230153083801,
                            0.08492054045200348,
                            0.004320070147514343,
                            -0.16017279028892517,
                            0.13209383189678192,
                            -0.14174649119377136,
                            0.1343793123960495,
                            -0.012049749493598938,
                            0.01791219413280487,
                            0.15059180557727814,
                            -0.10515554994344711,
                            0.02541010081768036,
                            -0.14308151602745056,
                            0.08952344954013824,
                            -0.06609547138214111,
                            -0.13335248827934265,
                            0.1307845264673233,
                            -0.12199505418539047,
                            0.11693267524242401,
                            0.058443114161491394,
                            -0.01991991698741913,
                            -0.13143965601921082,
                            -0.14237897098064423
                        ],
                        [
                            -0.011362120509147644,
                            -0.07080376148223877,
                            0.12770332396030426,
                            0.04290492832660675,
                            -0.0978691577911377,
                            -0.14210784435272217,
                            -0.017516493797302246,
                            0.1505003720521927,
                            0.008220508694648743,
                            -0.11320769786834717,
                            -0.12193171679973602,
                            -0.08333246409893036,
                            0.01131129264831543,
                            -0.027863338589668274,
                            -0.11360728740692139,
                            0.054361388087272644,
                            -0.09640654176473618,
                            -0.05454166978597641,
                            -0.017838910222053528,
                            -0.11238622665405273,
                            -0.0888194665312767,
                            -0.08458101749420166,
                            0.06720869243144989,
                            -0.0620240792632103,
                            0.05959160625934601,
                            0.009964391589164734,
                            -0.07303647696971893,
                            0.06780342757701874,
                            0.16521842777729034,
                            -0.0575128048658371,
                            0.12127439677715302,
                            -0.09512035548686981,
                            -0.08404211699962616,
                            -0.1432954967021942,
                            -0.03152298927307129,
                            0.07872970402240753
                        ],
                        [
                            -0.13827113807201385,
                            0.09954898059368134,
                            -0.00036759674549102783,
                            0.0034372061491012573,
                            -0.04909186065196991,
                            -0.044891953468322754,
                            -0.05141167342662811,
                            -0.08575701713562012,
                            0.10531441867351532,
                            0.06087148189544678,
                            -0.01067785918712616,
                            -0.0918501615524292,
                            -0.050831519067287445,
                            -0.06017931550741196,
                            -0.0921100378036499,
                            -0.06153063476085663,
                            -0.007354572415351868,
                            0.08319008350372314,
                            0.13122893869876862,
                            -0.02267463505268097,
                            -0.096438929438591,
                            0.03494627773761749,
                            0.03852848708629608,
                            -0.04629739373922348,
                            0.1123460978269577,
                            0.004091426730155945,
                            -0.0938289612531662,
                            0.12544865906238556,
                            0.14730431139469147,
                            0.0850251168012619,
                            -0.11214884370565414,
                            -0.10331098735332489,
                            0.13040654361248016,
                            0.1586238592863083,
                            0.01644301414489746,
                            -0.017849445343017578
                        ],
                        [
                            0.08268201351165771,
                            -0.0028143376111984253,
                            -0.03731603920459747,
                            -0.0714832991361618,
                            -0.10696451365947723,
                            0.09381963312625885,
                            -0.01367063820362091,
                            0.0762358158826828,
                            -0.05771768093109131,
                            0.14526225626468658,
                            0.07193250954151154,
                            -0.0920020341873169,
                            -0.12612681090831757,
                            0.0677499771118164,
                            0.009250447154045105,
                            0.1086227148771286,
                            -0.09157216548919678,
                            -0.1525305211544037,
                            -0.02275685966014862,
                            -0.06178363412618637,
                            0.09479118883609772,
                            -0.08875497430562973,
                            0.03422422707080841,
                            0.03304243087768555,
                            -0.16418525576591492,
                            -0.0016512125730514526,
                            0.14260487258434296,
                            -0.14263701438903809,
                            -0.051512882113456726,
                            0.11004801094532013,
                            0.0240250825881958,
                            0.01612269878387451,
                            0.013893172144889832,
                            0.02252073585987091,
                            -0.037635162472724915,
                            0.13218145072460175
                        ],
                        [
                            -0.11551563441753387,
                            -0.1532764881849289,
                            0.0742044448852539,
                            0.12889079749584198,
                            -0.11858217418193817,
                            -0.10344994068145752,
                            -0.1531999558210373,
                            0.11095775663852692,
                            -0.04544472694396973,
                            0.06483466923236847,
                            -0.15753790736198425,
                            0.15031416714191437,
                            0.04173839092254639,
                            -0.08155679702758789,
                            0.05780017375946045,
                            0.01046319305896759,
                            0.15638746321201324,
                            0.05859287083148956,
                            -0.13286606967449188,
                            0.13443736732006073,
                            -0.07613742351531982,
                            -0.08138751983642578,
                            -0.13362190127372742,
                            0.08622844517230988,
                            -0.11850476264953613,
                            -0.15892648696899414,
                            -0.15312239527702332,
                            -0.037877559661865234,
                            0.04733951389789581,
                            0.14674855768680573,
                            0.12189416587352753,
                            -0.12990014255046844,
                            -0.08642613887786865,
                            0.024146035313606262,
                            -0.10373636335134506,
                            -0.1000223159790039
                        ],
                        [
                            0.006335139274597168,
                            0.08541946113109589,
                            -0.0011575669050216675,
                            -0.15718922019004822,
                            -0.09872861951589584,
                            -0.012715145945549011,
                            0.09222628176212311,
                            0.11364798247814178,
                            -0.15891563892364502,
                            -0.09831802546977997,
                            -0.04251726716756821,
                            -0.09378759562969208,
                            0.05635850131511688,
                            0.05126897990703583,
                            -0.10974010080099106,
                            0.0800209790468216,
                            0.02432119846343994,
                            0.1606530100107193,
                            -0.013955041766166687,
                            -0.03795476257801056,
                            -0.16595260798931122,
                            0.117251917719841,
                            -0.14375130832195282,
                            0.11342184245586395,
                            -0.009153887629508972,
                            0.055519506335258484,
                            -0.1569417417049408,
                            -0.1536657065153122,
                            -0.0031892508268356323,
                            0.07877175509929657,
                            0.09914453327655792,
                            -0.09915220737457275,
                            0.04461526870727539,
                            -0.015154406428337097,
                            -0.09976419061422348,
                            -0.1124495267868042
                        ],
                        [
                            -0.11852984130382538,
                            -0.0547482967376709,
                            -0.15481457114219666,
                            0.12793810665607452,
                            0.07295362651348114,
                            0.019278809428215027,
                            0.14661802351474762,
                            0.11182506382465363,
                            -0.02651803195476532,
                            0.029095932841300964,
                            -0.08215983957052231,
                            -0.15481051802635193,
                            -0.13794581592082977,
                            0.1299746185541153,
                            0.07595019042491913,
                            0.13122396171092987,
                            0.09007985889911652,
                            0.04167914390563965,
                            0.08652503788471222,
                            -0.1137368306517601,
                            0.08097763359546661,
                            0.026584550738334656,
                            -0.1478114128112793,
                            0.16616292297840118,
                            0.010465100407600403,
                            -0.11555306613445282,
                            -0.11680921167135239,
                            -0.14741186797618866,
                            0.08242511749267578,
                            0.09825889766216278,
                            0.028125211596488953,
                            -0.16502158343791962,
                            -0.09160225093364716,
                            0.1495155543088913,
                            0.0652981549501419,
                            -0.08557181060314178
                        ],
                        [
                            -0.15133914351463318,
                            0.03406333923339844,
                            -0.08476289361715317,
                            -0.11587779223918915,
                            0.0669742077589035,
                            0.005790784955024719,
                            0.06835496425628662,
                            0.07385659217834473,
                            -0.06075461953878403,
                            -0.02465800940990448,
                            -0.036981984972953796,
                            0.15143896639347076,
                            -0.1285085678100586,
                            0.13381509482860565,
                            0.16089753806591034,
                            -0.024097442626953125,
                            -0.13897094130516052,
                            -0.07272414863109589,
                            0.1628127247095108,
                            0.06742914021015167,
                            0.08639578521251678,
                            -0.16160094738006592,
                            -0.15073780715465546,
                            0.015238597989082336,
                            -0.1499226987361908,
                            -0.06417223066091537,
                            0.023693323135375977,
                            0.08329315483570099,
                            0.025564149022102356,
                            0.09483171999454498,
                            0.05896790325641632,
                            -0.0004962235689163208,
                            0.07437241077423096,
                            0.1532178372144699,
                            0.020454764366149902,
                            0.10254280269145966
                        ],
                        [
                            0.09007354080677032,
                            -0.11212663352489471,
                            0.13083787262439728,
                            -0.1192162036895752,
                            0.06242223083972931,
                            0.08343179523944855,
                            -0.1185656413435936,
                            -0.052652083337306976,
                            -0.09192570298910141,
                            -0.0016692131757736206,
                            0.1636728197336197,
                            -0.025107741355895996,
                            0.07923407852649689,
                            0.02051110565662384,
                            0.007749035954475403,
                            -0.010145187377929688,
                            0.023488759994506836,
                            0.06233160197734833,
                            0.0030518323183059692,
                            0.11047153174877167,
                            0.010942861437797546,
                            0.023017048835754395,
                            0.04762589931488037,
                            0.018360450863838196,
                            -0.09016287326812744,
                            0.026143312454223633,
                            0.04739654064178467,
                            -0.05945845693349838,
                            -0.050851307809352875,
                            -0.15414635837078094,
                            0.11677975952625275,
                            -0.025673434138298035,
                            -0.08395465463399887,
                            0.030336424708366394,
                            0.13885129988193512,
                            -0.12004558742046356
                        ],
                        [
                            -0.15677492320537567,
                            -0.11500605195760727,
                            -0.11670299619436264,
                            0.018497422337532043,
                            0.03736130893230438,
                            0.16185040771961212,
                            -0.1418362855911255,
                            0.09115119278430939,
                            0.13503842055797577,
                            -0.1421356201171875,
                            0.09084703028202057,
                            -0.15403398871421814,
                            0.002053976058959961,
                            -0.052240654826164246,
                            0.092463418841362,
                            -0.1253293752670288,
                            0.0991261750459671,
                            0.1431911736726761,
                            -0.06770404428243637,
                            0.055886462330818176,
                            -0.15899750590324402,
                            0.03572745621204376,
                            -0.1663222312927246,
                            -0.16173526644706726,
                            -0.036658525466918945,
                            -0.1581028401851654,
                            0.07623808085918427,
                            -0.10289120674133301,
                            -0.09374789893627167,
                            0.13042812049388885,
                            -0.06290161609649658,
                            -0.15736131370067596,
                            0.15714745223522186,
                            0.10773222148418427,
                            0.08258350193500519,
                            -0.16095399856567383
                        ],
                        [
                            -0.1141146868467331,
                            -0.032118916511535645,
                            0.07794320583343506,
                            0.13318593800067902,
                            -0.007596373558044434,
                            0.11077778041362762,
                            0.1024031788110733,
                            0.11249639093875885,
                            0.018007323145866394,
                            0.08589012920856476,
                            -0.07122310250997543,
                            -0.05620014667510986,
                            -0.016500279307365417,
                            -0.15678486227989197,
                            0.04762394726276398,
                            0.09591777622699738,
                            -0.09648358821868896,
                            -0.039971426129341125,
                            -0.12492716312408447,
                            -0.0376252681016922,
                            0.05966596305370331,
                            -0.11340701580047607,
                            -0.11198210716247559,
                            -0.00435793399810791,
                            -0.11591454595327377,
                            -0.10626637935638428,
                            -0.15009450912475586,
                            0.028858467936515808,
                            0.09829951822757721,
                            -0.1529206484556198,
                            0.10747100412845612,
                            -0.07758625596761703,
                            -0.0018308162689208984,
                            0.153437539935112,
                            -0.03273582458496094,
                            -0.13957302272319794
                        ],
                        [
                            -0.022369027137756348,
                            0.14380665123462677,
                            0.06837110221385956,
                            0.09925703704357147,
                            -0.1663598269224167,
                            -0.0367455929517746,
                            -0.11289950460195541,
                            0.15591971576213837,
                            0.11952371895313263,
                            -0.10629701614379883,
                            0.10264568030834198,
                            -0.005227401852607727,
                            -0.04224884510040283,
                            -0.09875178337097168,
                            0.06799621880054474,
                            -0.057074785232543945,
                            -0.07340960204601288,
                            -0.1121850460767746,
                            -0.15312223136425018,
                            0.008463099598884583,
                            0.04166972637176514,
                            0.07824070751667023,
                            0.0649031400680542,
                            0.13838262856006622,
                            -0.1342022866010666,
                            -0.08234953880310059,
                            -0.052298903465270996,
                            -0.03601996600627899,
                            -0.08263397216796875,
                            0.011421993374824524,
                            0.03267490863800049,
                            0.0022846460342407227,
                            -0.07603566348552704,
                            -0.08480393886566162,
                            0.013112261891365051,
                            0.11798699200153351
                        ],
                        [
                            0.02117009460926056,
                            0.13235168159008026,
                            0.1463967114686966,
                            0.06859810650348663,
                            -0.11193271726369858,
                            -0.054895803332328796,
                            -0.04633089154958725,
                            -0.1526152342557907,
                            -0.02321457862854004,
                            0.13471557199954987,
                            0.1597921997308731,
                            0.03406126797199249,
                            0.14643307030200958,
                            0.04235692322254181,
                            0.0999838262796402,
                            0.049622371792793274,
                            -0.06826385110616684,
                            -0.16326451301574707,
                            0.1164790540933609,
                            -0.06520526111125946,
                            0.12355299293994904,
                            0.14057756960391998,
                            0.0018153190612792969,
                            -0.11495654284954071,
                            -0.06061260402202606,
                            -0.07744602859020233,
                            0.08720318973064423,
                            -0.13836638629436493,
                            -0.009260416030883789,
                            0.09604455530643463,
                            0.12622468173503876,
                            0.009952500462532043,
                            0.051595330238342285,
                            -0.09294740855693817,
                            -0.13618502020835876,
                            0.08139662444591522
                        ],
                        [
                            -0.026699542999267578,
                            -0.10826230049133301,
                            0.04876840114593506,
                            0.13113810122013092,
                            -0.0034012049436569214,
                            -0.04643695056438446,
                            0.09372098743915558,
                            -0.11629955470561981,
                            0.0822654515504837,
                            -0.06646351516246796,
                            0.14937962591648102,
                            -0.008867219090461731,
                            -0.0734425038099289,
                            0.013988420367240906,
                            0.1582462042570114,
                            -0.03515271842479706,
                            -0.15049295127391815,
                            0.12150116264820099,
                            0.16588322818279266,
                            -0.06257935613393784,
                            0.0035193413496017456,
                            0.02278880774974823,
                            -0.01676495373249054,
                            -0.15816867351531982,
                            0.07136304676532745,
                            0.008936837315559387,
                            0.024262070655822754,
                            -0.08296942710876465,
                            0.09470994770526886,
                            -0.15847015380859375,
                            -0.1534203290939331,
                            0.025989174842834473,
                            0.1616785079240799,
                            0.16275562345981598,
                            -0.14931468665599823,
                            0.06893043220043182
                        ],
                        [
                            0.1348072737455368,
                            -0.13460342586040497,
                            0.0841856449842453,
                            -0.15131628513336182,
                            0.022832632064819336,
                            -0.1610986441373825,
                            0.10406102240085602,
                            -0.09330566972494125,
                            -0.12789420783519745,
                            0.010614588856697083,
                            0.13636617362499237,
                            0.04243016242980957,
                            0.12504424154758453,
                            -0.07369630038738251,
                            0.023462459444999695,
                            0.16613419353961945,
                            0.014650300145149231,
                            -0.047171950340270996,
                            0.11343114078044891,
                            0.004037424921989441,
                            0.010921761393547058,
                            -0.10839402675628662,
                            -0.13158008456230164,
                            -0.031241104006767273,
                            0.05623002350330353,
                            -0.1620027720928192,
                            0.09132198989391327,
                            0.10023446381092072,
                            0.16381604969501495,
                            -0.0272647887468338,
                            0.08338047564029694,
                            -0.037052229046821594,
                            0.06721775233745575,
                            -0.024028301239013672,
                            -0.08112017810344696,
                            0.0022199153900146484
                        ],
                        [
                            0.03274977207183838,
                            -0.010804489254951477,
                            0.05632758140563965,
                            -0.02967803180217743,
                            0.13795174658298492,
                            0.005007386207580566,
                            -0.09450268745422363,
                            0.037256598472595215,
                            -0.16497290134429932,
                            0.11546115577220917,
                            0.09236975014209747,
                            0.11826436221599579,
                            0.1164705902338028,
                            0.11271436512470245,
                            -0.060257360339164734,
                            0.15008918941020966,
                            0.007583931088447571,
                            0.03953762352466583,
                            -0.058672353625297546,
                            -0.01937420666217804,
                            0.16230709850788116,
                            -0.16085729002952576,
                            -0.04403381049633026,
                            -0.04443483054637909,
                            0.11798016726970673,
                            0.12983040511608124,
                            -0.057671114802360535,
                            -0.0287521630525589,
                            0.15931369364261627,
                            -0.051050662994384766,
                            -0.1606154888868332,
                            0.11938793957233429,
                            -0.10641443729400635,
                            0.1320372372865677,
                            -0.028145596385002136,
                            -0.15913984179496765
                        ],
                        [
                            -0.019745513796806335,
                            -0.0941164493560791,
                            -0.13160622119903564,
                            0.15154726803302765,
                            -0.011308625340461731,
                            0.14033623039722443,
                            0.08041457831859589,
                            0.1629878729581833,
                            0.015224173665046692,
                            -0.076505146920681,
                            -0.1393427550792694,
                            -0.026898741722106934,
                            -0.06539162248373032,
                            -0.12533318996429443,
                            -0.07938151061534882,
                            -0.0006489306688308716,
                            0.02049410343170166,
                            -0.044999562203884125,
                            -0.14941982924938202,
                            0.07698531448841095,
                            -0.04821281135082245,
                            0.1523572951555252,
                            -0.1370297372341156,
                            -0.001593664288520813,
                            0.13384510576725006,
                            0.1289035826921463,
                            0.11319510638713837,
                            -0.025664493441581726,
                            0.13394536077976227,
                            0.11840586364269257,
                            -0.03966021537780762,
                            0.15605933964252472,
                            -0.08487515151500702,
                            -0.12581555545330048,
                            -0.11984050273895264,
                            0.13451318442821503
                        ],
                        [
                            0.1399657279253006,
                            -0.002457141876220703,
                            -0.07577984035015106,
                            0.07768221199512482,
                            0.16410167515277863,
                            0.028414174914360046,
                            0.028795599937438965,
                            -0.10438422858715057,
                            -0.027949735522270203,
                            -0.14202456176280975,
                            0.01801757514476776,
                            0.09730376303195953,
                            0.05036897957324982,
                            0.12425394356250763,
                            -0.02975018322467804,
                            -0.06182865798473358,
                            -0.08579318225383759,
                            -0.051370345056056976,
                            0.09088601171970367,
                            0.03781227767467499,
                            -0.10865994542837143,
                            0.003362223505973816,
                            0.09579269587993622,
                            -0.026075288653373718,
                            -0.14709994196891785,
                            -0.11470739543437958,
                            -0.06586094945669174,
                            -0.12647199630737305,
                            0.03332185745239258,
                            0.08293299376964569,
                            0.12469534575939178,
                            -0.09745129197835922,
                            0.009815692901611328,
                            0.10195200145244598,
                            0.05173623561859131,
                            0.1527852565050125
                        ],
                        [
                            0.03169219195842743,
                            -0.04058627784252167,
                            0.08822183310985565,
                            0.10233311355113983,
                            -0.09233208745718002,
                            -0.10154306888580322,
                            0.07809789478778839,
                            0.11707784235477448,
                            -0.10114459693431854,
                            0.11007203161716461,
                            -0.03044159710407257,
                            -0.008040428161621094,
                            -0.09137996286153793,
                            0.029100492596626282,
                            0.0982106477022171,
                            -0.1048104390501976,
                            -0.1587127447128296,
                            -0.07853778451681137,
                            0.06164126098155975,
                            -0.014007806777954102,
                            -0.006877541542053223,
                            -0.15944871306419373,
                            0.03753960132598877,
                            0.05396275222301483,
                            -0.11667808145284653,
                            0.08668319880962372,
                            0.025401994585990906,
                            0.15459732711315155,
                            0.09006078541278839,
                            -0.00275576114654541,
                            -0.026798367500305176,
                            -0.004438161849975586,
                            -0.04995453357696533,
                            -0.03703637421131134,
                            0.09255211055278778,
                            0.14501984417438507
                        ],
                        [
                            -0.12785300612449646,
                            0.1195024698972702,
                            0.1284833401441574,
                            -0.08694883435964584,
                            0.11551012098789215,
                            -0.04011118412017822,
                            0.0700920820236206,
                            -0.029567047953605652,
                            -0.16402487456798553,
                            0.09976328909397125,
                            0.07332861423492432,
                            -0.14881443977355957,
                            0.047103121876716614,
                            -0.0784912109375,
                            0.11250980198383331,
                            -0.0947311744093895,
                            0.09698827564716339,
                            -0.043614670634269714,
                            -0.03229689598083496,
                            -0.13048450648784637,
                            -0.09941856563091278,
                            0.06886760890483856,
                            0.005258083343505859,
                            0.06100106239318848,
                            -0.029601290822029114,
                            -0.1605299413204193,
                            0.024980351328849792,
                            0.1006932407617569,
                            0.1210220605134964,
                            -0.08504796028137207,
                            0.005826279520988464,
                            0.1626075655221939,
                            0.02027738094329834,
                            -0.049135491251945496,
                            0.13000433146953583,
                            -0.0693591833114624
                        ],
                        [
                            -0.14191298186779022,
                            -0.15619787573814392,
                            0.08523218333721161,
                            0.11952324211597443,
                            -0.08131929486989975,
                            0.012142300605773926,
                            0.060760095715522766,
                            -0.09096865355968475,
                            0.07366986572742462,
                            0.15531618893146515,
                            0.08739285171031952,
                            -0.13955506682395935,
                            -0.09001251310110092,
                            0.026015877723693848,
                            0.005081936717033386,
                            0.09370724856853485,
                            -0.10250695794820786,
                            0.014412879943847656,
                            -0.015373468399047852,
                            -0.11501165479421616,
                            0.09311403334140778,
                            0.13975419104099274,
                            -0.13251404464244843,
                            -0.02727775275707245,
                            -0.11254613101482391,
                            0.08309273421764374,
                            0.16635708510875702,
                            0.07293879985809326,
                            0.005421087145805359,
                            0.13078011572360992,
                            0.037506937980651855,
                            0.004624411463737488,
                            -0.048398301005363464,
                            0.000487402081489563,
                            -0.06989689916372299,
                            0.019313380122184753
                        ],
                        [
                            -0.0874810665845871,
                            0.10227759182453156,
                            -0.015563324093818665,
                            0.10038580000400543,
                            0.027799054980278015,
                            0.09533943235874176,
                            0.054137781262397766,
                            0.11364389955997467,
                            -0.0586143359541893,
                            -0.03224878013134003,
                            0.06187422573566437,
                            -0.02197401225566864,
                            0.14410163462162018,
                            -0.06889331340789795,
                            -0.06383069604635239,
                            -0.16293272376060486,
                            0.1571379154920578,
                            0.13742737472057343,
                            0.059899523854255676,
                            0.14590157568454742,
                            -0.1602868288755417,
                            -0.03578607738018036,
                            -0.011304855346679688,
                            0.09555654227733612,
                            0.09983508288860321,
                            0.04467201232910156,
                            0.03589749336242676,
                            -0.1513490378856659,
                            -0.12501323223114014,
                            0.020500853657722473,
                            -0.07285364717245102,
                            -0.030308127403259277,
                            -0.05077485740184784,
                            -0.11075326055288315,
                            0.11294050514698029,
                            -0.0024439096450805664
                        ],
                        [
                            0.06114304065704346,
                            -0.08659180253744125,
                            -0.05623658746480942,
                            0.1356724053621292,
                            -0.0657227486371994,
                            0.16202665865421295,
                            -0.08977989852428436,
                            -0.11101063340902328,
                            0.09264077246189117,
                            -0.07898800075054169,
                            -0.10786819458007812,
                            -0.052805863320827484,
                            0.09414245188236237,
                            0.03672914206981659,
                            0.07325570285320282,
                            0.16451899707317352,
                            -0.0970708578824997,
                            -0.10552072525024414,
                            0.11240650713443756,
                            0.048878952860832214,
                            -0.09352509677410126,
                            -0.058222219347953796,
                            0.05777852237224579,
                            0.15535642206668854,
                            -0.008181169629096985,
                            -0.0909850224852562,
                            -0.12126215547323227,
                            0.02537994086742401,
                            -0.08489116281270981,
                            0.04564249515533447,
                            0.08521230518817902,
                            0.0972634106874466,
                            0.07654742896556854,
                            0.017109230160713196,
                            -0.1546427458524704,
                            -0.03093142807483673
                        ],
                        [
                            0.1642126590013504,
                            -0.02052779495716095,
                            0.0594819039106369,
                            -0.1371665894985199,
                            0.05509591102600098,
                            -0.07575182616710663,
                            0.01869678497314453,
                            0.09905721247196198,
                            -0.00873430073261261,
                            -0.022024676203727722,
                            -0.1134769544005394,
                            -0.03520815074443817,
                            0.12419749796390533,
                            -0.0064650774002075195,
                            0.1277279406785965,
                            0.02304697036743164,
                            0.14388950169086456,
                            0.00815550982952118,
                            0.06297032535076141,
                            0.03365941345691681,
                            0.15657444298267365,
                            -0.06800254434347153,
                            0.11694134771823883,
                            0.03174491226673126,
                            -0.06746375560760498,
                            -0.08641128242015839,
                            -0.15664514899253845,
                            -0.1383095234632492,
                            -0.06885688006877899,
                            0.0018933266401290894,
                            -0.03406624495983124,
                            0.07410041987895966,
                            -0.1566493958234787,
                            -0.10093896090984344,
                            -0.08580677211284637,
                            0.04303741455078125
                        ]
                    ],
                    [
                        [
                            0.019539833068847656,
                            -0.11511623859405518,
                            0.033130452036857605,
                            0.11937932670116425,
                            -0.05796448886394501,
                            0.15829111635684967,
                            -0.040003061294555664,
                            0.059027478098869324,
                            0.02699577808380127,
                            0.11848418414592743,
                            -0.12752167880535126,
                            0.05144675076007843,
                            -0.03156900405883789,
                            0.01609174907207489,
                            -0.10495754331350327,
                            -0.0894753560423851,
                            0.048479631543159485,
                            0.13054616749286652,
                            -0.04321253299713135,
                            -0.062176547944545746,
                            -0.010544970631599426,
                            -0.0548350065946579,
                            -0.01952512562274933,
                            -0.11136444658041,
                            -0.10355862230062485,
                            -0.03755013644695282,
                            0.021528005599975586,
                            0.014672234654426575,
                            -0.1313401162624359,
                            0.009573981165885925,
                            -0.04789666831493378,
                            -0.08675070852041245,
                            -0.058690667152404785,
                            0.12277381122112274,
                            0.07964432239532471,
                            -0.04658921808004379
                        ],
                        [
                            0.10676862299442291,
                            -0.016025468707084656,
                            -0.11289803683757782,
                            0.019446924328804016,
                            0.10107530653476715,
                            -0.0737602710723877,
                            -0.018885210156440735,
                            -0.011003926396369934,
                            -0.0043962448835372925,
                            0.017316773533821106,
                            0.05001671612262726,
                            0.04706256091594696,
                            0.14140720665454865,
                            0.029669880867004395,
                            0.13691167533397675,
                            -0.005129814147949219,
                            0.008066609501838684,
                            0.15838463604450226,
                            0.11599628627300262,
                            0.057085469365119934,
                            -0.0240328311920166,
                            -0.07929285615682602,
                            -0.16112148761749268,
                            0.03471939265727997,
                            0.047295451164245605,
                            -0.07418306916952133,
                            0.10696627199649811,
                            0.09922425448894501,
                            0.08678571879863739,
                            -0.00017087161540985107,
                            0.030507847666740417,
                            0.10473005473613739,
                            0.0884874016046524,
                            0.036007240414619446,
                            0.16162075102329254,
                            0.060311391949653625
                        ],
                        [
                            0.11969034373760223,
                            0.01608116924762726,
                            -0.05244910717010498,
                            -0.09281798452138901,
                            -0.11160159111022949,
                            -0.13831369578838348,
                            0.04967312514781952,
                            0.13963128626346588,
                            -0.1468755453824997,
                            -0.02891083061695099,
                            0.055286481976509094,
                            0.046193525195121765,
                            0.08872748911380768,
                            0.07888984680175781,
                            0.009850740432739258,
                            -0.06044912338256836,
                            0.010243579745292664,
                            0.06845486164093018,
                            0.03291285037994385,
                            -0.06582625955343246,
                            0.1572042852640152,
                            -0.09336209297180176,
                            -0.02225331962108612,
                            -0.16165606677532196,
                            -0.036559298634529114,
                            -0.11554472148418427,
                            -0.049315452575683594,
                            -0.15530316531658173,
                            -0.03226947784423828,
                            -0.1089257001876831,
                            0.1183939129114151,
                            0.036211445927619934,
                            0.09652630984783173,
                            -0.03728890419006348,
                            0.022728562355041504,
                            0.06861202418804169
                        ],
                        [
                            0.009436443448066711,
                            -0.11019957065582275,
                            0.10333849489688873,
                            0.16008742153644562,
                            -0.052276015281677246,
                            -0.14126893877983093,
                            0.15237276256084442,
                            -0.14034895598888397,
                            0.011798933148384094,
                            0.10686616599559784,
                            0.06263236701488495,
                            -0.04455133527517319,
                            0.011921092867851257,
                            0.15261293947696686,
                            -0.13221728801727295,
                            -0.11969856917858124,
                            -0.015950322151184082,
                            -0.022094056010246277,
                            -0.06077977269887924,
                            0.12078322470188141,
                            -0.06087299436330795,
                            0.1139860600233078,
                            0.05003516376018524,
                            0.006678104400634766,
                            -0.09264242649078369,
                            -0.03130900859832764,
                            0.15597371757030487,
                            -0.13203677535057068,
                            -0.1468106508255005,
                            -0.06436026096343994,
                            0.16614295542240143,
                            -0.02586321532726288,
                            0.03945867717266083,
                            0.08958657085895538,
                            -0.07453286647796631,
                            -0.06430935859680176
                        ],
                        [
                            0.09461481869220734,
                            -0.12044703960418701,
                            -0.09492330253124237,
                            0.05318395793437958,
                            0.10832850635051727,
                            -0.014521405100822449,
                            0.06718949973583221,
                            0.13843075931072235,
                            0.07988850772380829,
                            -0.050398632884025574,
                            0.07754957675933838,
                            0.10014288127422333,
                            0.030544087290763855,
                            0.13447029888629913,
                            0.066737100481987,
                            0.07449953258037567,
                            -0.044936537742614746,
                            -0.007766246795654297,
                            0.0786283016204834,
                            -0.044839583337306976,
                            -0.059772610664367676,
                            0.10340864956378937,
                            0.1451316624879837,
                            0.009625956416130066,
                            -0.01574091613292694,
                            0.10502804815769196,
                            -0.02021138370037079,
                            -0.1367679089307785,
                            0.14582116901874542,
                            0.011716797947883606,
                            0.05614428222179413,
                            -0.005200907588005066,
                            -0.14152459800243378,
                            -0.1519191712141037,
                            0.06160843372344971,
                            -0.06594860553741455
                        ],
                        [
                            -0.16661083698272705,
                            -0.04160451889038086,
                            -0.0871160477399826,
