{
    "in_shape": [
        null,
        150,
        1
    ],
    "layers": [
        {
            "type": "conv1d",
            "activation": "",
            "shape": [
                null,
                50,
                36
            ],
            "kernel_size": [
                12
            ],
            "dilation": [
                1
            ],
            "groups": 1,
            "weights": [
                [
                    [
                        [
                            -0.3790920078754425,
                            0.01882956549525261,
                            0.2636770009994507,
                            0.07284632325172424,
                            -0.3001369535923004,
                            -0.06592600792646408,
                            -0.09293343126773834,
                            0.33581581711769104,
                            -0.006266172509640455,
                            0.1545158177614212,
                            0.14272639155387878,
                            0.2525421380996704,
                            -0.07597237825393677,
                            0.04036116227507591,
                            0.31741395592689514,
                            0.20151156187057495,
                            -0.10302495211362839,
                            0.10355028510093689,
                            -0.05770350620150566,
                            0.10638633370399475,
                            -0.15070341527462006,
                            0.006493204738944769,
                            0.01667523756623268,
                            -0.15291626751422882,
                            0.0012475271942093968,
                            -0.33389991521835327,
                            -0.26215946674346924,
                            0.010665610432624817,
                            0.19568975269794464,
                            0.24333833158016205,
                            -0.12889288365840912,
                            -0.05909159034490585,
                            -0.3261776566505432,
                            0.2738364040851593,
                            -0.05270228162407875,
                            -0.1444946676492691
                        ]
                    ],
                    [
                        [
                            0.11607960611581802,
                            0.03844238445162773,
                            -0.06219949200749397,
                            -0.14328759908676147,
                            -0.053444985300302505,
                            0.10487573593854904,
                            -0.4258212745189667,
                            0.21927636861801147,
                            0.050932131707668304,
                            0.0003903369652107358,
                            -0.12728676199913025,
                            -0.056184735149145126,
                            -0.12217404693365097,
                            -0.13460785150527954,
                            0.20850667357444763,
                            0.15315787494182587,
                            0.2563524842262268,
                            -0.17663630843162537,
                            0.20506854355335236,
                            -0.05053689330816269,
                            -0.22200442850589752,
                            -0.07472323626279831,
                            0.09441061317920685,
                            -0.012917420826852322,
                            -0.11088524013757706,
                            0.2442779690027237,
                            0.3506515920162201,
                            -0.029527096077799797,
                            -0.3706790804862976,
                            0.08882793039083481,
                            0.00845750980079174,
                            0.31706446409225464,
                            -0.3320888578891754,
                            -0.05511974170804024,
                            -0.1371755599975586,
                            -0.0411464162170887
                        ]
                    ],
                    [
                        [
                            0.012716180644929409,
                            -0.08797560632228851,
                            -0.19714754819869995,
                            0.08726496994495392,
                            -0.05888453125953674,
                            -0.09128355234861374,
                            -0.2043992429971695,
                            0.3345336318016052,
                            0.08758211135864258,
                            -0.03421112149953842,
                            -0.25414419174194336,
                            0.04279334470629692,
                            -0.08660122007131577,
                            -0.134902685880661,
                            0.0040187654085457325,
                            0.1870010942220688,
                            0.19750818610191345,
                            -0.03804239630699158,
                            0.18434765934944153,
                            0.009230895899236202,
                            -0.08574986457824707,
                            -0.05797361209988594,
                            0.069997139275074,
                            0.004830097313970327,
                            -0.08293213695287704,
                            0.061711378395557404,
                            0.22445182502269745,
                            0.0354948490858078,
                            -0.13657142221927643,
                            -0.04674535617232323,
                            0.007125765085220337,
                            0.23569948971271515,
                            -0.18914228677749634,
                            -0.1363184005022049,
                            -0.10987768322229385,
                            0.14749889075756073
                        ]
                    ],
                    [
                        [
                            0.06703358888626099,
                            0.04707247391343117,
                            -0.18785737454891205,
                            0.0954686850309372,
                            0.0984933078289032,
                            -0.13015611469745636,
                            -0.23523396253585815,
                            0.21377232670783997,
                            0.0880245789885521,
                            0.032225318253040314,
                            -0.13445627689361572,
                            -0.09326514601707458,
                            -0.128950297832489,
                            0.024288836866617203,
                            -0.0063469503074884415,
                            -0.0877663642168045,
                            0.13425599038600922,
                            -0.08785384893417358,
                            0.051665689796209335,
                            0.03643529489636421,
                            0.09330123662948608,
                            0.12703777849674225,
                            0.0022390903905034065,
                            -0.01912510208785534,
                            0.18681257963180542,
                            0.1853145956993103,
                            0.15531575679779053,
                            0.0037449561059474945,
                            0.05788072943687439,
                            0.00012115782010369003,
                            -0.00036870670737698674,
                            0.06822679936885834,
                            -0.12217729538679123,
                            -0.03527798503637314,
                            -0.19122636318206787,
                            0.0771825984120369
                        ]
                    ],
                    [
                        [
                            -0.0878041535615921,
                            0.15070760250091553,
                            0.03369807451963425,
                            0.24698080122470856,
                            -0.012901115231215954,
                            -0.0012132220435887575,
                            -0.06618181616067886,
                            0.0603080615401268,
                            -0.15252581238746643,
                            -0.0459640696644783,
                            0.15507373213768005,
                            0.029055757448077202,
                            0.17487359046936035,
                            -0.16032256186008453,
                            -0.3604043424129486,
                            -0.11307128518819809,
                            -0.2412194311618805,
                            0.19189834594726562,
                            0.01478715892881155,
                            -0.045925769954919815,
                            0.14628463983535767,
                            0.12027744948863983,
                            -0.1787838488817215,
                            -0.04680152237415314,
                            0.042481277137994766,
                            -0.08743374049663544,
                            -0.30754682421684265,
                            0.16377612948417664,
                            0.02928876131772995,
                            0.004928041715174913,
                            -0.1556122899055481,
                            -0.2112302929162979,
                            0.0017471287865191698,
                            -0.11734826117753983,
                            0.09186337888240814,
                            -0.09680157154798508
                        ]
                    ],
                    [
                        [
                            0.11647017300128937,
                            -0.06293561309576035,
                            0.047577954828739166,
                            0.18850068747997284,
                            0.1903824806213379,
                            0.01337459310889244,
                            0.2119421809911728,
                            0.05697493627667427,
                            -0.11327622830867767,
                            0.053046081215143204,
                            0.0364457368850708,
                            0.03414840251207352,
                            0.09180993586778641,
                            -0.09882622212171555,
                            -0.4148857593536377,
                            -0.18729236721992493,
                            -0.12868784368038177,
                            0.1167655885219574,
                            -0.19568471610546112,
                            -0.013436191715300083,
                            0.2945803105831146,
                            0.05649551376700401,
                            -0.06984969973564148,
                            0.0374097041785717,
                            0.1022743284702301,
                            -0.012676429003477097,
                            -0.26251325011253357,
                            0.011585540138185024,
                            0.16973188519477844,
                            -0.061137329787015915,
                            0.11583452671766281,
                            -0.13187499344348907,
                            0.17605209350585938,
                            -0.041874539107084274,
                            0.25953927636146545,
                            0.10395782440900803
                        ]
                    ],
                    [
                        [
                            0.2751471698284149,
                            -0.15588627755641937,
                            0.1585513800382614,
                            0.47619572281837463,
                            0.19062578678131104,
                            0.11629018187522888,
                            0.3113582730293274,
                            0.0698782429099083,
                            0.0863499864935875,
                            -0.11163093894720078,
                            0.20425812900066376,
                            -0.21991759538650513,
                            0.18063539266586304,
                            -0.10863945633172989,
                            -0.5950950980186462,
                            -0.04736557602882385,
                            -0.3005369007587433,
                            -0.11898951977491379,
                            -0.5861753225326538,
                            -0.014206425286829472,
                            0.6145032644271851,
                            -0.26361551880836487,
                            0.14519117772579193,
                            0.09604187309741974,
                            -0.11582821607589722,
                            -0.11434049904346466,
                            -0.39985162019729614,
                            -0.30380862951278687,
                            0.15821105241775513,
                            -0.24651603400707245,
                            0.2621902525424957,
                            -0.3910228908061981,
                            0.3257630467414856,
                            -0.4117966294288635,
                            0.5105258822441101,
                            -0.07168139517307281
                        ]
                    ],
                    [
                        [
                            0.3234899044036865,
                            -0.047237712889909744,
                            0.034366875886917114,
                            -0.14668120443820953,
                            0.12270577251911163,
                            0.14080208539962769,
                            0.11366940289735794,
                            -0.010692176409065723,
                            -0.0495171844959259,
                            -0.07631327211856842,
                            0.15022706985473633,
                            -0.20518001914024353,
                            0.11049458384513855,
                            -0.055954307317733765,
                            0.08042854815721512,
                            -0.10094158351421356,
                            -0.1561414748430252,
                            -0.09918413311243057,
                            -0.01734195649623871,
                            -0.19724708795547485,
                            -0.023964591324329376,
                            -0.18572546541690826,
                            0.05164257064461708,
                            -0.040013041347265244,
                            0.07729889452457428,
                            0.0983576774597168,
                            0.12129149585962296,
                            -0.08326443284749985,
                            0.14993290603160858,
                            -0.11560926586389542,
                            0.22752447426319122,
                            0.03650929778814316,
                            0.1138460785150528,
                            0.058163899928331375,
                            -0.0088270865380764,
                            0.07746621966362
                        ]
                    ],
                    [
                        [
                            0.046300407499074936,
                            0.022334499284625053,
                            -0.06979220360517502,
                            -0.2732863128185272,
                            0.061646655201911926,
                            -0.05725632980465889,
                            0.093722403049469,
                            -0.27671194076538086,
                            -0.04750848188996315,
                            -0.03741362318396568,
                            0.041916947811841965,
                            -0.10402326285839081,
                            0.004054442048072815,
                            -0.17551667988300323,
                            0.2773324251174927,
                            -0.002393399365246296,
                            0.026315441355109215,
                            0.0009352355264127254,
                            0.05087095871567726,
                            0.05240029841661453,
                            -0.15753662586212158,
                            0.04082994908094406,
                            -0.12906743586063385,
                            0.17040932178497314,
                            -0.032221850007772446,
                            -0.06123160570859909,
                            0.18624494969844818,
                            0.10172770917415619,
                            0.0398457869887352,
                            0.0139619130641222,
                            -0.05599258095026016,
                            0.142489492893219,
                            0.06646087020635605,
                            0.12647806107997894,
                            0.051742177456617355,
                            0.05098846182227135
                        ]
                    ],
                    [
                        [
                            -0.25657132267951965,
                            0.2507040202617645,
                            0.009183469228446484,
                            -0.4433631896972656,
                            -0.05013833940029144,
                            -0.10204178094863892,
                            0.27780309319496155,
                            -0.3816031515598297,
                            0.08662033826112747,
                            0.0064108469523489475,
                            -0.14880381524562836,
                            -0.04867268353700638,
                            -0.06285286694765091,
                            -0.16463211178779602,
                            0.4730135202407837,
                            -0.37035948038101196,
                            0.2877039313316345,
                            0.07594770193099976,
                            0.2739602327346802,
                            0.11150142550468445,
                            -0.47714075446128845,
                            0.39822959899902344,
                            -0.20205627381801605,
                            0.2368195503950119,
                            -0.09418750554323196,
                            0.018448106944561005,
                            0.41556650400161743,
                            0.0992511585354805,
                            -0.30287668108940125,
                            -0.14169541001319885,
                            -0.271751344203949,
                            0.038498468697071075,
                            0.2444588541984558,
                            0.4775242805480957,
                            -0.33309030532836914,
                            -0.12614361941814423
                        ]
                    ],
                    [
                        [
                            0.03338490054011345,
                            -0.08568611741065979,
                            0.060725510120391846,
                            -0.09577228873968124,
                            -0.14356103539466858,
                            0.034441638737916946,
                            -0.029377607628703117,
                            -0.24356751143932343,
                            -0.06019717827439308,
                            0.09363279491662979,
                            -0.007056873757392168,
                            0.16976672410964966,
                            -0.05117214471101761,
                            -0.1790255904197693,
                            -0.06640581786632538,
                            0.13156923651695251,
                            -0.10953422635793686,
                            0.13683964312076569,
                            -0.10929273068904877,
                            -0.06256271153688431,
                            -0.08421455323696136,
                            -0.08675824105739594,
                            0.058124054223299026,
                            -0.2016671597957611,
                            -0.09132906049489975,
                            -0.061509810388088226,
                            -0.03379702940583229,
                            0.05389455705881119,
                            -0.012235756032168865,
                            0.10312274843454361,
                            -0.03370651230216026,
                            -0.0010542080271989107,
                            -0.011212863959372044,
                            -0.08878116309642792,
                            -0.019100716337561607,
                            -0.019557537510991096
                        ]
                    ],
                    [
                        [
                            -0.27573564648628235,
                            -0.024612385779619217,
                            -0.05282203108072281,
                            -0.04278993606567383,
                            -0.08558763563632965,
                            -0.055923499166965485,
                            0.014295190572738647,
                            -0.3160611391067505,
                            0.09973201900720596,
                            0.07031960785388947,
                            -0.12035777419805527,
                            0.23535718023777008,
                            -0.07912255823612213,
                            -0.11513875424861908,
                            0.06760517507791519,
                            0.2477714866399765,
                            0.18603810667991638,
                            -0.14581198990345,
                            0.21621538698673248,
                            0.10063166916370392,
                            0.04176388680934906,
                            -0.12092579901218414,
                            0.20295868813991547,
                            -0.15094269812107086,
                            0.12081737071275711,
                            0.026517696678638458,
                            -0.22206731140613556,
                            -0.0337703712284565,
                            -0.013535143807530403,
                            0.22096000611782074,
                            -0.026069512590765953,
                            -0.004508299753069878,
                            0.026860494166612625,
                            -0.10635997354984283,
                            -0.09319732338190079,
                            0.002581309527158737
                        ]
                    ]
                ],
                [
                    0.00039456423837691545,
                    -0.005025674123317003,
                    -0.001986227696761489,
                    0.0035525760613381863,
                    -0.0008397664059884846,
                    0.006951942108571529,
                    -0.009475632570683956,
                    0.04178929328918457,
                    -0.006539985537528992,
                    0.0013683370780199766,
                    0.003145851194858551,
                    -0.0006202592048794031,
                    -0.0035461047664284706,
                    1.0742689482867718e-05,
                    0.0012072451645508409,
                    0.0021479541901499033,
                    0.00087324483320117,
                    -0.003662344766780734,
                    0.003217448713257909,
                    -0.004389276262372732,
                    -0.0003701916430145502,
                    -0.0016432611737400293,
                    -0.0024138973094522953,
                    -0.0006783159915357828,
                    0.0016638037050142884,
                    0.005980802234262228,
                    0.0018824262078851461,
                    -0.0004067283880431205,
                    0.003021651180461049,
                    0.0007826028158888221,
                    0.004950457252562046,
                    0.004275496117770672,
                    -0.011228147894144058,
                    -0.003165376838296652,
                    -0.00037605641409754753,
                    0.0021446007303893566
                ]
            ]
        },
        {
            "type": "conv1d",
            "activation": "",
            "shape": [
                null,
                17,
                36
            ],
            "kernel_size": [
                12
            ],
            "dilation": [
                1
            ],
            "groups": 1,
            "weights": [
                [
                    [
                        [
                            0.007254898082464933,
                            -0.08586081862449646,
                            0.13983502984046936,
                            -0.29926687479019165,
                            0.3074657917022705,
                            0.05533884838223457,
                            -0.14518457651138306,
                            0.34887853264808655,
                            -0.6869174242019653,
                            0.17820417881011963,
                            0.08122764527797699,
                            0.1248287484049797,
                            -0.2111697643995285,
                            -0.10842062532901764,
                            -0.1579066812992096,
                            0.09617926925420761,
                            0.052576806396245956,
                            0.16868825256824493,
                            0.012265153229236603,
                            0.23921820521354675,
                            -0.16995446383953094,
                            -0.25506824254989624,
                            -0.10576845705509186,
                            0.16857409477233887,
                            -0.08576161414384842,
                            0.06985204666852951,
                            -0.15405777096748352,
                            0.05444755032658577,
                            -0.01586020179092884,
                            -0.2092735767364502,
                            0.02548825927078724,
                            0.2179177701473236,
                            0.2170083373785019,
                            -0.4184376001358032,
                            -0.11499455571174622,
                            -0.061442144215106964
                        ],
                        [
                            0.09852755814790726,
                            -0.016502797603607178,
                            0.03767138347029686,
                            -0.0031231206376105547,
                            -0.11812818795442581,
                            -0.011268959380686283,
                            0.08835915476083755,
                            -0.04849090427160263,
                            -0.007665937766432762,
                            -0.07926174998283386,
                            -0.11613132804632187,
                            0.007860598154366016,
                            0.114891916513443,
                            -0.047087594866752625,
                            -0.05147609859704971,
                            0.004460734315216541,
                            0.0440279021859169,
                            0.06406348943710327,
                            0.016769912093877792,
                            -0.022149061784148216,
                            0.05213836207985878,
                            -0.025391975417733192,
                            -0.04819217324256897,
                            0.011261330917477608,
                            -0.01926800049841404,
                            -0.060602277517318726,
                            0.11998018622398376,
                            0.10396856814622879,
                            -0.06590285152196884,
                            0.08032725751399994,
                            -0.1598716676235199,
                            0.1593552976846695,
                            0.003981121350079775,
                            0.0517735481262207,
                            -0.0010385563364252448,
                            -0.1475502997636795
                        ],
                        [
                            0.1888570487499237,
                            -0.04888847470283508,
                            -0.19396132230758667,
                            0.02154696360230446,
                            -0.19308891892433167,
                            0.12570223212242126,
                            0.1370609998703003,
                            -0.31175515055656433,
                            0.15316900610923767,
                            -0.1547737717628479,
                            0.04596183821558952,
                            0.006157101597636938,
                            -0.01546726655215025,
                            -0.05103510618209839,
                            -0.021230200305581093,
                            -0.14810413122177124,
                            0.10964103043079376,
                            -0.02981325425207615,
                            0.1417345255613327,
                            -0.13056057691574097,
                            0.09157999604940414,
                            0.2531470060348511,
                            -0.14865005016326904,
                            0.1464061439037323,
                            -0.06389831751585007,
                            0.026413505896925926,
                            0.17635054886341095,
                            0.08144346624612808,
                            -0.16712979972362518,
                            0.03432738035917282,
                            0.07731697708368301,
                            -0.14112421870231628,
                            -0.24683243036270142,
                            0.18138477206230164,
                            0.12520959973335266,
                            0.1608305424451828
                        ],
                        [
                            -0.26085585355758667,
                            -0.21994240581989288,
                            -0.04419262334704399,
                            -0.2814196050167084,
                            0.3729196786880493,
                            -0.5185382962226868,
                            -0.39347249269485474,
                            -0.09705785661935806,
                            0.08709560334682465,
                            -0.3178988993167877,
                            -0.01286415196955204,
                            0.21078826487064362,
                            0.056856635957956314,
                            -0.13465675711631775,
                            -0.3032441735267639,
                            0.030013397336006165,
                            -0.5408085584640503,
                            -0.060289956629276276,
                            0.022582191973924637,
                            -0.20063254237174988,
                            -0.14183580875396729,
                            0.3782942593097687,
                            -0.013589078560471535,
                            0.06181523948907852,
                            -0.03309984505176544,
                            -0.23239056766033173,
                            -0.4141429364681244,
                            0.002985995728522539,
                            0.2761553227901459,
                            0.049089495092630386,
                            -0.08691825717687607,
                            -0.2056710422039032,
                            0.11434351652860641,
                            0.1089199110865593,
                            -0.10684868693351746,
                            -0.34783801436424255
                        ],
                        [
                            0.12406311929225922,
                            -0.06628037989139557,
                            0.22777874767780304,
                            -0.12150473892688751,
                            0.06579762697219849,
                            0.24106495082378387,
                            -0.08454752713441849,
                            0.16926054656505585,
                            -0.6544793248176575,
                            0.22232559323310852,
                            -0.05754224210977554,
                            0.05850357934832573,
                            -0.29905441403388977,
                            -0.12498588860034943,
                            0.0066583720035851,
                            -0.02458355948328972,
                            0.3148799240589142,
                            0.29849886894226074,
                            0.024698929861187935,
                            0.14235875010490417,
                            -0.01617918349802494,
                            -0.30213209986686707,
                            -0.001465109409764409,
                            0.00232527288608253,
                            -0.05055660009384155,
                            0.13431736826896667,
                            0.1559576839208603,
                            -0.026104819029569626,
                            -0.19680391252040863,
                            -0.11852549761533737,
                            0.086395762860775,
                            0.15758712589740753,
                            -0.07438968867063522,
                            -0.2754220962524414,
                            -0.11434046924114227,
                            0.14382855594158173
                        ],
                        [
                            0.03400923311710358,
                            -0.11360008269548416,
                            0.040998879820108414,
                            -0.22522935271263123,
                            0.2037675827741623,
                            0.2465183585882187,
                            -0.04225362464785576,
                            0.0838426724076271,
                            -0.15182800590991974,
                            0.17400720715522766,
                            0.02991672046482563,
                            0.10627523809671402,
                            -0.02775608003139496,
                            -0.10895538330078125,
                            -0.04444405809044838,
                            0.0698171854019165,
                            0.07717624306678772,
                            0.059921227395534515,
                            0.04765276983380318,
                            0.20635831356048584,
                            0.05610300973057747,
                            -0.1513276845216751,
                            -0.02167101390659809,
                            0.12197574973106384,
                            -0.02632211707532406,
                            0.047441668808460236,
                            -0.07576876133680344,
                            0.031099652871489525,
                            0.00014475607895292342,
                            -0.08211587369441986,
                            0.0033362656831741333,
                            3.6302350054029375e-05,
                            0.12001582980155945,
                            -0.19603122770786285,
                            0.01844732090830803,
                            0.07865331321954727
                        ],
                        [
                            0.421645849943161,
                            0.13189300894737244,
                            -0.02388990856707096,
                            0.27678152918815613,
                            -0.4183354377746582,
                            0.4817003309726715,
                            0.20318061113357544,
                            -0.24802029132843018,
                            -0.38754135370254517,
                            0.1745954304933548,
                            0.15296292304992676,
                            -0.1677265167236328,
                            -0.16138307750225067,
                            -0.03964543715119362,
                            0.2397817224264145,
                            -0.2343638837337494,
                            0.6698970198631287,
                            0.30720674991607666,
                            0.11045234650373459,
                            0.11343520134687424,
                            0.07918205112218857,
                            -0.15592984855175018,
                            -0.08456535637378693,
                            0.030693264678120613,
                            -0.04228971526026726,
                            0.18306836485862732,
                            0.48417043685913086,
                            0.03919002041220665,
                            -0.4835156500339508,
                            0.12665516138076782,
                            0.3158802092075348,
                            -0.12459537386894226,
                            -0.5362729430198669,
                            0.28400692343711853,
                            -0.022648710757493973,
                            0.4053143858909607
                        ],
                        [
                            -0.24647490680217743,
                            -0.1944075971841812,
                            -0.006183321587741375,
                            -0.4641113579273224,
                            0.44079336524009705,
                            -0.6259419918060303,
                            -0.3103488087654114,
                            0.14134137332439423,
                            0.2574712932109833,
                            -0.4703006446361542,
                            -0.198661208152771,
                            0.282906174659729,
                            0.34166982769966125,
                            -0.05872621759772301,
                            -0.42459002137184143,
                            0.1987503618001938,
                            -0.6164142489433289,
                            -0.37887704372406006,
                            -0.024336038157343864,
                            -0.016430525109171867,
                            -0.26467928290367126,
                            0.4412021338939667,
                            -0.12599003314971924,
                            -0.009984808042645454,
                            0.013729232363402843,
                            -0.10603561252355576,
                            -0.6986226439476013,
                            0.20023943483829498,
                            0.5269345641136169,
                            -0.07601708918809891,
                            -0.20941543579101562,
                            -0.13697516918182373,
                            0.44897153973579407,
                            -0.20745034515857697,
                            0.20966188609600067,
                            -0.649786114692688
                        ],
                        [
                            -0.1153164878487587,
                            0.12852151691913605,
                            0.09582796692848206,
                            0.22902122139930725,
                            -0.11368951946496964,
                            -0.009787268936634064,
                            0.027232497930526733,
                            0.13479186594486237,
                            0.12542006373405457,
                            0.09630352258682251,
                            0.01824614219367504,
                            -0.14042307436466217,
                            0.013125584460794926,
                            0.048863485455513,
                            0.0020014408510178328,
                            0.06492169946432114,
                            -0.05444639176130295,
                            -0.017665337771177292,
                            -0.04274456948041916,
                            -0.0628453716635704,
                            -0.0011006119893863797,
                            -0.006745298858731985,
                            0.09058655798435211,
                            -0.06744876503944397,
                            0.05015140026807785,
                            0.047840338200330734,
                            0.06439890712499619,
                            -0.0568854846060276,
                            0.02697739563882351,
                            0.045876674354076385,
                            -0.032165881246328354,
                            0.07899506390094757,
                            0.10759138315916061,
                            -0.016623755916953087,
                            0.012728400528430939,
                            -0.07136686146259308
                        ],
                        [
                            -0.038126274943351746,
                            0.07405059784650803,
                            -0.087815061211586,
                            0.12903332710266113,
                            -0.08363856375217438,
                            -0.12462161481380463,
                            0.09177897870540619,
                            -0.11199913173913956,
                            0.5538293123245239,
                            -0.14829401671886444,
                            -0.01397330965846777,
                            -0.12647365033626556,
                            0.15775832533836365,
                            0.02144060656428337,
                            0.16942785680294037,
                            -0.09934101998806,
                            -0.23366990685462952,
                            -0.2049635499715805,
                            -0.017375539988279343,
                            -0.22598545253276825,
                            0.0720430463552475,
                            0.2266104370355606,
                            0.07766656577587128,
                            -0.0022016773000359535,
                            0.0363333597779274,
                            -0.07968281209468842,
                            -0.05947297811508179,
                            -0.05733860284090042,
                            0.09268978983163834,
                            0.0951785147190094,
                            -0.01680530421435833,
                            -0.19444885849952698,
                            -0.04424525052309036,
                            0.17913872003555298,
                            -0.018972773104906082,
                            -0.09448779374361038
                        ],
                        [
                            0.32626208662986755,
                            -0.06570792943239212,
                            -0.16674116253852844,
                            -0.1653955578804016,
                            -0.06678753346204758,
                            0.22360751032829285,
                            -0.06181354075670242,
                            -0.3077995181083679,
                            -0.22092755138874054,
                            -0.03991686552762985,
                            0.11413542181253433,
                            0.032938893884420395,
                            -0.04774145409464836,
                            -0.15591052174568176,
                            -0.035710014402866364,
                            -0.08265125751495361,
                            0.27168145775794983,
                            0.15847627818584442,
                            0.05345151200890541,
                            -0.04322771728038788,
                            -0.09584633260965347,
                            0.2028016895055771,
                            -0.2027333378791809,
                            0.24447982013225555,
                            -0.24024894833564758,
                            -0.048048246651887894,
                            0.1809898465871811,
                            0.16263669729232788,
                            -0.08484186977148056,
                            0.05542999878525734,
                            0.23352447152137756,
                            -0.05448277294635773,
                            -0.25893351435661316,
                            0.11052806675434113,
                            0.03949800133705139,
                            0.2170613557100296
                        ],
                        [
                            -0.03812225162982941,
                            0.16603074967861176,
                            -0.017403583973646164,
                            0.22191815078258514,
                            -0.21494576334953308,
                            -0.08623351156711578,
                            0.011297205463051796,
                            -0.30926191806793213,
                            0.622117817401886,
                            -0.02926022745668888,
                            0.053193286061286926,
                            -0.1756439357995987,
                            0.2699447572231293,
                            0.09470415860414505,
                            0.1167609915137291,
                            -0.08316223323345184,
                            -0.1965608447790146,
                            -0.1861031949520111,
                            0.04805368930101395,
                            -0.3118043839931488,
                            0.1057780534029007,
                            0.2592153251171112,
                            0.13824111223220825,
                            -0.17260776460170746,
                            0.10423372685909271,
                            -0.07491235435009003,
                            0.03545497730374336,
                            -0.02432123012840748,
                            -0.06110435724258423,
                            0.11641868203878403,
                            -0.04108699783682823,
                            -0.1945103257894516,
                            -0.2104083001613617,
                            0.25343799591064453,
                            0.011110158637166023,
                            0.11383937299251556
                        ],
                        [
                            0.16808588802814484,
                            -0.0027288119308650494,
                            0.07804718613624573,
                            -0.08399292826652527,
                            -0.12383469194173813,
                            0.2368926703929901,
                            -0.0751412883400917,
                            -0.13624824583530426,
                            -0.42798009514808655,
                            0.10177799314260483,
                            -0.01827552728354931,
                            0.040613770484924316,
                            -0.08242546766996384,
                            -0.13428542017936707,
                            0.04529167711734772,
                            -0.02481854148209095,
                            0.4029841423034668,
                            0.3048994541168213,
                            0.1441900134086609,
                            0.11196087300777435,
                            0.07454709708690643,
                            -0.06525684148073196,
                            -0.10201270878314972,
                            -0.022911522537469864,
                            -0.10851138830184937,
                            0.07908596843481064,
                            0.345326691865921,
                            0.12288558483123779,
                            -0.31898483633995056,
                            0.1456831395626068,
                            0.10057033598423004,
                            0.058809541165828705,
                            -0.28226250410079956,
                            0.03302951157093048,
                            -0.014683274552226067,
                            0.26707854866981506
                        ],
                        [
                            -0.16100454330444336,
                            0.03310341015458107,
                            -0.10215368866920471,
                            0.030915647745132446,
                            0.0915568619966507,
                            -0.041440460830926895,
                            0.1153130978345871,
                            -0.30753225088119507,
                            0.013970688916742802,
                            0.15509340167045593,
                            -0.041247718036174774,
                            -0.0037830627989023924,
                            -0.023779088631272316,
                            0.1286652535200119,
                            -0.012699379585683346,
                            0.26893311738967896,
                            0.019032394513487816,
                            -0.06803493201732635,
                            -0.26617076992988586,
                            -0.1622806340456009,
                            0.157694011926651,
                            -0.028899280354380608,
                            0.1934853196144104,
                            0.18594662845134735,
                            -0.24267996847629547,
                            -0.05253865197300911,
                            0.02677939645946026,
                            -0.33299681544303894,
                            -0.1598839908838272,
                            0.5389361381530762,
                            -0.09356039762496948,
                            -0.2289908528327942,
                            0.13269288837909698,
                            0.5494266152381897,
                            0.010113188065588474,
                            -0.1083529070019722
                        ],
                        [
                            0.025002574548125267,
                            0.3275502622127533,
                            -0.09263786673545837,
                            0.4198644459247589,
                            -0.16284950077533722,
                            -0.0201877411454916,
                            0.31069156527519226,
                            -0.0635523572564125,
                            0.5842477679252625,
                            -0.08341597020626068,
                            -0.07908610254526138,
                            -0.379153847694397,
                            0.4147055447101593,
                            0.21486340463161469,
                            0.1345992535352707,
                            -0.06936593353748322,
                            -0.008709733374416828,
                            -0.36979928612709045,
                            0.08793844282627106,
                            0.03436530381441116,
                            0.16412696242332458,
                            -0.011424285359680653,
                            0.014418607577681541,
                            -0.1536996066570282,
                            0.18953706324100494,
                            0.09811286628246307,
                            0.009707890450954437,
                            -0.062480561435222626,
                            -0.021147657185792923,
                            -0.11722899973392487,
                            -0.1328534632921219,
                            -0.02299952693283558,
                            -0.012164765037596226,
                            -0.0001737543207127601,
                            0.29553988575935364,
                            0.06993121653795242
                        ],
                        [
                            -0.37366169691085815,
                            -0.06443335860967636,
                            -0.1523435264825821,
                            -0.05278076231479645,
                            0.13336114585399628,
                            -0.37023961544036865,
                            0.05386209860444069,
                            -0.02807527966797352,
                            0.6491178274154663,
                            -0.10304557532072067,
                            -0.02485075406730175,
                            0.10608018189668655,
                            0.26194649934768677,
                            0.10378121584653854,
                            -0.11600597947835922,
                            0.09820719063282013,
                            -0.4938655197620392,
                            -0.26418328285217285,
                            -0.02856244333088398,
                            -0.12036503851413727,
                            0.06196257844567299,
                            0.0999402180314064,
                            -0.030787982046604156,
                            -0.026158520951867104,
                            0.1405554711818695,
                            -0.06014029681682587,
                            -0.3750686049461365,
                            -0.011859934777021408,
                            0.2814992666244507,
                            -0.06417913734912872,
                            -0.17460040748119354,
                            -0.16446064412593842,
                            0.19497601687908173,
                            -0.04522094875574112,
                            0.11473563313484192,
                            -0.34088918566703796
                        ],
                        [
                            -0.2795441448688507,
                            0.1901877075433731,
                            0.07247643917798996,
                            0.27829721570014954,
                            0.045768167823553085,
                            -0.1955115646123886,
                            0.2425859123468399,
                            0.3499160408973694,
                            0.2863437235355377,
                            0.08600302785634995,
                            -0.10706969350576401,
                            -0.21257472038269043,
                            0.20288795232772827,
                            0.2617539167404175,
                            0.06899742037057877,
                            0.17460687458515167,
                            -0.2112525999546051,
                            -0.2479304075241089,
                            -0.13726003468036652,
                            0.0979190245270729,
                            0.06398864835500717,
                            -0.2616140842437744,
                            0.18228423595428467,
                            -0.15382947027683258,
                            0.2359122931957245,
                            0.15475377440452576,
                            -0.11528369784355164,
                            -0.112697534263134,
                            0.03428751602768898,
                            -0.03985530883073807,
                            -0.2715488076210022,
                            0.14087443053722382,
                            0.42445310950279236,
                            -0.25370708107948303,
                            0.13337157666683197,
                            -0.13273589313030243
                        ],
                        [
                            0.1267019361257553,
                            -0.10020416975021362,
                            -0.166977196931839,
                            -0.024751894176006317,
                            -0.24725759029388428,
                            0.08338480442762375,
                            -0.05218225717544556,
                            -0.3291214108467102,
                            -0.02683449350297451,
                            -0.08542777597904205,
                            0.022315235808491707,
                            0.029467670246958733,
                            0.06940153986215591,
                            -0.16515196859836578,
                            -0.055451419204473495,
                            -0.0966719537973404,
                            0.2568468749523163,
                            0.15504103899002075,
                            0.0365116260945797,
                            -0.093539297580719,
                            0.0878482535481453,
                            0.2129616141319275,
                            -0.02163737639784813,
                            0.1111592948436737,
                            -0.08137452602386475,
                            0.014067664742469788,
                            0.13682660460472107,
                            0.0930793285369873,
                            -0.10829492658376694,
                            0.06611021608114243,
                            0.2754844129085541,
                            -0.10155338048934937,
                            -0.2172488421201706,
                            0.21699804067611694,
                            0.06991448253393173,
                            0.10104764252901077
                        ],
                        [
                            -0.2730211019515991,
                            0.19728823006153107,
                            0.047287970781326294,
                            0.40865612030029297,
                            -0.039322689175605774,
                            -0.12706032395362854,
                            0.26302218437194824,
                            0.272966593503952,
                            0.4741458594799042,
                            0.18320105969905853,
                            -0.16266019642353058,
                            -0.2738792896270752,
                            0.1828516125679016,
                            0.34814420342445374,
                            0.1253897100687027,
                            0.004569231066852808,
                            -0.24166828393936157,
                            -0.25246644020080566,
                            -0.17577223479747772,
                            -0.007346030790358782,
                            0.14683616161346436,
                            -0.16402983665466309,
                            0.2115323692560196,
                            -0.3188268840312958,
                            0.23492874205112457,
                            0.05447740480303764,
                            -0.029978735372424126,
                            -0.1527848094701767,
                            -0.0608101412653923,
                            0.08332906663417816,
                            -0.3050629198551178,
                            0.05817217379808426,
                            0.25535669922828674,
                            -0.10544630140066147,
                            0.1811046600341797,
                            -0.027164507657289505
                        ],
                        [
                            -0.03706560656428337,
                            0.05478040128946304,
                            -0.025953250005841255,
                            0.24049979448318481,
                            -0.07858092337846756,
                            -0.002335477387532592,
                            0.03289355710148811,
                            -0.11006922274827957,
                            0.257933646440506,
                            -0.02880917489528656,
                            -0.049470141530036926,
                            -0.20144717395305634,
                            0.14520713686943054,
                            0.024446118623018265,
                            0.1024009957909584,
                            -0.06648960709571838,
                            0.01754620298743248,
                            -0.14489349722862244,
                            -0.001621082192286849,
                            -0.09929496794939041,
                            0.02308688499033451,
                            0.018335625529289246,
                            -0.06582864373922348,
                            -0.014912105165421963,
                            -0.029218384996056557,
                            0.028809404000639915,
                            0.13462454080581665,
                            -0.021631844341754913,
                            -0.11731061339378357,
                            0.11129441112279892,
                            0.04722971096634865,
                            0.028048111125826836,
                            -0.0735771656036377,
                            0.14737825095653534,
                            0.10471230000257492,
                            0.08536011725664139
                        ],
                        [
                            -0.07393592596054077,
                            -0.34593647718429565,
                            -0.0018765212735161185,
                            -0.46463626623153687,
                            0.24484883248806,
                            -0.19297973811626434,
                            -0.3618576228618622,
                            0.06434456259012222,
                            -0.4199657738208771,
                            -0.18202698230743408,
                            0.12790535390377045,
                            0.30722329020500183,
                            -0.4097188413143158,
                            -0.264686644077301,
                            -0.2426462024450302,
                            0.004839436616748571,
                            0.0838560089468956,
                            0.3835325241088867,
                            -0.040518537163734436,
                            -0.09838604927062988,
                            -0.10609602183103561,
                            0.1217074915766716,
                            -0.002536068670451641,
                            0.15340541303157806,
                            -0.22928833961486816,
                            -0.2185596525669098,
                            -0.23141160607337952,
                            0.09986555576324463,
                            0.13251878321170807,
                            0.011748087592422962,
                            0.09871606528759003,
                            -0.13440556824207306,
                            -0.09723354876041412,
                            0.035444919019937515,
                            -0.30234161019325256,
                            -0.1815805435180664
                        ],
                        [
                            0.12707217037677765,
                            -0.015162337571382523,
                            -0.06803605705499649,
                            -0.029085172340273857,
                            -0.19083403050899506,
                            0.016827741637825966,
                            -0.03023025020956993,
                            -0.028783967718482018,
                            -0.11867637932300568,
                            0.06662678718566895,
                            -0.02724546007812023,
                            0.05279233679175377,
                            0.028273804113268852,
                            -0.05609852075576782,
                            0.047001879662275314,
                            -0.07194264233112335,
                            0.22433461248874664,
                            0.11618304997682571,
                            0.06498094648122787,
                            0.037463147193193436,
                            -0.011907697655260563,
                            -0.042401958256959915,
                            -0.07553739100694656,
                            0.00836133025586605,
                            -0.03687908127903938,
                            -0.04449114948511124,
                            0.01521182432770729,
                            -0.03111528791487217,
                            0.011567466892302036,
                            0.08919893950223923,
                            0.04815185070037842,
                            0.03322224318981171,
                            -0.13385052978992462,
                            0.08788600564002991,
                            -0.0843297690153122,
                            0.00761483795940876
                        ],
                        [
                            -0.1922290325164795,
                            0.03816279023885727,
                            0.09555688500404358,
                            0.10837462544441223,
                            0.09451963752508163,
                            -0.23572732508182526,
                            0.042357247322797775,
                            -0.0024152840487658978,
                            0.33549052476882935,
                            0.07163800299167633,
                            0.06994073837995529,
                            -0.1440824419260025,
                            0.06662438809871674,
                            0.027600634843111038,
                            0.041516732424497604,
                            0.09399465471506119,
                            -0.1859687864780426,
                            -0.17557865381240845,
                            -0.043556783348321915,
                            -0.05872981995344162,
                            -0.019984111189842224,
                            0.01737123541533947,
                            0.08722671121358871,
                            -0.0971817895770073,
                            0.08469316363334656,
                            0.09188000112771988,
                            0.015441948547959328,
                            -0.13025417923927307,
                            -0.02172340638935566,
                            -0.05970181152224541,
                            -0.06624315679073334,
                            -0.1374099850654602,
                            0.014479176141321659,
                            0.008398965932428837,
                            0.004366653971374035,
                            -0.022943338379263878
                        ],
                        [
                            0.24365445971488953,
                            0.038203079253435135,
                            0.16951492428779602,
                            -0.03447319567203522,
                            0.06265676766633987,
                            0.2865302562713623,
                            -0.1043083444237709,
                            0.2548990547657013,
                            -0.5345062613487244,
                            0.16722948849201202,
                            0.00920283142477274,
                            -0.009114520624279976,
                            -0.15214084088802338,
                            -0.1321863979101181,
                            0.011053713969886303,
                            -0.05687754973769188,
                            0.21979744732379913,
                            0.19944685697555542,
                            0.03957019001245499,
                            0.206340029835701,
                            -0.035455700010061264,
                            -0.2469760924577713,
                            -0.06563089042901993,
                            -0.0037793293595314026,
                            -0.1015508621931076,
                            0.06143830344080925,
                            0.24423041939735413,
                            0.04679664969444275,
                            -0.059514451771974564,
                            -0.016947723925113678,
                            0.1598893702030182,
                            0.21807125210762024,
                            -0.0410199835896492,
                            -0.11892882734537125,
                            -0.03628445416688919,
                            0.1644429713487625
                        ],
                        [
                            0.10121467709541321,
                            -0.042953040450811386,
                            0.06198301538825035,
                            0.0031600813381373882,
                            -0.04023227095603943,
                            -0.140877828001976,
                            -0.04349548742175102,
                            -0.08042564243078232,
                            -0.03714831918478012,
                            0.09058492630720139,
                            0.012678324244916439,
                            0.009528093039989471,
                            -0.03463498502969742,
                            -0.03989213705062866,
                            0.0076018101535737514,
                            0.0033901052083820105,
                            0.04579504206776619,
                            0.2155030369758606,
                            -0.030274955555796623,
                            0.03829300403594971,
                            -0.03266233205795288,
                            0.15204353630542755,
                            0.07068023085594177,
                            0.043687496334314346,
                            -0.1477908343076706,
                            -0.07378784567117691,
                            0.07044076919555664,
                            0.007969491183757782,
                            -0.01903846301138401,
                            0.010440723970532417,
                            0.016195667907595634,
                            -0.060780540108680725,
                            -0.1576019525527954,
                            0.03562552481889725,
                            -0.0066178543493151665,
                            0.01484603900462389
                        ],
                        [
                            -0.16093337535858154,
                            0.043733324855566025,
                            0.23309274017810822,
                            -0.12604668736457825,
                            0.2426900416612625,
                            -0.0018349495949223638,
                            -0.006800791248679161,
                            0.48875904083251953,
                            -0.17834798991680145,
                            0.24889367818832397,
                            -0.01804283633828163,
                            -0.018456999212503433,
                            -0.23090970516204834,
                            0.11185458302497864,
                            0.03587183728814125,
                            0.09683893620967865,
                            -0.1993039846420288,
                            -0.062012314796447754,
                            -0.037399087101221085,
                            0.1114143431186676,
                            -0.16725541651248932,
                            -0.28650468587875366,
                            0.09548670053482056,
                            -0.023794960230588913,
                            -0.005002209916710854,
                            0.04315521940588951,
                            -0.17276249825954437,
                            -0.0063078622333705425,
                            0.09235309809446335,
                            -0.13417647778987885,
                            -0.18887624144554138,
                            0.1840202361345291,
                            0.3062017261981964,
                            -0.30235710740089417,
                            -0.00914109405130148,
                            -0.17979681491851807
                        ],
                        [
                            -0.025797316804528236,
                            0.11860998719930649,
                            0.19687600433826447,
                            0.06822256743907928,
                            0.2155074179172516,
                            -0.04192206636071205,
                            0.19881831109523773,
                            0.5518561601638794,
                            -0.12572155892848969,
                            0.15971538424491882,
                            -0.10164042562246323,
                            -0.14650683104991913,
                            -0.00023374562442768365,
                            0.11646728962659836,
                            -0.03246866911649704,
                            0.1431090533733368,
                            -0.014784756116569042,
                            -0.2517019808292389,
                            -0.04250163584947586,
                            0.4458162188529968,
                            -0.05581396445631981,
                            -0.5311141610145569,
                            0.20719866454601288,
                            -0.029040202498435974,
                            0.2512856721878052,
                            0.21724247932434082,
                            -0.25935477018356323,
                            -0.09593363106250763,
                            0.18794676661491394,
                            -0.28107330203056335,
                            -0.3108958899974823,
                            0.4009937644004822,
                            0.5397573113441467,
                            -0.458026647567749,
                            0.1572561413049698,
                            -0.12088219821453094
                        ],
                        [
                            -0.10068394243717194,
                            0.050744038075208664,
                            -0.03600476309657097,
                            0.17314067482948303,
                            -0.23716162145137787,
                            -0.152560755610466,
                            0.02147095650434494,
                            0.0045451028272509575,
                            0.07568769156932831,
                            -0.14088277518749237,
                            -0.050467006862163544,
                            -0.04113595932722092,
                            0.10380471497774124,
                            0.077765092253685,
                            0.0034801617730408907,
                            -0.007434570696204901,
                            -0.03187417984008789,
                            -0.08916600793600082,
                            0.0443684421479702,
                            -0.020105920732021332,
                            0.027150833979249,
                            0.0156929362565279,
                            0.021176695823669434,
                            -0.08813841640949249,
                            -0.005248223897069693,
                            -0.09403666853904724,
                            0.023327231407165527,
                            -0.0835089460015297,
                            -0.05270889401435852,
                            0.012884420342743397,
                            0.05079227685928345,
                            -0.10447719693183899,
                            -0.022037815302610397,
                            0.09666401892900467,
                            -0.0581517368555069,
                            0.06418808549642563
                        ],
                        [
                            0.32299208641052246,
                            -0.10309916734695435,
                            -0.22845175862312317,
                            -0.09475306421518326,
                            -0.08223005384206772,
                            0.12280581891536713,
                            -0.16247843205928802,
                            -0.36519113183021545,
                            -0.07594186812639236,
                            -0.2286219447851181,
                            0.2259765863418579,
                            0.1300874650478363,
                            -0.0844363197684288,
                            -0.19480396807193756,
                            -0.017028436064720154,
                            -0.07287973910570145,
                            0.27663689851760864,
                            0.14542490243911743,
                            0.04537496343255043,
                            -0.09738289564847946,
                            -0.00514663802459836,
                            0.3558366298675537,
                            -0.1335306167602539,
                            0.15465180575847626,
                            -0.18075278401374817,
                            -0.05314336344599724,
                            0.24398820102214813,
                            0.16376721858978271,
                            -0.146124005317688,
                            0.15441085398197174,
                            0.2609095871448517,
                            -0.1957230269908905,
                            -0.4532911479473114,
                            0.21832340955734253,
                            -0.08260305970907211,
                            0.18482042849063873
                        ],
                        [
                            -0.2596225440502167,
                            -0.0033104156609624624,
                            -0.10741043090820312,
                            0.09161117672920227,
                            -0.10086727142333984,
                            -0.2378525733947754,
                            0.02433958649635315,
                            -0.10198936611413956,
                            0.6340683698654175,
                            -0.11126386374235153,
                            0.010142865590751171,
                            -0.020943032577633858,
                            0.20464752614498138,
                            0.08811507374048233,
                            0.11093037575483322,
                            0.03765102103352547,
                            -0.3619419038295746,
                            -0.28975537419319153,
                            -0.09170281887054443,
                            -0.22328239679336548,
                            0.07716583460569382,
                            0.167848601937294,
                            -0.003551661968231201,
                            0.0184568352997303,
                            0.11800254881381989,
                            -0.09151823818683624,
                            -0.14339140057563782,
                            -0.0017200246220454574,
                            0.17380987107753754,
                            0.09255311638116837,
                            -0.0946039929986,
                            -0.28013503551483154,
                            0.0475473552942276,
                            0.15888729691505432,
                            0.11713067442178726,
                            -0.08908584713935852
                        ],
                        [
                            0.043222926557064056,
                            -0.07213342189788818,
                            0.11427821218967438,
                            -0.2813605070114136,
                            0.2787854075431824,
                            0.09926982969045639,
                            -0.15850088000297546,
                            0.23782749474048615,
                            -0.40864530205726624,
                            0.04035568982362747,
                            0.1011948212981224,
                            0.1291404664516449,
                            -0.1681215912103653,
                            -0.1765241026878357,
                            -0.10246521979570389,
                            0.10501403361558914,
                            0.1528894603252411,
                            0.16480280458927155,
                            0.03654598444700241,
                            0.18194787204265594,
                            -0.061962615698575974,
                            -0.14423801004886627,
                            -0.03739117830991745,
                            0.08165217936038971,
                            -0.13291685283184052,
                            0.08027174323797226,
                            -0.06847719103097916,
                            0.03446776047348976,
                            0.11424395442008972,
                            -0.025030631572008133,
                            0.0773303359746933,
                            0.14859606325626373,
                            0.10962890833616257,
                            -0.22414425015449524,
                            0.0686279758810997,
                            0.047548044472932816
                        ],
                        [
                            -0.3220539391040802,
                            -0.017801769077777863,
                            0.08183085918426514,
                            -0.06898714601993561,
                            0.2522332966327667,
                            -0.3416120707988739,
                            0.061305467039346695,
                            0.31346791982650757,
                            0.3656775653362274,
                            -0.12480586022138596,
                            -0.0835815966129303,
                            -0.0931076854467392,
                            0.18475712835788727,
                            0.0954347476363182,
                            -0.07662877440452576,
                            0.17102791368961334,
                            -0.4670911729335785,
                            -0.3623160719871521,
                            -0.054282184690237045,
                            0.10069691389799118,
                            0.011517719365656376,
                            -0.1622079312801361,
                            0.1356726586818695,
                            -0.01465284638106823,
                            0.20781578123569489,
                            -0.03691567853093147,
                            -0.3984619677066803,
                            -0.03556748852133751,
                            0.45851776003837585,
                            -0.17064079642295837,
                            -0.3478299677371979,
                            0.09308334439992905,
                            0.46856290102005005,
                            -0.3469058871269226,
                            0.14346511662006378,
                            -0.3381812870502472
                        ],
                        [
                            0.2983415722846985,
                            0.18438556790351868,
                            0.05442022159695625,
                            0.17769934237003326,
                            -0.26562434434890747,
                            0.5345386266708374,
                            0.1497337967157364,
                            0.017915775999426842,
                            -0.5193955302238464,
                            0.4163838326931,
                            0.09499329328536987,
                            -0.17248190939426422,
                            -0.3638111352920532,
                            0.012395599856972694,
                            0.18808521330356598,
                            -0.12045802175998688,
                            0.5949891209602356,
                            0.42108020186424255,
                            -0.060897935181856155,
                            0.15632019937038422,
                            0.046639058738946915,
                            -0.34502220153808594,
                            0.010137958452105522,
                            -0.0198508333414793,
                            -0.10699278116226196,
                            0.1974726766347885,
                            0.6075814962387085,
                            -0.004823095165193081,
                            -0.5288897752761841,
                            0.05921506509184837,
                            0.185913547873497,
                            0.16852088272571564,
                            -0.3843468427658081,
                            0.1320214867591858,
                            -0.16334909200668335,
                            0.44299909472465515
                        ],
                        [
                            0.36316201090812683,
                            0.08900284767150879,
                            -0.08122529834508896,
                            0.24156486988067627,
                            -0.3601032495498657,
                            0.2706672251224518,
                            0.2868264615535736,
                            -0.24114075303077698,
                            0.07805021852254868,
                            -0.11360275745391846,
                            -0.06303074955940247,
                            -0.14950315654277802,
                            0.19065161049365997,
                            -0.053263597190380096,
                            0.16149578988552094,
                            -0.16793368756771088,
                            0.22082605957984924,
                            -0.08312278985977173,
                            0.07841914147138596,
                            0.022273078560829163,
                            0.15366537868976593,
                            0.08661714941263199,
                            -0.07087147235870361,
                            -0.0519777275621891,
                            0.039106905460357666,
                            0.1564071625471115,
                            0.32377880811691284,
                            0.07269926369190216,
                            -0.1123044490814209,
                            0.08051439374685287,
                            0.13737738132476807,
                            -0.012799144722521305,
                            -0.256307452917099,
                            0.12863439321517944,
                            0.14196531474590302,
                            0.2326631247997284
                        ],
                        [
                            0.12096700817346573,
                            -0.16825652122497559,
                            0.07438285648822784,
                            -0.3242902457714081,
                            0.06990871578454971,
                            0.23877036571502686,
                            -0.3096781373023987,
                            -0.17193561792373657,
                            -0.5891646146774292,
                            -0.07468201965093613,
                            0.15165141224861145,
                            0.3203520178794861,
                            -0.2903827428817749,
                            -0.27487295866012573,
                            -0.24294693768024445,
                            -0.04634804651141167,
                            0.22985175251960754,
                            0.2969760298728943,
                            0.06514988839626312,
                            0.01461979653686285,
                            -0.09390503913164139,
                            0.0020070448517799377,
                            -0.07078684866428375,
                            0.056214433163404465,
                            -0.19718250632286072,
                            -0.026563942432403564,
                            0.015894407406449318,
                            0.14068934321403503,
                            -0.11851724982261658,
                            0.08606727421283722,
                            0.22923341393470764,
                            0.05022534355521202,
                            -0.09405127167701721,
                            0.057628389447927475,
                            -0.1371503621339798,
                            0.0968647301197052
                        ],
                        [
                            -0.021537741646170616,
                            0.004498051013797522,
                            0.0983516201376915,
                            -0.1389383226633072,
                            0.05756427347660065,
                            0.05111007019877434,
                            -0.14932669699192047,
                            0.2894771993160248,
                            -0.3013759255409241,
                            0.09967586398124695,
                            -0.07886144518852234,
                            -0.03188246861100197,
                            -0.1323588490486145,
                            -0.021781370043754578,
                            2.7198515454074368e-05,
                            -0.006062523927539587,
                            0.0015596323646605015,
                            0.09774856269359589,
                            -0.08919218182563782,
                            0.12271562218666077,
                            -0.03704871982336044,
                            -0.09201177954673767,
                            0.03486568108201027,
                            -0.10648785531520844,
                            0.03436633199453354,
                            0.03310922160744667,
                            -0.12912918627262115,
                            -0.04224805906414986,
                            -0.0037766643799841404,
                            -0.07548245787620544,
                            -0.033048197627067566,
                            0.11774777621030807,
                            0.10386038571596146,
                            -0.129230797290802,
                            -0.0008052634657360613,
                            -0.026419807225465775
                        ]
                    ],
                    [
                        [
                            0.12344701588153839,
                            0.029329072684049606,
                            0.3014107644557953,
                            0.0403425432741642,
                            -0.4917455017566681,
                            0.04393937066197395,
                            -0.19823142886161804,
                            -0.3669036030769348,
                            -0.2836971879005432,
                            -0.17753730714321136,
                            -0.18921543657779694,
                            -0.1370025873184204,
                            0.32171034812927246,
                            0.026915397495031357,
                            0.026917237788438797,
                            0.07459010183811188,
                            0.054098207503557205,
                            -0.11053367704153061,
                            -0.1317223459482193,
                            -0.149934783577919,
                            -0.10717245191335678,
                            0.30242401361465454,
                            0.04435988515615463,
                            -0.10113193839788437,
                            0.22731174528598785,
                            -0.03083181381225586,
                            0.10697680711746216,
                            0.022425903007388115,
                            -0.1133224219083786,
                            0.07680389285087585,
                            0.236465722322464,
                            -0.1703273504972458,
                            -0.3640786409378052,
                            0.3800065517425537,
                            0.06836742907762527,
                            -0.05890915170311928
                        ],
                        [
                            -0.012742988765239716,
                            -0.02993902564048767,
                            -0.003947095014154911,
                            0.06502386927604675,
                            -0.022456195205450058,
                            -0.06439776718616486,
                            0.002825840376317501,
                            -0.10793784260749817,
                            0.08689754456281662,
                            -0.03167078271508217,
                            -0.13143271207809448,
                            0.056276753544807434,
                            0.11206220835447311,
                            -0.024332169443368912,
                            -0.0006410347996279597,
                            0.051830779761075974,
                            -0.11610089242458344,
                            -0.0030418781097978354,
                            -0.0478663332760334,
                            -0.1702227145433426,
                            0.10858780890703201,
                            0.02080695517361164,
                            -0.06062015891075134,
                            -0.1829032003879547,
                            0.11971455812454224,
                            -0.0010601707035675645,
                            0.06058404594659805,
                            -0.01418651919811964,
                            -0.08972690254449844,
                            0.1330680251121521,
                            -0.013922563754022121,
                            -0.09018263220787048,
                            -0.09633026272058487,
                            0.0868455246090889,
                            0.02609553374350071,
                            0.03476831689476967
                        ],
                        [
                            -0.1628587692975998,
                            0.0930744856595993,
                            0.13415606319904327,
                            0.24173861742019653,
                            -0.09402544796466827,
                            -0.14704369008541107,
                            0.02384599857032299,
                            0.02551380544900894,
                            0.1133342757821083,
                            0.16231241822242737,
                            -0.1557420939207077,
                            -0.10953717678785324,
                            0.1232263520359993,
                            0.09445402771234512,
                            -0.033003535121679306,
                            -0.032986272126436234,
                            -0.06747391074895859,
                            -0.1551693230867386,
                            -0.00809660367667675,
                            -0.009363492950797081,
                            0.12562242150306702,
                            -0.09533170610666275,
                            0.04619884118437767,
                            -0.08927612751722336,
                            0.02567955292761326,
                            -0.051253024488687515,
                            0.10246747732162476,
                            -0.10717405378818512,
                            0.024342311546206474,
                            0.025139251723885536,
                            -0.1230262741446495,
                            0.011348076164722443,
                            0.10775184631347656,
                            -0.10707776993513107,
                            -0.006556368432939053,
                            -0.07934127748012543
                        ],
                        [
                            0.12079156935214996,
                            0.010828462429344654,
                            0.0685867965221405,
                            -0.2205086201429367,
                            -0.09015843272209167,
                            -0.05758211389183998,
                            -0.28035441040992737,
                            0.04589015245437622,
                            -0.47017231583595276,
                            -0.12176049500703812,
                            -0.08921170234680176,
                            0.05330938845872879,
                            0.07386791706085205,
                            -0.05871022492647171,
                            -0.10619527846574783,
                            0.1636492908000946,
                            -0.12002410739660263,
                            -0.08946987241506577,
                            -0.021134089678525925,
                            0.22006216645240784,
                            -0.16749390959739685,
                            0.016270393505692482,
                            -0.16836196184158325,
                            -0.021907472983002663,
                            0.2372230440378189,
                            0.008352816104888916,
                            -0.15293751657009125,
                            0.16436795890331268,
                            0.14739567041397095,
                            -0.24650180339813232,
                            0.06744816899299622,
                            0.0735226422548294,
                            0.0841926634311676,
                            -0.2855019271373749,
                            0.0005351002910174429,
                            -0.243808776140213
                        ],
                        [
                            0.14156468212604523,
                            0.09303861856460571,
                            0.09151224046945572,
                            0.05288057029247284,
                            -0.2895611822605133,
                            0.22493290901184082,
                            0.08546444773674011,
                            -0.3041471540927887,
                            -0.15060000121593475,
                            -0.1380472332239151,
                            -0.09089471399784088,
                            -0.07836109399795532,
                            0.2229221612215042,
                            0.04097457230091095,
                            0.12481377273797989,
                            0.011101553216576576,
                            0.10243860632181168,
                            -0.1493619829416275,
                            0.09046781808137894,
                            -0.1384022980928421,
                            -0.016784464940428734,
                            0.23530666530132294,
                            -0.08723849058151245,
                            -0.028550127521157265,
                            0.03964349627494812,
                            0.04196476936340332,
                            0.19225148856639862,
                            0.10386630147695541,
                            -0.18791563808918,
                            0.16369135677814484,
                            0.21657045185565948,
                            -0.13462936878204346,
                            -0.3419751822948456,
