{
    "in_shape": [
        null,
        150,
        1
    ],
    "layers": [
        {
            "type": "conv1d",
            "activation": "",
            "shape": [
                null,
                13,
                16
            ],
            "kernel_size": [
                12
            ],
            "dilation": [
                1
            ],
            "groups": 1,
            "weights": [
                [
                    [
                        [
                            -0.27702876925468445,
                            0.0728568509221077,
                            -0.2581736743450165,
                            -0.08004051446914673,
                            0.33307626843452454,
                            0.41871532797813416,
                            -0.18970097601413727,
                            0.3135730028152466,
                            0.42005446553230286,
                            -0.5045512914657593,
                            0.33514049649238586,
                            0.31830325722694397,
                            0.279959499835968,
                            0.4463716745376587,
                            0.23021860420703888,
                            0.6396494507789612
                        ]
                    ],
                    [
                        [
                            -0.10169173032045364,
                            0.07124530524015427,
                            -0.36495596170425415,
                            -0.1303735226392746,
                            0.4268547594547272,
                            0.5901311635971069,
                            -0.45002248883247375,
                            0.2996591627597809,
                            0.3688408434391022,
                            -0.29028305411338806,
                            0.4537794291973114,
                            0.11033311486244202,
                            0.1576298028230667,
                            0.5437597036361694,
                            0.2050660103559494,
                            0.600925862789154
                        ]
                    ],
                    [
                        [
                            -0.008001510985195637,
                            -0.1300344467163086,
                            -0.17637749016284943,
                            -0.16772474348545074,
                            0.26661911606788635,
                            0.3308144211769104,
                            -0.2775004208087921,
                            0.25464755296707153,
                            0.3730020821094513,
                            -0.5515874624252319,
                            0.21724696457386017,
                            0.07421673089265823,
                            0.26155886054039,
                            0.6031116247177124,
                            0.23895634710788727,
                            0.5319687724113464
                        ]
                    ],
                    [
                        [
                            -0.1113622784614563,
                            -0.09093762934207916,
                            -0.5239008069038391,
                            0.09044519066810608,
                            0.33241117000579834,
                            0.10847366601228714,
                            -0.29209059476852417,
                            0.0863860696554184,
                            0.421493262052536,
                            -0.37032726407051086,
                            0.32002484798431396,
                            0.2984640300273895,
                            0.12105829268693924,
                            0.34677964448928833,
                            0.46603238582611084,
                            0.5173400640487671
                        ]
                    ],
                    [
                        [
                            -0.027852477505803108,
                            -0.047989971935749054,
                            -0.5024095773696899,
                            -0.04415421932935715,
                            0.5259309411048889,
                            0.3188903033733368,
                            -0.16453422605991364,
                            0.3610859811306,
                            0.47674036026000977,
                            -0.4455014169216156,
                            0.4142182171344757,
                            0.24681800603866577,
                            0.1406705230474472,
                            0.515605092048645,
                            0.47855085134506226,
                            0.4715786874294281
                        ]
                    ],
                    [
                        [
                            -0.23860567808151245,
                            -0.1261858493089676,
                            -0.21658743917942047,
                            -0.08751214295625687,
                            0.50266033411026,
                            0.15643943846225739,
                            -0.369989812374115,
                            0.14305134117603302,
                            0.5421514511108398,
                            -0.48226743936538696,
                            0.42178741097450256,
                            0.3022858202457428,
                            0.4254893660545349,
                            0.3036656677722931,
                            0.2228732407093048,
                            0.6196553707122803
                        ]
                    ],
                    [
                        [
                            -0.043353497982025146,
                            -0.2678413689136505,
                            -0.24851711094379425,
                            -0.012687250040471554,
                            0.3275071978569031,
                            0.16267147660255432,
                            -0.2774798274040222,
                            0.16612796485424042,
                            0.45307525992393494,
                            -0.39357322454452515,
                            0.4079884886741638,
                            0.458242267370224,
                            0.41704243421554565,
                            0.4005228877067566,
                            0.31215354800224304,
                            0.3591456413269043
                        ]
                    ],
                    [
                        [
                            -0.13360677659511566,
                            -0.23659829795360565,
                            -0.22025197744369507,
                            0.05146032199263573,
                            0.15178170800209045,
                            0.33080169558525085,
                            -0.2899535596370697,
                            0.2575867772102356,
                            0.4070040285587311,
                            -0.35903626680374146,
                            0.26573774218559265,
                            0.3613223433494568,
                            0.45916447043418884,
                            0.31176260113716125,
                            0.41879454255104065,
                            0.40789660811424255
                        ]
                    ],
                    [
                        [
                            -0.2600759267807007,
                            -0.13848701119422913,
                            -0.2727999687194824,
                            -0.2613941729068756,
                            0.18765917420387268,
                            0.3254374563694,
                            -0.4441012442111969,
                            0.1429530829191208,
                            0.2334253340959549,
                            -0.6550737023353577,
                            0.3738521337509155,
                            0.3893404006958008,
                            0.24353495240211487,
                            0.475635826587677,
                            0.30859699845314026,
                            0.6530005931854248
                        ]
                    ],
                    [
                        [
                            -0.17752861976623535,
                            -0.4540507197380066,
                            -0.5727539658546448,
                            -0.0699395090341568,
                            1.0229382514953613,
                            0.05676696449518204,
                            -0.40894803404808044,
                            0.11532306671142578,
                            0.7176838517189026,
                            -0.7518637776374817,
                            0.2534330487251282,
                            0.32024189829826355,
                            0.0022982622031122446,
                            0.3933105766773224,
                            0.4278867840766907,
                            0.5743710994720459
                        ]
                    ],
                    [
                        [
                            -0.18812061846256256,
                            -0.2035994529724121,
                            -0.3615758717060089,
                            0.14332301914691925,
                            0.8566673994064331,
                            0.13683484494686127,
                            -0.0904349684715271,
                            0.21410076320171356,
                            0.4699022173881531,
                            -0.5807569026947021,
                            0.19963718950748444,
                            0.301335871219635,
                            0.1900506317615509,
                            0.30541613698005676,
                            0.5098759531974792,
                            0.7772504687309265
                        ]
                    ],
                    [
                        [
                            -0.08767902106046677,
                            -0.2870737910270691,
                            -0.4273747205734253,
                            -0.1386405974626541,
                            0.8237021565437317,
                            0.0469476580619812,
                            -0.39204996824264526,
                            -0.10443533957004547,
                            0.5149744153022766,
                            -0.5730277895927429,
                            0.4108033776283264,
                            0.2350643277168274,
                            0.0005121642607264221,
                            0.23517362773418427,
                            0.2506328821182251,
                            0.8019363880157471
                        ]
                    ]
                ],
                [
                    0.37731829285621643,
                    -0.8085853457450867,
                    -1.8814914226531982,
                    -0.08254169672727585,
                    -0.4952128827571869,
                    -0.7014777660369873,
                    0.7893803119659424,
                    -0.4252672791481018,
                    0.9612956047058105,
                    -2.2297887802124023,
                    -1.353557825088501,
                    1.8581268787384033,
                    -1.2812978029251099,
                    -0.8385300636291504,
                    0.5851559042930603,
                    -0.11717981100082397
                ]
            ]
        },
        {
            "type": "conv1d",
            "activation": "",
            "shape": [
                null,
                2,
                16
            ],
            "kernel_size": [
                12
            ],
            "dilation": [
                1
            ],
            "groups": 1,
            "weights": [
                [
                    [
                        [
                            -0.6849209666252136,
                            0.2949441969394684,
                            0.3311941623687744,
                            0.12954378128051758,
                            0.35160428285598755,
                            0.1595892757177353,
                            -0.11756733804941177,
                            0.041519396007061005,
                            0.4032047986984253,
                            -0.37321051955223083,
                            -0.22585216164588928,
                            -0.21589742600917816,
                            -0.4630550742149353,
                            -0.283375084400177,
                            0.09681235253810883,
                            0.10948194563388824
                        ],
                        [
                            0.07301943749189377,
                            0.10436197370290756,
                            0.3633197247982025,
                            0.2651485502719879,
                            0.26312217116355896,
                            0.6521329283714294,
                            0.6994879841804504,
                            -0.4890574514865875,
                            0.46371713280677795,
                            0.5653634667396545,
                            -0.5300194621086121,
                            -0.2378305345773697,
                            0.39470359683036804,
                            0.6548640131950378,
                            0.5699983835220337,
                            0.22881701588630676
                        ],
                        [
                            -0.281320184469223,
                            -0.4766426682472229,
                            -0.8070741295814514,
                            0.6253055930137634,
                            0.9794019460678101,
                            1.2662997245788574,
                            0.612328827381134,
                            -1.016912579536438,
                            0.7399084568023682,
                            1.0948028564453125,
                            -0.23494695127010345,
                            -0.09914212673902512,
                            1.6428358554840088,
                            0.5478060841560364,
                            0.8011810183525085,
                            0.2796698212623596
                        ],
                        [
                            0.08151976019144058,
                            0.18510101735591888,
                            -0.07682379335165024,
                            0.05884164944291115,
                            0.12702521681785583,
                            0.045495904982089996,
                            0.0336926244199276,
                            0.12859028577804565,
                            -1.2640336751937866,
                            -0.5634283423423767,
                            0.3788354992866516,
                            0.07832992076873779,
                            -0.16599783301353455,
                            -0.4144737422466278,
                            0.13873806595802307,
                            0.1768295168876648
                        ],
                        [
                            -0.9158687591552734,
                            -0.22931359708309174,
                            -0.5645479559898376,
                            0.4827682375907898,
                            0.8352754712104797,
                            0.816655158996582,
                            -0.28313809633255005,
                            0.28543156385421753,
                            -0.6111921072006226,
                            0.389554500579834,
                            -0.2858506441116333,
                            0.6354719400405884,
                            -0.0813826471567154,
                            -0.3522701859474182,
                            1.3980755805969238,
                            0.321254700422287
                        ],
                        [
                            0.024995945394039154,
                            -0.020047076046466827,
                            0.036371130496263504,
                            0.22117722034454346,
                            0.10490644723176956,
                            0.316778302192688,
                            0.41506314277648926,
                            -0.6786830425262451,
                            0.7621698975563049,
                            0.5934117436408997,
                            -0.4368310868740082,
                            -0.21976079046726227,
                            0.824853777885437,
                            0.47055256366729736,
                            0.2072405070066452,
                            0.14856556057929993
                        ],
                        [
                            -0.3380708396434784,
                            0.30051079392433167,
                            0.3077886402606964,
                            -0.20137785375118256,
                            0.11555371433496475,
                            -0.34614869952201843,
                            -0.04666021838784218,
                            0.06482633948326111,
                            0.12976542115211487,
                            -0.30639320611953735,
                            -0.09683841466903687,
                            -0.5425347089767456,
                            -0.992215096950531,
                            -0.6436117887496948,
                            -0.018711594864726067,
                            0.06421860307455063
                        ],
                        [
                            0.6816378235816956,
                            -0.24414226412773132,
                            -0.2608734369277954,
                            -0.004435621201992035,
                            -0.5250130891799927,
                            -0.1489121913909912,
                            -0.09565915912389755,
                            0.06389258056879044,
                            -0.41689109802246094,
                            0.2737535238265991,
                            0.0643060952425003,
                            0.0630984678864479,
                            0.3204273283481598,
                            0.31959253549575806,
                            0.042652834206819534,
                            -0.09820648282766342
                        ],
                        [
                            0.4722600281238556,
                            -0.5368231534957886,
                            0.6675657033920288,
                            -0.8093836307525635,
                            -0.7853720188140869,
                            -0.6908610463142395,
                            0.31560850143432617,
                            0.45099586248397827,
                            -0.12060873955488205,
                            0.18082676827907562,
                            -0.5043975710868835,
                            0.24178506433963776,
                            -0.4941766858100891,
                            0.6015775203704834,
                            -0.6136858463287354,
                            -0.7780706286430359
                        ],
                        [
                            -0.6011253595352173,
                            -0.76874178647995,
                            -1.0444836616516113,
                            0.5815799832344055,
                            1.0189355611801147,
                            1.487704873085022,
                            0.736787736415863,
                            -1.0995802879333496,
                            0.6971580982208252,
                            1.2814674377441406,
                            -0.5728896856307983,
                            0.17357037961483002,
                            1.9561445713043213,
                            0.5147766470909119,
                            0.7165573835372925,
                            0.44446027278900146
                        ],
                        [
                            0.6001855134963989,
                            -0.26557931303977966,
                            -0.17374300956726074,
                            0.11630944907665253,
                            0.5544688105583191,
                            0.3469471335411072,
                            -0.416734904050827,
                            -0.16485536098480225,
                            0.15507644414901733,
                            0.7118837237358093,
                            0.4680027961730957,
                            0.6096471548080444,
                            1.1226935386657715,
                            0.9180564880371094,
                            -0.007557204458862543,
                            -0.2784918248653412
                        ],
                        [
                            0.15009339153766632,
                            0.3713456094264984,
                            0.8501150012016296,
                            -0.6346197128295898,
                            -0.8456345796585083,
                            -1.386857271194458,
                            -0.35630619525909424,
                            1.0401992797851562,
                            -0.5556743144989014,
                            -0.8878746628761292,
                            0.22269068658351898,
                            -0.10805275291204453,
                            -1.5318268537521362,
                            -0.6877026557922363,
                            -0.8385308980941772,
                            -0.05862831696867943
                        ],
                        [
                            -0.11188364028930664,
                            -0.5523701310157776,
                            -0.4342505633831024,
                            0.04981027543544769,
                            0.08837111294269562,
                            0.7736209034919739,
                            -0.03569633886218071,
                            0.1033899337053299,
                            -0.018184425309300423,
                            0.6389119029045105,
                            -0.12001883238554001,
                            0.8920450806617737,
                            1.3786543607711792,
                            0.8196336030960083,
                            -0.1339714527130127,
                            -0.2305229902267456
                        ],
                        [
                            0.21858814358711243,
                            -0.5573851466178894,
                            -0.3566308617591858,
                            0.06031394004821777,
                            -0.2223687767982483,
                            0.15002967417240143,
                            -0.06118942052125931,
                            -0.22478963434696198,
                            -0.18812508881092072,
                            0.4853942096233368,
                            0.2711603343486786,
                            0.5828014016151428,
                            0.8182873129844666,
                            0.5979393124580383,
                            0.21434256434440613,
                            -0.22151154279708862
                        ],
                        [
                            0.16439221799373627,
                            0.1204918771982193,
                            -0.0018828825559467077,
                            -0.012354920618236065,
                            -0.11886988580226898,
                            -0.34355875849723816,
                            -0.4771413803100586,
                            0.4888274371623993,
                            -0.6506708860397339,
                            -0.5747191905975342,
                            0.48416590690612793,
                            0.2159281224012375,
                            -0.9932821989059448,
                            -0.21016061305999756,
                            0.14316193759441376,
                            0.13458402454853058
                        ],
                        [
                            0.027504554018378258,
                            0.14990778267383575,
                            0.11683709919452667,
                            0.2874011695384979,
                            0.394416868686676,
                            0.22479937970638275,
                            0.3999277651309967,
                            -0.8880402445793152,
                            0.9430088400840759,
                            0.6225239634513855,
                            -0.3974224627017975,
                            -0.39656972885131836,
                            0.3854137659072876,
                            0.36160382628440857,
                            0.2924920320510864,
                            0.25470489263534546
                        ]
                    ],
                    [
                        [
                            -0.5655333995819092,
                            0.14166781306266785,
                            -0.0937993973493576,
                            0.16959889233112335,
                            0.12163084000349045,
                            0.37401044368743896,
                            0.22587551176548004,
                            -0.025434374809265137,
                            0.19476765394210815,
                            0.06784670054912567,
                            -0.14808519184589386,
                            0.3885491192340851,
                            -0.10126399993896484,
                            -0.3176955282688141,
                            0.00964554026722908,
                            0.11549879610538483
                        ],
                        [
                            0.1894025355577469,
                            -0.1658976674079895,
                            0.7913282513618469,
                            -0.5930046439170837,
                            -0.055091310292482376,
                            0.25089532136917114,
                            0.8968504667282104,
                            -0.3268117606639862,
                            0.1984638273715973,
                            0.2664076089859009,
                            -0.1996535211801529,
                            0.14949512481689453,
                            0.39896997809410095,
                            0.21396121382713318,
                            0.011990594677627087,
                            -0.31265541911125183
                        ],
                        [
                            0.15865164995193481,
                            -0.39311683177948,
                            -0.3324037194252014,
                            0.28334128856658936,
                            1.0691384077072144,
                            0.782553493976593,
                            0.4189775288105011,
                            -1.1689807176589966,
                            0.7489624619483948,
                            0.9734903573989868,
                            -0.05069057270884514,
                            -0.07150828093290329,
                            1.2332650423049927,
                            0.3876873850822449,
                            0.6503679156303406,
                            0.15712282061576843
                        ],
                        [
                            0.21558326482772827,
                            0.5892422795295715,
                            -0.36226826906204224,
                            0.38299840688705444,
                            0.15054859220981598,
                            -0.020917125046253204,
                            -0.5983217358589172,
                            0.29373297095298767,
                            -1.061208963394165,
                            -0.8958901762962341,
                            0.7348666787147522,
                            -0.099204882979393,
                            -0.6875553727149963,
                            -0.3487876057624817,
                            -0.0901719182729721,
                            0.4480963945388794
                        ],
                        [
                            -0.43469876050949097,
                            0.1121332198381424,
                            -0.5926187038421631,
                            0.30827292799949646,
                            0.4690801203250885,
                            0.4420798122882843,
                            -0.7218014001846313,
                            0.4700394570827484,
                            -0.7271575331687927,
                            -0.1890726238489151,
                            0.4595263600349426,
                            0.7678940892219543,
                            -0.14186546206474304,
                            -0.03497389703989029,
                            0.82120281457901,
                            0.02707550674676895
                        ],
                        [
                            -0.20054073631763458,
                            -0.3765537142753601,
                            0.5157834887504578,
                            -0.07720133662223816,
                            0.07355231791734695,
                            0.00552983395755291,
                            0.7048686742782593,
                            -0.5798914432525635,
                            0.995234489440918,
                            0.7321648597717285,
                            -0.6575798392295837,
                            -0.4300522804260254,
                            0.6611160635948181,
                            0.6134039759635925,
                            0.0645003542304039,
                            -0.34738391637802124
                        ],
                        [
                            -0.5787892937660217,
                            0.4023270905017853,
                            0.01975630782544613,
                            0.14842376112937927,
                            -8.336513565154746e-05,
                            0.34014397859573364,
                            0.3854658007621765,
                            0.03637406602501869,
                            -0.05004459246993065,
                            -0.2584189474582672,
                            -0.07578401267528534,
                            0.4413990378379822,
                            -0.49177467823028564,
                            -0.5508714318275452,
                            -0.12180878967046738,
                            0.22898542881011963
                        ],
                        [
                            0.47592729330062866,
                            -0.12176907807588577,
                            -0.058487556874752045,
                            0.023898432031273842,
                            -0.16029617190361023,
                            -0.3946065306663513,
                            -0.4431137144565582,
                            -0.02118588052690029,
                            -0.47742778062820435,
                            -0.07734247297048569,
                            0.24474376440048218,
                            -0.39562585949897766,
                            0.2813260555267334,
                            0.4455971121788025,
                            -0.16713757812976837,
                            -0.19304171204566956
                        ],
                        [
                            0.34949570894241333,
                            -0.30470284819602966,
                            0.6449510455131531,
                            -0.7468566298484802,
                            -0.938347578048706,
                            -0.3727710545063019,
                            0.37624502182006836,
                            0.4396646320819855,
                            -0.27203238010406494,
                            -0.01438817661255598,
                            -0.3439469635486603,
                            0.18918319046497345,
                            -0.07927345484495163,
                            0.4969416856765747,
                            -0.7772129774093628,
                            -0.5157594084739685
                        ],
                        [
                            -0.15362001955509186,
                            -0.41319674253463745,
                            -0.903917133808136,
                            0.40392595529556274,
                            1.1931169033050537,
                            1.151816725730896,
                            0.1683872938156128,
                            -0.8842310905456543,
                            0.8945837616920471,
                            0.9507982730865479,
                            -0.06702625751495361,
                            -0.0012438755948096514,
                            1.8916740417480469,
                            0.8253369331359863,
                            0.6485925316810608,
                            0.25979167222976685
                        ],
                        [
                            0.4829210937023163,
                            -0.17979134619235992,
                            0.15498144924640656,
                            -0.0320761501789093,
                            0.7927738428115845,
                            0.10041608661413193,
                            -0.40320858359336853,
                            0.14241628348827362,
                            0.3043707311153412,
                            0.081734299659729,
                            0.571593165397644,
                            0.2547059655189514,
                            1.124472975730896,
                            1.2084565162658691,
                            0.09427749365568161,
                            -0.5406933426856995
                        ],
                        [
                            0.22647202014923096,
                            0.5866978764533997,
                            0.3866947889328003,
                            -0.2263277769088745,
                            -0.7175278067588806,
                            -0.9547961354255676,
                            -0.4157128632068634,
                            1.1551141738891602,
                            -0.7722923755645752,
                            -0.917758047580719,
                            0.36657682061195374,
                            0.0047523281536996365,
                            -1.4137133359909058,
                            -0.3224673569202423,
                            -0.9185555577278137,
                            -0.06718771904706955
                        ],
                        [
                            0.05810672417283058,
                            -0.384273499250412,
                            -0.613275945186615,
                            0.014413781464099884,
                            0.38371744751930237,
                            -0.01699244976043701,
                            -0.4967608153820038,
                            0.3589177429676056,
                            0.002776332199573517,
                            -0.013006912544369698,
                            0.23877914249897003,
                            0.48076528310775757,
                            1.203407883644104,
                            1.1545629501342773,
                            -0.150844007730484,
                            -0.4404609799385071
                        ],
                        [
                            0.45481619238853455,
                            -0.18838879466056824,
                            -0.06281585991382599,
                            -0.021015498787164688,
                            0.203581303358078,
                            -0.21006780862808228,
                            -0.41504818201065063,
                            -0.1884196549654007,
                            0.1300416886806488,
                            0.03611239790916443,
                            0.3072921335697174,
                            0.043320268392562866,
                            0.726111650466919,
                            0.6226664781570435,
                            0.34696125984191895,
                            -0.4953469932079315
                        ],
                        [
                            0.06064172461628914,
                            0.4141674339771271,
                            -0.26584383845329285,
                            0.3972679674625397,
                            0.13158181309700012,
                            -0.09847818315029144,
                            -0.5819615721702576,
                            0.5864325761795044,
                            -0.921768844127655,
                            -0.6819168329238892,
                            0.760610818862915,
                            0.14662018418312073,
                            -0.9069470167160034,
                            -0.1977163851261139,
                            0.09274838864803314,
                            0.4435807466506958
                        ],
                        [
                            -0.1890745609998703,
                            0.046896547079086304,
                            0.49736514687538147,
                            -0.17996399104595184,
                            0.25603675842285156,
                            -0.028827747330069542,
                            0.6455671787261963,
                            -0.7404108047485352,
                            0.9177124500274658,
                            0.8070813417434692,
                            -0.7394720315933228,
                            -0.48000892996788025,
                            0.5239706635475159,
                            0.49414628744125366,
                            0.4123852252960205,
                            -0.11393129825592041
                        ]
                    ],
                    [
                        [
                            0.25505098700523376,
                            -0.049265552312135696,
                            0.4397755563259125,
                            -0.4607012867927551,
                            -0.1324881613254547,
                            0.2262698858976364,
                            0.7937443852424622,
                            -0.7815577983856201,
                            1.0610078573226929,
                            0.6380375027656555,
                            -0.4958123564720154,
                            -0.32797273993492126,
                            -0.5697667598724365,
                            -0.9140241742134094,
                            0.8445863127708435,
                            0.10392522066831589
                        ],
                        [
                            0.3039427697658539,
                            -0.08127308636903763,
                            0.8781341314315796,
                            -0.9292755722999573,
                            0.20235219597816467,
                            0.13755930960178375,
                            0.8349851965904236,
                            -0.2937394976615906,
                            0.17912782728672028,
                            0.3217686414718628,
                            0.05847496911883354,
                            0.1006137803196907,
                            0.6698621511459351,
                            0.004870290402323008,
                            0.17772354185581207,
                            -0.671294093132019
                        ],
                        [
                            0.11216781288385391,
                            -0.2021988183259964,
                            -0.20946021378040314,
                            0.26650747656822205,
                            0.8721175193786621,
                            0.4568018615245819,
                            0.3740115463733673,
                            -1.1311874389648438,
                            0.7612571120262146,
                            0.8233128786087036,
                            0.01539764367043972,
                            -0.3642835319042206,
                            1.09147047996521,
                            0.4817454516887665,
                            0.5865693092346191,
                            -0.021857770159840584
                        ],
                        [
                            -0.415667325258255,
                            0.7393749356269836,
                            -0.7042651176452637,
                            1.0428073406219482,
                            0.3574449419975281,
                            0.3695257306098938,
                            -1.3339290618896484,
                            0.9423229098320007,
                            -1.508358359336853,
                            -1.354257345199585,
                            0.851406991481781,
                            0.6201866269111633,
                            -0.10528057813644409,
                            0.29132989048957825,
                            -0.5276801586151123,
                            0.6970067024230957
                        ],
                        [
                            -0.11554385721683502,
                            0.13561560213565826,
                            -0.6772750020027161,
                            0.5572280883789062,
                            0.6604198217391968,
                            0.48481985926628113,
                            -1.0694377422332764,
                            0.4535093903541565,
                            -0.5345409512519836,
                            -0.2076859325170517,
                            0.8223126530647278,
                            1.023567795753479,
                            0.03970879688858986,
                            0.21981126070022583,
                            0.3424661159515381,
                            0.199548602104187
                        ],
                        [
                            -0.10012166202068329,
                            -0.42188701033592224,
                            0.4060691297054291,
                            -0.6580834984779358,
                            -0.09882355481386185,
                            -0.04186364263296127,
                            1.0876288414001465,
                            -0.7418894171714783,
                            0.8394190073013306,
                            0.914038896560669,
                            -0.7417067289352417,
                            -0.4867890477180481,
                            0.535239577293396,
                            0.23627272248268127,
                            0.11940541863441467,
                            -0.2066173553466797
                        ],
                        [
                            0.3963175415992737,
                            0.08215687423944473,
                            0.3924494981765747,
                            -0.4496542513370514,
                            -0.27245959639549255,
                            0.2527863383293152,
                            0.6774053573608398,
                            -0.6874959468841553,
                            0.8374373316764832,
                            0.5181154608726501,
                            -0.5417558550834656,
                            -0.25132447481155396,
                            -0.6530608534812927,
                            -1.1826058626174927,
                            0.8034968972206116,
                            0.28863880038261414
                        ],
                        [
                            -0.1868482232093811,
                            0.03851953521370888,
                            -0.6021104454994202,
                            0.35249167680740356,
                            0.16405914723873138,
                            -0.013590856455266476,
                            -0.9344897270202637,
                            0.844860851764679,
                            -0.8742663264274597,
                            -0.699352502822876,
                            0.41779693961143494,
                            0.19877983629703522,
                            0.7585667967796326,
                            0.6606947779655457,
                            -0.927251935005188,
                            -0.24727821350097656
                        ],
                        [
                            0.20525117218494415,
                            -0.3992082178592682,
                            0.2162490040063858,
                            -0.40412530303001404,
                            -0.9453710913658142,
                            -0.31680431962013245,
                            0.11984626203775406,
                            0.8882761597633362,
                            -0.5753509998321533,
                            -0.36320188641548157,
                            -0.3466326594352722,
                            0.24932068586349487,
                            0.12163805216550827,
                            0.5484079718589783,
                            -1.1911561489105225,
                            -0.5646609663963318
                        ],
                        [
                            -0.4410301446914673,
                            -0.13245853781700134,
                            -0.6694661378860474,
                            0.48345109820365906,
                            1.303262710571289,
                            0.7205577492713928,
                            0.13551810383796692,
                            -0.740088939666748,
                            0.5525044798851013,
                            0.9346786141395569,
                            -0.02464885823428631,
                            -0.10754341632127762,
                            1.497684359550476,
                            1.0009785890579224,
                            0.2768198549747467,
                            -0.04919913411140442
                        ],
                        [
                            0.01952807419002056,
                            -0.27417781949043274,
                            0.10462043434381485,
                            -0.011560562998056412,
                            0.6472808718681335,
                            -0.018011197447776794,
                            -0.36759477853775024,
                            0.26146116852760315,
                            0.08782116323709488,
                            0.07156501710414886,
                            0.7290719151496887,
                            0.1634681224822998,
                            0.9879060387611389,
                            1.2655088901519775,
                            -0.21856658160686493,
                            -0.7435575127601624
                        ],
                        [
                            0.5905077457427979,
                            0.6951138377189636,
                            0.2361401617527008,
                            -0.23684053122997284,
                            -0.7005268931388855,
                            -0.5555689930915833,
                            -0.5149928331375122,
                            1.026778221130371,
                            -0.7955395579338074,
                            -0.7082099914550781,
                            0.2136029750108719,
                            0.23804615437984467,
                            -1.2840652465820312,
                            -0.29545027017593384,
                            -0.8923390507698059,
                            0.1342238485813141
                        ],
                        [
                            0.018427878618240356,
                            -0.07254104316234589,
                            -0.1813279092311859,
                            0.073621965944767,
                            0.43050092458724976,
                            -0.19184041023254395,
                            -0.38557207584381104,
                            0.751456618309021,
                            -0.3915543556213379,
                            -0.29623955488204956,
                            0.35901153087615967,
                            0.4410640001296997,
                            0.72407466173172,
                            1.4105833768844604,
                            -0.7307372689247131,
                            -0.46521925926208496
                        ],
                        [
                            -0.10071108490228653,
                            -0.14552560448646545,
                            -0.1435713768005371,
                            0.2316950112581253,
                            0.29561376571655273,
                            -0.06651517003774643,
                            -0.6717839241027832,
                            0.4505930542945862,
                            -0.7047973871231079,
                            -0.45554205775260925,
                            0.40815719962120056,
                            -0.020766112953424454,
                            0.9394773840904236,
                            1.0689201354980469,
                            -0.708475649356842,
                            -0.6131553649902344
                        ],
                        [
                            -0.023701395839452744,
                            0.571427583694458,
                            -0.3642086088657379,
                            0.7218952775001526,
                            0.33014824986457825,
                            0.2923363745212555,
                            -1.0249892473220825,
                            0.6663647294044495,
                            -1.0138331651687622,
                            -1.0076377391815186,
                            0.7117403745651245,
                            0.41013166308403015,
                            -0.3829765319824219,
                            -0.17665742337703705,
                            -0.046670783311128616,
                            0.4597480595111847
                        ],
                        [
                            0.08385750651359558,
                            -0.0913509875535965,
                            0.38069501519203186,
                            -0.4859316051006317,
                            0.045726168900728226,
                            -0.19487808644771576,
                            0.9944924712181091,
                            -0.9599765539169312,
                            1.1651297807693481,
                            0.860013484954834,
                            -0.5724126696586609,
                            -0.673957347869873,
                            0.2512088119983673,
                            0.1024341955780983,
                            0.42281046509742737,
                            -0.18919241428375244
                        ]
                    ],
                    [
                        [
                            0.14834047853946686,
                            0.0640496090054512,
                            0.5125468969345093,
                            -0.5238150358200073,
                            -0.05344809964299202,
                            0.018761463463306427,
                            0.6815477609634399,
                            -0.8350082039833069,
                            1.187992811203003,
                            0.6803892254829407,
                            -0.3793264329433441,
                            -0.4558951258659363,
                            -0.6122899055480957,
                            -0.7207658290863037,
                            1.0871635675430298,
                            0.12774693965911865
                        ],
                        [
                            0.27718982100486755,
                            -0.32120281457901,
                            0.5091947913169861,
                            -0.7670599222183228,
                            0.12364858388900757,
                            0.06356287747621536,
                            0.43077412247657776,
                            -0.4067440629005432,
                            0.32183417677879333,
                            0.2126086950302124,
                            0.17874208092689514,
                            0.0035430938005447388,
                            0.38052430748939514,
                            0.07252237945795059,
                            -0.11693452298641205,
                            -0.6852670311927795
                        ],
                        [
                            -0.14520539343357086,
                            -0.1303868591785431,
                            -0.21380911767482758,
                            0.33776235580444336,
                            1.0731672048568726,
                            0.47157740592956543,
                            0.46782663464546204,
                            -1.0804502964019775,
                            0.7140489220619202,
                            0.8839917182922363,
                            -0.05461776629090309,
                            -0.3862892687320709,
                            1.207693099975586,
                            0.5811020731925964,
                            0.6466238498687744,
                            -0.06622972339391708
                        ],
                        [
                            -0.5370955467224121,
                            0.5757849812507629,
                            -0.8310187458992004,
                            1.0933012962341309,
                            0.5366368293762207,
                            0.300627201795578,
                            -1.3625903129577637,
                            1.064807415008545,
                            -1.6798923015594482,
                            -1.476587176322937,
                            0.7537800669670105,
                            0.7763917446136475,
                            0.009876404888927937,
                            0.12809057533740997,
                            -0.9047801494598389,
                            0.5006167888641357
                        ],
                        [
                            -0.3242087960243225,
                            0.06646277010440826,
                            -0.9560257196426392,
                            0.6377699971199036,
                            1.1189007759094238,
                            0.6718104481697083,
                            -0.9865593910217285,
                            -0.22327853739261627,
                            -0.3920157849788666,
                            -0.07221991568803787,
                            0.8984335064888,
                            1.0001778602600098,
                            0.5263032913208008,
                            0.13405364751815796,
                            0.35850343108177185,
                            0.011827788315713406
                        ],
                        [
                            -0.015016686171293259,
                            -0.4102291762828827,
                            0.360481321811676,
                            -0.5209169387817383,
                            -0.22928611934185028,
                            -0.16500727832317352,
                            1.0664913654327393,
                            -0.7599344849586487,
                            0.9635131359100342,
                            1.0260475873947144,
                            -0.757552981376648,
                            -0.4958437979221344,
                            0.41513344645500183,
                            0.20205698907375336,
                            0.31445443630218506,
                            -0.221871018409729
                        ],
                        [
                            0.30781814455986023,
                            -0.033398695290088654,
                            0.6705522537231445,
                            -0.2967924475669861,
                            -0.11836013942956924,
                            -0.06576678156852722,
                            0.6553580164909363,
                            -0.6983563303947449,
                            0.9230770468711853,
                            0.4523496627807617,
                            -0.5233265161514282,
                            -0.5493823885917664,
                            -0.7844275236129761,
                            -0.8674947023391724,
                            0.9794487357139587,
                            0.19011537730693817
                        ],
                        [
                            -0.23543454706668854,
                            -0.03716136887669563,
                            -0.7863832116127014,
                            0.36077243089675903,
                            0.1432616114616394,
                            0.11894986033439636,
                            -0.7074604630470276,
                            0.8986109495162964,
                            -0.9765806198120117,
                            -0.7283172011375427,
                            0.3701564371585846,
                            0.5052669048309326,
                            0.7207829356193542,
                            0.7327827215194702,
                            -1.065588116645813,
                            -0.05687559396028519
                        ],
                        [
                            -0.07722897827625275,
                            -0.2537841796875,
                            0.27124467492103577,
                            -0.5726158022880554,
                            -0.9831132292747498,
                            -0.26082074642181396,
                            0.29676270484924316,
                            1.0683966875076294,
                            -0.7310646176338196,
                            -0.3753755986690521,
                            -0.3187639117240906,
                            0.4967387318611145,
                            0.25322213768959045,
                            0.7940355539321899,
                            -1.4394067525863647,
                            -0.5214028358459473
                        ],
                        [
                            -0.6327784061431885,
                            -0.21912086009979248,
                            -0.5926127433776855,
                            0.35301464796066284,
                            1.364884853363037,
                            0.6842126846313477,
                            0.3430747985839844,
                            -0.660950243473053,
                            0.5936886072158813,
                            0.9859492778778076,
                            -0.1153407022356987,
                            -0.10878187417984009,
                            1.5601757764816284,
                            1.0202040672302246,
                            0.45344462990760803,
                            0.035481929779052734
                        ],
                        [
                            -0.00957673229277134,
                            -0.10810834169387817,
                            -0.18359069526195526,
                            0.1256459802389145,
                            0.61240553855896,
                            0.3128066956996918,
                            -0.37452268600463867,
                            0.3606633245944977,
                            -0.24275484681129456,
                            0.10619241744279861,
                            0.6802240014076233,
                            0.42114463448524475,
                            0.9065481424331665,
                            0.7809481024742126,
                            -0.4812241196632385,
                            -0.5098705291748047
                        ],
                        [
                            0.51125168800354,
                            0.4505466818809509,
                            0.404604434967041,
                            -0.22753456234931946,
                            -0.9850499629974365,
                            -0.720348596572876,
                            -0.37923237681388855,
                            1.1613587141036987,
                            -0.6571778059005737,
                            -0.7976806163787842,
                            0.30441153049468994,
                            0.16455331444740295,
                            -1.4500732421875,
                            -0.1779661774635315,
                            -0.8779579997062683,
                            -0.06116287037730217
                        ],
                        [
                            -0.1661282330751419,
                            -0.2403210997581482,
                            -0.37366944551467896,
                            0.15465320646762848,
                            0.38196784257888794,
                            0.13088007271289825,
                            -0.3839058578014374,
                            0.5795559883117676,
                            -0.43308597803115845,
                            -0.2956753075122833,
                            0.2334887683391571,
                            0.4813823103904724,
                            0.736646294593811,
                            1.1613314151763916,
                            -1.1279195547103882,
                            -0.5556296110153198
                        ],
                        [
                            -0.22642044723033905,
                            -0.21267516911029816,
                            -0.5130842924118042,
                            0.18036189675331116,
                            0.4066161513328552,
                            0.1122787669301033,
                            -0.5603086352348328,
                            0.6339995861053467,
                            -0.8920242786407471,
                            -0.6089480519294739,
                            0.4149390459060669,
                            0.3713977038860321,
                            1.0239735841751099,
                            0.8450524210929871,
                            -0.7878758311271667,
                            -0.30950188636779785
                        ],
                        [
                            -0.44574734568595886,
                            0.6914858818054199,
                            -0.6313164830207825,
                            0.8219752311706543,
                            0.6060025691986084,
                            0.22047007083892822,
                            -1.1777801513671875,
                            0.9783840179443359,
                            -1.4100700616836548,
                            -1.3957220315933228,
                            0.8942946791648865,
                            0.6950404047966003,
                            -0.03246869891881943,
                            -0.013691723346710205,
                            -0.4084899425506592,
                            0.5703542828559875
                        ],
                        [
                            0.17282499372959137,
                            -0.03777118772268295,
                            0.46445953845977783,
                            -0.544611394405365,
                            0.0552736297249794,
                            -0.2827404737472534,
                            1.0823858976364136,
                            -0.9296831488609314,
                            1.0699955224990845,
                            1.042029619216919,
                            -0.4372120499610901,
                            -0.6600255370140076,
                            0.27207866311073303,
                            -0.09802442789077759,
                            0.5434238910675049,
                            -0.006858802866190672
                        ]
                    ],
                    [
                        [
                            -0.15274237096309662,
                            0.046707816421985626,
                            0.38578692078590393,
                            0.06679515540599823,
                            0.14945268630981445,
                            0.0451153889298439,
                            0.38104432821273804,
                            -0.4441184997558594,
                            0.7161473035812378,
                            0.3950047194957733,
                            -0.17311252653598785,
                            -0.27049046754837036,
                            -0.6221955418586731,
                            -0.2571769058704376,
                            0.6337135434150696,
                            0.22478611767292023
                        ],
                        [
                            -0.1749165803194046,
                            -0.26928845047950745,
                            -0.08472822606563568,
                            -0.6024327278137207,
                            0.37449395656585693,
                            0.34621962904930115,
                            0.19375650584697723,
                            -0.7547395825386047,
                            -0.05979953333735466,
                            0.3831385374069214,
                            0.04072842746973038,
                            -0.06206503137946129,
                            0.706419050693512,
                            0.0314471498131752,
                            0.21058373153209686,
                            -0.42419198155403137
                        ],
                        [
                            -0.10945692658424377,
                            -0.22129681706428528,
                            -0.6990320682525635,
                            0.3174700140953064,
                            1.329744815826416,
                            0.3680121898651123,
                            0.26435261964797974,
                            -1.0836318731307983,
                            0.483943372964859,
                            0.8067837953567505,
                            0.028300592675805092,
                            -0.6191266775131226,
                            1.5956827402114868,
                            0.30457988381385803,
                            0.8665868043899536,
                            -0.0343371219933033
                        ],
                        [
                            -0.17429222166538239,
                            0.23954033851623535,
                            -0.7151694297790527,
                            0.48837241530418396,
                            0.08969978988170624,
                            0.31022050976753235,
                            -0.7363346219062805,
                            0.6436828970909119,
                            -1.1308519840240479,
                            -1.218798279762268,
                            0.5442860126495361,
                            0.6215822696685791,
                            -0.11640729010105133,
                            -0.2693319618701935,
                            -0.6105403900146484,
                            0.5450729131698608
                        ],
                        [
                            -0.1772182136774063,
                            -0.21006885170936584,
                            -1.1082721948623657,
                            0.23342537879943848,
                            1.4431705474853516,
                            1.0903568267822266,
                            -1.0531046390533447,
                            -0.7013401389122009,
                            0.46234986186027527,
                            0.29704955220222473,
                            0.7845253348350525,
                            1.0559455156326294,
                            0.8405894637107849,
                            -0.003573321271687746,
                            0.5715151429176331,
                            0.10526316612958908
                        ],
                        [
                            -0.1641850471496582,
                            -0.17361579835414886,
                            -0.044096220284700394,
                            -0.3011013865470886,
                            0.24046537280082703,
                            -0.10871776193380356,
                            0.6985787153244019,
                            -0.764381468296051,
                            0.5573003888130188,
                            0.9417842626571655,
                            -0.6364175081253052,
                            -0.5172938108444214,
                            0.9263562560081482,
                            0.2852967381477356,
                            0.5512835383415222,
                            -0.18331679701805115
                        ],
                        [
                            0.01074575912207365,
                            0.19911186397075653,
                            0.5685656070709229,
                            0.1471562683582306,
                            -0.21848271787166595,
                            0.08204992860555649,
                            0.45430824160575867,
                            -0.4894271790981293,
                            0.6479103565216064,
                            0.3935015797615051,
                            -0.29135122895240784,
                            -0.4951465129852295,
                            -1.0361169576644897,
                            -0.6409327387809753,
                            0.704528272151947,
                            0.3413955271244049
                        ],
                        [
                            0.17517690360546112,
                            -0.400397390127182,
                            -0.556705117225647,
                            -0.1358383744955063,
                            -0.0015405069570988417,
                            -0.1357400268316269,
                            -0.5070939064025879,
                            0.2812725603580475,
                            -0.5682962536811829,
                            -0.19410693645477295,
                            0.1684199869632721,
                            0.3164895474910736,
                            0.7068606019020081,
                            0.17005419731140137,
                            -0.6589009165763855,
                            -0.2532012462615967
                        ],
                        [
                            0.1632075309753418,
                            -0.41657164692878723,
                            0.4251985549926758,
                            -0.9675461649894714,
                            -1.1626245975494385,
                            -0.20173893868923187,
                            0.40213772654533386,
                            0.6944832801818848,
                            -0.36411693692207336,
                            -0.4478916823863983,
                            -0.4767673909664154,
                            0.39431557059288025,
                            -0.1132100522518158,
                            0.5874624252319336,
                            -1.1092373132705688,
                            -0.5028533339500427
                        ],
                        [
                            -0.5408946871757507,
                            -0.20304641127586365,
                            -0.8997484445571899,
                            0.365391343832016,
                            1.418433427810669,
                            0.8849754333496094,
                            0.297103613615036,
                            -1.0555094480514526,
                            0.5411807894706726,
                            0.9126037955284119,
                            -0.3332701027393341,
                            -0.14570295810699463,
                            2.0295934677124023,
                            0.8616740107536316,
                            0.6243551969528198,
                            -0.07705608010292053
                        ],
                        [
                            -0.14869031310081482,
                            -0.1007559671998024,
                            -0.5332037806510925,
                            -0.25969094038009644,
                            0.804156482219696,
                            0.39011916518211365,
                            -0.34192824363708496,
                            0.17526516318321228,
                            -0.34230750799179077,
                            0.055240415036678314,
                            0.4778975248336792,
                            0.4051706790924072,
                            1.3318827152252197,
                            0.7097512483596802,
                            -0.6460086107254028,
                            -0.5200842618942261
                        ],
                        [
                            0.4639230966567993,
                            0.605472981929779,
                            0.6299920678138733,
                            -0.028437254950404167,
                            -1.222392201423645,
                            -0.7903099656105042,
                            -0.4265492260456085,
                            1.263763427734375,
                            -0.5385083556175232,
                            -0.7637855410575867,
                            0.45995965600013733,
                            0.29558485746383667,
                            -1.9948041439056396,
                            -0.1965404599905014,
                            -1.2415109872817993,
                            0.0808861181139946
                        ],
                        [
                            -0.1978635936975479,
                            -0.2622928023338318,
                            -0.8910821080207825,
                            -0.1797715723514557,
                            0.5416412353515625,
                            0.19564904272556305,
                            -0.1185976192355156,
                            0.3766549527645111,
                            -0.5939320921897888,
                            -0.17070764303207397,
                            0.23895010352134705,
                            0.7189532518386841,
                            1.2365705966949463,
                            0.8524422645568848,
                            -0.9401549100875854,
                            -0.5364329814910889
                        ],
                        [
                            0.05286284536123276,
                            -0.2604057788848877,
                            -0.5180634260177612,
                            -0.38253653049468994,
                            0.3753288984298706,
                            0.30053573846817017,
                            -0.4097924828529358,
                            0.29015952348709106,
                            -0.7131304144859314,
                            -0.41938111186027527,
                            -0.05420709028840065,
                            0.5394763946533203,
                            1.2361477613449097,
                            0.09060751646757126,
                            -0.4441305100917816,
                            -0.5066673755645752
                        ],
                        [
                            -0.092887744307518,
                            0.5171030759811401,
                            -0.31661874055862427,
                            0.07632236182689667,
                            -0.005458891857415438,
                            0.1713704764842987,
                            -0.686037540435791,
                            0.7634945511817932,
                            -1.0389012098312378,
                            -1.1344012022018433,
                            0.5737451910972595,
                            0.4962117671966553,
                            -0.5230762958526611,
                            -0.37223750352859497,
                            -0.3621247708797455,
                            0.3642627000808716
                        ],
                        [
                            -0.01478684600442648,
                            0.14282965660095215,
                            0.23274065554141998,
                            -0.22698652744293213,
                            0.24632801115512848,
                            -0.25102919340133667,
                            0.7938865423202515,
                            -0.855744481086731,
                            0.9139235615730286,
                            0.6571109890937805,
                            -0.40408459305763245,
                            -0.6247049570083618,
                            0.5769762396812439,
                            0.12292639166116714,
                            0.6465442776679993,
                            -0.048731766641139984
                        ]
                    ],
                    [
                        [
                            -0.19575215876102448,
                            0.1584174633026123,
                            0.5716744065284729,
                            0.24086524546146393,
                            0.3388088643550873,
                            -0.14886905252933502,
                            0.5487136840820312,
                            -0.07631167024374008,
                            0.20116481184959412,
                            -0.1358945518732071,
                            -0.2132173478603363,
                            -0.6003345251083374,
                            -1.159351110458374,
                            -0.5409899950027466,
                            0.8068563938140869,
                            0.2589268088340759
                        ],
                        [
                            -0.6183727979660034,
                            -0.5933689475059509,
                            -0.7904868125915527,
                            -0.30274584889411926,
                            0.6777030229568481,
                            0.40413209795951843,
                            0.1625300645828247,
                            -1.1687382459640503,
                            -0.33202895522117615,
                            0.3491552770137787,
                            -0.00989157147705555,
                            -0.10119377821683884,
                            1.5561600923538208,
                            -0.14956359565258026,
                            0.6172873377799988,
                            -0.37687161564826965
                        ],
                        [
                            -0.48141953349113464,
                            -0.5229908227920532,
                            -1.0066180229187012,
                            0.5349165797233582,
                            0.8890359997749329,
                            0.07202497124671936,
                            0.05470016226172447,
                            -1.144934058189392,
                            0.3071734607219696,
                            0.6523468494415283,
                            0.029037393629550934,
                            -0.46334078907966614,
                            2.2672505378723145,
                            0.36676225066185,
                            0.9891788363456726,
                            -0.013309091329574585
                        ],
                        [
                            -0.44145694375038147,
                            0.24165043234825134,
                            -0.5440662503242493,
                            0.4579838514328003,
                            -0.07816346734762192,
                            0.589183509349823,
                            -0.6918794512748718,
                            0.42022743821144104,
                            -0.9555467367172241,
                            -1.1362354755401611,
                            0.3268110454082489,
                            0.7946070432662964,
                            0.11217980831861496,
                            -0.004828824196010828,
                            -0.7215902805328369,
                            0.35917872190475464
                        ],
                        [
                            -0.4097881019115448,
                            0.16256484389305115,
                            -0.7686288356781006,
                            0.6928290724754333,
                            1.3129440546035767,
                            0.6727493405342102,
                            -0.6961643099784851,
                            -0.6653555035591125,
                            0.554455578327179,
                            0.6420947313308716,
                            0.8254292607307434,
                            0.21894894540309906,
                            0.32034796476364136,
                            0.222785085439682,
                            0.8479294180870056,
                            0.9059406518936157
                        ],
                        [
                            0.17972512543201447,
                            -0.39376100897789,
                            -0.282304048538208,
                            0.1614447981119156,
                            -0.16859972476959229,
                            -0.25068962574005127,
                            0.2038060575723648,
                            -1.1198017597198486,
                            0.8223124742507935,
                            0.8940425515174866,
                            -0.31936439871788025,
                            -0.4892256557941437,
                            0.3206786811351776,
                            0.1830623596906662,
                            0.07304183393716812,
                            -0.058021508157253265
                        ],
                        [
                            0.0557420589029789,
                            0.26925230026245117,
                            1.1325267553329468,
                            0.15444037318229675,
                            -0.06866906583309174,
                            -0.48895081877708435,
                            0.6708890795707703,
                            0.016878295689821243,
                            0.26520511507987976,
                            0.04592325910925865,
                            -0.4067642092704773,
                            -0.7556565999984741,
                            -1.5482158660888672,
                            -0.8024737238883972,
                            0.9925751090049744,
                            0.25022831559181213
                        ],
                        [
                            -0.4467155337333679,
                            -0.3462343215942383,
                            -0.18054868280887604,
                            -0.332442045211792,
                            -0.05343518778681755,
                            0.5931336879730225,
                            -0.3350635766983032,
                            0.01568254455924034,
                            -0.2927500307559967,
                            0.07602193206548691,
                            0.011283672414720058,
                            0.5879561305046082,
                            1.441556453704834,
                            0.5904892086982727,
                            -0.6174584031105042,
                            -0.08518130332231522
                        ],
                        [
                            -0.013534259051084518,
                            -0.045584842562675476,
                            0.8209289312362671,
                            -0.9051334261894226,
                            -0.7369974851608276,
                            0.09383754432201385,
                            0.46345582604408264,
                            0.6080578565597534,
                            -0.2570579946041107,
                            0.11826278269290924,
                            -0.7877591848373413,
                            0.32485899329185486,
                            -0.18516144156455994,
                            0.5965518355369568,
                            -1.2465524673461914,
                            -0.3812839090824127
                        ],
                        [
                            -1.0552350282669067,
                            -1.02794349193573,
                            -1.0629075765609741,
                            0.6103706359863281,
                            0.6872393488883972,
                            0.5531951189041138,
                            -0.08398712426424026,
                            -1.029053807258606,
                            0.23980550467967987,
                            0.8246527314186096,
                            -0.38759511709213257,
                            -0.13205328583717346,
                            2.580397129058838,
                            0.6674166321754456,
                            0.6589470505714417,
                            -0.12438566237688065
                        ],
                        [
                            -0.1804267168045044,
                            -0.5580621957778931,
                            -1.265489101409912,
                            -0.2593361437320709,
                            0.224934384226799,
                            0.12680862843990326,
                            -0.5803928971290588,
                            -0.6987204551696777,
                            -0.13808651268482208,
                            0.1671084612607956,
                            0.6462984681129456,
                            0.5695711374282837,
                            2.1736414432525635,
                            0.1889732927083969,
                            -0.6112418174743652,
                            -0.7260270118713379
                        ],
                        [
                            0.28397709131240845,
                            0.8056714534759521,
                            0.9182565212249756,
                            -0.29734525084495544,
                            -0.4462323486804962,
                            -0.6981608867645264,
                            -0.08195768296718597,
                            1.344956874847412,
                            -0.5131990909576416,
                            -0.7420794367790222,
                            0.3009145259857178,
                            0.024593781679868698,
                            -2.0860402584075928,
                            -0.34009408950805664,
                            -0.45762646198272705,
                            -0.030861780047416687
                        ],
                        [
                            -0.9441086649894714,
                            -0.7839872241020203,
                            -1.4960665702819824,
                            -0.2826777696609497,
                            0.30926594138145447,
                            0.3195621073246002,
                            -0.5300111770629883,
                            -0.4815693795681,
                            -0.4131430983543396,
                            0.11564856022596359,
                            -0.06164708361029625,
                            0.8563702702522278,
                            2.152557373046875,
                            0.6015751957893372,
                            -0.35464075207710266,
                            -0.6375300884246826
                        ],
                        [
                            -0.5553063154220581,
                            -0.6439636945724487,
                            -1.0580321550369263,
                            -0.5119878649711609,
                            -0.1423640251159668,
                            0.8865293860435486,
                            -0.6051550507545471,
                            0.10581528395414352,
                            -0.4819778501987457,
                            0.25425031781196594,
                            -0.04982597008347511,
                            1.0123307704925537,
                            2.084935188293457,
                            0.2608787715435028,
                            -0.9792066216468811,
                            -0.37483349442481995
                        ],
                        [
                            -0.36700716614723206,
                            0.49659305810928345,
                            0.1789185255765915,
                            -0.057171404361724854,
                            -0.05518107861280441,
                            0.6139051914215088,
                            -0.4124489724636078,
                            0.8538090586662292,
                            -0.7067415118217468,
                            -0.8372478485107422,
                            0.2774030864238739,
                            0.6455870866775513,
                            -0.7911220788955688,
                            -0.05074627324938774,
                            -0.5403091311454773,
                            0.35191410779953003
                        ],
                        [
                            0.35834813117980957,
                            0.015438533388078213,
                            -0.11199557781219482,
                            0.17183230817317963,
                            -0.1408681720495224,
                            -0.31367015838623047,
                            0.27038055658340454,
                            -1.1395071744918823,
                            0.9738636016845703,
                            0.7431064248085022,
                            -0.3064986765384674,
                            -0.6739843487739563,
                            0.12164339423179626,
                            -0.004443249199539423,
                            0.3535316288471222,
                            -0.007348966784775257
                        ]
                    ],
                    [
                        [
                            0.5372671484947205,
                            -0.02990565448999405,
                            -0.733065128326416,
                            -0.7201411128044128,
                            0.2754359245300293,
                            -0.2265765368938446,
                            0.3456367254257202,
                            0.3369162380695343,
                            -0.25328850746154785,
                            -0.24509117007255554,
                            -0.46539559960365295,
                            -0.4761817753314972,
                            -0.0313066728413105,
                            -0.2990696132183075,
                            -0.015246931463479996,
                            -0.4150720238685608
                        ],
                        [
                            0.2289644032716751,
                            -0.0327155627310276,
                            0.032620154321193695,
                            0.22663813829421997,
                            -0.5652068257331848,
                            -0.14457952976226807,
                            -0.22080639004707336,
                            0.3637741804122925,
                            -0.6270056962966919,
                            -0.1794518083333969,
                            0.6409158110618591,
                            -0.18202319741249084,
                            0.1714601069688797,
                            -0.07040897756814957,
                            -0.5196306705474854,
                            -0.11436865478754044
                        ],
                        [
                            0.3370257318019867,
                            0.0986347422003746,
                            -0.16753610968589783,
                            0.4888903796672821,
                            -0.9387758374214172,
                            -0.29994162917137146,
                            -0.4185352921485901,
                            0.7111223340034485,
                            -0.5820063352584839,
                            -0.5180667638778687,
                            1.1589083671569824,
                            -0.4296658933162689,
                            0.12914922833442688,
                            0.19464072585105896,
                            -0.5208989977836609,
                            0.1042952835559845
                        ],
                        [
                            -0.6565182209014893,
                            0.10181046277284622,
                            0.22873547673225403,
                            0.7366480827331543,
                            -0.1956922560930252,
                            0.553500771522522,
                            -0.1576109677553177,
                            -0.10818497091531754,
                            0.08190061151981354,
                            0.039911460131406784,
                            0.2651171386241913,
                            0.3474082052707672,
                            0.16142109036445618,
                            0.3692198693752289,
                            0.13240642845630646,
                            0.69566410779953
                        ],
                        [
                            -0.3276221454143524,
                            0.6803510189056396,
                            -0.06810320168733597,
                            0.7314155697822571,
                            -0.26130807399749756,
                            0.12046102434396744,
                            0.13550004363059998,
                            0.2214493602514267,
                            0.10678210109472275,
                            -0.21605679392814636,
                            0.1829579919576645,
                            0.009421315044164658,
                            0.7492400407791138,
                            0.30638426542282104,
                            -0.21746352314949036,
                            0.5590911507606506
                        ],
                        [
                            0.5760822296142578,
                            0.0930110290646553,
                            -0.5462641716003418,
                            -0.2766439616680145,
                            -0.3616664707660675,
                            -0.29822203516960144,
                            -0.027100933715701103,
                            0.262836754322052,
                            -0.06607997417449951,
                            -0.1039622351527214,
                            -0.10981542617082596,
                            -0.31810814142227173,
                            -0.1231606975197792,
                            -0.4943466782569885,
                            -0.5518450736999512,
                            -0.37488922476768494
                        ],
                        [
                            0.17521262168884277,
                            0.10341213643550873,
                            -1.0105082988739014,
                            -0.7249860763549805,
                            0.6295467019081116,
                            -0.26874980330467224,
                            0.4221852421760559,
                            0.06593553721904755,
                            -0.11022736132144928,
                            0.028416506946086884,
                            -0.235873281955719,
                            -0.41989973187446594,
                            0.12136830389499664,
                            -0.2672126889228821,
                            0.31585946679115295,
                            -0.5496336817741394
                        ],
                        [
                            -0.5650790929794312,
                            0.05382506176829338,
                            1.207442045211792,
                            0.6698195934295654,
                            -0.5043466091156006,
                            0.42230087518692017,
                            -0.18896089494228363,
                            -0.21299269795417786,
                            0.24900871515274048,
                            0.16793623566627502,
                            0.23954103887081146,
                            0.4745902121067047,
                            0.08424339443445206,
                            0.3193780481815338,
                            -0.17965251207351685,
                            0.4405919909477234
                        ],
                        [
                            -0.9459622502326965,
                            -0.053513217717409134,
                            0.8999930024147034,
                            -0.1429966539144516,
                            0.09267828613519669,
                            0.7426534295082092,
                            -0.309057354927063,
                            -0.7282971739768982,
                            0.32034194469451904,
                            0.30224552750587463,
                            -0.44316205382347107,
                            0.5410447716712952,
                            -0.245962992310524,
                            0.26640135049819946,
                            0.5301764011383057,
                            0.9512254595756531
                        ],
                        [
                            0.3180426061153412,
                            0.010069333016872406,
                            0.04290411248803139,
