{
    "in_shape": [
        null,
        150,
        1
    ],
    "layers": [
        {
            "type": "conv1d",
            "activation": "",
            "shape": [
                null,
                13,
                16
            ],
            "kernel_size": [
                12
            ],
            "dilation": [
                1
            ],
            "groups": 1,
            "weights": [
                [
                    [
                        [
                            -8.841134331305511e-06,
                            -3.0930685568364424e-08,
                            -0.00018099715816788375,
                            -0.0007554166950285435,
                            0.00015952497778926045,
                            -6.897714774822816e-05,
                            0.00012231765140313655,
                            2.097790002153488e-06,
                            9.204546458363438e-09,
                            -2.389436417615798e-07,
                            -3.2899086363613605e-05,
                            -1.919468559208326e-05,
                            -0.00017934528295882046,
                            -1.3096531802148093e-05,
                            -1.6981488215606078e-07,
                            0.0007838902529329062
                        ]
                    ],
                    [
                        [
                            0.000246085983235389,
                            -4.389073728816584e-05,
                            -2.4489327898891133e-08,
                            6.213976178059966e-08,
                            4.7348396492452594e-07,
                            -1.0252432502966258e-06,
                            1.0155744689654966e-07,
                            2.181036506954115e-08,
                            -0.0005495088989846408,
                            -2.647900601004949e-06,
                            -1.4266410275354247e-08,
                            7.476400696759811e-06,
                            -8.38709439676677e-08,
                            0.00010175368515774608,
                            -7.843764251447283e-06,
                            -2.665081932917701e-09
                        ]
                    ],
                    [
                        [
                            -0.0006799441762268543,
                            -2.47967424371609e-10,
                            -2.238294438683397e-09,
                            0.0007963795214891434,
                            4.154607768924734e-09,
                            -2.0020621604999178e-08,
                            4.887033000500196e-10,
                            -1.0283606570737902e-06,
                            -3.995925362687558e-05,
                            4.077617745679163e-07,
                            5.2097348657298426e-09,
                            2.1941576733297552e-07,
                            -6.395385980795254e-07,
                            0.00015131430700421333,
                            5.123158189235255e-06,
                            8.620929293101653e-06
                        ]
                    ],
                    [
                        [
                            -4.399991667014547e-05,
                            3.319863850492766e-08,
                            0.0006435430841520429,
                            2.374989094278135e-09,
                            -8.948598519964435e-07,
                            -5.493989374372177e-05,
                            4.309038104111096e-07,
                            -1.0353024748610551e-07,
                            -9.809793846216053e-05,
                            -6.124815143948581e-08,
                            3.4770999945976655e-07,
                            2.505108795958222e-07,
                            -1.6012094761208573e-07,
                            -3.897816513998009e-10,
                            -4.229663375099335e-07,
                            -7.839843219059617e-10
                        ]
                    ],
                    [
                        [
                            -0.00020005315309390426,
                            -1.0705288211454445e-08,
                            6.898480009454033e-09,
                            0.0001718469720799476,
                            0.0002071357157547027,
                            -8.918643601418808e-10,
                            -0.00014266915968619287,
                            -4.983622829968226e-07,
                            1.4925172763469163e-05,
                            -2.616712679870403e-10,
                            9.922406752593815e-05,
                            -4.10821385798954e-08,
                            1.1198233551112935e-05,
                            -4.059037905790319e-08,
                            -7.242801416396105e-07,
                            -9.824742619457538e-07
                        ]
                    ],
                    [
                        [
                            5.0660406714087e-07,
                            -1.6841464685057872e-06,
                            2.382432285230607e-06,
                            1.6472959032398649e-06,
                            -1.17067679639149e-06,
                            5.718209905580807e-09,
                            7.656714842596557e-06,
                            -0.000366641441360116,
                            -6.1208504931187235e-09,
                            -0.00026298174634575844,
                            0.0001870651904027909,
                            1.4638187622040277e-06,
                            -4.163043243465836e-09,
                            1.5280491425073706e-05,
                            0.0007620431133545935,
                            0.00015944335609674454
                        ]
                    ],
                    [
                        [
                            -8.87802400484361e-08,
                            5.3510021302827226e-08,
                            5.2491304636248515e-09,
                            -8.003986295079812e-06,
                            -0.0001420410699211061,
                            4.0402366721536964e-05,
                            -1.2164483109700086e-07,
                            2.137748879249557e-06,
                            5.269340181257576e-05,
                            6.363657689689717e-08,
                            -9.170926773549581e-08,
                            -2.163526025000806e-09,
                            8.483241487056148e-08,
                            -6.701988695567707e-06,
                            4.6544402721337974e-05,
                            -4.217901278025238e-06
                        ]
                    ],
                    [
                        [
                            -0.00014429728616960347,
                            -4.944981810695026e-06,
                            4.015395802525745e-07,
                            -5.438072548713535e-06,
                            -0.00014679558807983994,
                            4.1240659243158007e-07,
                            -1.309665620397027e-08,
                            1.2060741294561694e-10,
                            6.295906496234238e-05,
                            0.0002773954765871167,
                            0.0005308980471454561,
                            2.7844561145684565e-07,
                            -4.285902832634747e-07,
                            -1.0597102750864451e-08,
                            6.6538614191813394e-06,
                            -5.254375823326995e-10
                        ]
                    ],
                    [
                        [
                            0.0009344035061076283,
                            -9.22173603612464e-06,
                            -9.339103712591168e-08,
                            2.766126453934703e-05,
                            1.710727701720316e-06,
                            1.2334092502896965e-07,
                            -2.5299544859080925e-07,
                            -2.7632308956526686e-06,
                            -0.0006152320420369506,
                            -8.390686616621679e-07,
                            1.9453153754511732e-08,
                            3.215019717117684e-08,
                            4.0814461499394383e-07,
                            -4.42133174516357e-09,
                            2.8224484083239076e-08,
                            2.0729348761960864e-06
                        ]
                    ],
                    [
                        [
                            0.0001737545244395733,
                            -0.0006561240297742188,
                            1.4760331623620004e-08,
                            -3.9166565102277673e-07,
                            -1.6303832950370634e-08,
                            -6.1729465414828155e-06,
                            -3.5195465898141265e-05,
                            5.3215619118418545e-05,
                            0.0009032979141920805,
                            4.4220570316610974e-07,
                            -1.5643806250409398e-07,
                            -0.0007640814874321222,
                            -2.280705984958331e-06,
                            -3.62769120298978e-10,
                            -0.00011292751878499985,
                            1.0041225628754091e-09
                        ]
                    ],
                    [
                        [
                            -1.781406098189109e-07,
                            -4.97437078195162e-08,
                            1.6776648408267647e-06,
                            1.8434832327329786e-08,
                            -0.00035896830377168953,
                            4.931878265779233e-07,
                            -0.0012587106321007013,
                            -2.677311705667762e-08,
                            0.0002511754573788494,
                            7.450910999295957e-09,
                            -0.00034329708432778716,
                            1.290923421493062e-07,
                            -0.00018714938778430223,
                            0.0001139516825787723,
                            -2.454916625538317e-07,
                            -2.0193879208818544e-06
                        ]
                    ],
                    [
                        [
                            3.398880039640062e-07,
                            -4.4818975197813415e-08,
                            -6.477758773826281e-09,
                            1.1256473086973529e-08,
                            -0.0001619005633983761,
                            1.2181868669358664e-07,
                            -1.8611413565849944e-07,
                            0.0002654724521562457,
                            -2.3914429903015844e-07,
                            -0.00010651143384166062,
                            -2.6154763688168714e-08,
                            -1.9768025083521934e-07,
                            7.120858208509162e-05,
                            -3.886949428988373e-09,
                            -0.0007607350125908852,
                            -6.303072508373475e-10
                        ]
                    ]
                ],
                [
                    0.029497187584638596,
                    -0.006040411069989204,
                    0.003376725595444441,
                    -0.019666237756609917,
                    0.03504253923892975,
                    0.02809339575469494,
                    -0.01698140986263752,
                    0.08361677080392838,
                    0.05567029491066933,
                    -0.08819711953401566,
                    0.0902102142572403,
                    0.01043736282736063,
                    0.08098294585943222,
                    -0.031073398888111115,
                    -0.002351038623601198,
                    -0.07149571925401688
                ]
            ]
        },
        {
            "type": "conv1d",
            "activation": "",
            "shape": [
                null,
                2,
                16
            ],
            "kernel_size": [
                12
            ],
            "dilation": [
                1
            ],
            "groups": 1,
            "weights": [
                [
                    [
                        [
                            -5.0152000767411664e-05,
                            6.740061053278623e-06,
                            2.0068073354195803e-05,
                            0.00014893178013153374,
                            -0.0006033348618075252,
                            0.00033715268364176154,
                            7.171722415932891e-08,
                            1.8937305057420417e-09,
                            -2.0655312482631416e-07,
                            3.536228177836165e-06,
                            -0.00028120161732658744,
                            -2.6639036150299944e-06,
                            2.190040049754316e-06,
                            -1.6546373160508665e-08,
                            -1.7875886442197952e-06,
                            -6.565697674432158e-08
                        ],
                        [
                            -2.698674563816894e-07,
                            -2.2759068087907508e-05,
                            -9.170664270641282e-06,
                            -5.625734047498554e-07,
                            -8.938836253946647e-05,
                            -0.000903167063370347,
                            -0.0005634597619064152,
                            7.892749565030499e-09,
                            1.9039993048863835e-07,
                            1.8398390238871798e-05,
                            -8.003363305419953e-09,
                            -1.3884879024317343e-07,
                            3.6893012293148786e-05,
                            -9.660453770266031e-09,
                            -2.0401668621161662e-07,
                            -3.216782715753652e-06
                        ],
                        [
                            1.5241424989653751e-05,
                            -2.267077547912777e-08,
                            2.1997033172738156e-07,
                            -1.23556237667799e-05,
                            -2.847811856554472e-06,
                            -2.9340501583874357e-08,
                            -5.437021943777154e-09,
                            -1.2412243677317747e-06,
                            -9.125942597165704e-07,
                            4.858932243223535e-07,
                            -2.9925111277862015e-09,
                            -2.9931002121230676e-11,
                            -5.4443983543706054e-08,
                            1.033160606311867e-05,
                            1.0981822118338869e-09,
                            -2.6976196831896004e-09
                        ],
                        [
                            7.95723099145107e-06,
                            -6.877885880385293e-06,
                            -1.0202140401815996e-05,
                            -0.00020946118456777185,
                            -7.44425633456558e-05,
                            1.2783964393747738e-06,
                            9.96843482425902e-07,
                            -1.0811200468197057e-07,
                            3.064427858134877e-07,
                            1.8756857116386527e-06,
                            -7.867208040579499e-08,
                            -1.208684707876273e-08,
                            7.5287707659299485e-06,
                            -7.84830263000913e-06,
                            -4.127130637243681e-09,
                            0.00012767259613610804
                        ],
                        [
                            1.5606693182235176e-07,
                            7.489417086503636e-09,
                            1.0280685813768287e-07,
                            -1.315379336119804e-06,
                            -1.8019218259723857e-06,
                            -7.217739948828239e-06,
                            -1.571805296407547e-05,
                            -3.9823163433538866e-07,
                            3.1910235520626884e-07,
                            -1.0522730065076757e-07,
                            -2.7786411010310985e-05,
                            -4.787622174262651e-07,
                            3.7357267501647584e-07,
                            -6.7085935029354e-08,
                            6.460165309363219e-07,
                            -1.4262752756621921e-07
                        ],
                        [
                            -3.8288760606519645e-07,
                            7.008917890516386e-10,
                            -5.154483460501069e-06,
                            2.3995647779884166e-07,
                            -0.0003145543159916997,
                            -8.458066440653056e-05,
                            -1.8634011212270707e-05,
                            2.498372850823216e-06,
                            -4.8105157191002945e-08,
                            1.3682841881745844e-07,
                            -2.160013821139728e-07,
                            8.097331738099456e-05,
                            6.151988429792254e-08,
                            5.692938430001959e-06,
                            2.8403925966813404e-07,
                            -1.3286175089888275e-05
                        ],
                        [
                            2.0632513042073697e-05,
                            1.858843279478606e-05,
                            -1.59739613536658e-07,
                            1.2533486369648017e-05,
                            -4.814929525309708e-06,
                            -4.550599987851456e-05,
                            -5.0990565796382725e-06,
                            0.00014663691399618983,
                            1.2900689398520626e-05,
                            -3.6486959288595244e-05,
                            0.0013443019706755877,
                            5.4366835684049875e-05,
                            -3.1606869015377015e-05,
                            -9.784665166989726e-08,
                            -6.648493311445236e-09,
                            9.20735765248537e-05
                        ],
                        [
                            9.203736084373304e-08,
                            1.1430756785557605e-07,
                            -8.742897989577614e-06,
                            1.5419010424011503e-06,
                            -2.7596743166213855e-06,
                            -1.0775528380690957e-07,
                            -1.604839326319052e-06,
                            -6.344707799144089e-05,
                            -2.799732465064153e-05,
                            0.00015720468945801258,
                            -1.7387081243214197e-05,
                            -3.590580490708817e-06,
                            2.1162923076190054e-06,
                            -5.336063964023197e-07,
                            2.554261868681351e-07,
                            -1.7016379842971219e-06
                        ],
                        [
                            -0.0012281059753149748,
                            1.9700787561305333e-06,
                            -6.228460165402794e-07,
                            1.31612750919885e-07,
                            7.741321894627617e-08,
                            -0.001248503103852272,
                            -9.960087481886148e-06,
                            -6.983728962950408e-05,
                            0.00032810348784551024,
                            6.704769475618377e-05,
                            2.3846416752348887e-07,
                            -4.875138984061778e-06,
                            1.6907724784687161e-06,
                            -1.732182454361464e-06,
                            8.581988367950544e-06,
                            -4.2520001443335786e-05
                        ],
                        [
                            3.225076625312795e-06,
                            5.7177159760612994e-05,
                            -5.465899732826074e-08,
                            -4.700342742580688e-06,
                            -5.90333684158395e-07,
                            -1.0476148872839985e-06,
                            -3.043705874006264e-07,
                            0.00035950762685388327,
                            -0.00019789229554589838,
                            2.7644389319902984e-06,
                            -7.11572738509858e-07,
                            2.9115660709067015e-06,
                            0.0003571469569578767,
                            1.0449537768408845e-07,
                            0.0002230651443824172,
                            0.001103085814975202
                        ],
                        [
                            8.162084122886881e-05,
                            -4.9348624742151515e-08,
                            3.576256403903244e-06,
                            -2.4318345822393894e-05,
                            1.0018787577337207e-08,
                            2.847719542842242e-06,
                            4.050115421705414e-06,
                            0.0001416188315488398,
                            3.694081897265278e-06,
                            -0.0001705927716102451,
                            -0.0006189140258356929,
                            2.8717622626572847e-06,
                            1.0088092494697776e-06,
                            0.00031275764922611415,
                            7.251245551742613e-05,
                            -1.9109486970592116e-07
                        ],
                        [
                            -3.0935539143683854e-06,
                            -7.681660463276785e-06,
                            4.140349483350292e-05,
                            -9.459181455895305e-07,
                            -0.00010821380419656634,
                            -0.0002684564678929746,
                            4.243665898684412e-07,
                            -6.542308256030083e-05,
                            1.7677975847618654e-06,
                            -7.785216666889028e-07,
                            -1.1451531918282853e-06,
                            -2.6395291286007705e-08,
                            -4.237541361362673e-06,
                            -1.0204446709849435e-07,
                            -9.275565389543772e-06,
                            0.0003544767387211323
                        ],
                        [
                            0.00014954034122638404,
                            -5.924938051293793e-08,
                            -1.1204500083294988e-07,
                            1.3982699442749436e-07,
                            2.022861735895276e-07,
                            -6.0773324150886765e-09,
                            -0.00015505558985751122,
                            1.500247890362516e-07,
                            7.875118171796203e-05,
                            6.795532669912063e-08,
                            4.008388145848585e-07,
                            7.317366907955147e-06,
                            1.5189726809694548e-06,
                            2.232919058542393e-07,
                            -9.223672350344714e-07,
                            -2.108768057951238e-07
                        ],
                        [
                            0.001245654420927167,
                            -1.5077591797307832e-06,
                            1.640043620909637e-07,
                            -8.886416253517382e-06,
                            -8.560185051464941e-06,
                            8.764625363255618e-07,
                            -4.258094486431219e-05,
                            1.3083722478768323e-05,
                            -1.0864225430395891e-07,
                            -2.0397121147652797e-07,
                            2.036790220927287e-07,
                            6.889973883517087e-05,
                            2.823752765834797e-06,
                            6.542954622545949e-08,
                            6.588517862837762e-06,
                            8.40955544845201e-06
                        ],
                        [
                            0.0006617878098040819,
                            7.952639134600759e-05,
                            2.377001777631449e-07,
                            -6.712349431836628e-08,
                            6.20243554294575e-06,
                            -4.784978955285624e-05,
                            -1.764343671162294e-09,
                            -1.8850854210938905e-10,
                            4.427754607405632e-09,
                            2.386989763181191e-06,
                            2.5867555450531654e-05,
                            -1.768248436562203e-09,
                            -0.00010522185039008036,
                            -1.1088660301084019e-07,
                            -9.086541467695497e-06,
                            -5.642054379251249e-09
                        ],
                        [
                            -0.00041881040669977665,
                            1.2031162555103947e-07,
                            2.39009295910364e-07,
                            1.2213183708809083e-06,
                            -3.2207472031586803e-06,
                            0.0002797375782392919,
                            -2.271479843329871e-06,
                            -0.00022952232393436134,
                            2.3814825453882804e-06,
                            0.0001824677747208625,
                            -1.596779839019291e-05,
                            3.13380041916389e-08,
                            0.0008550142520107329,
                            1.7584929992153775e-06,
                            0.0001552118919789791,
                            2.6728852390078828e-05
                        ]
                    ],
                    [
                        [
                            -0.0002436656504869461,
                            -1.0353473044233397e-05,
                            -8.69054019858595e-08,
                            -2.654593913575809e-07,
                            1.9216477653571928e-07,
                            -0.0008208434446714818,
                            5.8251218433724716e-05,
                            4.376735887490213e-06,
                            4.30758336733561e-06,
                            -8.481174518237822e-06,
                            1.786415305105038e-05,
                            1.8448043093144406e-08,
                            -2.94757455776562e-07,
                            -1.5646161699578442e-08,
                            4.4662483560387045e-06,
                            -4.1553704477337305e-07
                        ],
                        [
                            1.6229059838224202e-05,
                            -6.480983927303896e-08,
                            3.1113160048334976e-07,
                            1.5712459571659565e-05,
                            -5.928832706558751e-06,
                            4.789391823578626e-06,
                            5.540324855246581e-05,
                            -3.1125835242562516e-10,
                            -1.5509408513025846e-07,
                            -0.0003396315732970834,
                            -4.326572525314987e-05,
                            -3.870840714625956e-07,
                            -1.8622529296408175e-08,
                            -0.000344802625477314,
                            -3.6324316170066595e-05,
                            0.00012259490904398263
                        ],
                        [
                            4.868225822463046e-10,
                            2.5648245127740665e-07,
                            -2.7770749511546455e-05,
                            0.00044202408753335476,
                            2.2814637645751645e-07,
                            1.5677339426645176e-09,
                            0.00010936637409031391,
                            6.540680441702307e-09,
                            1.4401508963146625e-07,
                            4.4622964878726634e-07,
                            -1.4160916350647312e-07,
                            1.3740548254759233e-08,
                            1.0995121556334198e-05,
                            -0.0003016652772203088,
                            0.0001476145989727229,
                            -2.442689606141357e-07
                        ],
                        [
                            -2.3084793099314993e-07,
                            3.818971890723333e-06,
                            1.8472539409231103e-07,
                            -6.719574230373837e-08,
                            7.795433987212164e-08,
                            -1.4300629118224606e-05,
                            1.22402425972723e-07,
                            -4.1040751966647804e-05,
                            -1.1277679732302204e-06,
                            6.170276901684701e-05,
                            -7.169514901761431e-07,
                            -2.7261590730631724e-05,
                            -8.385991350223776e-06,
                            -4.515536602411885e-06,
                            -2.539996785344556e-06,
                            6.044583642506041e-07
                        ],
                        [
                            0.0004919010680168867,
                            -3.570555918486207e-06,
                            4.324851943238173e-06,
                            1.1582515071495436e-05,
                            2.3947059162310325e-06,
                            -3.943932824768126e-05,
                            -7.347664165990864e-08,
                            -1.2108971532143187e-05,
                            -0.0003663801762741059,
                            -0.00018399527471046895,
                            1.3062823711607052e-07,
                            -0.0005339052877388895,
                            5.43379155715229e-06,
                            -5.7750391135868995e-09,
                            7.128858669602778e-06,
                            -6.907557690283284e-05
                        ],
                        [
                            7.88774157101102e-10,
                            -6.18070043856278e-05,
                            1.3335676385395345e-07,
                            -5.683705595060928e-08,
                            -9.946747923095245e-07,
                            8.548189362045377e-05,
                            -6.222722248594437e-08,
                            1.169444658444263e-05,
                            5.5396384368577856e-08,
                            -1.7017059690260794e-06,
                            -1.2451118891476654e-07,
                            0.0002757656038738787,
                            -1.7756874512997456e-05,
                            1.7720411804589276e-08,
                            2.0527615561150014e-05,
                            -9.144614523393102e-07
                        ],
                        [
                            -8.240820898208767e-05,
                            -2.4102635507006198e-05,
                            -1.9185179667147167e-08,
                            2.837706051650457e-05,
                            -4.988741864053736e-08,
                            -5.804288605304464e-09,
                            -4.998164058633847e-06,
                            5.650572276749699e-08,
                            -8.812648593448102e-05,
                            1.2462660379242152e-05,
                            -3.3477728720754385e-05,
                            4.0632990305766725e-08,
                            1.466882437739514e-08,
                            1.913308005896397e-05,
                            -1.6832495020935312e-05,
                            1.0028220920332842e-08
                        ],
                        [
                            -9.909699292620644e-05,
                            4.569110245711272e-08,
                            -8.404743857681751e-05,
                            -1.1841920866118016e-07,
                            1.289205783905345e-06,
                            8.899251406546682e-05,
                            -0.0004835256841033697,
                            -6.302190740825608e-06,
                            4.87060560772079e-07,
                            -1.1717776260411483e-06,
                            0.0006120161851868033,
                            -4.209141764022206e-07,
                            0.00018688346608541906,
                            -4.8838946895557456e-06,
                            -9.016662261274178e-08,
                            0.00016119590145535767
                        ],
                        [
                            0.0005657023284584284,
                            -1.887892153717985e-08,
                            -3.0208739190129563e-06,
                            -9.398641509505978e-08,
                            -6.339802348520607e-05,
                            5.580297874985263e-05,
                            0.0001479640486650169,
                            -3.027064622074249e-06,
                            5.8308842199039645e-09,
                            7.050931571939145e-07,
                            -0.0003619859926402569,
                            -5.080228220322169e-06,
                            -4.317690581956413e-06,
                            -2.6994139261660166e-06,
                            -3.980037945439108e-06,
                            -0.000698064744938165
                        ],
                        [
                            0.0001302985183428973,
                            -2.4005032628338085e-07,
                            1.5571215783438674e-07,
                            3.2415925943496404e-06,
                            -0.0003612235886976123,
                            0.00055983557831496,
                            5.306093953549862e-06,
                            -1.0614597556468652e-07,
                            7.432960273945355e-07,
                            -2.261002407522028e-07,
                            2.820241604695184e-07,
                            0.00014255318092182279,
                            -0.00036452553467825055,
                            -2.2786454678680457e-07,
                            -0.0003695943159982562,
                            -2.8250656214368064e-07
                        ],
                        [
                            -3.3203448879248754e-08,
                            -6.972780829528347e-05,
                            -1.5831255950615741e-06,
                            -8.97648133104667e-05,
                            -2.3350683022727026e-06,
                            3.5738137285079574e-06,
                            -5.733385322059803e-09,
                            -2.465304987708805e-06,
                            -4.189560058875941e-06,
                            3.329471098822978e-07,
                            1.5080746379680932e-05,
                            1.7637312339502387e-06,
                            1.285180815102649e-06,
                            -1.9694530237757135e-06,
                            -1.0160903912037611e-05,
                            1.0141287702936097e-06
                        ],
                        [
                            4.57002397524775e-06,
                            1.2225734202786498e-08,
                            -1.7785299633032992e-07,
                            -7.706787073402666e-06,
                            -9.99908024823526e-06,
                            1.1314092262182385e-05,
                            3.272135131737741e-07,
                            2.735866360126238e-07,
                            -1.1067226296290755e-05,
                            1.590686952113174e-05,
                            5.141969268152025e-06,
                            -1.2937066529161712e-08,
                            7.194805220933631e-05,
                            -7.414408173644915e-06,
                            2.010319022360818e-09,
                            -7.138546038731874e-07
                        ],
                        [
                            -1.3672216425675288e-07,
                            1.5864067108850577e-06,
                            3.387598894732946e-07,
                            9.159417402315739e-08,
                            -2.1193258703533502e-07,
                            -3.19175796903437e-07,
                            -7.334633664868306e-06,
                            -5.454210167954443e-07,
                            8.776611082339514e-08,
                            0.00011810724390670657,
                            -0.00016453949501737952,
                            -6.384507855727861e-08,
                            -6.14945383858867e-06,
                            0.0007533332100138068,
                            -5.13902750753914e-06,
                            0.00033177228760905564
                        ],
                        [
                            1.1571475511118479e-07,
                            -0.0004485151148401201,
                            -0.00011166869080625474,
                            -4.4044674723409116e-05,
                            0.00022746325703337789,
                            1.1754636943805963e-06,
                            1.7680971723166294e-05,
                            -0.0013239332474768162,
                            -9.584593954059528e-07,
                            1.3287249203131068e-06,
                            -1.7273719095101114e-06,
                            0.0010621718829497695,
                            -7.768469004076906e-06,
                            -3.8712522609785083e-07,
                            -2.8925976494065253e-06,
                            2.3432057787431404e-05
                        ],
                        [
                            -4.162966860121742e-08,
                            1.6274293912488247e-08,
                            -1.390430043102242e-05,
                            -2.112397396558663e-06,
                            -4.939887388033526e-10,
                            0.0002868694136850536,
                            1.3090873835608363e-05,
                            -3.2998537236039738e-09,
                            -3.2378084142692387e-06,
                            -0.0003124890208709985,
                            -2.5034410100488458e-06,
                            -7.45884065622704e-09,
                            -7.256484968820587e-05,
                            -1.5277351606002298e-09,
                            2.1530563572014216e-06,
                            -3.3564728774138075e-10
                        ],
                        [
                            -1.245523162651807e-05,
                            2.5674606263237365e-07,
                            -2.7874009447259596e-06,
                            -4.473977696761722e-06,
                            3.1419510833075037e-06,
                            -4.632523996406235e-06,
                            6.135669536888599e-06,
                            -3.667281271191314e-05,
                            -0.00026803388027474284,
                            4.0171979520664536e-08,
                            -1.024246927272543e-07,
                            9.756309736985713e-06,
                            1.876114765764214e-06,
                            -0.00012045272160321474,
                            -5.172092869543121e-07,
                            2.0460502128116786e-05
                        ]
                    ],
                    [
                        [
                            -1.151957803813275e-05,
                            -8.81424284671084e-08,
                            4.608338713296689e-05,
                            0.0001702459412626922,
                            -1.5441581126651727e-05,
                            -1.0712145694924402e-06,
                            -1.3986833380386088e-07,
                            -0.0010143264662474394,
                            -1.0496120012248866e-05,
                            -2.99029522921046e-07,
                            1.8270554846822051e-07,
                            0.00013736117398366332,
                            -5.1772616416201345e-08,
                            -0.0001054428648785688,
                            -4.074157899935926e-08,
                            0.00026034616166725755
                        ],
                        [
                            1.0902418523528468e-08,
                            -0.00014667719369754195,
                            9.390680588694522e-08,
                            0.0001560495002195239,
                            -7.4131494329776615e-06,
                            -6.096050331194647e-10,
                            -1.731617658151663e-07,
                            -2.7237285848968895e-07,
                            -3.9498878322774544e-05,
                            -0.00019220839021727443,
                            4.041149637146191e-09,
                            -0.0004764079349115491,
                            2.766658155906043e-07,
                            -0.000317301950417459,
                            -6.994711293373257e-05,
                            0.00021094434487167746
                        ],
                        [
                            -7.794457701493229e-08,
                            2.7138270297655254e-08,
                            3.907646828338329e-08,
                            -1.9872759366990067e-06,
                            7.144129199332383e-08,
                            -2.4166621415133704e-07,
                            -0.0002628394868224859,
                            3.788963454098848e-07,
                            -1.9113403482151625e-07,
                            -8.806082769297063e-05,
                            -3.382965019227413e-07,
                            -0.00026991215418092906,
                            -1.7924294297699817e-06,
                            -3.738164777722375e-10,
                            -3.409610371818417e-08,
                            -3.820946585619822e-05
                        ],
                        [
                            8.471986916447349e-07,
                            -2.1034317398971325e-08,
                            -1.7707022834656527e-06,
                            -1.0028683391283266e-05,
                            1.3035978554398753e-06,
                            1.6618567997284117e-06,
                            7.629368248274204e-09,
                            3.315795993330539e-08,
                            -1.1016177268174943e-06,
                            -1.3184278941480443e-05,
                            6.086390931159258e-05,
                            -2.922571002272889e-05,
                            8.824808901408687e-07,
                            3.630994615377858e-05,
                            4.795931999979075e-06,
                            4.066080805387173e-09
                        ],
                        [
                            -4.513414637585811e-07,
                            -3.248933353461325e-07,
                            3.3098501717176987e-09,
                            2.487578569798643e-07,
                            -2.4086381017696112e-05,
                            1.0553155334491748e-05,
                            -7.935883417076184e-08,
                            -0.0009693609899841249,
                            0.0008476261282339692,
                            7.423300303344149e-06,
                            2.7587033400777727e-05,
                            2.7207988750888035e-07,
                            9.47137323237257e-06,
                            -4.7832280358761636e-08,
                            1.1652168723230716e-05,
                            -1.2180797739347327e-06
                        ],
                        [
                            -9.520608728053048e-07,
                            -3.163836481689941e-06,
                            0.0003231004229746759,
                            -3.4236800274811685e-06,
                            -4.77966750622727e-08,
                            2.2745283786207438e-05,
                            -4.01834654439881e-08,
                            -0.0009628852130845189,
                            1.9725280253624078e-07,
                            3.4583459296300134e-07,
                            -3.2303992725246644e-07,
                            3.6993485991843045e-05,
                            -2.261501492739626e-07,
                            -8.956062629295047e-07,
                            -0.00027127540670335293,
                            -2.5662084226496518e-06
                        ],
                        [
                            6.275864052440738e-06,
                            3.3465944397903513e-06,
                            -4.3857447451500775e-08,
                            -3.1877237915978185e-07,
                            -1.8304891113984922e-07,
                            1.6573227235028298e-09,
                            2.7951191583497348e-08,
                            4.905849345959723e-05,
                            6.844513700343668e-05,
                            2.6859147794766614e-08,
                            -4.1284238250227645e-06,
                            -1.5413434084621258e-07,
                            -7.585088496853132e-06,
                            -5.920702824369073e-05,
                            -6.0720922192558646e-05,
                            3.0400966352317482e-05
                        ],
                        [
                            -1.6593639884376898e-07,
                            -8.240642301871048e-08,
                            -1.3905409446124395e-07,
                            3.724905582203064e-06,
                            2.883236902562203e-07,
                            1.1696130286509288e-06,
                            -1.6704905192455044e-07,
                            0.0007970121223479509,
                            5.80402702325955e-05,
                            8.391270966967568e-05,
                            2.114902315497602e-07,
                            -9.277288882003631e-06,
                            -2.1953514078631997e-05,
                            9.060748595857149e-08,
                            5.290065701046842e-07,
                            0.00013475495507009327
                        ],
                        [
                            0.00045625166967511177,
                            2.104390262047673e-07,
                            0.0005603554309345782,
                            -1.6735548058477434e-08,
                            -2.3460466991309659e-07,
                            3.725728561221331e-07,
                            -6.462111741711851e-06,
                            0.0005170751828700304,
                            -1.6651838450343348e-06,
                            -9.054414840647951e-05,
                            -0.00018167620874010026,
                            1.0892154023167677e-07,
                            -1.072083705366822e-06,
                            0.0004902073997072875,
                            -6.57798295833345e-08,
                            -8.749632797844242e-06
                        ],
                        [
                            -1.1358537221894949e-06,
                            2.828618335115607e-07,
                            6.002345799061004e-06,
                            7.235672683236771e-08,
                            4.737590643344447e-06,
                            1.6317086704020767e-07,
                            -3.1806000606593443e-06,
                            -0.00013810518430545926,
                            0.00026657606940716505,
                            -7.06582359271124e-05,
                            3.3087117117247544e-06,
                            4.929362148686778e-06,
                            5.521042567124823e-06,
                            -2.525959530430555e-08,
                            7.362627911788877e-07,
                            5.968904588371515e-07
                        ],
                        [
                            -6.9477846409427e-06,
                            -1.8243219528812915e-05,
                            6.284701157710515e-06,
                            -8.028040610952303e-06,
                            0.00129577552434057,
                            -7.782031730130257e-07,
                            1.9987314772151876e-06,
                            4.511875431489898e-06,
                            -2.6669215458241524e-07,
                            -0.0001842085039243102,
                            0.00026334699941799045,
                            -3.0890016660123365e-06,
                            7.774498271828634e-07,
                            -4.289671323931543e-06,
                            -1.3032317838224117e-06,
                            -2.6726465875981376e-06
                        ],
                        [
                            5.5082899052649736e-05,
                            1.4408616380023886e-06,
                            -2.8022661524573778e-08,
                            -2.0408006093930453e-05,
                            -4.21324439230375e-05,
                            -0.00019784226606134325,
                            -0.00018802359409164637,
                            9.940577729139477e-05,
                            6.619957275688648e-07,
                            -4.2689332957479564e-08,
                            -7.058551091176923e-06,
                            1.2859227460637612e-08,
                            -1.8065366020891815e-05,
                            -2.9708519377891207e-07,
                            -2.076012060570065e-05,
                            -2.0864494576500192e-09
                        ],
                        [
                            -1.2595049447838846e-08,
                            -1.5389961163236876e-06,
                            -2.548376414779341e-06,
                            -2.896282239817083e-05,
                            -1.6305707504216116e-06,
                            -3.024952945906989e-07,
                            0.0012119875755161047,
                            -2.73667410510825e-06,
                            1.899010726447159e-08,
                            -2.2412541511585005e-06,
                            -2.956830030598212e-06,
                            -1.8852097127819434e-06,
                            -0.00034853577380999923,
                            -9.622974630474346e-07,
                            -2.5313871446996927e-05,
                            -1.8584901226859074e-06
                        ],
                        [
                            -3.0328442335303407e-07,
                            -5.4737927712267265e-05,
                            1.3680367374035995e-05,
                            9.019909157359507e-07,
                            1.8941757389256964e-06,
                            0.00031338073313236237,
                            -4.731646185973659e-05,
                            0.0006648920243605971,
                            4.411591362440959e-06,
                            3.35092664727199e-09,
                            3.338124656693253e-07,
                            9.091910214920063e-06,
                            3.988314801972592e-06,
                            -1.513566516564424e-08,
                            6.292846592259593e-06,
                            -1.3456814485834911e-05
                        ],
                        [
                            1.380144567519892e-06,
                            1.5722750958957477e-06,
                            2.7401625857237377e-07,
                            2.3019967557047494e-05,
                            0.0005460298852995038,
                            6.179834144859342e-06,
                            -8.222642566835248e-10,
                            7.13211702532135e-05,
                            -1.1629417429048772e-09,
                            -0.00012478334247134626,
                            6.498742550320458e-06,
                            1.035355579048769e-09,
                            5.686261283699423e-05,
                            0.0009223195374943316,
                            6.7463638231402e-08,
                            1.8587691386073857e-09
                        ],
                        [
                            0.0011928906897082925,
                            -1.0944303596716054e-07,
                            -7.147975702537224e-05,
                            8.015878449896263e-08,
                            -7.806679604982492e-07,
                            -0.000531159108504653,
                            3.481302883301396e-06,
                            3.457227194303414e-06,
                            0.0006148194661363959,
                            -9.597673766847947e-10,
                            -4.665072992793284e-06,
                            -0.000311412091832608,
                            -4.708872438641265e-07,
                            -2.1537090333367814e-07,
                            -1.5820700355106965e-05,
                            5.4030924729886465e-06
                        ]
                    ],
                    [
                        [
                            1.9799512074314407e-07,
                            -6.52152039037901e-08,
                            1.345869975466485e-07,
                            4.955825352226384e-05,
                            0.0002036262594629079,
                            -1.9065348055846698e-07,
                            2.8656040740315802e-05,
                            0.0009838049300014973,
                            2.5291745259892195e-05,
                            -1.5476565806693543e-07,
                            0.00014956574887037277,
                            1.0988021131197456e-05,
                            -3.773273874685401e-06,
                            8.112465729936957e-05,
                            0.00032823352375999093,
                            1.0074581950902939e-06
                        ],
                        [
                            1.4234021364245564e-05,
                            9.48314118431881e-06,
                            -0.00013756622502114624,
                            -3.402235293492595e-08,
                            5.738279185152351e-08,
                            -7.382880085060606e-08,
                            0.0006270348094403744,
                            -2.508469432171978e-09,
                            2.0964918689969636e-07,
                            1.1051402282191702e-07,
                            8.058326784521341e-05,
                            9.618640888220398e-07,
                            3.6719171703225584e-08,
                            1.1640368313692306e-07,
                            3.6548652133205906e-05,
                            4.2797161647900595e-11
                        ],
                        [
                            -8.143034619934042e-07,
                            0.00018184236250817776,
                            -2.9049981094431132e-05,
                            -0.00011183712922502309,
                            -1.0781029232020956e-05,
                            2.325882348941377e-07,
                            -4.048280516144587e-06,
                            1.7165243448857836e-08,
                            2.88257240299572e-09,
                            -0.0010900318156927824,
                            1.540649918752024e-08,
                            -2.5388497970624258e-09,
                            7.688668119953945e-07,
                            0.0006073067779652774,
                            -6.614885705857887e-07,
                            -1.5072702808538452e-05
                        ],
                        [
                            3.620720434582836e-08,
                            -2.8373553959681885e-06,
                            9.358681296589566e-08,
                            4.210312908980995e-06,
                            0.0001330688683083281,
                            3.1680988286098e-06,
                            1.1716604603861924e-05,
                            -7.541527793364367e-07,
                            -1.0606822797853965e-06,
                            -2.4998048502311576e-06,
                            0.0005334814777597785,
                            -3.756229853024706e-05,
                            5.901763415749883e-07,
                            1.9780655335921438e-08,
                            7.82210918259807e-09,
                            -4.035323541984326e-08
                        ],
                        [
                            -2.980329554702621e-06,
                            1.377708940708544e-06,
                            3.5755384764080134e-10,
                            0.0004423446662258357,
                            -4.966515007254202e-06,
                            2.83787926491641e-07,
                            -5.848855653312057e-05,
                            -3.65761952707544e-05,
                            1.1891140161424119e-07,
                            1.4072858789404563e-07,
                            -0.0003295677015557885,
                            9.095603672903962e-06,
                            -8.031869583646767e-06,
                            5.095204869576264e-06,
                            2.9365502996370196e-05,
                            5.843997132615186e-05
                        ],
                        [
                            -1.230748466696241e-06,
                            9.974096428777557e-07,
                            1.0321837180526927e-06,
                            2.7209178369957954e-05,
                            5.397619588620728e-06,
                            -7.69872531236615e-06,
                            -0.0005963339935988188,
                            3.9452443161280826e-06,
                            -1.0456432164573926e-06,
                            -6.93527590911458e-09,
                            -1.5667338857383584e-06,
                            0.00012925369082950056,
                            8.408164831053e-08,
                            2.098865792277138e-08,
                            -2.5479885152890347e-06,
                            -6.955258140806109e-05
                        ],
                        [
                            -4.039637860842049e-05,
                            -5.6342551033594646e-06,
                            -1.0575242015420372e-07,
                            5.4301544878399e-06,
                            1.1010693015123252e-06,
                            -3.5322191251907498e-06,
                            4.0301129047293216e-05,
                            -6.33124218438752e-05,
                            2.1777104848297313e-06,
                            -5.94683797316975e-07,
                            -1.4413162219284459e-08,
                            -1.9752251390059428e-08,
                            -1.3396869690041058e-05,
                            -8.366025576833636e-05,
                            -1.4583030861103907e-05,
                            1.2813049579563085e-05
                        ],
                        [
                            5.140413463777804e-07,
                            -9.993109983952309e-08,
                            -2.5460221877438016e-06,
                            1.0682979336706921e-06,
                            -2.2169598423715797e-07,
                            -0.0001689958735369146,
                            -3.8558376047603815e-08,
                            1.4986767382652033e-07,
                            -2.510109425202245e-06,
                            0.00020381844660732895,
                            -1.698136031791364e-07,
                            -0.00030781130772084,
                            -6.789131248297053e-07,
                            5.713433893106412e-06,
                            0.00046502266195602715,
                            9.031175522977719e-07
                        ],
                        [
                            -5.703620990971103e-05,
                            -1.3017645983381954e-07,
                            0.0003640966024249792,
                            0.001169093418866396,
                            1.8683974758459954e-06,
                            4.6675182829858386e-07,
                            1.0651843695086427e-05,
                            -5.53491236132686e-06,
                            -1.294243884331081e-05,
                            -1.661393582708115e-07,
                            0.00032739213202148676,
                            1.056540327226685e-06,
                            1.5337600416387431e-06,
                            4.791655101143988e-06,
                            0.00013033821596764028,
                            6.462004421337042e-06
                        ],
                        [
                            -0.0002816573833115399,
                            -0.0003184684319421649,
                            2.6427001103002112e-06,
                            0.0002918854879681021,
                            1.5902003269729903e-07,
                            9.848351112395903e-08,
                            4.434280526766088e-06,
                            -1.2624834653252037e-06,
                            8.605393304605968e-07,
                            1.9204351531243447e-07,
                            9.47826919173167e-08,
                            -2.052471472779871e-07,
                            -1.1193640148121631e-07,
                            3.79588091163896e-05,
                            -2.9176633688621223e-05,
                            3.1278375445253914e-07
                        ],
                        [
                            1.0352313495332055e-07,
                            -7.554922194685787e-05,
                            0.0006337830564007163,
                            7.182770787039772e-07,
                            1.0368364655732876e-06,
                            -1.10752007458359e-05,
                            -0.00010109427239513025,
                            -7.836561417207122e-05,
                            5.990650151943555e-06,
                            1.9827552932838444e-08,
                            -7.782838196135344e-08,
                            -1.2897544365841895e-07,
                            3.849803397315554e-05,
                            3.53975622147118e-07,
                            -3.9539713725389447e-07,
                            -1.7684271824691677e-06
                        ],
                        [
                            -2.1504969481611624e-05,
                            3.6911951610818505e-06,
                            5.796697223559022e-05,
                            7.852065664337715e-07,
                            -3.664780524559319e-05,
                            -2.0515397380904687e-08,
                            5.606228725696383e-08,
                            -8.270054240711033e-05,
                            9.006864274851978e-05,
                            6.496033165603876e-06,
                            -2.6594334485707805e-06,
                            -4.644414730137214e-05,
                            1.3911257155996282e-05,
                            0.00012248703569639474,
                            9.491273885942064e-06,
                            -2.2488333417669537e-10
                        ],
                        [
                            7.940828800201416e-05,
                            -7.639270904746809e-08,
                            -3.837170936549228e-08,
                            1.0541630501847976e-07,
                            0.0012817191891372204,
                            -3.989299557360937e-07,
                            1.7912209386850009e-06,
                            -3.931100764020812e-06,
                            -4.154834186920198e-06,
                            -0.00012622248323168606,
                            -4.16292004956631e-06,
                            3.032326276297681e-06,
                            3.989314620866935e-07,
                            -0.000334041629685089,
                            -0.0003248834691476077,
                            1.444117515347898e-06
                        ],
                        [
                            -2.0562755942421518e-09,
                            3.3604246709728613e-05,
                            1.1610676153850363e-07,
                            -2.0703580958070233e-05,
                            1.4104392903391272e-05,
                            1.1480049579404294e-05,
                            -4.535873188160622e-08,
                            1.5555417121504433e-05,
                            1.0178687261941377e-06,
                            -3.463192842900753e-05,
                            4.893869845545851e-05,
                            5.3543999456451274e-06,
                            6.773863788112067e-06,
                            4.507873200054746e-06,
                            -2.680872057680972e-07,
                            6.577539352292661e-06
                        ],
                        [
                            -5.246789669399732e-07,
                            1.4348339050229697e-07,
                            4.425460701895645e-06,
                            5.19353761774255e-07,
                            -1.1237579755629667e-09,
                            -7.569644822069677e-07,
                            -0.0003850753419101238,
                            -0.0016764828469604254,
                            -1.865029730652168e-08,
                            2.3070719180395827e-05,
                            3.041120908164885e-05,
                            -3.499394551909063e-09,
                            -0.0002863067202270031,
                            0.00014628193457610905,
                            -0.0005586318438872695,
                            1.6791739110288972e-09
                        ],
                        [
                            2.236026602986385e-06,
                            1.991816134250257e-08,
                            8.12007510830881e-06,
                            3.783349939112668e-06,
                            3.7840320146642625e-05,
                            -0.00012852990766987205,
                            -3.40822055022727e-07,
                            -3.6899250517308246e-06,
                            1.5517092833761126e-05,
                            0.00022275198716670275,
                            -1.4389883062904119e-07,
                            -1.9373783288756385e-07,
                            7.489005611205357e-07,
                            -4.2649469378375215e-07,
                            0.00047667266335338354,
                            0.00011802877997979522
                        ]
                    ],
                    [
                        [
                            5.007200210016549e-11,
                            6.750372995156795e-05,
                            1.018612692860188e-05,
                            1.1871337846969254e-05,
                            7.05152160662692e-07,
                            6.849724741186947e-05,
                            1.917658210004447e-06,
                            -1.0273872248944826e-05,
                            2.605974032121594e-07,
                            -8.582010195823386e-07,
                            1.8253865619044518e-07,
                            5.2927852323136904e-08,
                            9.210969437845051e-06,
                            1.540772416319669e-07,
                            -6.765747002646094e-06,
                            -6.484654932137346e-06
                        ],
                        [
                            -2.1634835434269917e-07,
                            0.00034840154694393277,
                            1.0126361758011626e-06,
                            8.336934115504846e-06,
                            -5.7611934607848525e-05,
                            -2.2609604855006182e-08,
                            -0.00020081820548512042,
                            9.113098712987266e-06,
                            -1.1726594806305002e-08,
                            -2.4455252400912286e-07,
                            0.00021810839825775474,
                            5.542170129047008e-06,
                            -0.00010643029236234725,
                            8.781864380580373e-06,
                            -2.301853214703442e-07,
                            -2.7504404442879604e-07
                        ],
                        [
                            5.140668690728489e-06,
                            -3.2067000574897975e-05,
                            7.127035132725723e-06,
                            -4.772610918735154e-05,
                            7.552152965217829e-07,
                            3.043840457461755e-10,
                            1.858972886736865e-08,
                            6.292123657658522e-07,
                            -1.6027755123104725e-07,
                            -5.2737462397089985e-08,
                            1.8774851923808455e-05,
                            -0.0015083551406860352,
                            -4.431053457665257e-05,
                            2.3644139979239753e-09,
                            -0.00018398476822767407,
                            4.783380802564352e-08
                        ],
                        [
                            1.836324554460589e-05,
                            -1.0751045920187607e-07,
                            -1.2895702639070805e-06,
                            -4.079220516928217e-09,
                            -0.0009485222399234772,
                            -7.416748104560611e-08,
                            6.171684617584106e-06,
                            -0.00011543362052179873,
                            -5.215362079979968e-07,
                            1.5794205410202267e-06,
                            5.728306717855958e-08,
                            9.919991134665906e-05,
                            1.8862803699448705e-05,
                            -6.330199539661407e-05,
                            -3.8440784919657744e-06,
                            7.313882388615411e-09
                        ],
                        [
                            0.0003907003556378186,
                            -1.5300537370421807e-07,
                            9.376444864983569e-08,
                            -4.478861592360772e-05,
                            0.0006718990625813603,
                            -1.3535976904677227e-05,
                            -3.183796798111871e-05,
                            -1.090121986635495e-05,
                            9.668875691204448e-07,
                            -1.3410142685188475e-07,
                            -4.441664032128756e-07,
                            -0.0014526562299579382,
                            5.3245439630700275e-06,
                            -1.9327071640873328e-05,
                            -1.6958296328084543e-05,
                            2.330640882064472e-06
                        ],
                        [
                            6.657250196440145e-06,
                            -1.7567846953170374e-05,
                            -3.341493837183407e-08,
                            -2.8820224429182417e-08,
                            -6.136649062682409e-06,
                            0.0004301618901081383,
                            -3.398268688670214e-08,
                            -2.5505252779112197e-05,
                            1.559904012538027e-05,
                            -6.953913498364273e-07,
                            6.440715196731617e-07,
                            -8.627410352346487e-06,
                            -3.390722122276202e-05,
                            -2.087667235173285e-05,
                            -4.967871973349247e-06,
                            -6.499756466382678e-08
                        ],
                        [
                            -0.0008882381953299046,
                            -5.677093213307671e-06,
                            -2.5437475414946675e-06,
                            -0.00017002559616230428,
                            -1.3128376963322808e-07,
                            -1.8114154620718637e-09,
                            -1.290621094085509e-05,
                            -8.562814457491186e-08,
                            6.023213700245833e-06,
                            5.885279108497343e-08,
                            -2.564109990998986e-07,
                            -2.7708236302714795e-05,
                            -9.052400855580345e-07,
                            -0.00019741099094972014,
                            1.6196494811993034e-07,
                            -7.697403816564474e-06
                        ],
                        [
                            0.0003581261553335935,
                            3.8489389453388867e-07,
                            2.655202661117073e-05,
                            6.220799605216598e-06,
                            6.7649034463102e-06,
                            -7.74310901761055e-05,
                            1.242788857780397e-05,
                            -0.00037282262928783894,
                            -2.3083100586518412e-07,
                            -1.8197641111328267e-05,
                            -3.0467103897535708e-06,
                            -5.650102593790507e-06,
                            1.9441672520770226e-06,
                            -1.2476912161218934e-06,
                            0.0006560479523614049,
                            1.0896733328991104e-06
                        ],
                        [
                            -1.2652108694055642e-08,
                            -2.845758899638895e-07,
                            8.275617346953368e-08,
                            -1.6267804880953918e-08,
                            0.00014571860083378851,
                            3.2077826972454204e-07,
                            0.0001850110711529851,
                            -6.174243480927544e-06,
                            1.5052237358759157e-06,
                            2.871876858989708e-05,
                            0.00016421698092017323,
                            1.091938770514389e-06,
                            4.5005253923591226e-07,
                            -6.418541306629777e-05,
                            -1.2077936162313563e-07,
                            5.148051513970131e-07
                        ],
                        [
                            1.3363057860260596e-07,
                            9.759487511473708e-07,
                            1.574951056682039e-06,
                            -9.246590343536809e-05,
                            9.266812412533909e-05,
                            1.641130893403897e-06,
                            4.131507012061775e-06,
                            -2.4211849449784495e-06,
                            -0.0008250761893577874,
                            4.0039492432697443e-07,
                            2.21769482777745e-07,
                            0.00013722875155508518,
                            1.9725202946574427e-06,
                            2.2307749532046728e-06,
                            2.6107352368853753e-06,
                            1.2021018847008236e-06
                        ],
                        [
                            -1.3991848391015083e-06,
                            -0.0009650294668972492,
                            8.747204265091568e-05,
                            0.0004980824887752533,
                            -1.8197738427261356e-07,
                            -0.0008006258285604417,
                            0.00017874293553177267,
                            0.0001147182920249179,
                            -3.424460714995803e-08,
                            0.00013862094783689827,
                            -6.636363991674443e-08,
                            -0.00012757694639731199,
                            -6.827609695392312e-07,
                            -8.922820597945247e-07,
                            1.2600034438037255e-07,
                            9.763445996213704e-05
                        ],
                        [
                            -3.040893261641031e-06,
                            2.5031759776084073e-08,
                            0.0005531233036890626,
                            1.0306730473530479e-05,
                            -2.8379221475915983e-05,
                            2.4730707082198933e-06,
                            2.6036060418732632e-08,
                            7.92971519558705e-08,
                            -6.320855838737316e-09,
                            -2.6116577789281337e-09,
                            -0.00012811059423256665,
                            4.5001485204920755e-08,
                            8.440653618890792e-05,
                            -1.7319604239673936e-07,
                            -5.033160732637043e-07,
                            -0.0005312712164595723
                        ],
                        [
                            -1.4803214298808598e-07,
                            -3.261058623138524e-07,
                            -1.3771904150416958e-07,
                            2.4539019705116516e-08,
                            6.803157930335146e-07,
                            -1.3447170488234406e-07,
                            9.202670480590314e-05,
                            4.0647591958986595e-06,
                            -0.00014097575331106782,
                            2.6009061571130587e-09,
                            -0.0002483148709870875,
                            -3.4351915019215085e-06,
                            0.00014472905604634434,
                            -3.080927399423672e-06,
                            -5.992374951802049e-08,
                            2.0881707314401865e-05
                        ],
                        [
                            1.2762508561081631e-07,
                            -4.849803190154489e-06,
                            2.6432527278075213e-09,
                            -1.1497608284116723e-05,
                            -9.320443496108055e-06,
                            -6.607584701612268e-09,
                            -6.436993135139346e-05,
                            -5.956062523182482e-07,
                            -1.1575329494917241e-07,
                            4.14986573105125e-07,
                            -3.540380475897109e-06,
                            0.00010859163012355566,
                            0.00015275919577106833,
                            4.250921392667806e-08,
                            -2.505890392967558e-07,
                            -1.696338404144626e-05
                        ],
                        [
                            3.8598571450165764e-07,
                            -1.6882319187061512e-07,
                            -1.6220965903812612e-08,
                            6.470486550824717e-05,
                            4.376084827839577e-09,
                            -1.7217116621282003e-09,
                            -7.10658059688285e-05,
                            3.7672549524359056e-09,
                            -9.487217175774276e-05,
                            9.186296523466808e-08,
                            -7.773154356982559e-05,
                            1.180367689812556e-06,
                            -2.2066659610686656e-09,
                            -6.3718307501403615e-06,
                            5.2986081300332444e-08,
                            1.2616769140549877e-07
                        ],
                        [
                            4.614120285850731e-08,
                            -9.13183129114259e-09,
                            1.234299702446151e-06,
                            -1.7039936039964232e-07,
                            1.236974043195005e-07,
                            -2.015665643284592e-07,
                            4.093241841474082e-06,
                            -0.0007499284110963345,
                            0.0006138685857877135,
                            0.0002985638566315174,
                            6.692251020012918e-08,
                            4.770269242726499e-06,
                            7.220403858809732e-06,
                            7.231587369460613e-05,
                            -1.0847751141795925e-08,
                            1.584335677762283e-06
                        ]
                    ],
                    [
                        [
                            5.480434083438013e-06,
                            -3.0077185897425807e-07,
                            -1.0878424063776038e-06,
                            -0.0007536712801083922,
                            4.758507202495821e-06,
                            3.6997344068367966e-06,
                            4.377347067929804e-05,
                            -6.164681963127805e-06,
                            3.061151119254646e-07,
                            3.463371831458062e-05,
                            2.9902274434334686e-08,
                            6.207210390130058e-07,
                            -0.001324756653048098,
                            1.404319505127205e-08,
                            -5.972950020805001e-06,
                            1.219245223182952e-05
                        ],
                        [
                            -2.70676173386164e-05,
                            0.0006993330316618085,
                            -9.769439202500507e-06,
                            9.730923920869827e-06,
                            -2.1049785914328822e-08,
                            1.778349542291835e-05,
                            -1.749756677327241e-07,
                            -4.53513280262996e-08,
                            5.070382513849836e-08,
                            -2.3213295207824558e-05,
                            4.708687356469454e-06,
                            -1.6755271644797176e-05,
                            5.2244242397136986e-05,
                            2.4901432027490955e-08,
                            0.0004527062992565334,
                            -2.4157664313406713e-08
                        ],
                        [
                            0.0002630179515108466,
                            -2.4579401269875234e-07,
                            7.200586082944938e-08,
                            -5.534311497967792e-08,
                            1.3030995660301414e-07,
                            2.907528795503822e-08,
                            7.736639417998958e-08,
                            4.714133297056833e-07,
                            -5.8143141359323636e-05,
                            4.2451392801012844e-05,
                            0.0010173488408327103,
                            3.2749221645644866e-07,
                            -4.54069448707628e-10,
                            0.0014907156582921743,
                            0.00012144458014518023,
                            0.00012400189007166773
                        ],
                        [
                            1.8613071972595208e-07,
                            1.8445996730065417e-08,
                            -0.00026230362709611654,
                            3.0935607355786487e-06,
                            -9.548555681249127e-06,
                            -3.9142241803347133e-07,
                            -1.6362624592147768e-05,
                            -1.7539515795306215e-07,
                            -2.3786368430478433e-09,
                            -8.913975761970505e-06,
                            -9.241199450116255e-08,
                            -1.5896910099399975e-06,
                            1.4329576515592635e-05,
                            -1.8637852861047577e-07,
                            -4.567860014503822e-05,
                            -1.8035915161362936e-07
                        ],
                        [
                            1.215585854197343e-07,
                            -4.377374807518208e-06,
                            -4.2406049942655955e-06,
                            -1.4157667465042323e-06,
                            5.325003940015449e-07,
                            2.186267806791875e-07,
                            8.0693862400949e-06,
                            2.1033461052866187e-06,
                            0.0002330723946215585,
                            -2.079929799947422e-05,
                            -2.3356926249107346e-05,
                            2.2673248167848215e-05,
                            -2.5461154109507333e-06,
                            -6.972362461965531e-05,
                            1.0499675795472285e-07,
                            -8.628425712231547e-05
                        ],
                        [
                            0.0007372815161943436,
                            9.670964118413394e-07,
                            -2.3031952878227457e-07,
                            -6.560547660683369e-08,
                            -1.4429733710130677e-06,
                            -9.99553049041424e-06,
                            2.3945985958562233e-06,
                            -0.0003029897634405643,
                            -1.432426506653428e-05,
                            0.00011574146628845483,
                            2.256227162433788e-06,
                            -7.164182079577586e-06,
                            -8.731429261388257e-06,
                            6.771401928062915e-08,
                            1.5482524986509816e-06,
                            0.0006719931261613965
                        ],
                        [
                            -2.89215631710249e-06,
                            4.799823727807961e-06,
                            -1.1601632650126703e-06,
                            7.998026063660291e-08,
                            2.0180158344373922e-07,
                            1.2917063941131346e-05,
                            1.0946126849376014e-07,
                            0.0002114120143232867,
                            9.556504664942622e-06,
                            9.812422376853647e-07,
                            -5.224813776294468e-06,
                            2.101779500662815e-06,
                            -2.7583874739889325e-08,
                            6.346500595100224e-05,
                            8.141053342569649e-08,
                            1.4435854609473608e-06
                        ],
                        [
                            2.299300831509754e-06,
                            -2.573965048213722e-06,
                            -9.814431905397214e-06,
                            1.8429757346893894e-06,
                            -0.00040603993693366647,
                            5.956978384347167e-06,
                            -3.1009917620394845e-06,
                            -5.09672645421233e-06,
                            0.00013155995111446828,
                            -1.1162492086214115e-07,
                            -4.1200604755431414e-05,
                            -0.0008613091195002198,
                            7.733848178759217e-05,
                            -4.4071143179280625e-08,
                            1.117021656682482e-05,
                            0.00026733215781860054
                        ],
                        [
                            -7.357343747571576e-07,
                            6.525385742861545e-07,
                            2.5505883968435228e-05,
                            9.522085520075052e-08,
                            -1.7584559827810153e-05,
                            -5.130497982008819e-08,
                            -0.00033895691740326583,
                            1.7839042811829131e-06,
                            -6.561845111718867e-07,
                            -0.00018144198111258447,
                            -8.28383635962382e-05,
                            6.808910711697536e-06,
                            -0.0008845438715070486,
                            1.6646016831600718e-07,
                            -0.0001259160926565528,
                            4.340983650763519e-06
                        ],
                        [
                            0.0007629786850884557,
                            1.443461457029116e-07,
                            -0.0009133756393566728,
                            9.376027065854942e-09,
                            1.2052885267621605e-07,
                            -4.379132406029385e-06,
                            1.1986464869551128e-06,
                            -1.0997314348060172e-07,
                            -4.918181275570532e-07,
                            0.0007781658787280321,
                            4.1878229239955544e-06,
                            1.2410081353664282e-06,
                            -0.00022601144155487418,
                            -9.23938350751996e-05,
                            0.0006554340943694115,
                            7.950003464429756e-07
                        ],
                        [
                            -1.3408946131221455e-07,
                            3.8668852653245267e-07,
                            2.0043713448103517e-05,
                            1.4329606301544118e-07,
                            -0.0005107694305479527,
                            2.9827702746842988e-05,
                            -2.535668727432494e-06,
                            6.330358246486867e-06,
                            -2.7470498764614604e-08,
                            1.13966268600052e-06,
                            -3.294486759841675e-06,
                            2.1699054286727915e-06,
                            -3.949668462155387e-05,
                            -3.5170592127542477e-07,
                            -1.300206349696964e-06,
                            -0.0002466015284880996
                        ],
                        [
                            6.378486432367936e-07,
                            -4.1348002355334756e-08,
                            -0.0004350163508206606,
                            0.0009883545571938157,
                            -3.2940498329026013e-08,
                            -1.2879245332442224e-06,
                            4.114447804681731e-08,
                            3.0289359909119185e-09,
                            2.2855067527416395e-07,
                            0.0011982736177742481,
                            -6.126657535787672e-05,
                            3.067306124648894e-07,
                            5.357573229503032e-08,
                            2.1981541920013115e-08,
                            -3.17110320224856e-08,
                            5.8039604482473806e-06
                        ],
                        [
                            0.00014409859431907535,
                            -1.4884219012856192e-07,
                            3.1634001516067656e-06,
                            -7.255247282955679e-07,
                            -3.248052848903171e-08,
                            0.00019529715063981712,
                            -8.166232987605326e-07,
                            -1.253462141903583e-05,
                            -0.00013012457930017263,
                            2.7704656986315968e-06,
                            -6.28227638799217e-08,
                            -8.129948400892317e-05,
                            -2.573841811681632e-06,
                            7.429139259329531e-06,
                            -1.0410931281512603e-05,
                            -2.3837182538954949e-07
                        ],
                        [
                            -1.1445449672464747e-06,
                            -2.437951707179309e-07,
                            -3.00096144201234e-06,
                            5.130482350068633e-07,
                            2.5802528398344293e-05,
                            0.0003539606695994735,
                            1.0971891839517411e-07,
                            -7.534830365329981e-05,
                            0.00020980052067898214,
                            0.000584270223043859,
                            -4.26526685259887e-06,
                            -1.0306235708412714e-05,
                            6.630250936723314e-06,
                            -2.989891800098121e-05,
                            -7.022997294825473e-08,
                            -2.0287284314690623e-06
                        ],
                        [
                            -1.5833909856155515e-05,
                            -5.318464673109702e-07,
                            5.704884897816953e-10,
                            0.0005622109165415168,
                            -8.886016075848602e-06,
                            -4.2469997652005986e-07,
                            2.32640040565002e-09,
                            1.0189931121118434e-09,
                            2.1721636755955842e-07,
                            8.370850991923362e-05,
                            -3.0646942761336504e-09,
                            -1.2914480596037947e-10,
                            -3.0699261515110265e-06,
                            2.5790761526423012e-08,
                            -6.166823141029454e-08,
                            1.2816244634450413e-05
                        ],
                        [
                            -3.121901954727946e-07,
                            1.5614654103046632e-06,
                            -5.201482417760417e-05,
                            -9.592183403128729e-08,
                            0.0005293753347359598,
                            -4.1561696662029135e-07,
                            -7.552756869699806e-06,
                            -4.434050424606539e-06,
                            -6.171615677885711e-05,
                            1.0104120207188316e-08,
                            -2.0952552404196467e-06,
                            4.236977019900223e-06,
                            0.0008379533537663519,
                            1.0083999768539798e-07,
                            -2.8206704882904887e-06,
                            3.160636879329104e-06
                        ]
                    ],
                    [
                        [
                            1.1613324524262225e-08,
                            -7.570735033368692e-05,
                            7.098025889717974e-06,
                            -0.00038809713441878557,
                            8.724820509087294e-05,
                            -5.523056145761984e-08,
                            -1.681422290289447e-08,
                            -1.1392990018066484e-06,
                            1.2890439393231645e-05,
                            -2.3653516478816528e-08,
                            -3.9976697735255584e-05,
                            1.196609389353398e-08,
                            2.9890754376538098e-05,
                            -2.8380895855661947e-07,
                            1.373798340864596e-06,
                            4.631640138086368e-07
                        ],
                        [
                            3.599167393986136e-05,
                            3.227632987545803e-05,
                            -1.5163098510129203e-07,
                            -5.154444806976244e-06,
                            1.5297253241897124e-08,
                            -5.572484042204451e-06,
                            -0.0005537888500839472,
                            4.674802767112851e-05,
                            -3.550117071426939e-07,
                            3.3627316042839084e-06,
                            -3.546178049873561e-05,
                            -2.9042306337601076e-09,
                            1.5941513993311673e-06,
                            5.358915533548725e-10,
                            7.935643253631497e-10,
                            -2.496334694512825e-09
                        ],
                        [
                            7.474969265786058e-07,
                            -3.5434386518318206e-06,
                            1.9332605916133616e-06,
                            -4.258730257333809e-09,
                            -1.9026882291939273e-09,
                            -0.0010267648613080382,
                            -2.9947623261250556e-06,
                            -0.0007024430087767541,
                            -2.7040354325436056e-05,
                            -1.5853152945055626e-05,
                            -1.4616933185607195e-05,
