{
    "in_shape": [
        null,
        null,
        1
    ],
    "layers": [
        {
            "type": "conv1d",
            "activation": "",
            "shape": [
                null,
                null,
                36
            ],
            "kernel_size": [
                12
            ],
            "dilation": [
                1
            ],
            "groups": 1,
            "weights": [
                [
                    [
                        [
                            -0.02032417804002762,
                            0.09947657585144043,
                            0.06155170500278473,
                            0.08236786723136902,
                            0.10253645479679108,
                            0.011200711131095886,
                            -0.041077621281147,
                            -0.0057221874594688416,
                            0.03489363193511963,
                            -0.07318023592233658,
                            0.040660083293914795,
                            -0.09052407741546631,
                            0.06535057723522186,
                            0.08893416821956635,
                            0.04814977943897247,
                            0.09493204951286316,
                            -0.0444803461432457,
                            0.10259972512722015,
                            -0.015325866639614105,
                            0.09704416990280151,
                            -0.00730760395526886,
                            -0.011397428810596466,
                            -0.05264430493116379,
                            -0.03894631564617157,
                            0.007984921336174011,
                            0.1055917739868164,
                            -0.09301168471574783,
                            0.10822165012359619,
                            0.07248520851135254,
                            0.0755603164434433,
                            0.010649308562278748,
                            0.10048176348209381,
                            0.024514496326446533,
                            0.030504807829856873,
                            0.06621505320072174,
                            -0.09927321970462799
                        ]
                    ],
                    [
                        [
                            0.007596015930175781,
                            1.1943280696868896e-05,
                            0.10907107591629028,
                            0.04040883481502533,
                            -0.017197303473949432,
                            -0.0949825718998909,
                            -0.012794740498065948,
                            0.04472936689853668,
                            -0.05795001611113548,
                            0.02835845947265625,
                            -0.0756407156586647,
                            -0.017671354115009308,
                            0.09722636640071869,
                            -0.09320400655269623,
                            0.02488650381565094,
                            0.10112708806991577,
                            0.0024615898728370667,
                            -0.029668129980564117,
                            0.009702876210212708,
                            0.01199883222579956,
                            0.0010254234075546265,
                            0.007398955523967743,
                            -0.0040500834584236145,
                            -0.08006533980369568,
                            -0.02447383850812912,
                            -0.04632911831140518,
                            -0.1048496812582016,
                            -0.11618732661008835,
                            0.04267007112503052,
                            0.006793759763240814,
                            0.08362169563770294,
                            0.09214083850383759,
                            0.05802386999130249,
                            0.05604653060436249,
                            -0.09549470245838165,
                            -0.012354642152786255
                        ]
                    ],
                    [
                        [
                            0.10597066581249237,
                            -0.09848321974277496,
                            0.028713136911392212,
                            0.09661224484443665,
                            -0.029381640255451202,
                            -0.10311593115329742,
                            0.11345116794109344,
                            -0.049166031181812286,
                            0.02759876847267151,
                            0.07676652073860168,
                            -0.0439700186252594,
                            0.09815120697021484,
                            -0.04496642202138901,
                            -0.07962017506361008,
                            0.07205182313919067,
                            0.0845985859632492,
                            0.08560951054096222,
                            0.05607511103153229,
                            -0.11554856598377228,
                            -0.09615463763475418,
                            0.1138448566198349,
                            0.11152850091457367,
                            -0.09128466993570328,
                            0.07501575350761414,
                            0.05451516807079315,
                            -0.003089234232902527,
                            -0.04682791233062744,
                            -0.02547193318605423,
                            -0.09998387843370438,
                            -0.05886305123567581,
                            0.04863075911998749,
                            -0.01639688014984131,
                            0.07654659450054169,
                            -0.030002854764461517,
                            -0.02320989966392517,
                            0.10714024305343628
                        ]
                    ],
                    [
                        [
                            -0.002978123724460602,
                            0.026021674275398254,
                            -0.005186088383197784,
                            0.0792294442653656,
                            -0.002009548246860504,
                            -0.037184104323387146,
                            0.0008201897144317627,
                            -0.05283840000629425,
                            0.029957950115203857,
                            0.11058783531188965,
                            0.0029233843088150024,
                            -0.0803590714931488,
                            0.044820889830589294,
                            -0.043527595698833466,
                            -0.08935269713401794,
                            -0.025420941412448883,
                            -0.055024273693561554,
                            0.007015705108642578,
                            -0.017823264002799988,
                            0.0652562826871872,
                            -0.004613205790519714,
                            0.007576145231723785,
                            0.019864767789840698,
                            0.10752831399440765,
                            0.05137133598327637,
                            -0.0917547270655632,
                            -0.07169260084629059,
                            0.07125787436962128,
                            -0.004319421947002411,
                            -0.07147257030010223,
                            0.07728517055511475,
                            -0.02549898624420166,
                            -0.06831900030374527,
                            -0.08905046433210373,
                            -0.10474345088005066,
                            0.0974971204996109
                        ]
                    ],
                    [
                        [
                            0.06724920868873596,
                            -0.05419269576668739,
                            -0.06828871369361877,
                            0.028428584337234497,
                            -0.06029852479696274,
                            -0.07896509021520615,
                            0.05708204209804535,
                            0.05746333301067352,
                            0.048769861459732056,
                            -0.06934472918510437,
                            -0.06019245460629463,
                            0.08122467994689941,
                            0.08129650354385376,
                            -0.005222395062446594,
                            0.11107197403907776,
                            0.0969100296497345,
                            -0.02148646116256714,
                            -0.004858873784542084,
                            -0.06085388734936714,
                            0.08402398228645325,
                            -0.08213664591312408,
                            -0.08959279954433441,
                            0.11547963321208954,
                            -0.013319037854671478,
                            -0.0314318984746933,
                            -0.06318740546703339,
                            0.022072702646255493,
                            -0.04724010080099106,
                            0.05627031624317169,
                            -0.09969960153102875,
                            -0.0020858794450759888,
                            -0.017966940999031067,
                            0.017039194703102112,
                            0.07292583584785461,
                            -0.022167518734931946,
                            -0.025494717061519623
                        ]
                    ],
                    [
                        [
                            -1.3521039485931396,
                            1.4202171564102173,
                            -1.3821394443511963,
                            1.3652361631393433,
                            1.475602626800537,
                            1.5602385997772217,
                            -1.3055692911148071,
                            -1.3709006309509277,
                            -1.3953044414520264,
                            -1.4019584655761719,
                            1.351914882659912,
                            -1.3067668676376343,
                            1.3617942333221436,
                            -1.359302043914795,
                            1.3210376501083374,
                            1.3916844129562378,
                            1.4328981637954712,
                            1.4057303667068481,
                            -0.5299842953681946,
                            1.3818399906158447,
                            1.4432317018508911,
                            0.5713922381401062,
                            1.4175198078155518,
                            -1.359560489654541,
                            1.394627571105957,
                            -1.386155128479004,
                            -1.4863946437835693,
                            1.400225281715393,
                            -1.302331566810608,
                            0.6752799153327942,
                            -1.3409597873687744,
                            -1.344043254852295,
                            1.3581578731536865,
                            1.3061614036560059,
                            1.4588730335235596,
                            1.3581414222717285
                        ]
                    ],
                    [
                        [
                            -0.006322897970676422,
                            0.030613616108894348,
                            0.09583801031112671,
                            -0.10988084226846695,
                            0.088457852602005,
                            0.09704314172267914,
                            -0.04506023973226547,
                            -0.05529322475194931,
                            0.08048051595687866,
                            -0.05867220088839531,
                            -0.03957682102918625,
                            -0.0496121346950531,
                            -0.06004556268453598,
                            0.05349855124950409,
                            -0.06455014646053314,
                            -0.10263745486736298,
                            0.05883358418941498,
                            0.02147914469242096,
                            -0.00010185688734054565,
                            -0.05683961883187294,
                            -0.02493899315595627,
                            0.06357079744338989,
                            0.09031452238559723,
                            -0.049218714237213135,
                            0.0025666579604148865,
                            0.11460097134113312,
                            0.013642117381095886,
                            -0.07491037994623184,
                            0.08167600631713867,
                            -0.03772971034049988,
                            0.025697842240333557,
                            -0.10214117914438248,
                            0.06840918958187103,
                            0.0952724814414978,
                            0.02112540602684021,
                            -0.09950436651706696
                        ]
                    ],
                    [
                        [
                            -0.08725069463253021,
                            -0.04205390065908432,
                            0.0470631867647171,
                            -0.1048036441206932,
                            -0.06623376905918121,
                            0.08823651075363159,
                            -0.05410461500287056,
                            -0.079383984208107,
                            0.11417432129383087,
                            -0.0663394182920456,
                            -0.11512014269828796,
                            0.02882497012615204,
                            0.07358179986476898,
                            0.00023417174816131592,
                            0.10228268802165985,
                            0.10688813030719757,
                            0.03310161828994751,
                            0.07271938025951385,
                            0.09789769351482391,
                            -0.04978854954242706,
                            0.0003908425569534302,
                            -0.0749107152223587,
                            0.045158714056015015,
                            -0.02387859672307968,
                            0.002075091004371643,
                            -0.0030031204223632812,
                            -0.058168552815914154,
                            -0.06829935312271118,
                            -0.052289240062236786,
                            -0.03737359493970871,
                            0.014756619930267334,
                            0.06594416499137878,
                            -0.0027088969945907593,
                            0.04144415259361267,
                            0.024844646453857422,
                            0.07798422873020172
                        ]
                    ],
                    [
                        [
                            -0.04921511560678482,
                            0.06980754435062408,
                            0.1042989194393158,
                            0.08395786583423615,
                            -0.05897141620516777,
                            0.10480192303657532,
                            -0.08179385215044022,
                            0.06160512566566467,
                            0.05193254351615906,
                            0.0005283951759338379,
                            0.09831880033016205,
                            0.0433925986289978,
                            -0.028031498193740845,
                            0.06331825256347656,
                            0.08737170696258545,
                            0.018943503499031067,
                            -0.0944349616765976,
                            0.04599927365779877,
                            0.08792044222354889,
                            -0.10692302882671356,
                            -0.08595418930053711,
                            0.08248014748096466,
                            0.1086239367723465,
                            -0.07955196499824524,
                            -0.02441181242465973,
                            -0.0998467430472374,
                            -0.05702844262123108,
                            -0.11438465118408203,
                            0.07256032526493073,
                            0.10559049248695374,
                            0.04498574137687683,
                            0.05894811451435089,
                            0.034679532051086426,
                            -0.1006864681839943,
                            -0.02114015817642212,
                            0.06555373966693878
                        ]
                    ],
                    [
                        [
                            -0.04051033407449722,
                            -0.10300618410110474,
                            -0.10107459872961044,
                            -0.02983376383781433,
                            0.07752402126789093,
                            -0.06704685091972351,
                            0.024557292461395264,
                            -0.10344264656305313,
                            0.023248642683029175,
                            0.0002921745181083679,
                            -0.08373109251260757,
                            -0.028870590031147003,
                            -0.07568661123514175,
                            0.015217602252960205,
                            0.10453377664089203,
                            0.10938891768455505,
                            -0.0736425593495369,
                            -0.059780020266771317,
                            -0.11513230949640274,
                            -0.10086493194103241,
                            -0.011073850095272064,
                            0.10737709701061249,
                            0.05657730996608734,
                            -0.014963485300540924,
                            0.015257462859153748,
                            -0.05493458732962608,
                            0.0061204880475997925,
                            0.023830503225326538,
                            -0.09769714623689651,
                            0.017697960138320923,
                            -0.06437388062477112,
                            -0.019397065043449402,
                            0.08064845204353333,
                            -0.03886222839355469,
                            -0.035018742084503174,
                            -0.07863044738769531
                        ]
                    ],
                    [
                        [
                            0.04558822512626648,
                            -0.06005856394767761,
                            -0.03284265100955963,
                            0.029437541961669922,
                            -0.060540009289979935,
                            0.06481081247329712,
                            0.09577088057994843,
                            0.11005303263664246,
                            -0.09363234788179398,
                            -0.05171766132116318,
                            -0.11444003134965897,
                            0.012528553605079651,
                            -0.08448769897222519,
                            -0.09152382612228394,
                            -0.10941652208566666,
                            -0.015088096261024475,
                            0.015657544136047363,
                            0.07992933690547943,
                            -0.030116073787212372,
                            0.09068302810192108,
                            -0.09570364654064178,
                            0.054470211267471313,
                            0.0622723251581192,
                            0.025550559163093567,
                            0.05530548095703125,
                            -0.0459381565451622,
                            0.027882635593414307,
                            0.015001952648162842,
                            -0.10633626580238342,
                            -0.026959046721458435,
                            0.05523103475570679,
                            0.048164114356040955,
                            -0.011903516948223114,
                            0.054585427045822144,
                            -0.04318677634000778,
                            -0.09505172073841095
                        ]
                    ],
                    [
                        [
                            -0.0014065355062484741,
                            0.002559676766395569,
                            0.08259007334709167,
                            0.01759415864944458,
                            -0.0964011698961258,
                            0.09553734958171844,
                            -0.056160420179367065,
                            -0.060902390629053116,
                            -0.051225826144218445,
                            0.023549005389213562,
                            0.012203782796859741,
                            0.047336071729660034,
                            -0.006502829492092133,
                            0.10461246967315674,
                            -0.09374038875102997,
                            0.04763299226760864,
                            0.05313323438167572,
                            -0.03451564908027649,
                            -0.023373782634735107,
                            0.0704362541437149,
                            -0.04090001434087753,
                            -0.03636910021305084,
                            -0.057054053992033005,
                            0.02941802144050598,
                            0.10706210136413574,
                            0.0507945716381073,
                            0.08167794346809387,
                            -0.04184628278017044,
                            -0.01818063110113144,
                            0.057306185364723206,
                            -0.079067662358284,
                            -0.07295160740613937,
                            -0.062257878482341766,
                            0.10852132737636566,
                            0.08918491005897522,
                            -0.07327358424663544
                        ]
                    ]
                ],
                [
                    -0.050214093178510666,
                    0.0636342316865921,
                    -0.059058256447315216,
                    0.026740780100226402,
                    0.06934337317943573,
                    0.09847792237997055,
                    -0.06378749012947083,
                    -0.0636758953332901,
                    -0.06358323991298676,
                    -0.07221662253141403,
                    0.05469830706715584,
                    -0.054547108709812164,
                    0.04792507365345955,
                    -0.058619990944862366,
                    0.04885328188538551,
                    0.05691877752542496,
                    0.07090058922767639,
                    0.06027478724718094,
                    -0.019794311374425888,
                    0.062339186668395996,
                    0.08739320188760757,
                    -0.048040661960840225,
                    0.07401929795742035,
                    -0.05088938772678375,
                    0.05542169138789177,
                    -0.05946461483836174,
                    -0.07015185058116913,
                    0.05972069129347801,
                    -0.05253558233380318,
                    0.1538279503583908,
                    -0.0486055463552475,
                    -0.05026145651936531,
                    0.067995086312294,
                    0.053449880331754684,
                    0.06925345957279205,
                    0.056858405470848083
                ]
            ]
        },
        {
            "type": "conv1d",
            "activation": "",
            "shape": [
                null,
                null,
                36
            ],
            "kernel_size": [
                3
            ],
            "dilation": [
                1
            ],
            "groups": 1,
            "weights": [
                [
                    [
                        [
                            -0.14456722140312195,
                            0.0522892028093338,
                            0.1596934050321579,
                            0.030988052487373352,
                            -0.03361375629901886,
                            -0.08132457733154297,
                            0.013108491897583008,
                            0.13598604500293732,
                            0.05494558811187744,
                            0.06832678616046906,
                            0.05969257652759552,
                            -0.10052482783794403,
                            0.03540511429309845,
                            -0.07310056686401367,
                            -0.10007743537425995,
                            0.022798657417297363,
                            0.16129641234874725,
                            0.1459597498178482,
                            0.09648998081684113,
                            -0.15954157710075378,
                            0.1379743069410324,
                            -0.16175878047943115,
                            0.0051757097244262695,
                            0.1281016618013382,
                            -0.03395502269268036,
                            0.12159176170825958,
                            -0.1318020522594452,
                            -0.05936567485332489,
                            0.08853761851787567,
                            0.11374832689762115,
                            -0.14527063071727753,
                            0.03672806918621063,
                            0.16161395609378815,
                            -0.16208040714263916,
                            -0.10663382709026337,
                            0.10535688698291779
                        ],
                        [
                            -0.1655232161283493,
                            -0.033110663294792175,
                            0.133888378739357,
                            -0.011378049850463867,
                            0.028214573860168457,
                            -0.08705504983663559,
                            0.13908524811267853,
                            -0.01360456645488739,
                            -0.07522933185100555,
                            -0.11999865621328354,
                            0.016190364956855774,
                            0.1619907170534134,
                            0.04788382351398468,
                            0.12533338367938995,
                            -0.1562478244304657,
                            -0.09449251741170883,
                            -0.0005868226289749146,
                            0.04026488959789276,
                            -0.03009040653705597,
                            -0.07740128040313721,
                            0.07077236473560333,
                            -0.039165616035461426,
                            -0.035159870982170105,
                            0.06900286674499512,
                            0.0006382465362548828,
                            -0.11302649974822998,
                            -0.06657557189464569,
                            0.054744601249694824,
                            0.1543748825788498,
                            -0.04967200756072998,
                            -0.017729997634887695,
                            -0.10919889062643051,
                            0.14952950179576874,
                            0.05240809917449951,
                            0.1285138577222824,
                            -0.0499526709318161
                        ],
                        [
                            -0.009618118405342102,
                            -0.1628119945526123,
                            -0.16328859329223633,
                            -0.06371255964040756,
                            -0.03903372585773468,
                            0.009050250053405762,
                            0.08633024990558624,
                            0.1424967497587204,
                            -0.084500752389431,
                            -0.06228240579366684,
                            -0.15624630451202393,
                            -0.06761094182729721,
                            0.1417873352766037,
                            -0.06984412670135498,
                            -0.03851354122161865,
                            0.08763699233531952,
                            0.024234414100646973,
                            -0.1029953584074974,
                            -0.062430620193481445,
                            0.07354731857776642,
                            -0.0426662415266037,
                            0.07241837680339813,
                            -0.08974123001098633,
                            -0.05179031938314438,
                            -0.1548691689968109,
                            0.154035285115242,
                            0.1595706194639206,
                            -0.1642526090145111,
                            -0.12472379207611084,
                            0.08427529036998749,
                            -0.10225324332714081,
                            -0.09093451499938965,
                            -0.06723062694072723,
                            -0.04418742656707764,
                            -0.0009693354368209839,
                            0.053333356976509094
                        ],
                        [
                            -0.01108558475971222,
                            0.09525729715824127,
                            0.03581559658050537,
                            -0.03922636806964874,
                            -0.033408477902412415,
                            -0.03313298523426056,
                            0.07726399600505829,
                            0.05754311382770538,
                            0.11414356529712677,
                            -0.10359029471874237,
                            -0.13590478897094727,
                            -0.1499769687652588,
                            0.11258892714977264,
                            -0.0880204439163208,
                            -0.077644944190979,
                            0.024030402302742004,
                            -0.12547139823436737,
                            -0.024878934025764465,
                            0.10495252907276154,
                            -0.09824395179748535,
                            0.14834089577198029,
                            0.08163054287433624,
                            0.09750629961490631,
                            -0.05109548568725586,
                            -0.1379166841506958,
                            -0.15076522529125214,
                            0.15446098148822784,
                            -0.012231588363647461,
                            -0.16080734133720398,
                            0.04307878017425537,
                            -0.16415974497795105,
                            0.10232128202915192,
                            0.0019345283508300781,
                            -0.161311075091362,
                            0.05611701309680939,
                            0.0810876339673996
                        ],
                        [
                            -0.1424487829208374,
                            0.1304592341184616,
                            0.07155351340770721,
                            0.07515053451061249,
                            0.12042967975139618,
                            0.03379388153553009,
                            0.04365503787994385,
                            -0.09244740009307861,
                            -0.08632767200469971,
                            -0.0991675853729248,
                            -0.1428404301404953,
                            0.15054179728031158,
                            0.012858673930168152,
                            0.08450977504253387,
                            -0.09779878705739975,
                            -0.07348525524139404,
                            -0.10984794795513153,
                            0.03866398334503174,
                            -0.07208895683288574,
                            -0.14667634665966034,
                            0.06986157596111298,
                            0.00969819724559784,
                            -0.06396059691905975,
                            -0.10332270711660385,
                            0.05211766064167023,
                            0.0450635701417923,
                            -0.10151469707489014,
                            0.05069522559642792,
                            0.14580686390399933,
                            -0.04653048515319824,
                            0.15963031351566315,
                            0.09364838898181915,
                            0.09400217235088348,
                            -0.1460915058851242,
                            -0.07780496776103973,
                            -0.09244108200073242
                        ],
                        [
                            -0.08903901278972626,
                            0.14658121764659882,
                            -0.051348090171813965,
                            -0.006874799728393555,
                            0.05972087383270264,
                            0.06565825641155243,
                            -0.020291879773139954,
                            -0.09487863630056381,
                            0.09142343699932098,
                            -0.11657822132110596,
                            0.12807203829288483,
                            0.10187806189060211,
                            0.10604710876941681,
                            0.030483409762382507,
                            -0.16109073162078857,
                            -0.08755811303853989,
                            -0.005161762237548828,
                            0.05583567917346954,
                            0.02845604717731476,
                            0.09811802208423615,
                            0.03950898349285126,
                            0.0021826475858688354,
                            0.12174119055271149,
                            0.09491674602031708,
                            -0.04384028911590576,
                            -0.08210019767284393,
                            -0.08681583404541016,
                            6.826221942901611e-05,
                            0.1346631497144699,
                            0.03771257400512695,
                            0.11533083021640778,
                            0.13658614456653595,
                            0.15578605234622955,
                            -0.045926257967948914,
                            -0.13487212359905243,
                            0.03745703399181366
                        ],
                        [
                            -0.05423979461193085,
                            0.09262566268444061,
                            -0.14229929447174072,
                            0.14280132949352264,
                            0.1114119440317154,
                            -0.08082973957061768,
                            -0.09780871868133545,
                            0.08212609589099884,
                            0.132829949259758,
                            0.13086576759815216,
                            -0.14162465929985046,
                            0.0022304803133010864,
                            -0.15461432933807373,
                            0.14715616405010223,
                            0.11870341002941132,
                            0.09688962996006012,
                            0.12199576199054718,
                            0.16266457736492157,
                            0.08905713260173798,
                            -0.08753001689910889,
                            -0.11342298984527588,
                            0.0864390879869461,
                            -0.051889896392822266,
                            -0.08324798196554184,
                            -0.029282808303833008,
                            0.08788789808750153,
                            0.14832143485546112,
                            -0.1258491724729538,
                            0.0485796183347702,
                            0.017277047038078308,
                            0.14922644197940826,
                            0.1038840264081955,
                            -0.03947596251964569,
                            0.02116982638835907,
                            -0.07881776988506317,
                            0.060562968254089355
                        ],
                        [
                            -0.13087940216064453,
                            0.017491623759269714,
                            -0.004390358924865723,
                            -0.15926536917686462,
                            -0.08384513854980469,
                            -0.15864548087120056,
                            -0.06223853677511215,
                            -0.058042965829372406,
                            -0.08775734901428223,
                            -0.16398291289806366,
                            -0.041150376200675964,
                            0.02654719352722168,
                            0.16052453219890594,
                            0.027908921241760254,
                            -0.07723148912191391,
                            -0.05108988285064697,
                            0.10647742450237274,
                            -0.08289313316345215,
                            0.08480019867420197,
                            -0.01873624324798584,
                            0.09162105619907379,
                            -0.12363576889038086,
                            0.011515572667121887,
                            0.15362612903118134,
                            0.018649891018867493,
                            -0.14183156192302704,
                            0.09650470316410065,
                            -0.10735897719860077,
                            0.14041276276111603,
                            -0.1604429930448532,
                            0.08708254992961884,
                            -0.16241388022899628,
                            0.160104438662529,
                            0.10378842055797577,
                            -0.0586678609251976,
                            0.05597968399524689
                        ],
                        [
                            -0.07048400491476059,
                            -0.060211703181266785,
                            -0.019866421818733215,
                            -0.04723505675792694,
                            0.08932526409626007,
                            -0.0043114423751831055,
                            -0.08929865062236786,
                            -0.09473081678152084,
                            -0.0814899206161499,
                            -0.10451313108205795,
                            0.12585239112377167,
                            0.02268938720226288,
                            -0.13472223281860352,
                            0.07724368572235107,
                            -0.12148189544677734,
                            0.04425473511219025,
                            -0.0052263736724853516,
                            0.026287630200386047,
                            0.08547408878803253,
                            0.12484551966190338,
                            -0.07807934284210205,
                            -0.14111189544200897,
                            0.07860441505908966,
                            0.10833491384983063,
                            0.1622566431760788,
                            -0.06931650638580322,
                            0.03310982882976532,
                            -0.15024976432323456,
                            0.0021034926176071167,
                            0.020377203822135925,
                            -0.04929240792989731,
                            -0.09372635930776596,
                            -0.09191632270812988,
                            -0.013870283961296082,
                            0.029682040214538574,
                            -0.035521820187568665
                        ],
                        [
                            -0.0520099401473999,
                            -0.14130906760692596,
                            0.165157750248909,
                            0.15903083980083466,
                            0.07431201636791229,
                            -0.12316020578145981,
                            0.0576578825712204,
                            0.02732551097869873,
                            0.0029222220182418823,
                            0.12426801025867462,
                            0.10891909897327423,
                            -0.11020414531230927,
                            0.11066453158855438,
                            0.1538384109735489,
                            -0.0877448320388794,
                            -0.10962069034576416,
                            0.012843772768974304,
                            -0.13463926315307617,
                            -0.07342652976512909,
                            0.045776963233947754,
                            0.13530771434307098,
                            0.10668952763080597,
                            -0.12663885951042175,
                            -0.12663766741752625,
                            0.0967874675989151,
                            0.03756248950958252,
                            0.0747801810503006,
                            0.15266592800617218,
                            0.1587584763765335,
                            -0.09850498288869858,
                            -0.07673192024230957,
                            0.052935317158699036,
                            0.12243713438510895,
                            -0.033835217356681824,
                            -0.12128317356109619,
                            0.15712763369083405
                        ],
                        [
                            0.09985466301441193,
                            0.11245958507061005,
                            0.00895218551158905,
                            0.06308038532733917,
                            -0.057648539543151855,
                            0.1450147181749344,
                            -0.12347221374511719,
                            -0.08817915618419647,
                            -0.08333917707204819,
                            -0.12307783216238022,
                            -0.0036967992782592773,
                            0.06880418956279755,
                            -0.04164974391460419,
                            -0.01919873058795929,
                            0.06502759456634521,
                            -0.0037275999784469604,
                            -0.04055650532245636,
                            -0.13618049025535583,
                            -0.12705592811107635,
                            -0.03865063190460205,
                            -0.0129317045211792,
                            0.008377432823181152,
                            0.09201599657535553,
                            -0.03257441520690918,
                            -0.02653937041759491,
                            0.1549188643693924,
                            0.027560949325561523,
                            -0.12099838256835938,
                            0.06834979355335236,
                            0.04520682990550995,
                            0.08659990131855011,
                            0.07975022494792938,
                            -0.015259936451911926,
                            0.09821183979511261,
                            -0.11193954944610596,
                            0.02997569739818573
                        ],
                        [
                            -0.0643295869231224,
                            -0.078555628657341,
                            0.10899312794208527,
                            0.07122926414012909,
                            -0.04331831634044647,
                            0.04191119968891144,
                            0.0841183215379715,
                            -0.0769224613904953,
                            -0.004808664321899414,
                            -0.05857531726360321,
                            -0.005669355392456055,
                            -0.03388965129852295,
                            -0.1185150146484375,
                            0.10813041031360626,
                            0.10980655252933502,
                            -0.05153846740722656,
                            -0.0772838220000267,
                            -0.1299649178981781,
                            -0.08651494979858398,
                            0.11724631488323212,
                            0.05354242026805878,
                            0.020386740565299988,
                            0.12390591204166412,
                            -0.10165643692016602,
                            -0.0704367607831955,
                            0.025546908378601074,
                            0.08215682208538055,
                            -0.050356268882751465,
                            -0.048719845712184906,
                            0.009332850575447083,
                            0.016701817512512207,
                            -0.10416345298290253,
                            -0.02113361656665802,
                            -0.05989353358745575,
                            -0.11606387794017792,
                            -0.13770374655723572
                        ],
                        [
                            0.06190948188304901,
                            -0.06848597526550293,
                            0.036845847964286804,
                            0.08133292198181152,
                            -0.12551569938659668,
                            0.001742050051689148,
                            -0.0997549295425415,
                            0.12400151789188385,
                            0.07524986565113068,
                            -0.0935036763548851,
                            0.04591663181781769,
                            0.0012592077255249023,
                            0.14191867411136627,
                            -0.08894702047109604,
                            -6.115436553955078e-05,
                            -0.16006514430046082,
                            0.1639859825372696,
                            -0.0068963319063186646,
                            -0.016005396842956543,
                            -0.0007021874189376831,
                            0.026433870196342468,
                            0.027783676981925964,
                            0.038219526410102844,
                            -0.09233435243368149,
                            -0.1192512959241867,
                            -0.007634356617927551,
                            -0.05947558581829071,
                            0.047220900654792786,
                            0.11161582171916962,
                            0.01031772792339325,
                            0.015948817133903503,
                            0.11737851798534393,
                            0.16539542376995087,
                            0.01974169909954071,
                            0.028769493103027344,
                            0.10963918268680573
                        ],
                        [
                            -0.04629349708557129,
                            0.0993214100599289,
                            -0.12996527552604675,
                            -0.14036762714385986,
                            -0.16143345832824707,
                            -0.13823585212230682,
                            0.05619271099567413,
                            0.022134944796562195,
                            -0.10886983573436737,
                            0.13466326892375946,
                            -0.10518757998943329,
                            0.12853474915027618,
                            -0.06831932067871094,
                            0.10176147520542145,
                            0.028380796313285828,
                            0.12303106486797333,
                            0.16625015437602997,
                            0.14512015879154205,
                            -0.001585245132446289,
                            -0.1628352403640747,
                            0.046378374099731445,
                            -0.11683253943920135,
                            0.16135038435459137,
                            0.06032450497150421,
                            0.13280729949474335,
                            -0.11548511683940887,
                            0.004734113812446594,
                            0.035161569714546204,
                            0.1376848965883255,
                            -0.06996111571788788,
                            0.0011890381574630737,
                            0.11997537314891815,
                            -0.147882342338562,
                            0.15569694340229034,
                            -0.04014725983142853,
                            -0.05427972972393036
                        ],
                        [
                            -0.14682936668395996,
                            -0.09592854976654053,
                            -0.03811514377593994,
                            -0.053018614649772644,
                            0.03697824478149414,
                            -0.13030660152435303,
                            -0.007193014025688171,
                            -0.05181988328695297,
                            -0.13160380721092224,
                            0.1355161815881729,
                            0.11034728586673737,
                            -0.15948328375816345,
                            0.1343526989221573,
                            0.03749294579029083,
                            0.11239926517009735,
                            -0.003078937530517578,
                            0.05729074776172638,
                            0.15639854967594147,
                            -0.15813696384429932,
                            0.019224166870117188,
                            0.09833426773548126,
                            0.11355932056903839,
                            0.12713660299777985,
                            0.11844338476657867,
                            0.08291423320770264,
                            0.1395910531282425,
                            0.09605337679386139,
                            0.13646681606769562,
                            0.058039262890815735,
                            0.14249424636363983,
                            0.08349217474460602,
                            0.10181327164173126,
                            0.04457516968250275,
                            0.11428792774677277,
                            -0.06156329810619354,
                            0.16315801441669464
                        ],
                        [
                            -0.16220557689666748,
                            0.13262812793254852,
                            -0.14638158679008484,
                            0.09583999216556549,
                            0.04393382370471954,
                            -0.14396652579307556,
                            0.14501328766345978,
                            -0.01719076931476593,
                            0.16184298694133759,
                            0.0029107779264450073,
                            -0.07779987901449203,
                            0.09426768124103546,
                            -0.009891867637634277,
                            -0.1086043119430542,
                            -0.11402889341115952,
                            0.09925998747348785,
                            -0.07984034717082977,
                            0.024553418159484863,
                            0.12374238669872284,
                            0.11005021631717682,
                            0.08732108771800995,
                            0.03609125316143036,
                            -0.01860208809375763,
                            -0.13456639647483826,
                            -0.02629263699054718,
                            -0.05061960220336914,
                            -0.15726248919963837,
                            0.007824063301086426,
                            0.1495651751756668,
                            -0.0072381943464279175,
                            0.13660116493701935,
                            0.05962955951690674,
                            0.03895656764507294,
                            -0.15632984042167664,
                            -0.1307445764541626,
                            -0.11592932790517807
                        ],
                        [
                            0.1080954521894455,
                            0.040425971150398254,
                            -0.15096506476402283,
                            0.11367948353290558,
                            -0.09786292165517807,
                            0.07742221653461456,
                            0.15143783390522003,
                            -0.04743318259716034,
                            -0.0010749101638793945,
                            0.09362189471721649,
                            0.10944859683513641,
                            0.08195209503173828,
                            -0.058100901544094086,
                            -0.04066748917102814,
                            -0.06897147744894028,
                            0.006424114108085632,
                            0.0934193879365921,
                            0.03393705189228058,
                            0.07533951103687286,
                            -0.07813243567943573,
                            0.0708978921175003,
                            0.0910048633813858,
                            -0.11208157241344452,
                            -0.11012522876262665,
                            0.018752411007881165,
                            0.03252200782299042,
                            -0.05980881303548813,
                            -0.045397043228149414,
                            0.14250795543193817,
                            0.013963297009468079,
                            0.009847715497016907,
                            0.0008912533521652222,
                            0.10090948641300201,
                            0.13320676982402802,
                            -0.00976090133190155,
                            0.16252224147319794
                        ],
                        [
                            -0.036966755986213684,
                            0.11012332141399384,
                            0.11814458668231964,
                            -0.0991116389632225,
                            -0.06797309964895248,
                            0.14232255518436432,
                            0.1479787975549698,
                            -0.15139400959014893,
                            0.019532158970832825,
                            0.11226750910282135,
                            -0.16123628616333008,
                            -0.07265957444906235,
                            -0.0812581405043602,
                            -0.006289482116699219,
                            -0.03708668053150177,
                            0.08549897372722626,
                            -0.11713147163391113,
                            -0.13855838775634766,
                            -0.12111274898052216,
                            -0.11046155542135239,
                            -0.16266655921936035,
                            0.002897903323173523,
                            0.0443236380815506,
                            0.06214623153209686,
                            0.06504762172698975,
                            -0.04053771495819092,
                            -0.08866163343191147,
                            -0.06758987903594971,
                            0.10604171454906464,
                            -0.003847077488899231,
                            -0.14827673137187958,
                            0.09248246252536774,
                            0.07134361565113068,
                            -0.008710861206054688,
                            -0.13070115447044373,
                            -0.14832806587219238
                        ],
                        [
                            -0.16416208446025848,
                            -0.0775371789932251,
                            -0.15002524852752686,
                            -0.00404512882232666,
                            0.13367216289043427,
                            0.11003704369068146,
                            -0.0585637092590332,
                            0.16549424827098846,
                            -0.066656194627285,
                            -0.03645026683807373,
                            0.012192770838737488,
                            -0.001272439956665039,
                            -0.11671547591686249,
                            -0.021371886134147644,
                            0.10434706509113312,
                            0.07245504856109619,
                            0.1357768326997757,
                            -0.0028437376022338867,
                            -0.0440751314163208,
                            0.08575205504894257,
                            -0.12286373227834702,
                            0.056261852383613586,
                            0.14606182277202606,
                            0.09921129047870636,
                            -0.021921560168266296,
                            -0.14435315132141113,
                            -0.046770259737968445,
                            0.13896851241588593,
                            -0.0028875619173049927,
                            -0.010344073176383972,
                            0.029598310589790344,
                            -0.14731761813163757,
                            -0.13145184516906738,
                            0.16098369657993317,
                            0.11661125719547272,
                            -0.071990966796875
                        ],
                        [
                            0.09953372180461884,
                            -0.10657978057861328,
                            -0.07367225736379623,
                            0.057375624775886536,
                            -0.12039117515087128,
                            -0.14254507422447205,
                            0.11950482428073883,
                            -0.08088751882314682,
                            0.09555070102214813,
                            0.098637655377388,
                            -0.14275304973125458,
                            -0.16547450423240662,
                            0.01567380130290985,
                            -0.10757982730865479,
                            -0.04883265495300293,
                            0.07777909934520721,
                            0.10253502428531647,
                            -0.016636088490486145,
                            -0.16540221869945526,
                            -0.03298385441303253,
                            0.08678670227527618,
                            0.14874260127544403,
                            0.12482167780399323,
                            -0.07999464124441147,
                            -0.038743212819099426,
                            -0.1559504270553589,
                            0.09146572649478912,
                            -0.12179311364889145,
                            -0.07443146407604218,
                            0.13666598498821259,
                            0.15098874270915985,
                            0.1381353884935379,
                            0.120732381939888,
                            -0.12421401590108871,
                            -0.07150443643331528,
                            0.023531794548034668
                        ],
                        [
                            0.14391760528087616,
                            0.0017766505479812622,
                            0.006944611668586731,
                            -0.07391314208507538,
                            0.09548057615756989,
                            0.14516867697238922,
                            -0.1431209295988083,
                            -0.09349318593740463,
                            0.06692047417163849,
                            0.11106197535991669,
                            0.08174777030944824,
                            -0.12086018174886703,
                            0.15467102825641632,
                            0.09009040892124176,
                            0.10526008903980255,
                            0.056273698806762695,
                            -0.163572758436203,
                            0.036247774958610535,
                            -0.16584229469299316,
                            -0.03235571086406708,
                            -0.07099370658397675,
                            0.08759205043315887,
                            0.0499388724565506,
                            -0.07802581787109375,
                            -0.14080803096294403,
                            0.1284186989068985,
                            -0.08969192206859589,
                            -0.11403445899486542,
                            0.010899782180786133,
                            -0.11210036277770996,
                            -0.0959949940443039,
                            0.16364352405071259,
                            -0.16079935431480408,
                            -0.10977828502655029,
                            0.11528827250003815,
                            0.004687070846557617
                        ],
                        [
                            -0.01730167865753174,
                            -0.13390755653381348,
                            -0.1322368085384369,
                            0.12687690556049347,
                            -0.15035280585289001,
                            0.09397216141223907,
                            -0.12810564041137695,
                            0.040073588490486145,
                            -0.10017939656972885,
                            0.12397567927837372,
                            0.08372558653354645,
                            -0.0912315845489502,
                            -0.09248042106628418,
                            -0.1572728157043457,
                            -0.10058796405792236,
                            0.029568791389465332,
                            -0.06220631301403046,
                            0.1285656839609146,
                            0.15820758044719696,
                            -0.06213955581188202,
                            0.03947119414806366,
                            -0.016434594988822937,
                            -0.11725258827209473,
                            -0.054671332240104675,
                            -0.058172546327114105,
                            0.08033449947834015,
                            -0.09750394523143768,
                            0.06807887554168701,
                            -0.07137680053710938,
                            -0.05629591643810272,
                            0.1481466442346573,
                            0.06616492569446564,
                            -0.08249910920858383,
                            0.09106867015361786,
                            -0.0010695010423660278,
                            -0.16410589218139648
                        ],
                        [
                            -0.12068776786327362,
                            -0.008414387702941895,
                            0.11926712095737457,
                            -0.1278451383113861,
                            -0.027728557586669922,
                            -0.08113487809896469,
                            0.1388944834470749,
                            0.018718525767326355,
                            0.058657243847846985,
                            -0.001721695065498352,
                            0.14084641635417938,
                            0.0980030745267868,
                            -0.16270653903484344,
                            0.020527556538581848,
                            -0.07071825116872787,
                            -0.1608313024044037,
                            -0.1180596798658371,
                            -0.039643049240112305,
                            -0.10129686444997787,
                            -0.004092693328857422,
                            0.12562711536884308,
                            0.14864926040172577,
                            0.012436196208000183,
                            -0.11024527251720428,
                            -0.0024196356534957886,
                            -0.10860439389944077,
                            -0.09126178920269012,
                            -0.10655979812145233,
                            0.04746806621551514,
                            -0.11211566627025604,
                            -0.09392797946929932,
                            -0.023383736610412598,
                            0.15039093792438507,
                            0.07276129722595215,
                            0.09501810371875763,
                            0.04325433075428009
                        ],
                        [
                            0.12192170321941376,
                            -0.04247697442770004,
                            -0.020727112889289856,
                            0.08652354776859283,
                            -0.12235506623983383,
                            0.013950780034065247,
                            0.046890974044799805,
                            -0.03199207782745361,
                            -0.15587246417999268,
                            0.07011294364929199,
                            -0.15831689536571503,
                            -0.09125547111034393,
                            -0.0027586668729782104,
                            -0.019449830055236816,
                            0.09218443930149078,
                            -0.10621261596679688,
                            -0.11204548925161362,
                            -0.08198889344930649,
                            0.07626457512378693,
                            -0.1075587272644043,
                            0.12176065146923065,
                            0.06187792122364044,
                            0.06066291034221649,
                            -0.13619586825370789,
                            0.025766178965568542,
                            -0.11443297564983368,
                            0.027368947863578796,
                            0.08381910622119904,
                            0.14301492273807526,
                            0.00244748592376709,
                            -0.032311081886291504,
                            0.07363124191761017,
                            0.10872216522693634,
                            0.002009749412536621,
                            0.01612548530101776,
                            -0.09986583888530731
                        ],
                        [
                            0.10129500925540924,
                            0.07660539448261261,
                            -0.16526274383068085,
                            -0.15305063128471375,
                            -0.13728384673595428,
                            0.1311691552400589,
                            0.14852194488048553,
                            0.11556856334209442,
                            0.012032225728034973,
                            0.09918253123760223,
                            -0.020038768649101257,
                            0.15241171419620514,
                            0.045226410031318665,
                            -0.02112536132335663,
                            0.02971053123474121,
                            -0.06266244500875473,
                            0.018230244517326355,
                            -0.07957764714956284,
                            -0.029175639152526855,
                            0.09533514082431793,
                            0.11304797232151031,
                            -0.002938389778137207,
                            0.10414724051952362,
                            -0.14806072413921356,
                            -0.11030662059783936,
                            0.10618762671947479,
                            -0.15755407512187958,
                            -0.03761136531829834,
                            0.04500079154968262,
                            -0.08711453527212143,
                            -0.13640420138835907,
                            0.16145269572734833,
                            -0.052103444933891296,
                            0.1362718790769577,
                            -0.06156754493713379,
                            -0.08377651870250702
                        ],
                        [
                            0.14958520233631134,
                            -0.03866143524646759,
                            0.1312820464372635,
                            -0.11857406795024872,
                            -0.12386970221996307,
                            0.0978185385465622,
                            0.01443810760974884,
                            0.0223388671875,
                            -0.035809874534606934,
                            0.019465044140815735,
                            -0.00845956802368164,
                            -0.10859553515911102,
                            -0.09933706372976303,
                            0.03894154727458954,
                            -0.08103911578655243,
                            0.06740491092205048,
                            -0.0959310531616211,
                            0.12541790306568146,
                            0.06091208755970001,
                            0.031357958912849426,
                            -0.0818142518401146,
                            0.014956355094909668,
                            0.08670838177204132,
                            -0.05493354797363281,
                            -0.13565444946289062,
                            -0.15446607768535614,
                            0.11080451309680939,
                            -0.040761590003967285,
                            -0.10836967080831528,
                            -0.09077279269695282,
                            0.15262989699840546,
                            -0.025745198130607605,
                            0.1185048371553421,
                            -0.12543106079101562,
                            -0.16386966407299042,
                            -0.006373211741447449
                        ],
                        [
                            -0.14081577956676483,
                            0.024557068943977356,
                            0.14451374113559723,
                            -0.013691902160644531,
                            0.021409273147583008,
                            0.015253737568855286,
                            -0.09466759860515594,
                            0.07090818881988525,
                            0.127915158867836,
                            -0.13672614097595215,
                            0.029396653175354004,
                            0.06807143986225128,
                            -0.047905921936035156,
                            -0.07997874915599823,
                            0.04353184998035431,
                            0.039777323603630066,
                            0.03671734035015106,
                            -0.08471088111400604,
                            -0.10052423179149628,
                            0.023019984364509583,
                            0.11401541531085968,
                            0.12718288600444794,
                            0.06730861961841583,
                            -0.08885197341442108,
                            0.16645677387714386,
                            -0.05592942237854004,
                            -0.04341988265514374,
                            0.0734102725982666,
                            0.13126052916049957,
                            0.09916873276233673,
                            -0.0020620375871658325,
                            0.1079382449388504,
                            -0.14293532073497772,
                            0.10993747413158417,
                            0.026276782155036926,
                            -0.13695375621318817
                        ],
                        [
                            -0.15056312084197998,
                            0.01458294689655304,
                            -0.05152261257171631,
                            0.09466199576854706,
                            -0.08363362401723862,
                            -0.03114314377307892,
                            0.01632852852344513,
                            -0.03468902409076691,
                            0.11265818774700165,
                            0.0627402514219284,
                            -0.07615399360656738,
                            -0.02417731285095215,
                            -0.04706132411956787,
                            0.08035437762737274,
                            -0.06264440715312958,
                            -0.08803510665893555,
                            -0.0008857697248458862,
                            -0.09843266010284424,
                            0.004628613591194153,
                            0.12045879662036896,
                            0.10142304003238678,
                            -0.12356670945882797,
                            -0.020491957664489746,
                            -0.06757903099060059,
                            0.13003267347812653,
                            0.0786340981721878,
                            -0.1355820596218109,
                            -0.01768331229686737,
                            0.11508263647556305,
                            -0.1454581469297409,
                            0.07536840438842773,
                            -0.08798333257436752,
                            -0.059935055673122406,
                            -0.07525818049907684,
                            0.06665746867656708,
                            -0.09034013748168945
                        ],
                        [
                            -0.10177608579397202,
                            -0.14694106578826904,
                            0.15651465952396393,
                            0.13167090713977814,
                            0.1458408087491989,
                            -0.08738267421722412,
                            0.08600975573062897,
                            0.10165669023990631,
                            -0.13211262226104736,
                            -0.13401636481285095,
                            -0.01842629909515381,
                            -0.11461742967367172,
                            -0.15256719291210175,
                            0.016362622380256653,
                            -0.09375607967376709,
                            0.05415816605091095,
                            -0.15832364559173584,
                            0.08178019523620605,
                            0.05613736808300018,
                            -0.060249730944633484,
                            0.16477622091770172,
                            -0.08301874250173569,
                            -0.09711754322052002,
                            -0.07288464158773422,
                            0.0894211083650589,
                            -0.13610076904296875,
                            -0.05521285533905029,
                            -0.11111617088317871,
                            -0.03629668056964874,
                            0.038594648241996765,
                            0.1517687290906906,
                            0.023938536643981934,
                            0.11301083862781525,
                            -0.060860514640808105,
                            -0.047385260462760925,
                            0.07057185471057892
                        ],
                        [
                            -0.08520488440990448,
                            -0.035108283162117004,
                            -0.11456891149282455,
                            -0.10464199632406235,
                            -0.16346439719200134,
                            0.0432744026184082,
                            -0.16481053829193115,
                            -0.12889015674591064,
                            0.019533798098564148,
                            0.12193973362445831,
                            -0.08270653337240219,
                            0.041237398982048035,
                            0.027064397931098938,
                            -0.11844389140605927,
                            -0.08073866367340088,
                            -0.02297644317150116,
                            -0.030970290303230286,
                            0.03460545837879181,
                            -0.11659550666809082,
                            0.12088210880756378,
                            -0.12839806079864502,
                            -0.15074734389781952,
                            0.042677685618400574,
                            -0.11894707381725311,
                            -0.10502346605062485,
                            0.11891354620456696,
                            0.16453571617603302,
                            0.07324588298797607,
                            -0.1054210290312767,
                            0.01980721950531006,
                            0.05189390480518341,
                            -0.07989835739135742,
                            0.11511696875095367,
                            0.11467529833316803,
                            0.09706775844097137,
                            -0.07501304149627686
                        ],
                        [
                            -0.015155121684074402,
                            -0.12807998061180115,
                            0.12391497194766998,
                            -0.13269364833831787,
                            -0.16038811206817627,
                            0.049790069460868835,
                            0.16475166380405426,
                            0.06950084865093231,
                            0.12104804813861847,
                            0.13677413761615753,
                            -0.07711653411388397,
                            0.1495460420846939,
                            0.11972643435001373,
                            -0.0678478479385376,
                            0.09559135138988495,
                            0.14665906131267548,
                            -0.03950639069080353,
                            -0.14767596125602722,
                            -0.1404830664396286,
                            0.08402182161808014,
                            -0.08711843192577362,
                            0.06651933491230011,
                            0.04558713734149933,
                            0.08347158133983612,
                            0.14689545333385468,
                            0.03815436363220215,
                            -0.019201993942260742,
                            0.15224747359752655,
                            -0.12026123702526093,
                            0.06358937919139862,
                            -0.12615251541137695,
                            -0.03377842903137207,
                            0.052028343081474304,
                            0.07935726642608643,
                            -0.11917245388031006,
                            -0.1509411782026291
                        ],
                        [
                            0.13179869949817657,
                            0.048885226249694824,
                            0.01905973255634308,
                            -0.026125118136405945,
                            -0.007481887936592102,
                            -0.04559294879436493,
                            0.11206956207752228,
                            -0.0261228084564209,
                            0.10144676268100739,
                            -0.0801800936460495,
                            -0.04807543754577637,
                            0.014421463012695312,
                            -0.13035838305950165,
                            0.09058050811290741,
                            0.030123427510261536,
                            -0.009003758430480957,
                            0.11811988055706024,
                            -0.024017885327339172,
                            0.020183518528938293,
                            0.09698797762393951,
                            -0.041746899485588074,
                            0.08216853439807892,
                            -0.057204172015190125,
                            -0.1506943702697754,
                            0.08643408119678497,
                            -0.08186753839254379,
                            -0.005544781684875488,
                            -0.14181701838970184,
                            0.1042599231004715,
                            0.16354982554912567,
                            -0.11376719176769257,
                            0.04372906684875488,
                            -0.03273801505565643,
                            -0.004727169871330261,
                            -0.1563086211681366,
                            -0.15125171840190887
                        ],
                        [
                            -0.13088345527648926,
                            -0.0780097246170044,
                            -0.09475859254598618,
                            -0.14717905223369598,
                            0.08400373160839081,
                            -0.14835886657238007,
                            0.14383988082408905,
                            0.16134004294872284,
                            -0.07588430494070053,
                            0.1362772136926651,
                            0.04379205405712128,
                            0.1165124922990799,
                            0.11247296631336212,
                            0.03472614288330078,
                            -0.056485533714294434,
                            0.07274127006530762,
                            -0.14643816649913788,
                            0.0968799740076065,
                            0.08627147972583771,
                            0.15525950491428375,
                            0.12659676373004913,
                            0.10112203657627106,
                            0.13731853663921356,
                            -0.011668205261230469,
                            -0.1563452184200287,
                            0.023563027381896973,
                            -0.1413240134716034,
                            -0.1155291423201561,
                            0.06903283298015594,
                            -0.13354694843292236,
                            -0.09742343425750732,
                            -0.02659563720226288,
                            0.04968087375164032,
                            -0.08400075137615204,
                            -0.06720153987407684,
                            0.10647933185100555
                        ],
                        [
                            0.11870916187763214,
                            0.03376054763793945,
                            -0.12110801786184311,
                            0.034293338656425476,
                            0.05883185565471649,
                            -0.04100362956523895,
                            -0.023157522082328796,
                            -0.13302084803581238,
                            -0.09810535609722137,
                            0.1574867218732834,
                            -0.007686421275138855,
                            0.08643229305744171,
                            -0.12395887076854706,
                            -0.04268328845500946,
                            0.0829959362745285,
                            -0.07223539054393768,
                            -0.15435127913951874,
                            -0.06857284158468246,
                            0.09375013411045074,
                            0.07476019859313965,
                            0.1546202152967453,
                            0.11260564625263214,
                            0.16261620819568634,
                            0.06042678654193878,
                            0.0968189686536789,
                            0.014231488108634949,
                            0.11259622871875763,
                            0.012690380215644836,
                            0.11930699646472931,
                            -0.11125330626964569,
                            -0.02117733657360077,
                            -0.004539564251899719,
                            -0.16615784168243408,
                            -0.09674756228923798,
                            0.10486574470996857,
                            -0.11953683942556381
                        ],
                        [
                            -0.12467686831951141,
                            -0.10535573959350586,
                            -0.1136123389005661,
                            -0.010834693908691406,
                            0.005075022578239441,
                            0.118228480219841,
                            0.048395201563835144,
                            -0.09349362552165985,
                            0.10967914760112762,
                            0.13967065513134003,
                            -0.15401756763458252,
                            0.05672426521778107,
                            -0.14630699157714844,
                            -0.09995337575674057,
                            0.09026722609996796,
                            0.1013069599866867,
                            -0.03267006576061249,
                            -0.07856222242116928,
                            -0.16596150398254395,
                            0.07866942882537842,
                            -0.16549381613731384,
                            0.12474112212657928,
                            0.1639372557401657,
                            -0.002095937728881836,
                            0.13243885338306427,
                            -0.07776419818401337,
                            -0.057241760194301605,
                            0.05733680725097656,
                            -0.06553547084331512,
                            -0.047699615359306335,
                            0.16304434835910797,
                            -0.10190673917531967,
                            0.01463763415813446,
                            0.15124158561229706,
                            0.07922172546386719,
                            0.11592771112918854
                        ],
                        [
                            -0.029150962829589844,
                            -0.1271129548549652,
                            -0.057300493121147156,
                            -0.07595336437225342,
                            -0.09335827827453613,
                            -0.05088254064321518,
                            0.0173032283782959,
                            0.12003941833972931,
                            -0.004569247364997864,
                            0.11966986954212189,
                            0.007221534848213196,
                            0.0062436312437057495,
                            0.12993140518665314,
                            -0.11022194474935532,
                            0.058385178446769714,
                            0.12351413071155548,
                            -0.07363931834697723,
                            -0.1169343814253807,
                            0.01900966465473175,
                            0.08873052895069122,
                            0.06278963387012482,
                            0.07241547107696533,
                            0.04136769473552704,
                            -0.11336183547973633,
                            0.1617753654718399,
                            -0.12744097411632538,
                            0.0370301753282547,
                            -0.16428610682487488,
                            -0.13242769241333008,
                            -0.07801651954650879,
                            -0.0169571191072464,
                            0.0038811713457107544,
                            -0.024388626217842102,
                            -0.14636704325675964,
                            -0.1360454559326172,
                            -0.03156578540802002
                        ]
                    ],
                    [
                        [
                            -0.5786936283111572,
                            -0.3736054301261902,
                            -0.04840485379099846,
                            0.5794353485107422,
                            -0.4182961583137512,
                            -0.3854636251926422,
                            -0.20678818225860596,
                            0.222525492310524,
                            0.38582563400268555,
                            -0.5567055940628052,
                            -0.08250688761472702,
                            0.2998703122138977,
                            -0.18928296864032745,
                            0.08431658148765564,
                            -0.4689123034477234,
                            -0.5375148057937622,
                            0.519534170627594,
                            -0.6393216252326965,
                            0.2689395546913147,
                            -0.25166624784469604,
                            0.21092920005321503,
                            -0.6010449528694153,
                            -0.07691246271133423,
                            0.09735703468322754,
                            -0.05171826854348183,
                            -0.11309237033128738,
                            -0.3455122709274292,
                            0.49422740936279297,
                            -0.3961408734321594,
                            -0.2093382328748703,
                            -0.6114675402641296,
                            0.11109036952257156,
                            0.40596887469291687,
                            0.21462716162204742,
                            0.12900179624557495,
                            0.17553065717220306
                        ],
                        [
                            0.7994866967201233,
                            0.43488970398902893,
                            0.12954171001911163,
                            -0.5813469290733337,
                            0.4992116689682007,
                            0.4245401918888092,
                            0.546005368232727,
                            -0.5994994044303894,
                            -0.36521366238594055,
                            0.5347298979759216,
                            0.25346603989601135,
                            -0.32997623085975647,
                            0.07081962376832962,
                            -0.18099354207515717,
                            0.3066590130329132,
                            0.4814508259296417,
                            -0.7101094126701355,
                            0.45989370346069336,
                            -0.0900072306394577,
                            0.433424711227417,
                            -0.31558310985565186,
                            0.540762722492218,
                            -0.026596607640385628,
                            -0.297523558139801,
                            -0.02378859929740429,
                            0.37661728262901306,
                            0.3797983229160309,
                            -0.32177552580833435,
                            0.40173405408859253,
                            0.2731532156467438,
                            0.48514848947525024,
                            -0.3402864634990692,
                            -0.5732819437980652,
                            -0.464537113904953,
                            -0.13543812930583954,
                            0.024701807647943497
                        ],
                        [
                            -0.7014867067337036,
                            -0.4555239975452423,
                            0.04061640426516533,
                            0.2945139408111572,
                            -0.4642891585826874,
                            -0.5017502903938293,
                            -0.23810839653015137,
                            0.5678917765617371,
                            0.29539763927459717,
                            -0.4877006411552429,
                            -0.2861718237400055,
                            0.21265286207199097,
                            -0.25311392545700073,
                            0.02012021467089653,
                            -0.44058844447135925,
                            -0.593656599521637,
                            0.7027029991149902,
                            -0.3427632749080658,
                            -0.04671768471598625,
                            -0.43928033113479614,
                            0.17821326851844788,
                            -0.4687279760837555,
                            0.004222015384584665,
                            0.09019390493631363,
                            0.19132262468338013,
                            -0.22834236919879913,
                            -0.2538488507270813,
                            0.4320564866065979,
                            -0.4462295472621918,
                            -0.2490173876285553,
                            -0.5727819204330444,
                            0.32170456647872925,
                            0.5042340159416199,
                            0.4814431667327881,
                            0.1276211142539978,
                            -0.07258029282093048
                        ],
                        [
                            0.6907874941825867,
                            0.15333417057991028,
                            0.06881455332040787,
                            -0.33876529335975647,
                            0.1382559835910797,
                            -0.2159707099199295,
                            0.1637023687362671,
                            -0.418052077293396,
                            -0.32986608147621155,
                            0.3145700693130493,
                            0.10520519316196442,
                            -0.3575846552848816,
                            -0.2104765623807907,
                            -0.3971095681190491,
                            0.4209088087081909,
                            0.08848966658115387,
                            -0.6592645645141602,
                            0.4072553217411041,
                            -0.1076907142996788,
                            0.250075101852417,
                            -0.3900565803050995,
                            0.6060561537742615,
                            -3.646231925813481e-05,
                            0.09342338889837265,
                            -0.48599985241889954,
                            0.45905801653862,
                            0.23141665756702423,
                            -0.5720034241676331,
                            0.29342469573020935,
                            0.2704932689666748,
                            0.33782464265823364,
                            0.10674642026424408,
                            -0.7621062994003296,
                            -0.39962634444236755,
                            -0.1701369732618332,
                            0.0464208722114563
                        ],
                        [
                            0.7587540745735168,
                            0.6918576955795288,
                            0.10484109818935394,
                            -0.507473886013031,
                            0.2743280529975891,
                            0.6144418120384216,
                            0.3048480451107025,
                            -0.5102381110191345,
                            -0.32416167855262756,
                            0.4794607162475586,
                            0.3229289948940277,
                            -0.5363115668296814,
                            0.08178065717220306,
                            0.05198933929204941,
                            0.510869562625885,
                            0.4535428285598755,
                            -0.5755975246429443,
                            0.5210665464401245,
                            -0.03775932639837265,
                            0.33762913942337036,
                            -0.2092571258544922,
                            0.5061203241348267,
                            -0.058762624859809875,
                            -0.14527887105941772,
                            0.09533126652240753,
                            0.20539584755897522,
                            0.561471164226532,
                            -0.40357714891433716,
                            0.39542728662490845,
                            0.10866890847682953,
                            0.40195414423942566,
                            -0.3354841470718384,
