{
    "in_shape": [
        null,
        null,
        1
    ],
    "layers": [
        {
            "type": "conv1d",
            "activation": "",
            "shape": [
                null,
                null,
                36
            ],
            "kernel_size": [
                12
            ],
            "dilation": [
                1
            ],
            "groups": 1,
            "weights": [
                [
                    [
                        [
                            0.09716542065143585,
                            -0.09810467809438705,
                            0.09975333511829376,
                            -0.07387140393257141,
                            0.027041584253311157,
                            -0.04538961499929428,
                            0.07539573311805725,
                            0.08567395806312561,
                            -0.05887696146965027,
                            -0.0723579078912735,
                            -0.005995020270347595,
                            0.03827773034572601,
                            0.1131635308265686,
                            0.10588383674621582,
                            -0.004590563476085663,
                            -0.0353507474064827,
                            0.03912724554538727,
                            -0.01407971978187561,
                            -0.005447946488857269,
                            0.09589546918869019,
                            0.01452036201953888,
                            -0.10690534859895706,
                            0.01954975724220276,
                            -0.08295078575611115,
                            -0.017248079180717468,
                            -0.08606962114572525,
                            -0.07522767037153244,
                            -0.04242534190416336,
                            0.08927728235721588,
                            -0.04886561632156372,
                            -0.0738588497042656,
                            -0.05117640644311905,
                            0.025377705693244934,
                            0.0888432115316391,
                            -0.04674404859542847,
                            -0.06356006860733032
                        ]
                    ],
                    [
                        [
                            0.027306929230690002,
                            -0.04718128591775894,
                            0.016736701130867004,
                            0.0973668098449707,
                            0.11391639709472656,
                            -0.04609092324972153,
                            0.08644849061965942,
                            0.048892274498939514,
                            -0.02745077759027481,
                            -0.00696747750043869,
                            -0.09188083559274673,
                            0.01882322132587433,
                            -0.008326098322868347,
                            -0.09764986485242844,
                            -0.023450277745723724,
                            -0.06254473328590393,
                            0.01772370934486389,
                            0.03567412495613098,
                            0.06105244159698486,
                            -0.012139461934566498,
                            0.044051721692085266,
                            -0.04814468324184418,
                            0.03899085521697998,
                            -0.03563851863145828,
                            -0.09160487353801727,
                            -0.0712738186120987,
                            -0.08120010793209076,
                            -0.025820404291152954,
                            0.1052870899438858,
                            0.05944374203681946,
                            -0.060286108404397964,
                            0.11280106008052826,
                            0.07413278520107269,
                            -0.03298679739236832,
                            0.05773967504501343,
                            -0.0675472617149353
                        ]
                    ],
                    [
                        [
                            0.028896421194076538,
                            0.038394778966903687,
                            0.027348890900611877,
                            -0.007274016737937927,
                            0.04677458107471466,
                            -0.010302223265171051,
                            -0.10713045299053192,
                            0.10273171961307526,
                            -0.03528334200382233,
                            0.016614064574241638,
                            -0.09145507216453552,
                            -0.09687524288892746,
                            0.10706460475921631,
                            -0.08310915529727936,
                            -0.047809429466724396,
                            -0.08592560887336731,
                            0.11465412378311157,
                            0.1052386462688446,
                            0.10632434487342834,
                            0.0913805365562439,
                            -0.0931103527545929,
                            0.022474631667137146,
                            0.013491958379745483,
                            -0.0528462678194046,
                            -0.0027757734060287476,
                            -0.09134311974048615,
                            0.10477203130722046,
                            0.01772931218147278,
                            0.09152576327323914,
                            0.033250048756599426,
                            0.09816776216030121,
                            -0.044589847326278687,
                            -0.09072016179561615,
                            0.07186748087406158,
                            0.013783708214759827,
                            0.11369813978672028
                        ]
                    ],
                    [
                        [
                            0.041175588965415955,
                            0.06013704836368561,
                            -0.03715042769908905,
                            0.06238758563995361,
                            0.05112411081790924,
                            0.0483221709728241,
                            -0.11321868747472763,
                            0.03256979584693909,
                            -0.10480993986129761,
                            0.021138906478881836,
                            -0.09212836623191833,
                            0.019375786185264587,
                            0.11074826121330261,
                            0.03309790790081024,
                            0.028876304626464844,
                            -0.061111174523830414,
                            0.08573628962039948,
                            -0.06170907989144325,
                            0.056085556745529175,
                            0.10577048361301422,
                            -0.09599006175994873,
                            -0.08057522773742676,
                            0.07943317294120789,
                            0.010040119290351868,
                            0.008900836110115051,
                            -0.03816720098257065,
                            -0.007117532193660736,
                            0.028768375515937805,
                            0.018430903553962708,
                            0.08669188618659973,
                            0.0833858996629715,
                            -0.053138501942157745,
                            0.04515266418457031,
                            0.0904054194688797,
                            0.05313858389854431,
                            -0.03273877501487732
                        ]
                    ],
                    [
                        [
                            0.03211772441864014,
                            0.03533574938774109,
                            -0.09048338234424591,
                            0.09222225844860077,
                            -0.07857033610343933,
                            -0.05574956163764,
                            -0.06866830587387085,
                            0.10834060609340668,
                            0.0913865864276886,
                            0.08665569126605988,
                            0.06765986979007721,
                            0.07261799275875092,
                            0.011591106653213501,
                            -0.00963011384010315,
                            0.06614923477172852,
                            0.11052833497524261,
                            0.024776965379714966,
                            0.08964642882347107,
                            0.03353060781955719,
                            -0.001622609794139862,
                            -0.01823536306619644,
                            -0.023217469453811646,
                            0.005279041826725006,
                            -0.03899994492530823,
                            -0.0673074945807457,
                            -0.08087915182113647,
                            -0.07552164793014526,
                            -0.006470203399658203,
                            -0.09848127514123917,
                            0.09209021925926208,
                            -0.024190425872802734,
                            -0.07676687836647034,
                            -0.04296042025089264,
                            -0.0921560525894165,
                            0.019322946667671204,
                            0.04065963625907898
                        ]
                    ],
                    [
                        [
                            0.0989934653043747,
                            -0.045783791691064835,
                            -0.03915051743388176,
                            -0.10092928260564804,
                            0.08874642848968506,
                            0.012073198333382607,
                            0.07171473652124405,
                            0.06780856847763062,
                            0.024034250527620316,
                            -0.06297958642244339,
                            0.07955800741910934,
                            0.13299350440502167,
                            0.08926836401224136,
                            -0.03147038817405701,
                            -0.010262462310492992,
                            -0.09179049730300903,
                            -0.07263359427452087,
                            -0.08821522444486618,
                            -0.03954656794667244,
                            0.10517237335443497,
                            -0.09779496490955353,
                            -0.13708780705928802,
                            0.02687336504459381,
                            0.06215421110391617,
                            0.11577243357896805,
                            0.12821200489997864,
                            0.08002719283103943,
                            0.09449265152215958,
                            0.048697579652071,
                            -0.11131011694669724,
                            0.12966644763946533,
                            0.06948348134756088,
                            0.07125496864318848,
                            0.028043128550052643,
                            -0.0998619794845581,
                            0.06331655383110046
                        ]
                    ],
                    [
                        [
                            -0.09024134278297424,
                            0.022362694144248962,
                            0.007047936320304871,
                            0.10805679857730865,
                            0.08996014297008514,
                            0.07049043476581573,
                            0.026058226823806763,
                            -0.11042428761720657,
                            0.11335064470767975,
                            -0.012239903211593628,
                            0.0866742879152298,
                            -0.040961854159832,
                            -0.04688131809234619,
                            -0.0271725133061409,
                            0.07954536378383636,
                            -0.04118546098470688,
                            -0.036213696002960205,
                            -0.10815452039241791,
                            0.02456486225128174,
                            -0.06088348850607872,
                            0.07019487023353577,
                            0.1019173413515091,
                            -0.0865449458360672,
                            0.10432630777359009,
                            0.0013057366013526917,
                            0.06629820168018341,
                            0.031616151332855225,
                            -0.004561655223369598,
                            -0.013342097401618958,
                            0.05438312888145447,
                            -0.043611764907836914,
                            -0.0138702392578125,
                            -0.014670945703983307,
                            0.08188313245773315,
                            -0.03842349350452423,
                            0.049028247594833374
                        ]
                    ],
                    [
                        [
                            -0.10459458827972412,
                            0.08867225050926208,
                            0.02477492392063141,
                            0.017359659075737,
                            0.03894251585006714,
                            -0.0373418852686882,
                            -0.10225644707679749,
                            -0.031013809144496918,
                            -0.020842380821704865,
                            0.03223085403442383,
                            0.0390409380197525,
                            -0.003171078860759735,
                            0.06422479450702667,
                            0.08668839931488037,
                            0.04495422542095184,
                            0.10788902640342712,
                            0.11211435496807098,
                            0.023593425750732422,
                            0.04905574023723602,
                            -0.0025944560766220093,
                            -0.009649403393268585,
                            -0.081520214676857,
                            -0.10880838334560394,
                            0.11550585925579071,
                            0.006678931415081024,
                            0.0975974053144455,
                            -0.08337478339672089,
                            -0.08644209057092667,
                            0.07555823028087616,
                            0.024447396397590637,
                            0.06639185547828674,
                            -0.03790174424648285,
                            0.015248700976371765,
                            0.07481113076210022,
                            0.10184168815612793,
                            0.10305199027061462
                        ]
                    ],
                    [
                        [
                            -0.036814846098423004,
                            -0.04858699440956116,
                            0.012046337127685547,
                            -0.0592079721391201,
                            0.09136602282524109,
                            0.04003781080245972,
                            0.11543720960617065,
                            -0.07766902446746826,
                            -0.09515601396560669,
                            -0.013047643005847931,
                            -0.056187745183706284,
                            -0.004482828080654144,
                            0.09213165938854218,
                            -0.003816850483417511,
                            0.02177220582962036,
                            -0.05208425968885422,
                            -0.04770790785551071,
                            0.028180032968521118,
                            -0.004097558557987213,
                            -0.08991571515798569,
                            0.0014436468482017517,
                            -0.0825357735157013,
                            -0.0928618535399437,
                            -0.1112556979060173,
                            0.015074074268341064,
                            0.04115267097949982,
                            0.05071629583835602,
                            -0.05043487250804901,
                            -0.054834671318531036,
                            0.01621568202972412,
                            0.022960439324378967,
                            -0.03233789652585983,
                            0.008262217044830322,
                            -0.09250892698764801,
                            -0.052389077842235565,
                            -0.0619342140853405
                        ]
                    ],
                    [
                        [
                            0.08459381759166718,
                            -0.04206232726573944,
                            0.06770440936088562,
                            0.007489114999771118,
                            0.000362493097782135,
                            0.07267870008945465,
                            0.0361471027135849,
                            0.09045109152793884,
                            0.0444817841053009,
                            -0.06858623027801514,
                            -0.10929379612207413,
                            -0.07699944078922272,
                            0.06906995177268982,
                            -0.060455672442913055,
                            -0.06416795402765274,
                            -0.09276479482650757,
                            -0.035923682153224945,
                            0.02065911889076233,
                            -0.036409370601177216,
                            -0.11372119933366776,
                            0.09543164074420929,
                            0.06164899468421936,
                            -0.014440655708312988,
                            -0.08906398713588715,
                            -0.01536417007446289,
                            0.03819139301776886,
                            0.016269326210021973,
                            0.06213362514972687,
                            -0.1051747053861618,
                            0.09486240148544312,
                            0.010341882705688477,
                            0.09891527891159058,
                            0.06322060525417328,
                            0.037209659814834595,
                            0.09226502478122711,
                            0.06751538813114166
                        ]
                    ],
                    [
                        [
                            -0.10055326670408249,
                            -0.09398281574249268,
                            -0.059622623026371,
                            -0.031061537563800812,
                            0.047198161482810974,
                            -0.05654095485806465,
                            0.0008080229163169861,
                            -0.010187536478042603,
                            -0.019480153918266296,
                            -0.10995589196681976,
                            -0.0906231552362442,
                            0.08689221739768982,
                            0.008356504142284393,
                            0.11252099275588989,
                            -0.07186402380466461,
                            0.07388222217559814,
                            0.06693974137306213,
                            -0.012229397892951965,
                            -0.08532869815826416,
                            0.08099497854709625,
                            0.031249552965164185,
                            -0.010679759085178375,
                            0.07008828222751617,
                            -0.08718528598546982,
                            0.11411908268928528,
                            0.05625315010547638,
                            0.017349153757095337,
                            -0.07215611636638641,
                            0.08440779149532318,
                            0.03403696417808533,
                            0.09032942354679108,
                            -0.06201370432972908,
                            -0.0782235860824585,
                            0.008401483297348022,
                            -0.00478537380695343,
                            -0.06599041819572449
                        ]
                    ],
                    [
                        [
                            -0.02039577066898346,
                            0.08312566578388214,
                            -0.09162218868732452,
                            -0.03940930962562561,
                            -0.042053624987602234,
                            -0.03743576258420944,
                            0.06749410927295685,
                            0.09891177713871002,
                            -0.006918616592884064,
                            -0.009647354483604431,
                            0.07226446270942688,
                            -0.08794313669204712,
                            0.03575758635997772,
                            0.08718469738960266,
                            0.05994345247745514,
                            0.02270948886871338,
                            0.064032644033432,
                            -0.06013469770550728,
                            0.04969795048236847,
                            -0.04804185777902603,
                            0.1159164309501648,
                            0.0789848268032074,
                            0.04741641879081726,
                            0.11453409492969513,
                            0.004137665033340454,
                            0.05038265883922577,
                            -0.05991607531905174,
                            0.033329591155052185,
                            -0.09222337603569031,
                            0.09974752366542816,
                            -0.06649617850780487,
                            -0.058195631951093674,
                            0.017549097537994385,
                            -0.0847025215625763,
                            -0.011919505894184113,
                            0.09899118542671204
                        ]
                    ]
                ],
                [
                    0.0013924840604886413,
                    -0.0005484479479491711,
                    -0.0024842433631420135,
                    0.004432260990142822,
                    0.00041300663724541664,
                    0.0015126725193113089,
                    -2.4571441826992668e-05,
                    0.0013801372842863202,
                    0.0014853233005851507,
                    -0.00035951865720562637,
                    0.0003182089130859822,
                    -0.004196271765977144,
                    -0.00026755768340080976,
                    -0.003361833980306983,
                    0.0003655711770989001,
                    0.002842971123754978,
                    9.158817556453869e-05,
                    0.0002624235348775983,
                    0.0007690875208936632,
                    -0.00233338656835258,
                    -0.00020820539793930948,
                    0.0001964677794603631,
                    0.0005020924145355821,
                    0.0001547672727610916,
                    -4.242242357577197e-05,
                    -0.0006296562496572733,
                    0.0004793140396941453,
                    1.24433454402606e-05,
                    -0.002107290318235755,
                    0.0012242035008966923,
                    0.00013422225310932845,
                    0.0001511038572061807,
                    -0.0010104021057486534,
                    5.97756115894299e-06,
                    -0.00038360257167369127,
                    -0.0007730215438641608
                ]
            ]
        },
        {
            "type": "conv1d",
            "activation": "",
            "shape": [
                null,
                null,
                36
            ],
            "kernel_size": [
                3
            ],
            "dilation": [
                1
            ],
            "groups": 1,
            "weights": [
                [
                    [
                        [
                            -0.1530700922012329,
                            0.0066413432359695435,
                            -0.014065578579902649,
                            0.13230140507221222,
                            0.0816778689622879,
                            0.02988545596599579,
                            0.16368378698825836,
                            0.00038726627826690674,
                            0.14722438156604767,
                            0.15657465159893036,
                            0.12605156004428864,
                            0.12131865322589874,
                            -0.04846203327178955,
                            -0.16033034026622772,
                            -0.16367721557617188,
                            0.05154764652252197,
                            -0.06828459352254868,
                            -0.033988118171691895,
                            0.11240236461162567,
                            0.03941766917705536,
                            -0.07616476714611053,
                            -0.13148531317710876,
                            0.16058076918125153,
                            0.012229084968566895,
                            -0.0024563074111938477,
                            0.062029555439949036,
                            0.12025465071201324,
                            0.02627849578857422,
                            -0.08699806779623032,
                            -0.017923951148986816,
                            0.16103793680667877,
                            0.11741079390048981,
                            -0.14358815550804138,
                            -0.0667777881026268,
                            0.13367049396038055,
                            0.1462465077638626
                        ],
                        [
                            0.0845763236284256,
                            0.047090694308280945,
                            0.024533435702323914,
                            0.1536712795495987,
                            -0.10496902465820312,
                            0.03910355269908905,
                            0.015888288617134094,
                            0.10106103122234344,
                            0.03993785381317139,
                            -0.02154862880706787,
                            -0.04583394527435303,
                            -0.13843581080436707,
                            -0.0030622929334640503,
                            0.09202580153942108,
                            0.14013831317424774,
                            0.015319660305976868,
                            -0.07427386939525604,
                            0.10664196312427521,
                            -0.05988948047161102,
                            0.0020551681518554688,
                            -0.13055340945720673,
                            -0.09700429439544678,
                            0.11018677055835724,
                            0.047605276107788086,
                            0.15519578754901886,
                            -0.08297717571258545,
                            -0.01994974911212921,
                            0.06874354183673859,
                            0.15512855350971222,
                            -0.11504324525594711,
                            0.06168477237224579,
                            -0.026798680424690247,
                            -0.14264535903930664,
                            0.05344045162200928,
                            0.11383311450481415,
                            0.1230262964963913
                        ],
                        [
                            -0.09725122153759003,
                            0.13388876616954803,
                            -0.10964592546224594,
                            0.15561135113239288,
                            0.07247161865234375,
                            0.14749674499034882,
                            0.15856637060642242,
                            0.15696482360363007,
                            0.12969930469989777,
                            0.03129887580871582,
                            -0.04292158782482147,
                            -0.13890302181243896,
                            0.025235101580619812,
                            -0.09385037422180176,
                            0.08103720843791962,
                            0.0091780424118042,
                            -0.027930572628974915,
                            0.027068138122558594,
                            0.0698261708021164,
                            0.07850050926208496,
                            -0.04958514869213104,
                            0.032006144523620605,
                            0.07259373366832733,
                            0.11586432158946991,
                            -0.14827153086662292,
                            0.11741943657398224,
                            -0.16407382488250732,
                            0.08844985067844391,
                            0.07074229419231415,
                            0.09153907001018524,
                            0.1148160845041275,
                            0.05802507698535919,
                            0.07746250927448273,
                            0.017519280314445496,
                            0.1291622370481491,
                            0.11861850321292877
                        ],
                        [
                            0.022831514477729797,
                            -0.07730790227651596,
                            0.11820991337299347,
                            -0.08879713714122772,
                            0.15159399807453156,
                            0.11865775287151337,
                            -0.1421428918838501,
                            0.07146497070789337,
                            0.10060305893421173,
                            0.13364996016025543,
                            -0.03154945373535156,
                            -0.1577516794204712,
                            0.046846821904182434,
                            0.1334349364042282,
                            -0.09136974811553955,
                            0.12378014624118805,
                            0.08612386882305145,
                            0.1659444123506546,
                            -0.12966108322143555,
                            0.021903470158576965,
                            0.008363723754882812,
                            -0.05481259524822235,
                            0.13501016795635223,
                            -0.09689657390117645,
                            0.15061642229557037,
                            0.04314279556274414,
                            -0.006171897053718567,
                            -0.06952039897441864,
                            -0.02326369285583496,
                            -0.044369183480739594,
                            0.10698898136615753,
                            -0.14633075892925262,
                            0.019656017422676086,
                            -0.14503943920135498,
                            -0.030272483825683594,
                            0.08542783558368683
                        ],
                        [
                            0.027715280652046204,
                            -0.13350705802440643,
                            -0.06492765992879868,
                            0.09010867774486542,
                            0.16277022659778595,
                            0.09888912737369537,
                            -0.004555419087409973,
                            0.018987342715263367,
                            -0.10914834588766098,
                            -0.11623796075582504,
                            -0.1373099535703659,
                            0.03210027515888214,
                            0.14575020968914032,
                            -0.16184358298778534,
                            -0.05599777400493622,
                            0.03053443133831024,
                            -0.07377024739980698,
                            0.11140470206737518,
                            0.07272088527679443,
                            0.03997063636779785,
                            -0.1663632094860077,
                            -0.1472831666469574,
                            -0.024868249893188477,
                            -0.06527046859264374,
                            0.04218737781047821,
                            0.15152455866336823,
                            -0.0005963295698165894,
                            0.11893416941165924,
                            -0.07370369136333466,
                            -0.0721975564956665,
                            0.006121516227722168,
                            -0.12217943370342255,
                            -0.01700703799724579,
                            -0.16468827426433563,
                            0.04962544143199921,
                            -0.02723805606365204
                        ],
                        [
                            0.13299505412578583,
                            -0.08726315200328827,
                            0.015388131141662598,
                            0.1200389415025711,
                            -0.043265387415885925,
                            0.11733798682689667,
                            -0.0868031233549118,
                            0.025961831212043762,
                            -0.041965365409851074,
                            -0.06813999265432358,
                            -0.038652822375297546,
                            -0.15270662307739258,
                            0.1463613659143448,
                            0.02534182369709015,
                            0.1096375435590744,
                            0.01027660071849823,
                            -0.1348619908094406,
                            0.03706149756908417,
                            0.1263994425535202,
                            -0.13184309005737305,
                            0.009617045521736145,
                            0.029255032539367676,
                            0.052535295486450195,
                            -0.13373085856437683,
                            0.13015706837177277,
                            -0.1407342404127121,
                            -0.1659087836742401,
                            -0.06439022719860077,
                            -0.10033433139324188,
                            0.05995817482471466,
                            -0.08576329797506332,
                            -0.05136513710021973,
                            0.12038387358188629,
                            -0.0905371904373169,
                            -0.09283590316772461,
                            0.07572261989116669
                        ],
                        [
                            0.04691672325134277,
                            -0.15862882137298584,
                            0.09787826240062714,
                            -0.07120843976736069,
                            0.01771409809589386,
                            -0.05625323951244354,
                            -0.08156347274780273,
                            0.023013755679130554,
                            0.16553528606891632,
                            -0.024508118629455566,
                            0.1313854604959488,
                            -0.14141425490379333,
                            -0.03360931575298309,
                            -0.04708342254161835,
                            0.13971488177776337,
                            0.10056246817111969,
                            0.08787490427494049,
                            0.14669550955295563,
                            0.012320086359977722,
                            0.06494057178497314,
                            -0.03850133717060089,
                            -0.11050014197826385,
                            0.004873991012573242,
                            -0.014010265469551086,
                            0.08757416903972626,
                            -0.10208257287740707,
                            -0.11779682338237762,
                            0.08977450430393219,
                            0.1247267872095108,
                            -0.09136748313903809,
                            0.15291227400302887,
                            -0.03970591723918915,
                            -0.15061652660369873,
                            -0.022470548748970032,
                            0.08615924417972565,
                            0.11978034675121307
                        ],
                        [
                            -0.0643826350569725,
                            -0.03305459022521973,
                            0.1604660004377365,
                            -0.05700306594371796,
                            0.0311630517244339,
                            -0.0970732793211937,
                            -0.1413264274597168,
                            0.012546852231025696,
                            0.09197191894054413,
                            0.08008269965648651,
                            -0.12306635081768036,
                            0.11669100821018219,
                            0.14040304720401764,
                            0.03844340145587921,
                            0.004658535122871399,
                            -0.0932498425245285,
                            0.0690038651227951,
                            0.07738196849822998,
                            -0.08972223848104477,
                            0.12049491703510284,
                            0.05212688446044922,
                            -0.14212250709533691,
                            0.10223142802715302,
                            0.12985385954380035,
                            -0.1171911209821701,
                            0.05843234062194824,
                            0.06082455813884735,
                            -0.00752711296081543,
                            -0.15888957679271698,
                            0.04050596058368683,
                            0.13471846282482147,
                            0.1005897969007492,
                            0.12167482078075409,
                            0.1375686377286911,
                            -0.06836196035146713,
                            0.14126117527484894
                        ],
                        [
                            0.13369719684123993,
                            -0.10968788713216782,
                            -0.15882468223571777,
                            0.09787769615650177,
                            -0.032355308532714844,
                            0.0999114066362381,
                            -0.1316927671432495,
                            0.029865026473999023,
                            0.041011929512023926,
                            -0.12815038859844208,
                            0.10824359953403473,
                            0.016678214073181152,
                            0.14786235988140106,
                            0.13337449729442596,
                            -0.14557600021362305,
                            0.07046329975128174,
                            -0.09234051406383514,
                            -0.0319395512342453,
                            0.11228133738040924,
                            -0.11928483098745346,
                            0.03547890484333038,
                            0.1537443846464157,
                            -0.04025407135486603,
                            0.09042491018772125,
                            -0.10170209407806396,
                            -0.10283148288726807,
                            -0.13116495311260223,
                            -0.03559200465679169,
                            -0.031319454312324524,
                            0.1225973516702652,
                            0.09552766382694244,
                            -0.09341704845428467,
                            0.09030915796756744,
                            0.07990376651287079,
                            -0.054974041879177094,
                            0.15246133506298065
                        ],
                        [
                            -0.07637894153594971,
                            0.05256843566894531,
                            -0.042501091957092285,
                            -0.02055072784423828,
                            -0.011691644787788391,
                            -0.008215904235839844,
                            0.04308407008647919,
                            -0.006314113736152649,
                            -0.029047086834907532,
                            0.134235218167305,
                            0.06511986255645752,
                            0.07619960606098175,
                            -0.12373869121074677,
                            -0.16227734088897705,
                            -0.007516071200370789,
                            0.04289980232715607,
                            -0.10437846183776855,
                            0.05640561878681183,
                            0.017617657780647278,
                            -0.08581682294607162,
                            0.10206539928913116,
                            0.014477178454399109,
                            -0.07026708126068115,
                            -0.028511688113212585,
                            0.08187516033649445,
                            -0.03490646183490753,
                            -0.16122858226299286,
                            0.03282026946544647,
                            -0.013789057731628418,
                            -0.0991905927658081,
                            0.15638388693332672,
                            -0.02569405734539032,
                            -0.05812462419271469,
                            -0.09824737161397934,
                            0.063227578997612,
                            -0.010471031069755554
                        ],
                        [
                            -0.008029744029045105,
                            0.09860806167125702,
                            -0.16144856810569763,
                            0.1015593558549881,
                            -0.036797285079956055,
                            -0.08132016658782959,
                            -0.1350979059934616,
                            0.14398805797100067,
                            -0.06567510217428207,
                            -0.094899021089077,
                            -0.14855436980724335,
                            0.12415604293346405,
                            0.1660221368074417,
                            0.04847455024719238,
                            -0.10093991458415985,
                            -0.16553720831871033,
                            -0.06846793740987778,
                            -0.05881989002227783,
                            -0.15700304508209229,
                            -0.0318448543548584,
                            0.1192365437746048,
                            0.08219604194164276,
                            -0.16419236361980438,
                            0.07831422984600067,
                            -0.03847117722034454,
                            -0.050864025950431824,
                            -0.08515580743551254,
                            0.16028709709644318,
                            0.033464476466178894,
                            -0.06135408580303192,
                            0.15672604739665985,
                            -0.01961660385131836,
                            -0.10234685987234116,
                            -0.1393899917602539,
                            0.1664731651544571,
                            -0.16370543837547302
                        ],
                        [
                            -0.04966505616903305,
                            -0.017640307545661926,
                            0.017364144325256348,
                            0.04961018264293671,
                            0.01996941864490509,
                            0.14314810931682587,
                            -0.104159876704216,
                            0.10743732750415802,
                            -0.09339416027069092,
                            0.1546369343996048,
                            -0.1419130563735962,
                            -0.021704554557800293,
                            -0.0079316645860672,
                            -0.15262529253959656,
                            0.11046041548252106,
                            0.10683436691761017,
                            -0.0008041411638259888,
                            -0.021819069981575012,
                            -0.05135516822338104,
                            0.12134508788585663,
                            0.11970765888690948,
                            -0.13531896471977234,
                            0.09171883761882782,
                            0.07376103103160858,
                            -0.10316658020019531,
                            0.044835880398750305,
                            0.12472201883792877,
                            -0.16307930648326874,
                            -0.031890347599983215,
                            -0.16477768123149872,
                            -0.10419635474681854,
                            0.039699986577034,
                            0.1279134899377823,
                            -0.13973066210746765,
                            0.06074385344982147,
                            -0.006338596343994141
                        ],
                        [
                            0.028815865516662598,
                            -0.12526047229766846,
                            0.07053446769714355,
                            0.1579631119966507,
                            0.03361101448535919,
                            0.1168036013841629,
                            0.10273189842700958,
                            0.10559375584125519,
                            0.09690286219120026,
                            0.054081156849861145,
                            0.06522274017333984,
                            -0.15616750717163086,
                            -0.09042295068502426,
                            0.14781908690929413,
                            -0.06347167491912842,
                            -0.08729927241802216,
                            0.13964267075061798,
                            -0.01829361915588379,
                            0.032190725207328796,
                            0.09354175627231598,
                            -0.15794503688812256,
                            -0.13264290988445282,
                            0.08207197487354279,
                            -0.09332462400197983,
                            -0.06604814529418945,
                            -0.08193378150463104,
                            -0.0098390132188797,
                            0.11920030415058136,
                            -0.1473994255065918,
                            -0.14805690944194794,
                            -0.16042952239513397,
                            0.1642334908246994,
                            -0.0775393694639206,
                            0.09347207844257355,
                            0.1439296156167984,
                            -0.03267931938171387
                        ],
                        [
                            -0.127191424369812,
                            -0.008351683616638184,
                            -0.12363366782665253,
                            0.16164185106754303,
                            -0.05509066581726074,
                            -0.09556516259908676,
                            -0.10301665961742401,
                            0.06686027348041534,
                            -0.1304473578929901,
                            -0.04817759990692139,
                            0.08801798522472382,
                            -0.14446616172790527,
                            -0.06919630616903305,
                            0.06602390110492706,
                            0.11852626502513885,
                            0.08645494282245636,
                            -0.053970061242580414,
                            -0.13865721225738525,
                            -0.06542237848043442,
                            -0.10936371982097626,
                            0.14944972097873688,
                            -0.06398308277130127,
                            0.007699176669120789,
                            -0.045319437980651855,
                            -0.09819789975881577,
                            -0.09861370176076889,
                            -0.13868603110313416,
                            -0.07980525493621826,
                            -0.09386865794658661,
                            -0.08010809123516083,
                            -0.11697244644165039,
                            0.11254723370075226,
                            0.1436057835817337,
                            -0.028798535466194153,
                            0.03418178856372833,
                            -0.06097273528575897
                        ],
                        [
                            0.09110300242900848,
                            0.09358431398868561,
                            -0.07991286367177963,
                            0.06110687553882599,
                            -0.07075357437133789,
                            -0.05826263129711151,
                            0.16063298285007477,
                            0.052056074142456055,
                            -0.027703210711479187,
                            0.04192812740802765,
                            0.07017476856708527,
                            0.085445836186409,
                            0.12691165506839752,
                            -0.018775463104248047,
                            0.10198397934436798,
                            -0.12019594758749008,
                            0.05408494174480438,
                            -0.1174347847700119,
                            0.02186889946460724,
                            -0.06806521117687225,
                            -0.15483710169792175,
                            0.1303303986787796,
                            -0.06891421973705292,
                            -0.04674319922924042,
                            -0.0740865096449852,
                            0.04448799788951874,
                            -0.13607780635356903,
                            -0.14680719375610352,
                            -0.08336567878723145,
                            0.06476008892059326,
                            0.07228589057922363,
                            0.13339443504810333,
                            0.12891317903995514,
                            0.12202458083629608,
                            0.032468318939208984,
                            -0.034352660179138184
                        ],
                        [
                            0.1425027996301651,
                            0.03663909435272217,
                            -0.0682682991027832,
                            0.049754977226257324,
                            -0.01418335735797882,
                            -0.0513279065489769,
                            -0.12588155269622803,
                            -0.14370259642601013,
                            0.049019500613212585,
                            -0.11869573593139648,
                            0.12487895786762238,
                            0.02938699722290039,
                            -0.077520452439785,
                            0.03412441909313202,
                            -0.06381706893444061,
                            -0.10655903816223145,
                            -0.11103367805480957,
                            -0.014662906527519226,
                            -0.09738731384277344,
                            0.057025909423828125,
                            -0.034092068672180176,
                            -0.14428508281707764,
                            -0.08957680314779282,
                            -0.10031680762767792,
                            0.07524542510509491,
                            0.12964673340320587,
                            -0.08422955125570297,
                            -0.024317666888237,
                            -0.017479851841926575,
                            -0.13279204070568085,
                            0.15340055525302887,
                            -0.12231600284576416,
                            0.03654055297374725,
                            -0.11405937373638153,
                            0.0016480684280395508,
                            0.04770965874195099
                        ],
                        [
                            -0.05754586309194565,
                            -0.06989272683858871,
                            0.12287981808185577,
                            -0.10470958799123764,
                            -0.11508385837078094,
                            -0.10158412158489227,
                            0.016631126403808594,
                            0.007324337959289551,
                            0.017679810523986816,
                            -0.059593722224235535,
                            0.05181901156902313,
                            0.008105680346488953,
                            -0.03732113540172577,
                            -0.056616783142089844,
                            -0.09107398986816406,
                            0.14152516424655914,
                            0.011887028813362122,
                            -0.07094868272542953,
                            0.08539564907550812,
                            -0.09990203380584717,
                            0.0968300849199295,
                            0.0023871660232543945,
                            -0.00248110294342041,
                            0.010810136795043945,
                            0.14530889689922333,
                            -0.003636673092842102,
                            -0.13596400618553162,
                            0.08775939047336578,
                            -0.045228004455566406,
                            -0.10145621001720428,
                            0.10576047003269196,
                            -0.02197130024433136,
                            -0.09726409614086151,
                            0.1301068514585495,
                            -0.10581593215465546,
                            0.013684198260307312
                        ],
                        [
                            0.018075034022331238,
                            0.0344415158033371,
                            -0.04993784427642822,
                            -0.0934414491057396,
                            -0.1528184860944748,
                            0.10582222044467926,
                            -0.15290403366088867,
                            0.04007160663604736,
                            0.12323679029941559,
                            0.007784292101860046,
                            0.09874685108661652,
                            -0.16653577983379364,
                            -0.0910915955901146,
                            0.003486156463623047,
                            -0.09510187804698944,
                            -0.10456844419240952,
                            -0.03249053657054901,
                            -0.13143527507781982,
                            0.011185839772224426,
                            -0.08982384204864502,
                            0.04164119064807892,
                            0.15751402080059052,
                            -0.15690359473228455,
                            0.16631253063678741,
                            0.12573115527629852,
                            0.008583903312683105,
                            -0.11569146811962128,
                            -0.12273335456848145,
                            0.08147048950195312,
                            -0.16262611746788025,
                            0.11464376747608185,
                            -0.04195805639028549,
                            0.1505271941423416,
                            -0.16548535227775574,
                            -0.07346542924642563,
                            0.06250496208667755
                        ],
                        [
                            -0.05140714347362518,
                            0.10519786179065704,
                            0.013844296336174011,
                            0.023400187492370605,
                            0.0008103400468826294,
                            -0.08510605990886688,
                            0.14394240081310272,
                            0.09727947413921356,
                            0.012252375483512878,
                            -0.13705870509147644,
                            -0.008195117115974426,
                            -0.04400782287120819,
                            0.14999617636203766,
                            0.08867831528186798,
                            -0.03802621364593506,
                            -0.11522313207387924,
                            0.03572249412536621,
                            0.032825157046318054,
                            0.0417967289686203,
                            0.1201493889093399,
                            0.15196533501148224,
                            0.08031880855560303,
                            -0.01737673580646515,
                            -0.03086841106414795,
                            0.016368314623832703,
                            0.11029775440692902,
                            -0.1570226401090622,
                            -0.12167370319366455,
                            0.1650644689798355,
                            0.08734922111034393,
                            0.06658284366130829,
                            -0.07933461666107178,
                            0.12335483729839325,
                            0.06492440402507782,
                            -0.1595224142074585,
                            0.004502013325691223
                        ],
                        [
                            -0.06795012950897217,
                            -0.0038711577653884888,
                            -0.10812600702047348,
                            -0.03073282539844513,
                            -0.0725158080458641,
                            0.04767489433288574,
                            0.08355732262134552,
                            -0.1270749270915985,
                            0.02926023304462433,
                            -0.01633286476135254,
                            -0.03256063163280487,
                            0.09597362577915192,
                            -0.04726632684469223,
                            0.1267770677804947,
                            -0.047353193163871765,
                            -0.12549826502799988,
                            0.11868970096111298,
                            -0.12443606555461884,
                            -0.08986902236938477,
                            -0.1564655750989914,
                            -0.10608641803264618,
                            0.0690157413482666,
                            -0.10290201753377914,
                            0.03507661819458008,
                            0.04487510025501251,
                            -0.024139001965522766,
                            0.02520926296710968,
                            -0.13578388094902039,
                            -0.09431330859661102,
                            0.09720076620578766,
                            0.06377589702606201,
                            0.07981240749359131,
                            0.11664880812168121,
                            -0.03940172493457794,
                            0.12260831892490387,
                            -0.07571578025817871
                        ],
                        [
                            0.06901907920837402,
                            -0.07961305230855942,
                            -0.05107049643993378,
                            0.10479725897312164,
                            0.03744716942310333,
                            0.10708315670490265,
                            0.10529680550098419,
                            -0.012955114245414734,
                            -0.15673288702964783,
                            0.00024931132793426514,
                            -0.06127028167247772,
                            -0.07730372995138168,
                            0.012447074055671692,
                            -0.039781928062438965,
                            -0.16199946403503418,
                            -0.02843661606311798,
                            -0.15542232990264893,
                            -0.11022305488586426,
                            -0.08556663990020752,
                            0.06420092284679413,
                            0.06691551208496094,
                            -0.13583414256572723,
                            0.01922023296356201,
                            0.01365499198436737,
                            -0.10433416068553925,
                            -0.1072944849729538,
                            0.09675200283527374,
                            -0.12194367498159409,
                            -0.11075481027364731,
                            -0.11903008073568344,
                            0.03345029056072235,
                            0.0022072046995162964,
                            0.0778510570526123,
                            0.054209113121032715,
                            0.042405009269714355,
                            -0.14644917845726013
                        ],
                        [
                            -0.0830681324005127,
                            0.03407733142375946,
                            -0.012911632657051086,
                            0.08872021734714508,
                            -0.01988653838634491,
                            -0.005806520581245422,
                            -0.014906048774719238,
                            0.014844775199890137,
                            0.056583285331726074,
                            -0.0005044490098953247,
                            -0.03140382468700409,
                            0.05153505504131317,
                            0.0882299393415451,
                            -0.09136494249105453,
                            -0.1192178726196289,
                            0.12047787010669708,
                            0.1649426966905594,
                            0.1522095650434494,
                            -0.14562082290649414,
                            0.13456018269062042,
                            0.12153078615665436,
                            0.09400440752506256,
                            -0.038029745221138,
                            0.11244387924671173,
                            -0.1529485434293747,
                            -0.004807949066162109,
                            0.052159473299980164,
                            0.02530670166015625,
                            -0.05297188460826874,
                            0.05576081573963165,
                            -0.1218433827161789,
                            0.03322410583496094,
                            0.1573811024427414,
                            0.06943309307098389,
                            -0.03468763828277588,
                            0.06260263919830322
                        ],
                        [
                            0.09010036289691925,
                            0.10589225590229034,
                            -0.13973991572856903,
                            0.033353209495544434,
                            -0.0449976921081543,
                            0.05501849949359894,
                            -0.022013112902641296,
                            -0.15425515174865723,
                            0.12856711447238922,
                            0.14766772091388702,
                            -0.010571673512458801,
                            -0.047816596925258636,
                            0.08135147392749786,
                            -0.03601245582103729,
                            0.06607000529766083,
                            -0.10928364843130112,
                            -0.09785060584545135,
                            0.16158775985240936,
                            0.15576235949993134,
                            -0.026136919856071472,
                            0.08322234451770782,
                            -0.03062470257282257,
                            0.15133602917194366,
                            0.1508379429578781,
                            -0.04888355731964111,
                            0.10103102028369904,
                            -0.0832393616437912,
                            0.03680984675884247,
                            -0.07397973537445068,
                            -0.07868453115224838,
                            -0.028924107551574707,
                            0.09002642333507538,
                            0.0162380188703537,
                            -0.09032293409109116,
                            0.14715583622455597,
                            -0.1254197359085083
                        ],
                        [
                            -0.026353910565376282,
                            0.12848858535289764,
                            0.04084937274456024,
                            0.15623034536838531,
                            0.022064611315727234,
                            0.011009618639945984,
                            -0.14145946502685547,
                            -0.16245079040527344,
                            0.01896028220653534,
                            0.005836084485054016,
                            -0.1623075008392334,
                            0.054828450083732605,
                            -0.12670592963695526,
                            0.12559820711612701,
                            0.05380396544933319,
                            0.003803849220275879,
                            -0.15733930468559265,
                            0.08465243875980377,
                            0.16071565449237823,
                            -0.027464985847473145,
                            -0.0917619913816452,
                            0.16036207973957062,
                            0.1555740386247635,
                            0.1148795336484909,
                            -0.09076377004384995,
                            -0.09955605119466782,
                            0.11803214251995087,
                            0.015401080250740051,
                            0.01672375202178955,
                            -0.03307230770587921,
                            0.07227583229541779,
                            0.05759187042713165,
                            -0.07707294076681137,
                            0.005566313862800598,
                            -0.12376141548156738,
                            -0.02117915451526642
                        ],
                        [
                            -0.06256755441427231,
                            0.09603084623813629,
                            0.03660769760608673,
                            -0.15554103255271912,
                            -0.06825868785381317,
                            -0.055714450776576996,
                            -0.06423287093639374,
                            0.10025076568126678,
                            -0.09088408946990967,
                            -0.01578955352306366,
                            0.10796715319156647,
                            -0.08223243802785873,
                            -0.07149577140808105,
                            -0.11485203355550766,
                            -0.11429738998413086,
                            0.08542539179325104,
                            0.14095033705234528,
                            -0.03401307761669159,
                            -0.08387899398803711,
                            0.10479764640331268,
                            0.019111275672912598,
                            -0.03444854915142059,
                            -0.013483688235282898,
                            0.010187268257141113,
                            0.07071156799793243,
                            -0.020162582397460938,
                            0.06780321896076202,
                            0.10896791517734528,
                            -0.10719577968120575,
                            0.0848330408334732,
                            0.10856987535953522,
                            0.15211720764636993,
                            -0.13107311725616455,
                            0.154207244515419,
                            -0.1432269811630249,
                            0.007014229893684387
                        ],
                        [
                            -0.07939402759075165,
                            0.03992529213428497,
                            0.15731067955493927,
                            0.10466863214969635,
                            -0.09329923242330551,
                            -0.0711274966597557,
                            -0.025707527995109558,
                            0.1396641880273819,
                            0.06661362946033478,
                            0.054998040199279785,
                            -0.08007284253835678,
                            -0.06130222976207733,
                            -0.027699992060661316,
                            0.023871853947639465,
                            0.01025073230266571,
                            0.14230342209339142,
                            -0.10997676849365234,
                            0.09001342952251434,
                            0.1302911788225174,
                            -0.0821441039443016,
                            -0.15795080363750458,
                            -0.14657220244407654,
                            0.10013024508953094,
                            0.06897823512554169,
                            0.08798877894878387,
                            0.04132489860057831,
                            0.0900401622056961,
                            0.1177712231874466,
                            -0.1323333978652954,
                            -0.07785272598266602,
                            0.12243004143238068,
                            0.13971631228923798,
                            -0.10813220590353012,
                            0.10652972757816315,
                            -0.056508466601371765,
                            0.15704114735126495
                        ],
                        [
                            0.07477410137653351,
                            -0.16255640983581543,
                            0.08227460086345673,
                            -0.1657753884792328,
                            -0.023442551493644714,
                            0.0548551082611084,
                            -0.13324689865112305,
                            0.10771121084690094,
                            -0.14252440631389618,
                            0.01611204445362091,
                            0.007901862263679504,
                            -0.00293143093585968,
                            -0.14596793055534363,
                            0.0852445513010025,
                            -0.1261531561613083,
                            0.023192569613456726,
                            -0.044075608253479004,
                            0.03148992359638214,
                            -0.10957201570272446,
                            -0.0029924362897872925,
                            -0.12215113639831543,
                            -0.00824098289012909,
                            -0.09792236983776093,
                            -0.02007770538330078,
                            0.13759581744670868,
                            0.05247978866100311,
                            -0.014474943280220032,
                            0.08182685077190399,
                            -0.060899339616298676,
                            -0.10998587310314178,
                            -0.06201796233654022,
                            -0.004031777381896973,
                            -0.1664925068616867,
                            -0.10478504747152328,
                            -0.01337122917175293,
                            0.024827316403388977
                        ],
                        [
                            -0.02322971820831299,
                            -0.0709274634718895,
                            -0.02973361313343048,
                            0.10958482325077057,
                            -0.030732110142707825,
                            -0.06980200856924057,
                            -0.04796576499938965,
                            -0.062328219413757324,
                            0.08245666325092316,
                            0.06973958015441895,
                            -0.027345731854438782,
                            -0.13327693939208984,
                            -0.054131075739860535,
                            0.024025321006774902,
                            -0.09530182927846909,
                            -0.15909337997436523,
                            0.07820208370685577,
                            0.14899267256259918,
                            -0.054852329194545746,
                            0.14912499487400055,
                            -0.103091761469841,
                            -0.12083180993795395,
                            -0.07400290668010712,
                            -0.1409926861524582,
                            0.05511780083179474,
                            0.02250058948993683,
                            -0.09674744307994843,
                            0.08525212109088898,
                            0.03376905620098114,
                            0.11141504347324371,
                            0.05811452865600586,
                            0.10945411026477814,
                            -0.05285827815532684,
                            -0.14175662398338318,
                            0.04523523151874542,
                            -0.09548294544219971
                        ],
                        [
                            -0.12880778312683105,
                            0.05410492420196533,
                            0.0024446994066238403,
                            0.08986438810825348,
                            -0.03455476462841034,
                            0.10706456005573273,
                            0.1594689041376114,
                            -0.04718983173370361,
                            -0.11062026023864746,
                            -0.11337034404277802,
                            -0.11637675762176514,
                            -0.1412958800792694,
                            0.041921257972717285,
                            -0.003007248044013977,
                            0.09297241270542145,
                            -0.13157165050506592,
                            0.12506164610385895,
                            -0.08139936625957489,
                            -0.1386147439479828,
                            0.0947088748216629,
                            -0.0508834570646286,
                            -0.14434866607189178,
                            0.15566439926624298,
                            -0.006740137934684753,
                            0.11354793608188629,
                            -0.1411571502685547,
                            0.02999110519886017,
                            0.11788560450077057,
                            0.07510900497436523,
                            -0.047974586486816406,
                            -0.05473653972148895,
                            -0.15687605738639832,
                            0.11901135742664337,
                            -0.11030276864767075,
                            0.13304512202739716,
                            0.04068906605243683
                        ],
                        [
                            0.11520092189311981,
                            -0.04497480392456055,
                            0.13541103899478912,
                            -0.16292569041252136,
                            0.06772947311401367,
                            0.08039931952953339,
                            0.011110305786132812,
                            0.11124928295612335,
                            -0.14298388361930847,
                            -0.07490670680999756,
                            -0.09956073760986328,
                            -0.02867428958415985,
                            0.11637024581432343,
                            0.09518273174762726,
                            -0.042771339416503906,
                            0.1514720469713211,
                            -0.16216318309307098,
                            -0.045670270919799805,
                            0.026265904307365417,
                            -0.041167065501213074,
                            0.14045600593090057,
                            0.023544952273368835,
                            0.0664529800415039,
                            -0.042452216148376465,
                            0.0905722826719284,
                            -0.00038211047649383545,
                            -0.10885095596313477,
                            0.11777730286121368,
                            -0.035643577575683594,
                            0.089829221367836,
                            0.11706666648387909,
                            -0.15132877230644226,
                            -0.08248170465230942,
                            0.10158388316631317,
                            0.04693102836608887,
                            -0.09658646583557129
                        ],
                        [
                            -0.10434623807668686,
                            0.02850627899169922,
                            0.13514344394207,
                            0.09535212814807892,
                            -0.025913238525390625,
                            -0.1527501344680786,
                            0.1389252096414566,
                            -0.0539475679397583,
                            -0.0752687081694603,
                            -0.1536133736371994,
                            0.039899423718452454,
                            -0.0030823945999145508,
                            0.07080753147602081,
                            0.13515140116214752,
                            0.04172416031360626,
                            0.05382335186004639,
                            -0.10050734132528305,
                            -0.10588761419057846,
                            0.1610349863767624,
                            -0.033286139369010925,
                            -0.0748506411910057,
                            -0.1530071198940277,
                            -0.06946214288473129,
                            0.06255082786083221,
                            -0.1394391506910324,
                            0.0785541981458664,
                            0.10557098686695099,
                            -0.04124307632446289,
                            0.16396082937717438,
                            -0.15898339450359344,
                            0.0823930948972702,
                            0.055398061871528625,
                            0.0552339106798172,
                            -0.10371323674917221,
                            -0.1061982735991478,
                            -0.09235867112874985
                        ],
                        [
                            0.14110000431537628,
                            -0.03652048110961914,
                            0.06324474513530731,
                            -0.13009700179100037,
                            -0.06842955201864243,
                            0.10217989981174469,
                            0.0018975287675857544,
                            -0.03468410670757294,
                            0.041228652000427246,
                            0.09519059956073761,
                            -0.09966322034597397,
                            0.08819068968296051,
                            0.14150424301624298,
                            0.04594035446643829,
                            -0.05965237319469452,
                            -0.12297201156616211,
                            -0.08346192538738251,
                            0.11977116763591766,
                            0.026668384671211243,
                            0.07480959594249725,
                            -0.10708614438772202,
                            -0.15165095031261444,
                            -0.026552677154541016,
                            0.06263744831085205,
                            0.11360760033130646,
                            -0.06762926280498505,
                            -0.08618831634521484,
                            -0.023538395762443542,
                            -0.11465080827474594,
                            -0.05253811925649643,
                            0.12274987995624542,
                            0.14021392166614532,
                            -0.13119260966777802,
                            0.14426757395267487,
                            -0.15852217376232147,
                            -0.06796674430370331
                        ],
                        [
                            0.08756305277347565,
                            -0.10869284719228745,
                            -0.06137927621603012,
                            0.043506503105163574,
                            0.013923242688179016,
                            -0.007964372634887695,
                            -0.08828258514404297,
                            0.11116082966327667,
                            -0.1030091866850853,
                            0.0921303778886795,
                            -0.020699217915534973,
                            -0.038057371973991394,
                            -0.018725797533988953,
                            -0.1341523379087448,
                            -0.06254299730062485,
                            0.16321571171283722,
                            0.11844973266124725,
                            0.15982036292552948,
                            0.09180445969104767,
                            0.1486554890871048,
                            -0.1270904242992401,
                            -0.0025321990251541138,
                            0.09139244258403778,
                            0.010539248585700989,
                            0.12506641447544098,
                            0.01997821033000946,
                            0.13786913454532623,
                            0.03030557930469513,
                            0.12649352848529816,
                            0.11528338491916656,
                            -0.14971701800823212,
                            0.14992894232273102,
                            -0.12595844268798828,
                            -0.15718793869018555,
                            -0.11708299815654755,
                            0.07138986885547638
                        ],
                        [
                            -0.13449105620384216,
                            -0.046610914170742035,
                            -0.0041628628969192505,
                            0.15549011528491974,
                            0.06447601318359375,
                            0.030217692255973816,
                            0.13233618438243866,
                            0.06772808730602264,
                            -0.034835055470466614,
                            -0.05606846511363983,
                            0.0269392728805542,
                            0.09007887542247772,
                            -0.07689563930034637,
                            -0.018677040934562683,
                            0.0879322737455368,
                            0.027024343609809875,
                            0.008258417248725891,
                            -0.1576053351163864,
                            0.028531625866889954,
                            -0.01568770408630371,
                            0.09070147573947906,
                            -0.15229904651641846,
                            0.06960888206958771,
                            0.0835987776517868,
                            -0.11097590625286102,
                            -0.08522216975688934,
                            0.11666662991046906,
                            0.052014753222465515,
                            0.09445567429065704,
                            -0.003594115376472473,
                            0.005172565579414368,
                            0.15544189512729645,
                            -0.1391354501247406,
                            -0.09575717151165009,
                            -0.028905555605888367,
                            0.11691005527973175
                        ],
                        [
                            -0.15432123839855194,
                            0.03263683617115021,
                            -0.07061191648244858,
                            0.10640241205692291,
                            -0.09854038804769516,
                            -0.06865482032299042,
                            -0.1320292204618454,
                            -0.12290330976247787,
                            0.05874614417552948,
                            -0.1594785898923874,
                            -0.1613573282957077,
                            -0.08737548440694809,
                            0.0027965307235717773,
                            -0.0605723112821579,
                            -0.003258034586906433,
                            -0.11103399842977524,
                            0.04070909321308136,
                            -0.13086387515068054,
                            0.09036155045032501,
                            -0.13919806480407715,
                            -0.1480562388896942,
                            0.018079474568367004,
                            -0.035388752818107605,
                            0.10631467401981354,
                            0.007102206349372864,
                            -0.12228624522686005,
                            0.08889882266521454,
                            0.08222229778766632,
                            -0.07985961437225342,
                            0.09849925339221954,
                            -0.007589459419250488,
                            0.02980053424835205,
                            -0.1562041938304901,
                            0.01298515498638153,
                            -0.06089811027050018,
                            -0.046388231217861176
                        ],
                        [
                            -0.14638277888298035,
                            -0.07134704291820526,
                            0.09908156096935272,
                            0.11562259495258331,
                            0.1322377473115921,
                            -0.0674041137099266,
                            0.1360720843076706,
                            0.15693213045597076,
                            -0.06784801185131073,
                            -0.03961329162120819,
                            -0.07504396140575409,
                            0.026130840182304382,
                            0.022278904914855957,
                            0.01415686309337616,
                            -0.05188866704702377,
                            0.14770667254924774,
                            0.11014415323734283,
                            0.03648686408996582,
                            0.0569051057100296,
                            -0.07316084951162338,
                            0.04363720118999481,
                            0.057541295886039734,
                            0.0689728707075119,
                            0.15708713233470917,
                            -0.05403590202331543,
                            0.053690120577812195,
                            -0.09650024026632309,
                            0.028804540634155273,
                            0.05406610667705536,
                            -0.07818078994750977,
                            -0.07360617816448212,
                            0.14151979982852936,
                            0.13558895885944366,
                            0.054912641644477844,
                            -0.036278560757637024,
                            0.04960067570209503
                        ]
                    ],
                    [
                        [
                            0.09293446689844131,
                            -0.007519723381847143,
                            -0.09544528275728226,
                            0.040681641548871994,
                            -0.01463098730891943,
                            -0.032067231833934784,
                            0.08519034832715988,
                            -0.08310407400131226,
                            0.14615319669246674,
                            0.11094975471496582,
                            0.12958887219429016,
                            -0.0601775087416172,
                            0.029218047857284546,
                            -0.12189297378063202,
                            -0.1490413397550583,
                            -0.05527658388018608,
                            0.025797203183174133,
                            0.05348365753889084,
                            0.04441554471850395,
                            -0.012905660085380077,
                            -0.05860220640897751,
                            -0.07221103459596634,
                            0.06525064259767532,
                            0.000778841320425272,
                            -0.16905848681926727,
                            0.17941100895404816,
                            -0.0977306216955185,
                            0.057021643966436386,
                            0.10209491103887558,
                            -0.04652473330497742,
                            0.12715907394886017,
                            -0.15316060185432434,
                            -0.13584332168102264,
                            -0.12690307199954987,
                            -0.0747978687286377,
                            -0.11981140822172165
                        ],
                        [
                            -0.03566636145114899,
                            -0.031088359653949738,
                            -0.1417757123708725,
                            0.13649821281433105,
                            -0.08980084210634232,
                            -0.13682836294174194,
                            0.01121907401829958,
                            0.07881303131580353,
                            0.00625829491764307,
                            -0.06287217885255814,
                            0.10966518521308899,
                            -0.014708662405610085,
                            -0.1297190934419632,
                            0.1105036735534668,
                            -0.13809964060783386,
                            -0.04650456830859184,
                            0.045239683240652084,
                            0.08080945163965225,
                            -0.06877592951059341,
                            0.04673706740140915,
                            0.09903625398874283,
                            0.016129475086927414,
                            -0.09990792721509933,
                            -0.10170955955982208,
                            -0.10204154998064041,
                            -0.06442530453205109,
                            0.0894140675663948,
                            0.09549911320209503,
                            0.12646980583667755,
                            0.18078835308551788,
                            0.10225588083267212,
                            -0.09988896548748016,
                            -0.17210209369659424,
                            0.11557701975107193,
                            -0.1184939369559288,
                            0.011972137726843357
                        ],
                        [
                            0.09531978517770767,
                            -0.008659688755869865,
                            0.10149458050727844,
                            -0.13306564092636108,
                            -0.03979269787669182,
                            -0.13176798820495605,
                            -0.15247634053230286,
                            0.08556059002876282,
                            -0.1527451127767563,
                            0.1537903994321823,
                            0.10183083266019821,
                            -0.07032468914985657,
                            0.0343514122068882,
                            -0.1269027292728424,
                            0.14022310078144073,
                            0.15399888157844543,
                            -0.06301321089267731,
                            0.18255551159381866,
                            0.13457298278808594,
                            0.11942197382450104,
                            0.08137562870979309,
                            0.11289740353822708,
                            0.0086478590965271,
                            0.0678648054599762,
                            0.11742036789655685,
                            0.1003895029425621,
                            0.11351244896650314,
                            -0.03040890209376812,
                            0.06522909551858902,
                            0.04872755706310272,
                            -0.03000705875456333,
                            0.03391987085342407,
                            0.014754602685570717,
                            -0.03518994525074959,
                            0.09515300393104553,
                            0.023408813402056694
                        ],
                        [
                            -0.07061890512704849,
                            0.027641648426651955,
                            -0.18824955821037292,
                            -0.050395749509334564,
                            0.08891096711158752,
                            0.06531921029090881,
                            0.0028840871527791023,
                            -0.10862396657466888,
                            -0.1862145960330963,
                            0.03984208405017853,
                            -0.03765801712870598,
                            0.015170079655945301,
                            -0.11404627561569214,
                            0.0043206424452364445,
                            -0.06704321503639221,
                            0.07147900760173798,
                            -0.02610304392874241,
                            -0.029137184843420982,
                            -0.18677203357219696,
                            -0.13185635209083557,
                            -0.0636647641658783,
                            0.015168760903179646,
                            0.09085293114185333,
                            0.07979404181241989,
                            0.12014033645391464,
                            0.033073361963033676,
                            0.02633328177034855,
                            0.027807779610157013,
                            0.021240275353193283,
                            -0.13843822479248047,
                            -0.16534365713596344,
                            0.03633679449558258,
                            -0.12188072502613068,
                            -0.10112161934375763,
                            -0.13402120769023895,
                            -0.1362515091896057
                        ],
                        [
                            -0.10842463374137878,
                            -0.0889124721288681,
                            0.15136374533176422,
                            -0.015771742910146713,
                            0.011554445140063763,
                            -0.038654472678899765,
                            0.09007564187049866,
                            -0.0595051571726799,
                            0.1801701933145523,
                            -0.17123962938785553,
                            0.025436611846089363,
                            0.09803310036659241,
                            0.014922837726771832,
                            -0.13326501846313477,
                            0.058603450655937195,
                            -0.1160094365477562,
                            0.04143165051937103,
                            -0.03585058078169823,
                            -0.09144043177366257,
                            -0.05790496617555618,
                            0.042970892041921616,
                            -0.07332038134336472,
                            0.17516762018203735,
                            -0.045261938124895096,
                            -0.16869351267814636,
                            -0.12757624685764313,
                            0.0910332202911377,
                            -0.035728927701711655,
                            -0.0033654954750090837,
