{
    "in_shape": [
        null,
        150,
        1
    ],
    "layers": [
        {
            "type": "conv1d",
            "activation": "",
            "shape": [
                null,
                13,
                16
            ],
            "kernel_size": [
                12
            ],
            "dilation": [
                1
            ],
            "groups": 1,
            "weights": [
                [
                    [
                        [
                            1.121762990951538,
                            2.258755683898926,
                            5.912161350250244,
                            -0.8775400519371033,
                            2.6617307662963867,
                            4.2890305519104,
                            0.9992015957832336,
                            7.582935810089111,
                            -1.9849097728729248,
                            1.4109766483306885,
                            5.296838283538818,
                            0.23403942584991455,
                            -5.732742786407471,
                            -1.9221440553665161,
                            0.4015096127986908,
                            -2.899510383605957
                        ]
                    ],
                    [
                        [
                            0.11393892765045166,
                            -0.05766439810395241,
                            -0.6615200638771057,
                            -1.5114476680755615,
                            1.1625497341156006,
                            -0.2980973720550537,
                            -0.3847814202308655,
                            0.6438858509063721,
                            -0.06730065494775772,
                            0.23451250791549683,
                            -0.14574070274829865,
                            -0.4830976128578186,
                            0.3872530162334442,
                            -0.06590092182159424,
                            0.13392849266529083,
                            -3.741304397583008
                        ]
                    ],
                    [
                        [
                            -1.2901664972305298,
                            -1.1492592096328735,
                            -5.328231334686279,
                            -2.2713615894317627,
                            0.8829434514045715,
                            -4.190273761749268,
                            -0.588100790977478,
                            -4.310242652893066,
                            2.200366497039795,
                            -1.872353196144104,
                            -4.222058296203613,
                            0.3861885070800781,
                            4.885119915008545,
                            2.070448637008667,
                            -0.6477534174919128,
                            -4.346523761749268
                        ]
                    ],
                    [
                        [
                            -3.233279228210449,
                            1.0014644861221313,
                            -6.477092742919922,
                            -6.54423713684082,
                            3.38677978515625,
                            -6.095672607421875,
                            0.9620708227157593,
                            -7.696106910705566,
                            3.933547019958496,
                            -3.414518117904663,
                            -10.860525131225586,
                            4.310604572296143,
                            9.392581939697266,
                            3.867246389389038,
                            -3.3637354373931885,
                            -7.266940116882324
                        ]
                    ],
                    [
                        [
                            -1.3722952604293823,
                            1.7428784370422363,
                            -2.5672061443328857,
                            -2.5693628787994385,
                            0.9705749750137329,
                            -2.160266876220703,
                            0.9554964900016785,
                            -4.5416083335876465,
                            1.7783565521240234,
                            -1.692798137664795,
                            -5.092265605926514,
                            2.233487844467163,
                            3.968895673751831,
                            2.089050531387329,
                            -1.2579882144927979,
                            -2.817772626876831
                        ]
                    ],
                    [
                        [
                            4.333556652069092,
                            -2.258409261703491,
                            5.917606830596924,
                            4.420017719268799,
                            -5.021343231201172,
                            6.446802139282227,
                            -1.5469200611114502,
                            -0.5490769147872925,
                            -3.4750070571899414,
                            3.077242612838745,
                            3.7302234172821045,
                            -3.355146646499634,
                            -5.396899223327637,
                            -3.107773542404175,
                            4.608501434326172,
                            3.629124402999878
                        ]
                    ],
                    [
                        [
                            5.232064247131348,
                            -3.887796640396118,
                            7.5955586433410645,
                            6.799285888671875,
                            -7.082763195037842,
                            8.250890731811523,
                            -2.1284756660461426,
                            1.7335197925567627,
                            -4.770938873291016,
                            4.12758207321167,
                            7.596502304077148,
                            -4.93159294128418,
                            -8.390856742858887,
                            -4.730884075164795,
                            5.588613510131836,
                            6.633697986602783
                        ]
                    ],
                    [
                        [
                            -1.0209311246871948,
                            -0.5153144598007202,
                            -0.729780375957489,
                            1.8618789911270142,
                            -2.6151602268218994,
                            -1.1863301992416382,
                            0.9622892737388611,
                            2.283165216445923,
                            0.5878766775131226,
                            -0.63791424036026,
                            2.075105667114258,
                            0.36483365297317505,
                            -0.6558733582496643,
                            0.5562720894813538,
                            -1.1730546951293945,
                            4.259477138519287
                        ]
                    ],
                    [
                        [
                            -3.504828453063965,
                            -1.8952771425247192,
                            -3.54127836227417,
                            1.205212950706482,
                            -1.6029183864593506,
                            -4.808468818664551,
                            1.0334343910217285,
                            4.697273254394531,
                            2.138076066970825,
                            -1.8704383373260498,
                            1.6118172407150269,
                            1.7129323482513428,
                            1.4552901983261108,
                            1.6895548105239868,
                            -4.1710004806518555,
                            3.9146506786346436
                        ]
                    ],
                    [
                        [
                            -0.4757794141769409,
                            0.5818122029304504,
                            0.4649624824523926,
                            -2.0005078315734863,
                            -1.9353030920028687,
                            -1.3453478813171387,
                            -0.45229026675224304,
                            -0.7746783494949341,
                            0.8369875550270081,
                            -0.19804464280605316,
                            -0.9156591892242432,
                            0.4946676194667816,
                            0.8611165881156921,
                            0.46675577759742737,
                            -0.5450128316879272,
                            -1.2102946043014526
                        ]
                    ],
                    [
                        [
                            -0.27150896191596985,
                            -1.024491310119629,
                            -0.10416984558105469,
                            -0.2485276609659195,
                            0.8423829674720764,
                            -0.5206708908081055,
                            -0.5732220411300659,
                            -0.21383202075958252,
                            0.08489560335874557,
                            0.08619269728660583,
                            -0.12414044886827469,
                            -0.36037498712539673,
                            0.30612218379974365,
                            -0.06593666970729828,
                            -0.37706252932548523,
                            0.5753721594810486
                        ]
                    ],
                    [
                        [
                            0.9065520167350769,
                            -1.5849947929382324,
                            -0.48095956444740295,
                            1.2749364376068115,
                            8.25274658203125,
                            1.8230581283569336,
                            1.174015998840332,
                            1.1216543912887573,
                            -0.8128156065940857,
                            -0.19139936566352844,
                            0.7823655009269714,
                            0.0773458182811737,
                            -0.8003397583961487,
                            -0.11191751062870026,
                            0.9700770378112793,
                            2.814656972885132
                        ]
                    ]
                ],
                [
                    0.03245871141552925,
                    0.030151743441820145,
                    0.026889871805906296,
                    0.0013328115455806255,
                    -0.001800700556486845,
                    0.016824916005134583,
                    0.02017122693359852,
                    0.02377939783036709,
                    -0.030259430408477783,
                    0.03544796258211136,
                    0.015164261683821678,
                    0.01020426768809557,
                    -0.027278238907456398,
                    0.008008643984794617,
                    0.02000001259148121,
                    0.012128215283155441
                ]
            ]
        },
        {
            "type": "conv1d",
            "activation": "",
            "shape": [
                null,
                2,
                16
            ],
            "kernel_size": [
                12
            ],
            "dilation": [
                1
            ],
            "groups": 1,
            "weights": [
                [
                    [
                        [
                            -0.6782592535018921,
                            0.03913237899541855,
                            0.6742555499076843,
                            0.2544100880622864,
                            0.1204242929816246,
                            -0.45766615867614746,
                            0.02472037635743618,
                            -0.617857813835144,
                            -0.3807067275047302,
                            0.003496455028653145,
                            0.12638697028160095,
                            0.09033636748790741,
                            -0.2417021542787552,
                            0.021224360913038254,
                            -0.01465698704123497,
                            0.1840153932571411
                        ],
                        [
                            0.7658872008323669,
                            -1.5051984786987305,
                            -0.08892470598220825,
                            3.2135069370269775,
                            -0.48289602994918823,
                            -1.430389642715454,
                            -2.842527389526367,
                            -0.9805045127868652,
                            1.6514067649841309,
                            5.665505409240723,
                            -2.959613800048828,
                            -2.2701759338378906,
                            -1.329878568649292,
                            1.5100266933441162,
                            -0.5948254466056824,
                            1.8748527765274048
                        ],
                        [
                            -0.9318059682846069,
                            0.02126719243824482,
                            0.8847094178199768,
                            0.19917061924934387,
                            1.1518853902816772,
                            0.01110054925084114,
                            1.1236448287963867,
                            -0.0025307675823569298,
                            -1.1067315340042114,
                            -2.0455732345581055,
                            0.7471473217010498,
                            0.5321117639541626,
                            -0.09398236125707626,
                            -0.2848187983036041,
                            0.6946192383766174,
                            0.267183393239975
                        ],
                        [
                            0.3601713478565216,
                            0.42213743925094604,
                            -0.7784393429756165,
                            -1.6270365715026855,
                            -1.3371655941009521,
                            -1.6536413431167603,
                            -1.06687331199646,
                            -0.35196858644485474,
                            0.4376767873764038,
                            0.8169329762458801,
                            -3.076862335205078,
                            -0.8383119702339172,
                            -0.2268172949552536,
                            1.785513162612915,
                            0.8816528916358948,
                            -0.3021678030490875
                        ],
                        [
                            2.358658790588379,
                            0.9342922568321228,
                            -0.4246528744697571,
                            0.729727566242218,
                            -1.557632327079773,
                            -0.38425159454345703,
                            -1.4989984035491943,
                            -0.18190596997737885,
                            -0.18818418681621552,
                            -0.30821406841278076,
                            -1.3047376871109009,
                            0.280714213848114,
                            -0.6160979270935059,
                            -0.30286914110183716,
                            0.09091964364051819,
                            -1.0335602760314941
                        ],
                        [
                            -0.4521986246109009,
                            0.0032306131906807423,
                            0.3545125722885132,
                            0.0457705594599247,
                            0.3835794925689697,
                            -0.22907379269599915,
                            0.3831948935985565,
                            -0.5447407364845276,
                            -0.7767806053161621,
                            -1.3259655237197876,
                            0.4536260664463043,
                            0.39036086201667786,
                            -0.001050489372573793,
                            -0.020749934017658234,
                            0.7531781792640686,
                            -0.2336317002773285
                        ],
                        [
                            0.20244334638118744,
                            -0.2641198933124542,
                            0.653796374797821,
                            0.4237184226512909,
                            0.21866191923618317,
                            -0.20024360716342926,
                            0.1435132473707199,
                            0.23414036631584167,
                            -0.20215585827827454,
                            -0.35524341464042664,
                            -0.514765202999115,
                            -0.1965857893228531,
                            -0.35284534096717834,
                            0.24304065108299255,
                            0.49278852343559265,
                            0.35749655961990356
                        ],
                        [
                            -1.5776857137680054,
                            0.04226536676287651,
                            1.4363415241241455,
                            1.02109694480896,
                            1.1910306215286255,
                            0.6682812571525574,
                            1.345790982246399,
                            1.0003546476364136,
                            -1.412144660949707,
                            -2.43033504486084,
                            1.729013442993164,
                            0.6925936341285706,
                            -0.026913393288850784,
                            -0.8039820790290833,
                            0.15789440274238586,
                            0.10494264215230942
                        ],
                        [
                            0.03848782926797867,
                            0.304339736700058,
                            0.6471680998802185,
                            0.1768593192100525,
                            0.1420673131942749,
                            0.3178524374961853,
                            0.3733797073364258,
                            -0.08859327435493469,
                            -0.36564281582832336,
                            -0.06499771773815155,
                            0.3836248219013214,
                            0.2844437062740326,
                            -0.03610539808869362,
                            -0.03685680404305458,
                            -0.03069794364273548,
                            0.02600940875709057
                        ],
                        [
                            0.0589141882956028,
                            -0.16624996066093445,
                            0.0532999150454998,
                            0.09143861383199692,
                            0.020701326429843903,
                            0.13425800204277039,
                            -0.2458275705575943,
                            -0.12508952617645264,
                            0.017498165369033813,
                            0.5348387956619263,
                            -0.12165743857622147,
                            0.015895916149020195,
                            0.2152675837278366,
                            -0.06058339402079582,
                            -0.1284622997045517,
                            0.048669446259737015
                        ],
                        [
                            -1.115727186203003,
                            0.16408436000347137,
                            0.8857576847076416,
                            -0.0886809378862381,
                            0.8011104464530945,
                            0.03145546093583107,
                            0.7980138063430786,
                            0.6345094442367554,
                            -1.3572428226470947,
                            -1.9696083068847656,
                            0.7046687602996826,
                            0.527534008026123,
                            -0.03388601914048195,
                            0.02087012305855751,
                            0.1710352599620819,
                            -0.4875141680240631
                        ],
                        [
                            -0.3882678151130676,
                            -0.3036313056945801,
                            0.09576243907213211,
                            0.3231635093688965,
                            0.9930048584938049,
                            -0.00016084383241832256,
                            1.2513434886932373,
                            0.31473222374916077,
                            -0.18353530764579773,
                            -1.931886076927185,
                            1.0913954973220825,
                            0.5935074687004089,
                            -0.12627877295017242,
                            -0.21797241270542145,
                            0.024377968162298203,
                            -0.053961075842380524
                        ],
                        [
                            1.1411794424057007,
                            -0.49136194586753845,
                            -0.759947657585144,
                            -0.071514792740345,
                            -0.9218729138374329,
                            -0.4299750328063965,
                            -1.3388090133666992,
                            -0.5147578120231628,
                            1.6463313102722168,
                            1.8760802745819092,
                            -1.038135051727295,
                            -0.7010201215744019,
                            -0.030937884002923965,
                            0.4652456045150757,
                            -0.13133910298347473,
                            0.3475255072116852
                        ],
                        [
                            -0.28345733880996704,
                            -0.2044183760881424,
                            0.01308949664235115,
                            0.3276233971118927,
                            0.09472538530826569,
                            0.0897725448012352,
                            0.3863358199596405,
                            0.3065406084060669,
                            0.26546695828437805,
                            -0.2812604010105133,
                            0.18916992843151093,
                            0.02041098102927208,
                            -0.19534772634506226,
                            -0.001192757859826088,
                            -0.10969444364309311,
                            0.27137044072151184
                        ],
                        [
                            -0.3185943067073822,
                            -0.16853195428848267,
                            0.44366753101348877,
                            -0.08647061139345169,
                            0.2078055441379547,
                            -0.011729100719094276,
                            0.319937527179718,
                            -0.26113221049308777,
                            -0.4081854522228241,
                            -0.2045605331659317,
                            -0.09652572870254517,
                            0.16727864742279053,
                            0.5041080117225647,
                            0.18558964133262634,
                            0.033464737236499786,
                            0.029100827872753143
                        ],
                        [
                            1.2027148008346558,
                            -0.11112256348133087,
                            -1.0514777898788452,
                            -1.4228050708770752,
                            -1.6636080741882324,
                            -2.1913864612579346,
                            -0.8085999488830566,
                            -0.17996016144752502,
                            0.8601115942001343,
                            0.5261655449867249,
                            -5.069547653198242,
                            -1.3763185739517212,
                            0.3344573676586151,
                            3.883631944656372,
                            1.9763466119766235,
                            -0.14445967972278595
                        ]
                    ],
                    [
                        [
                            -0.06263875216245651,
                            0.032182421535253525,
                            -0.6731029152870178,
                            0.034179989248514175,
                            -0.13413330912590027,
                            0.08459920436143875,
                            0.07104770094156265,
                            -0.2029106318950653,
                            0.09456716477870941,
                            0.01644163951277733,
                            -0.031866561621427536,
                            -0.2604782283306122,
                            0.5719575881958008,
                            0.08419854938983917,
                            0.4808165729045868,
                            0.2248162031173706
                        ],
                        [
                            -0.21446004509925842,
                            -0.26103001832962036,
                            -0.19585174322128296,
                            -0.008402388542890549,
                            0.5818348526954651,
                            0.9896253943443298,
                            -0.678353488445282,
                            0.1585206240415573,
                            -0.18947184085845947,
                            1.6202425956726074,
                            1.2671711444854736,
                            -1.0024036169052124,
                            -1.004573941230774,
                            -1.724875807762146,
                            0.6680630445480347,
                            -0.06934404373168945
                        ],
                        [
                            0.4320937991142273,
                            -0.23475335538387299,
                            -0.9967373013496399,
                            0.33456191420555115,
                            -0.1516381949186325,
                            -0.33558934926986694,
                            -0.6613687872886658,
                            0.1352732628583908,
                            0.5589408278465271,
                            1.0236518383026123,
                            0.050444021821022034,
                            0.27404099702835083,
                            1.307855248451233,
                            0.41757339239120483,
                            -0.6003373861312866,
                            1.0492922067642212
                        ],
                        [
                            -0.7798494100570679,
                            0.3672632575035095,
                            0.6709608435630798,
                            -0.49515828490257263,
                            0.6787118911743164,
                            -0.27039414644241333,
                            0.6599733829498291,
                            0.38679802417755127,
                            -1.2660936117172241,
                            -2.791450262069702,
                            -0.49671852588653564,
                            0.13483338057994843,
                            -0.7569270133972168,
                            0.8526279330253601,
                            1.2844685316085815,
                            -0.566209614276886
                        ],
                        [
                            -0.7191757559776306,
                            -0.26339292526245117,
                            -0.001989037496969104,
                            0.26616427302360535,
                            -0.526587963104248,
                            0.1589004546403885,
                            0.03420308604836464,
                            0.5017997026443481,
                            0.26274797320365906,
                            -0.4984818696975708,
                            -0.626148521900177,
                            1.1733765602111816,
                            -1.3717516660690308,
                            -0.14548949897289276,
                            0.31378573179244995,
                            -0.3037349283695221
                        ],
                        [
                            0.029818641021847725,
                            -0.46551743149757385,
                            -0.8274180293083191,
                            -0.45181283354759216,
                            -0.06406296044588089,
                            -0.4692561626434326,
                            0.07276647537946701,
                            0.47535938024520874,
                            0.3862544000148773,
                            -0.22206628322601318,
                            -0.025883758440613747,
                            0.03554518148303032,
                            0.964461088180542,
                            0.12991592288017273,
                            -0.23551388084888458,
                            0.1102711483836174
                        ],
                        [
                            -0.13114632666110992,
                            -0.7571967244148254,
                            -0.09173065423965454,
                            -0.25514501333236694,
                            -0.21354515850543976,
                            0.16915616393089294,
                            -0.10418235510587692,
                            -0.05790593847632408,
                            -0.08925826102495193,
                            0.06475550681352615,
                            0.4550841450691223,
                            0.005614787805825472,
                            0.3795349895954132,
                            -0.22289223968982697,
                            -0.6390209794044495,
                            0.2559579014778137
                        ],
                        [
                            0.7860236167907715,
                            -0.3219142258167267,
                            0.39379870891571045,
                            -0.10514909029006958,
                            -0.13923843204975128,
                            -0.5687368512153625,
                            -0.3995910584926605,
                            -0.311176061630249,
                            0.6930223107337952,
                            0.4667128324508667,
                            -0.04769904166460037,
                            0.2585245370864868,
                            0.6710985898971558,
                            0.25453701615333557,
                            0.058058615773916245,
                            -0.051196448504924774
                        ],
                        [
                            -0.025352085009217262,
                            -0.10881572961807251,
                            -0.3293877840042114,
                            0.10362083464860916,
                            -0.6222231388092041,
                            -0.07175667583942413,
                            -0.16141189634799957,
                            -0.08048150688409805,
                            -0.0827605202794075,
                            0.7143971920013428,
                            -0.1046668142080307,
                            0.2242269068956375,
                            0.3459235727787018,
                            0.016671204939484596,
                            -0.1580975502729416,
                            0.30199772119522095
                        ],
                        [
                            -0.3995024263858795,
                            0.35742637515068054,
                            0.4329988360404968,
                            0.12570665776729584,
                            0.5116719007492065,
                            0.01656770333647728,
                            0.1200728788971901,
                            0.0906401127576828,
                            -0.3998055160045624,
                            -0.2944495379924774,
                            -0.12630516290664673,
                            -0.06701185554265976,
                            -0.18728621304035187,
                            0.09754128009080887,
                            0.38509970903396606,
                            -0.15216925740242004
                        ],
                        [
                            0.5189446210861206,
                            -0.17119473218917847,
                            0.5408026576042175,
                            -0.4407196044921875,
                            0.0955967828631401,
                            -0.2602517008781433,
                            0.21181295812129974,
                            0.13624542951583862,
                            -0.5280415415763855,
                            -0.7895756363868713,
                            0.33002668619155884,
                            -0.06977412849664688,
                            1.112747073173523,
                            0.24352917075157166,
                            0.30771034955978394,
                            0.023731382563710213
                        ],
                        [
                            0.24555501341819763,
                            -0.2727101147174835,
                            -0.7464237809181213,
                            -0.5854892730712891,
                            -0.5391901731491089,
                            -0.3343549072742462,
                            -0.4579608142375946,
                            0.35801294445991516,
                            0.8753536939620972,
                            1.4741686582565308,
                            -0.198571115732193,
                            0.008167689666152,
                            0.5020439028739929,
                            0.3173632025718689,
                            -0.2814241945743561,
                            0.29838037490844727
                        ],
                        [
                            -0.3992236852645874,
                            0.575791597366333,
                            0.2858937978744507,
                            0.36035025119781494,
                            0.04471123218536377,
                            0.2669285833835602,
                            0.0046503981575369835,
                            -0.1892964392900467,
                            0.2088533490896225,
                            0.2105002999305725,
                            -0.21536028385162354,
                            0.26871639490127563,
                            -1.5184130668640137,
                            -0.1446055769920349,
                            0.5022837519645691,
                            -0.42880186438560486
                        ],
                        [
                            0.02485702373087406,
                            -0.22079426050186157,
                            -0.8461390137672424,
                            -0.3335587680339813,
                            -0.5164555311203003,
                            -0.1879132091999054,
                            -0.23723572492599487,
                            -0.23447944223880768,
                            0.24467281997203827,
                            0.6700496673583984,
                            -0.1340487003326416,
                            0.04264179989695549,
                            0.22245320677757263,
                            0.01832668110728264,
                            -0.07661951333284378,
                            0.27188655734062195
                        ],
                        [
                            0.29304590821266174,
                            -0.0713694617152214,
                            -0.8040527701377869,
                            -0.11296218633651733,
                            -0.16825823485851288,
                            -0.07793611288070679,
                            0.3715607821941376,
                            0.0689593032002449,
                            -0.041472144424915314,
                            -0.16792751848697662,
                            -0.26884791254997253,
                            -0.15049010515213013,
                            0.6357911825180054,
                            0.012675531208515167,
                            0.36263009905815125,
                            -0.06474566459655762
                        ],
                        [
                            -0.6479013562202454,
                            0.6677910685539246,
                            0.8094323873519897,
                            -0.22406144440174103,
                            0.31236788630485535,
                            -0.6570740342140198,
                            1.1255651712417603,
                            0.7717446684837341,
                            -1.0798331499099731,
                            -3.8437869548797607,
                            -1.784289836883545,
                            0.23535773158073425,
                            0.03044186159968376,
                            1.9798334836959839,
                            2.093249559402466,
                            -0.7449556589126587
                        ]
                    ],
                    [
                        [
                            -0.7260739207267761,
                            -0.4475983679294586,
                            -0.7263128161430359,
                            0.4621061086654663,
                            -0.03370669484138489,
                            0.2909480929374695,
                            0.047171756625175476,
                            0.1776602864265442,
                            -0.4754069149494171,
                            -0.030723273754119873,
                            -0.06038407236337662,
                            0.12152715027332306,
                            -0.23672962188720703,
                            0.033886343240737915,
                            0.10785022377967834,
                            0.6886479258537292
                        ],
                        [
                            -0.11287631094455719,
                            1.2445441484451294,
                            -0.4088011682033539,
                            -1.1970628499984741,
                            0.10195638239383698,
                            2.16412615776062,
                            0.4434109330177307,
                            0.7545239925384521,
                            -1.053855538368225,
                            -0.7109267711639404,
                            3.099719762802124,
                            0.3565600514411926,
                            -0.4994845390319824,
                            -3.375953435897827,
                            2.8670647144317627,
                            -1.5342415571212769
                        ],
                        [
                            -0.08296851068735123,
                            0.49031227827072144,
                            0.2755625545978546,
                            0.018056171014904976,
                            -0.2839343845844269,
                            -0.3342292904853821,
                            -1.5488457679748535,
                            0.09211769700050354,
                            -0.5668761134147644,
                            0.3873195946216583,
                            -0.26106515526771545,
                            -0.10801330953836441,
                            -0.040404871106147766,
                            0.24825900793075562,
                            0.12483839690685272,
                            0.49832555651664734
                        ],
                        [
                            -1.3987400531768799,
                            -0.006222288589924574,
                            -0.7286800742149353,
                            -0.23306842148303986,
                            1.2764537334442139,
                            1.0667260885238647,
                            2.5087921619415283,
                            0.618927001953125,
                            -0.46642884612083435,
                            -2.32570219039917,
                            1.4100843667984009,
                            0.464796245098114,
                            1.0537728071212769,
                            0.5281473994255066,
                            0.33846357464790344,
                            -0.38127070665359497
                        ],
                        [
                            0.5373284220695496,
                            -1.7993308305740356,
                            -3.118318796157837,
                            1.0758700370788574,
                            0.5407440662384033,
                            1.2660714387893677,
                            1.8468583822250366,
                            -0.07051241397857666,
                            -0.6489660739898682,
                            1.825832486152649,
                            0.6009694337844849,
                            0.8695436716079712,
                            1.0112285614013672,
                            -0.7859714031219482,
                            -2.435223340988159,
                            1.8272234201431274
                        ],
                        [
                            -0.6447761058807373,
                            -0.2289358377456665,
                            -0.6172147989273071,
                            0.48511946201324463,
                            0.13546152412891388,
                            0.256051629781723,
                            -0.26478174328804016,
                            0.4753309190273285,
                            -1.0155999660491943,
                            0.14536258578300476,
                            -0.0933956578373909,
                            -0.04374031350016594,
                            0.5455018877983093,
                            0.02797955647110939,
                            0.08552076667547226,
                            0.300360769033432
                        ],
                        [
                            0.601962149143219,
                            -0.43392395973205566,
                            0.491046667098999,
                            -0.02744448184967041,
                            -0.5675274133682251,
                            0.44753748178482056,
                            -0.15122857689857483,
                            0.17569559812545776,
                            -0.2845292091369629,
                            0.4872523248195648,
                            0.8031476140022278,
                            -0.3975197970867157,
                            0.2756078839302063,
                            -0.48838427662849426,
                            -0.11499853432178497,
                            -0.048742130398750305
                        ],
                        [
                            2.0913500785827637,
                            0.3718010485172272,
                            0.09407650679349899,
                            -1.122291922569275,
                            -0.9351325631141663,
                            -1.1469805240631104,
                            -1.8640058040618896,
                            -0.11663291603326797,
                            1.574554681777954,
                            0.43789437413215637,
                            -0.25564634799957275,
                            0.34923940896987915,
                            -0.4648858308792114,
                            0.5346185564994812,
                            0.9275540113449097,
                            -0.08406509459018707
                        ],
                        [
                            0.26767948269844055,
                            0.33836615085601807,
                            0.0536794513463974,
                            0.06278137117624283,
                            -0.44290441274642944,
                            -0.060806505382061005,
                            -0.9423691034317017,
                            0.12431338429450989,
                            0.2012409269809723,
                            0.3667430877685547,
                            -0.5446634292602539,
                            0.029989756643772125,
                            -0.11250999569892883,
                            -0.022299449890851974,
                            0.6241852641105652,
                            0.319880872964859
                        ],
                        [
                            -0.7360348701477051,
                            -0.08610880374908447,
                            0.07599405199289322,
                            0.05132979899644852,
                            0.4264695942401886,
                            -0.1445467323064804,
                            0.2310626357793808,
                            -0.04253358021378517,
                            -0.015032490715384483,
                            -0.10526703298091888,
                            0.003263001097366214,
                            -0.12793835997581482,
                            0.18566544353961945,
                            0.16946077346801758,
                            -0.0959961786866188,
                            -0.08055003732442856
                        ],
                        [
                            0.2663443684577942,
                            0.09323884546756744,
                            -0.2734326422214508,
                            -0.886962354183197,
                            0.10725346207618713,
                            -0.7308218479156494,
                            -0.8333126306533813,
                            0.09101256728172302,
                            0.7949318289756775,
                            -0.6208652257919312,
                            0.42531082034111023,
                            -0.027873486280441284,
                            -0.35881009697914124,
                            0.7192630171775818,
                            1.1876766681671143,
                            0.035661377012729645
                        ],
                        [
                            1.1044644117355347,
                            0.37632066011428833,
                            -0.10844583809375763,
                            0.07991266995668411,
                            -0.9828388094902039,
                            -0.2636353373527527,
                            -1.4680558443069458,
                            0.338482141494751,
                            0.29091960191726685,
                            1.5534148216247559,
                            -0.7092767357826233,
                            -0.1268753856420517,
                            -0.4409467875957489,
                            0.06238908693194389,
                            0.4125097692012787,
                            0.150718092918396
                        ],
                        [
                            0.009014895185828209,
                            0.1677587479352951,
                            -0.4162083566188812,
                            0.43524837493896484,
                            -0.07219453155994415,
                            0.6354106664657593,
                            1.139251708984375,
                            -0.07908152788877487,
                            0.003326206002384424,
                            0.379487544298172,
                            0.04250048100948334,
                            0.5643748044967651,
                            0.35732224583625793,
                            -0.6651062369346619,
                            -0.41463035345077515,
                            -0.1268330216407776
                        ],
                        [
                            0.2435121238231659,
                            0.007696302141994238,
                            -0.15048068761825562,
                            0.39596274495124817,
                            -0.43050000071525574,
                            0.1243426501750946,
                            -0.536297082901001,
                            0.036491233855485916,
                            -0.0500246062874794,
                            0.18904736638069153,
                            0.018620215356349945,
                            0.23809005320072174,
                            0.012715800665318966,
                            -0.054242007434368134,
                            0.7350082993507385,
                            0.25524744391441345
                        ],
                        [
                            -0.34795212745666504,
                            -0.5231319665908813,
                            -0.1995687335729599,
                            0.5433382391929626,
                            0.03952788561582565,
                            0.05289051681756973,
                            -0.0914112851023674,
                            0.18088524043560028,
                            -0.7806846499443054,
                            0.12523670494556427,
                            0.22074094414710999,
                            -0.029006149619817734,
                            -0.3355284035205841,
                            -0.01449985895305872,
                            -0.12882213294506073,
                            0.8379007577896118
                        ],
                        [
                            -0.8931597471237183,
                            -0.21953056752681732,
                            -0.9347013235092163,
                            -0.22649386525154114,
                            1.1671724319458008,
                            1.0776695013046265,
                            3.5460853576660156,
                            0.4878932535648346,
                            -0.5188601613044739,
                            -2.994436502456665,
                            0.7540232539176941,
                            0.5720657706260681,
                            2.3540382385253906,
                            0.34434813261032104,
                            0.027497727423906326,
                            -0.1800747513771057
                        ]
                    ],
                    [
                        [
                            0.4260168671607971,
                            -0.9111577272415161,
                            0.592808187007904,
                            -0.3428927958011627,
                            -0.11564901471138,
                            0.17266254127025604,
                            -0.06634864211082458,
                            0.21250808238983154,
                            -0.09864301234483719,
                            0.43751639127731323,
                            0.4279516041278839,
                            -0.34792211651802063,
                            -0.0820428654551506,
                            -0.338305801153183,
                            -0.24704097211360931,
                            0.6409875154495239
                        ],
                        [
                            -0.27090564370155334,
                            3.5101075172424316,
                            -0.5791433453559875,
                            -1.5963611602783203,
                            -2.036407947540283,
                            1.712616205215454,
                            1.5404448509216309,
                            1.1655863523483276,
                            -1.0853105783462524,
                            -4.3442912101745605,
                            0.7176132798194885,
                            3.356552839279175,
                            -0.032615482807159424,
                            -3.107482433319092,
                            5.301051616668701,
                            -3.4180972576141357
                        ],
                        [
                            -0.43771710991859436,
                            1.321826696395874,
                            0.581473171710968,
                            -0.23999881744384766,
                            -0.0320693738758564,
                            -0.5315747857093811,
                            0.3504718840122223,
                            0.34210601449012756,
                            -0.002614972647279501,
                            -0.9368348717689514,
                            -0.4931834638118744,
                            -0.48102936148643494,
                            0.1702030897140503,
                            0.5074715614318848,
                            0.25076723098754883,
                            -1.0079410076141357
                        ],
                        [
                            0.4385471045970917,
                            -1.0601571798324585,
                            -0.012131956405937672,
                            -0.21059580147266388,
                            1.2118055820465088,
                            0.7743295431137085,
                            -0.2462032437324524,
                            0.8569965362548828,
                            -0.0948152244091034,
                            0.017127038910984993,
                            1.699139952659607,
                            0.11962816119194031,
                            1.496314287185669,
                            0.32254907488822937,
                            -0.6758312582969666,
                            0.2592706084251404
                        ],
                        [
                            3.7662339210510254,
                            -4.3110551834106445,
                            2.3749725818634033,
                            -2.0084455013275146,
                            -0.006402324885129929,
                            1.271576166152954,
                            -2.4517734050750732,
                            -0.5037260055541992,
                            -2.233441114425659,
                            6.033626079559326,
                            3.0118467807769775,
                            -2.551645040512085,
                            -1.0844696760177612,
                            -2.295921564102173,
                            -3.684471368789673,
                            2.2663183212280273
                        ],
                        [
                            0.07602950930595398,
                            -0.5098632574081421,
                            1.127690076828003,
                            -1.2080626487731934,
                            0.33463919162750244,
                            -0.054255325347185135,
                            0.16563546657562256,
                            -0.07820011675357819,
                            -0.40367090702056885,
                            0.6355770826339722,
                            0.2411811202764511,
                            -1.2198755741119385,
                            -0.3106335699558258,
                            0.028502706438302994,
                            -0.880582332611084,
                            -0.1882917433977127
                        ],
                        [
                            -0.5226984024047852,
                            -0.7224361896514893,
                            0.7068984508514404,
                            -0.4052983820438385,
                            0.08556252717971802,
                            -0.31487393379211426,
                            -0.013752561062574387,
                            -0.2495076060295105,
                            0.3279876410961151,
                            0.737733781337738,
                            0.1030036136507988,
                            -0.3013257682323456,
                            -0.37868064641952515,
                            0.05182263255119324,
                            -0.2210623025894165,
                            -0.3083805441856384
                        ],
                        [
                            0.6861253976821899,
                            0.13264338672161102,
                            0.16188736259937286,
                            -0.023028960451483727,
                            -0.6002791523933411,
                            -0.689372718334198,
                            -0.32378116250038147,
                            0.10731638967990875,
                            0.41707929968833923,
                            -0.018131693825125694,
                            0.09041958302259445,
                            1.1627863645553589,
                            -0.9522504210472107,
                            0.41105395555496216,
                            1.9329816102981567,
                            -0.9851826429367065
                        ],
                        [
                            -0.4464016556739807,
                            0.4036310315132141,
                            0.37712037563323975,
                            0.24560226500034332,
                            0.011198574677109718,
                            -0.05001779645681381,
                            -0.03531524911522865,
                            -0.009330904111266136,
                            0.8900759220123291,
                            -0.21546974778175354,
                            -0.22449859976768494,
                            0.372901976108551,
                            -0.1538889855146408,
                            0.2695336937904358,
                            0.5356957912445068,
                            0.07553835213184357
                        ],
                        [
                            -0.20235054194927216,
                            0.18295608460903168,
                            -0.5019756555557251,
                            0.16440530121326447,
                            0.011123981326818466,
                            -0.17134010791778564,
                            -0.09895101189613342,
                            0.19929081201553345,
                            -0.7801822423934937,
                            -0.09791072458028793,
                            0.05446659401059151,
                            -0.09275650978088379,
                            0.0019708103500306606,
                            0.00821676105260849,
                            -0.005857448559254408,
                            0.039158836007118225
                        ],
                        [
                            0.2736472487449646,
                            0.6633567214012146,
                            0.12099609524011612,
                            -0.3855205476284027,
                            0.11216157674789429,
                            -1.1676450967788696,
                            -0.6153810620307922,
                            0.04170578718185425,
                            0.9945977926254272,
                            -2.126774549484253,
                            -0.3393442630767822,
                            1.7690770626068115,
                            -0.4040074944496155,
                            1.3155544996261597,
                            2.5191729068756104,
                            -0.4608137905597687
                        ],
                        [
                            0.3003872036933899,
                            -0.24664875864982605,
                            0.6045336723327637,
                            -0.15230277180671692,
                            -0.08236081898212433,
                            0.1017226129770279,
                            -0.29035502672195435,
                            -0.37900495529174805,
                            0.5235902667045593,
                            1.2611913681030273,
                            0.4605669379234314,
                            -0.2918235957622528,
                            -1.2363394498825073,
                            -0.34615910053253174,
                            -0.21228167414665222,
                            0.02300698310136795
                        ],
                        [
                            0.23891252279281616,
                            -0.8657730221748352,
                            -0.8784662485122681,
                            0.3588413596153259,
                            -0.23677200078964233,
                            1.3341513872146606,
                            0.37536635994911194,
                            0.07948372513055801,
                            -0.5246685743331909,
                            1.5565037727355957,
                            0.58567875623703,
                            0.11339457333087921,
                            0.7710014581680298,
                            -1.251226782798767,
                            -1.41061532497406,
                            1.0098809003829956
                        ],
                        [
                            0.013899383135139942,
                            -0.22020484507083893,
                            0.4926784932613373,
                            -0.018911633640527725,
                            0.0932147428393364,
                            0.1287051886320114,
                            -0.24412696063518524,
                            -0.10971729457378387,
                            0.9313811659812927,
                            0.23171046376228333,
                            0.3726930022239685,
                            0.11193204671144485,
                            -0.3169915974140167,
                            0.01572074554860592,
                            0.10990649461746216,
                            0.21374808251857758
                        ],
                        [
                            0.5176464319229126,
                            -0.5721423625946045,
                            1.2044479846954346,
                            -0.9230256676673889,
                            -0.11644314974546432,
                            0.28326138854026794,
                            -0.3149886429309845,
                            -0.2267443984746933,
                            -0.6322131752967834,
                            0.8472696542739868,
                            0.8291213512420654,
                            -0.8384151458740234,
                            -0.6692896485328674,
                            -0.24052053689956665,
                            -0.337491899728775,
                            0.9061629176139832
                        ],
                        [
                            1.1691935062408447,
                            -2.5116970539093018,
                            0.47702983021736145,
                            -1.2632486820220947,
                            1.0657293796539307,
                            1.1165752410888672,
                            0.4428965151309967,
                            0.3988865911960602,
                            -0.5313552618026733,
                            0.06808903813362122,
                            2.978337049484253,
                            -0.9610249400138855,
                            1.9091920852661133,
                            -1.4707952737808228,
                            -1.6440107822418213,
                            1.0182428359985352
                        ]
                    ],
                    [
                        [
                            -0.5492016077041626,
                            1.3007742166519165,
                            -0.8942062258720398,
                            -0.03803057223558426,
                            -0.45702090859413147,
                            -0.1795228272676468,
                            -0.05457464978098869,
                            0.47342655062675476,
                            -1.299601435661316,
                            -0.7878565788269043,
                            -0.613963782787323,
                            -0.39314529299736023,
                            0.922557532787323,
                            0.37930288910865784,
                            0.23970040678977966,
                            -0.5400784015655518
                        ],
                        [
                            0.1410554051399231,
                            5.09225606918335,
                            -2.0981619358062744,
                            0.8702014684677124,
                            -3.422276735305786,
                            0.24553385376930237,
                            2.781095027923584,
                            0.8950024247169495,
                            -0.16627100110054016,
                            -7.818806171417236,
                            -4.486112594604492,
                            7.7629618644714355,
                            2.3073034286499023,
                            0.30103036761283875,
                            4.586292743682861,
                            -3.1906850337982178
                        ],
                        [
                            0.4220542013645172,
                            0.8243173956871033,
                            -1.4535945653915405,
                            -0.3968934118747711,
                            -0.17344394326210022,
                            0.043830737471580505,
                            1.1002981662750244,
                            0.5642282366752625,
                            -1.9555450677871704,
                            -0.9137980341911316,
                            -0.4624027609825134,
                            -1.2617627382278442,
                            1.1273287534713745,
                            -0.19161882996559143,
                            -0.8592236042022705,
                            -0.4570136070251465
                        ],
                        [
                            -0.5291764736175537,
                            1.1580361127853394,
                            1.7225010395050049,
                            -0.2523277699947357,
                            0.11830847710371017,
                            0.27857670187950134,
                            -1.5126999616622925,
                            0.8168719410896301,
                            0.8768447041511536,
                            0.056376539170742035,
                            1.3128122091293335,
                            0.25061362981796265,
                            0.2594414949417114,
                            1.8914549350738525,
                            1.5225508213043213,
                            -0.21600745618343353
                        ],
                        [
                            -6.792377471923828,
                            7.307391166687012,
                            -0.2937154769897461,
                            1.4005168676376343,
                            -1.0946122407913208,
                            -2.9927923679351807,
                            -0.2501915693283081,
                            0.2874508500099182,
                            3.210993528366089,
                            -6.735837459564209,
                            0.09964992105960846,
                            2.639167308807373,
                            -0.7640358805656433,
                            2.367384433746338,
                            6.331912040710449,
                            -3.1738691329956055
                        ],
                        [
                            -1.5754892826080322,
                            3.927349328994751,
                            -1.657578706741333,
                            0.46049490571022034,
                            -0.6225509643554688,
                            -0.25874441862106323,
                            1.1693929433822632,
                            0.21811039745807648,
                            -1.9195811748504639,
                            -2.606241226196289,
                            -1.6662954092025757,
                            -0.2615385949611664,
                            1.0173008441925049,
                            1.2214597463607788,
                            1.0895432233810425,
                            -1.8932973146438599
                        ],
                        [
                            -0.18903881311416626,
                            0.46203017234802246,
                            -0.6470485329627991,
                            0.7111830711364746,
                            -0.02575073204934597,
                            -0.08421676605939865,
                            0.7097777724266052,
                            -0.21718281507492065,
                            0.8742889761924744,
                            -0.48308879137039185,
                            -0.6386096477508545,
                            0.5893552899360657,
                            0.22860091924667358,
                            0.3929672837257385,
                            0.3935435712337494,
                            -0.44330504536628723
                        ],
                        [
                            -0.3275514841079712,
                            -1.4628294706344604,
                            -1.2843668460845947,
                            0.4640675187110901,
                            0.7387232780456543,
                            -0.5196321606636047,
                            1.3640968799591064,
                            -0.39495158195495605,
                            2.2250778675079346,
                            -1.6791919469833374,
                            1.3524876832962036,
                            1.3575376272201538,
                            -0.682640016078949,
                            0.09042525291442871,
                            0.7209370136260986,
                            1.5583040714263916
                        ],
                        [
                            0.43402761220932007,
                            -1.1416486501693726,
                            -0.18219397962093353,
                            0.6175744533538818,
                            0.14457541704177856,
                            0.17890143394470215,
                            0.4755327105522156,
                            0.026493318378925323,
                            0.04152696579694748,
                            0.633159339427948,
                            0.4981478154659271,
                            0.07948284596204758,
                            -0.3487469255924225,
                            -0.6546863913536072,
                            -0.6130757927894592,
                            0.7312926054000854
                        ],
                        [
                            0.04027150571346283,
                            0.3363346755504608,
                            -0.08580522984266281,
                            0.026502661406993866,
                            0.12147771567106247,
                            -0.3033531606197357,
                            -0.794416069984436,
                            0.09630032628774643,
                            -0.4488053321838379,
                            0.020891470834612846,
                            -0.11104732006788254,
                            -0.3044378459453583,
                            0.025067830458283424,
                            0.05738075077533722,
                            0.084465891122818,
                            0.16546718776226044
                        ],
                        [
                            1.3598319292068481,
                            -0.5781061053276062,
                            -1.1344009637832642,
                            1.1397595405578613,
                            0.2790277302265167,
                            -0.5971571803092957,
                            0.4241683781147003,
                            -0.03662613406777382,
                            1.2833662033081055,
                            -2.199866533279419,
                            0.8467089533805847,
                            2.302250623703003,
                            -0.0907631441950798,
                            1.3428820371627808,
                            1.3256609439849854,
                            0.7206396460533142
                        ],
                        [
                            -0.0379251092672348,
                            -0.4855615794658661,
                            -1.1722692251205444,
                            0.5644484162330627,
                            -0.1042320504784584,
                            0.060714613646268845,
                            0.7901885509490967,
                            -0.368519127368927,
                            0.4465670585632324,
                            -0.4570119082927704,
                            0.07641708850860596,
                            0.6457197070121765,
                            0.13649968802928925,
                            -0.8115288019180298,
                            -0.4752700924873352,
                            0.1399320811033249
                        ],
                        [
                            -0.882889449596405,
                            -1.825075387954712,
                            1.8034292459487915,
                            -1.1798408031463623,
                            0.04938482493162155,
                            0.6337805390357971,
                            -0.5286174416542053,
                            -0.44170472025871277,
                            0.177809938788414,
                            3.077511787414551,
                            0.5866956114768982,
                            -0.4602968096733093,
                            -0.47385480999946594,
                            -1.4890977144241333,
                            -1.385388731956482,
                            0.9814212322235107
                        ],
                        [
                            -0.3776923716068268,
                            -0.6355409026145935,
                            -0.542245090007782,
                            -0.05358842760324478,
                            -0.22604361176490784,
                            0.11507109552621841,
                            -0.014453400857746601,
                            0.005238759331405163,
                            0.3623371422290802,
                            0.12135019898414612,
                            0.33517542481422424,
                            0.3657209277153015,
                            0.5830839276313782,
                            -0.32467448711395264,
                            -0.24763621389865875,
                            0.19588665664196014
                        ],
                        [
                            -0.8268062472343445,
                            1.56833016872406,
                            -0.32702142000198364,
                            0.07742036134004593,
                            -0.3007305860519409,
                            0.11251740902662277,
                            -0.1852552741765976,
                            0.20179489254951477,
                            -2.0465705394744873,
                            -0.9133573174476624,
                            -1.0902578830718994,
                            -0.14072206616401672,
                            0.8770229816436768,
                            0.4655293822288513,
                            0.2445266842842102,
                            -1.3347052335739136
                        ],
                        [
                            -2.6503117084503174,
                            0.025540649890899658,
                            2.952265501022339,
                            -2.7316787242889404,
                            0.21789194643497467,
                            -1.1585603952407837,
                            -0.5878883600234985,
                            0.3176279664039612,
                            1.0810086727142334,
                            -2.8704278469085693,
                            2.2306227684020996,
                            0.35582414269447327,
                            0.03531238064169884,
                            -1.387330412864685,
                            1.4936087131500244,
                            0.7559100389480591
                        ]
                    ],
                    [
                        [
                            0.8290910124778748,
                            -1.2897535562515259,
                            -0.1157488152384758,
                            0.6079855561256409,
                            -0.16238126158714294,
                            -0.047627732157707214,
                            -0.10471608489751816,
                            0.08458627015352249,
                            2.2140653133392334,
                            0.9485424160957336,
                            0.26022860407829285,
                            0.6509779095649719,
                            -0.4907476603984833,
                            -0.46487411856651306,
                            0.2970888614654541,
                            0.5348753333091736
                        ],
                        [
                            -0.192595437169075,
                            -6.704916477203369,
                            3.144033432006836,
                            -0.1239389106631279,
                            6.483088493347168,
                            -3.646613121032715,
                            -1.5979149341583252,
                            -2.0236074924468994,
                            1.652736783027649,
                            6.94441556930542,
                            3.791389226913452,
                            -6.639838695526123,
                            -0.13589471578598022,
                            6.328727722167969,
                            -10.182807922363281,
                            6.331084728240967
                        ],
                        [
                            1.2247328758239746,
                            -2.68118953704834,
                            0.2709684371948242,
                            0.39020031690597534,
                            -0.4591047167778015,
                            0.5705309510231018,
                            -1.23725426197052,
                            -0.8256118297576904,
                            1.9234323501586914,
                            2.9377994537353516,
                            1.1688545942306519,
                            1.213394045829773,
                            -0.8731979727745056,
                            -1.3322781324386597,
                            -0.20222605764865875,
                            1.1865003108978271
                        ],
                        [
                            1.8382692337036133,
                            -2.053661823272705,
                            0.9436185956001282,
                            1.2077637910842896,
                            -1.7309612035751343,
                            -0.8298367261886597,
                            0.09072717279195786,
                            -2.1755292415618896,
                            1.2466604709625244,
                            3.155531883239746,
                            -1.332786202430725,
                            -0.40890297293663025,
                            0.43604227900505066,
                            -6.417923450469971,
                            -2.8562822341918945,
                            2.377317190170288
                        ],
                        [
                            -0.13579000532627106,
                            -2.4335107803344727,
                            0.613876223564148,
                            -0.49863967299461365,
                            2.8816213607788086,
                            0.3324480950832367,
                            -1.083237886428833,
                            0.5482710003852844,
                            0.16179616749286652,
                            1.1696475744247437,
                            -0.7906808257102966,
                            -2.434141159057617,
                            -0.2946835458278656,
                            2.6075804233551025,
                            -2.2261507511138916,
                            1.1019095182418823
                        ],
                        [
                            2.438586950302124,
                            -3.9830727577209473,
                            0.48809105157852173,
                            0.3576520085334778,
                            -0.21199938654899597,
                            0.451246976852417,
                            -1.5583503246307373,
                            -0.7645662426948547,
                            3.5136396884918213,
                            2.9793193340301514,
                            1.3661863803863525,
                            1.4898219108581543,
                            -0.8175455331802368,
                            -1.9454838037490845,
                            -0.2877567708492279,
                            2.1601390838623047
                        ],
                        [
                            0.2646373212337494,
                            -0.07134561985731125,
                            -0.2771690785884857,
                            -0.9448943138122559,
                            -0.04987926036119461,
                            -0.2123253047466278,
                            -0.7353351712226868,
                            0.2552078366279602,
                            -0.21496190130710602,
                            -0.42400485277175903,
                            -0.11050879210233688,
                            -0.2555341422557831,
                            -0.14110510051250458,
                            0.14731067419052124,
                            -0.153455451130867,
                            0.25755295157432556
                        ],
                        [
                            -2.7699058055877686,
                            -0.887266218662262,
                            -0.4880215525627136,
                            -0.984508216381073,
                            -0.5490532517433167,
                            2.002629280090332,
                            -1.492228627204895,
                            -0.33039575815200806,
                            -2.7329866886138916,
                            3.210505723953247,
                            -3.062978506088257,
                            -4.705761909484863,
                            0.26935839653015137,
                            -1.3861017227172852,
                            -5.506625652313232,
                            1.072685956954956
                        ],
                        [
                            0.2868821918964386,
                            1.081453800201416,
                            -0.6487486958503723,
                            0.05261258780956268,
                            0.059202831238508224,
                            -0.17286556959152222,
                            0.10152947157621384,
                            0.5092066526412964,
                            -1.489844560623169,
                            -0.7705457806587219,
                            -0.24876388907432556,
                            -0.20389100909233093,
                            0.2172265499830246,
                            0.6910024285316467,
                            0.19339784979820251,
                            -0.549903154373169
                        ],
                        [
                            -0.19836513698101044,
                            -0.6221149563789368,
                            0.40540528297424316,
                            1.0004726648330688,
                            0.054334286600351334,
                            0.3840838372707367,
                            -0.3433438241481781,
                            -0.20249292254447937,
                            0.8698948621749878,
                            0.8291112780570984,
                            0.2512984275817871,
                            0.3417869508266449,
                            0.02753884717822075,
                            -0.5092818140983582,
                            -0.03739451989531517,
                            0.46258166432380676
                        ],
                        [
                            -2.442213773727417,
                            -3.0221567153930664,
                            0.28143003582954407,
                            -1.1351748704910278,
                            -1.2611075639724731,
                            2.4033734798431396,
                            -0.6899125576019287,
                            -1.246626377105713,
                            -0.8578585982322693,
                            6.9606122970581055,
                            -2.7536685466766357,
                            -5.07307767868042,
                            0.15171374380588531,
                            -5.243298053741455,
                            -6.454256534576416,
                            2.0941476821899414
                        ],
                        [
                            -0.20175538957118988,
                            0.15094907581806183,
                            -0.04775243625044823,
                            -1.189422607421875,
                            0.312193363904953,
                            -0.21767617762088776,
                            -0.4182901382446289,
                            0.45909619331359863,
                            -1.3955589532852173,
                            -1.2629878520965576,
                            -0.3368551731109619,
                            -0.3628603518009186,
                            0.3020334839820862,
                            1.234264850616455,
                            0.15515846014022827,
                            -0.4776984453201294
                        ],
                        [
                            -0.2504531741142273,
                            4.240703105926514,
                            -1.033546805381775,
                            0.6370463371276855,
                            1.125952959060669,
                            -1.9967515468597412,
                            1.019445538520813,
                            1.4482395648956299,
                            -0.9358951449394226,
                            -6.202584266662598,
                            0.0593949556350708,
                            1.162410855293274,
                            0.5435155630111694,
                            4.293063640594482,
                            3.449035882949829,
                            -2.359654188156128
                        ],
                        [
                            0.12761706113815308,
                            0.6865590214729309,
                            -0.2989688813686371,
                            0.16631650924682617,
                            -0.06806681305170059,
                            -0.36672744154930115,
                            -0.20726488530635834,
                            0.5125197768211365,
                            -0.5546911358833313,
                            -0.7398573756217957,
                            -0.23168161511421204,
                            -0.22361423075199127,
                            0.23615571856498718,
                            0.5874344110488892,
                            0.13019831478595734,
                            -0.3661981523036957
                        ],
                        [
                            0.8089659810066223,
                            -1.4840219020843506,
                            0.3676871657371521,
                            1.0161885023117065,
                            -0.16189463436603546,
                            0.19654758274555206,
                            0.006782704032957554,
                            0.15644009411334991,
                            2.0143089294433594,
                            1.073485016822815,
                            0.45254236459732056,
                            0.6025190353393555,
                            -0.3986603617668152,
                            -0.5488204956054688,
                            0.28956085443496704,
                            0.48414817452430725
                        ],
                        [
                            1.4033472537994385,
                            -3.7255825996398926,
                            1.130739688873291,
                            0.3801066279411316,
                            0.24101345241069794,
                            -0.5652401447296143,
                            0.42313262820243835,
                            -2.018200635910034,
                            -0.38966789841651917,
                            3.3585073947906494,
                            -2.535294532775879,
                            -2.5664050579071045,
                            0.8439258933067322,
                            -8.551730155944824,
                            -5.277642726898193,
                            3.111065149307251
                        ]
                    ],
                    [
                        [
                            0.07937848567962646,
                            0.26330918073654175,
                            -0.24966518580913544,
                            -0.4785929322242737,
                            -0.36846596002578735,
                            0.008266265504062176,
                            -0.1523745208978653,
                            -0.9430373311042786,
                            -0.7305967211723328,
                            -0.5817911624908447,
                            -0.636397659778595,
                            0.3160567879676819,
                            -0.015202824026346207,
                            0.11485203355550766,
                            -0.15401268005371094,
                            1.1891964673995972
                        ],
                        [
                            1.8201282024383545,
                            4.8300628662109375,
                            -0.30059754848480225,
                            0.39625850319862366,
                            -1.8540629148483276,
                            0.6583707928657532,
                            4.95917272567749,
                            -3.5933778285980225,
                            -2.9352543354034424,
                            -0.5655404329299927,
                            -0.9684501886367798,
                            6.233983516693115,
                            0.9833175539970398,
                            -1.7485095262527466,
                            5.825977802276611,
                            -0.4950173795223236
                        ],
                        [
                            -0.9491596817970276,
                            0.5944375991821289,
                            1.186462640762329,
                            -0.9577940106391907,
                            0.3675519526004791,
                            0.28996530175209045,
                            0.7308148741722107,
                            -1.6185166835784912,
                            -1.275089979171753,
                            -1.8584164381027222,
                            -0.693442702293396,
                            0.2878917157649994,
                            -0.6735377907752991,
                            1.6223928928375244,
                            0.22085534036159515,
                            2.3646607398986816
                        ],
                        [
                            2.343007802963257,
                            2.9099719524383545,
                            -1.7709736824035645,
                            1.913870930671692,
                            -1.5850698947906494,
                            0.7065523862838745,
                            1.8254975080490112,
                            3.1627750396728516,
                            1.1256166696548462,
                            1.3403993844985962,
                            -2.0630149841308594,
                            -3.6033318042755127,
                            3.4806132316589355,
                            -1.0300930738449097,
                            0.30684778094291687,
                            -7.835000991821289
                        ],
                        [
                            0.6725888252258301,
                            3.644848585128784,
                            -4.585233211517334,
                            -0.7977547645568848,
                            1.1521793603897095,
                            -0.7739903926849365,
                            2.9171857833862305,
                            4.13027286529541,
                            -4.913365840911865,
                            -2.197028398513794,
                            0.326692134141922,
                            -1.061894178390503,
                            -2.690206289291382,
                            0.8131542801856995,
                            -1.6920979022979736,
                            -0.9647573828697205
                        ],
                        [
                            -0.46581393480300903,
                            1.7255793809890747,
                            -0.364681214094162,
                            -0.12811507284641266,
                            0.36387452483177185,
                            0.298851877450943,
                            0.7884291410446167,
                            -0.7046756148338318,
                            -1.6975334882736206,
                            -1.1873548030853271,
                            -0.8803063631057739,
                            -0.19434022903442383,
                            -0.3723333179950714,
                            1.590719223022461,
                            0.2597846984863281,
                            1.0999524593353271
                        ],
                        [
                            -0.9816502928733826,
                            0.5402719378471375,
                            -0.16458582878112793,
                            -1.476851224899292,
                            1.306311011314392,
                            0.5129445195198059,
                            1.0947140455245972,
                            0.073542520403862,
                            -0.6876210570335388,
                            0.28558585047721863,
                            -0.1713493913412094,
                            -0.8556641936302185,
                            -1.3370492458343506,
                            -0.2772585153579712,
                            0.16488604247570038,
                            0.9375489950180054
                        ],
                        [
                            1.2069083452224731,
                            -0.02835269831120968,
                            1.9504194259643555,
                            -1.254209041595459,
                            1.9960293769836426,
                            -1.262213945388794,
                            2.954113721847534,
                            -1.8015037775039673,
                            -1.2937490940093994,
                            -2.2871875762939453,
                            3.2678661346435547,
                            3.797027826309204,
                            -1.3719466924667358,
                            5.077332019805908,
                            2.9398767948150635,
                            0.967769205570221
                        ],
                        [
                            0.3672465980052948,
                            -0.937903106212616,
                            -0.4370333254337311,
                            0.06776132434606552,
                            0.6127818822860718,
                            0.312170147895813,
                            -0.8511534333229065,
                            -1.2994593381881714,
                            0.7059738039970398,
                            -0.30045560002326965,
                            0.9142401218414307,
                            0.9814687967300415,
                            -0.7494416236877441,
                            0.040757305920124054,
                            -0.23840592801570892,
                            2.5872955322265625
                        ],
                        [
                            -0.09310073405504227,
                            -0.3129950165748596,
                            0.028901103883981705,
                            0.22284607589244843,
                            -0.8657757043838501,
                            0.14694224298000336,
                            0.07210087031126022,
