{
    "in_shape": [
        null,
        null,
        1
    ],
    "layers": [
        {
            "type": "lstm",
            "activation": "tanh",
            "shape": [
                null,
                null,
                12
            ],
            "weights": [
                [
                    [
                        0.0709662213921547,
                        -1.514620304107666,
                        -0.051580339670181274,
                        -0.046011753380298615,
                        -0.23966071009635925,
                        1.3419419527053833,
                        -0.022007400169968605,
                        -0.2252623736858368,
                        -0.22720149159431458,
                        0.04902743920683861,
                        1.6345375776290894,
                        -0.023426411673426628,
                        0.31433090567588806,
                        -0.24376212060451508,
                        0.3229118883609772,
                        -0.10069628059864044,
                        -0.1534806340932846,
                        0.20681622624397278,
                        0.09395453333854675,
                        -0.2625994086265564,
                        -0.05407434701919556,
                        -0.07425674796104431,
                        0.21330073475837708,
                        0.08826082944869995,
                        -0.3953602910041809,
                        -0.5352376103401184,
                        -0.3979380130767822,
                        0.40279892086982727,
                        -0.38742899894714355,
                        0.46441277861595154,
                        -0.40383076667785645,
                        0.4286855161190033,
                        0.3960086703300476,
                        -0.38928350806236267,
                        0.5877537727355957,
                        -0.3874876797199249,
                        0.08686476200819016,
                        -1.514658808708191,
                        -0.07481065392494202,
                        -0.09196608513593674,
                        -0.3054281175136566,
                        1.343902349472046,
                        -0.0611167773604393,
                        -0.17101289331912994,
                        -0.20300425589084625,
                        0.07767783105373383,
                        1.6598235368728638,
                        -0.030863236635923386
                    ]
                ],
                [
                    [
                        -0.3784465789794922,
                        -0.2208511382341385,
                        0.18979458510875702,
                        0.018705038353800774,
                        0.040497489273548126,
                        0.13994498550891876,
                        0.17248359322547913,
                        0.24077439308166504,
                        -0.1286095231771469,
                        -0.1790417730808258,
                        0.18591876327991486,
                        0.0662502869963646,
                        -0.19854144752025604,
                        0.13008081912994385,
                        0.19312919676303864,
                        0.15560327470302582,
                        -0.01973090134561062,
                        0.09826906025409698,
                        0.048078835010528564,
                        -0.1573735922574997,
                        0.032652515918016434,
                        0.25545328855514526,
                        -0.03922957926988602,
                        -0.056135762482881546,
                        -0.1253875494003296,
                        -0.09430055320262909,
                        -0.17311573028564453,
                        -0.03251398727297783,
                        -0.22413316369056702,
                        0.001928406418301165,
                        -0.16413554549217224,
                        -0.038848936557769775,
                        0.06287866830825806,
                        0.0070278034545481205,
                        -0.2318606972694397,
                        -0.1382845789194107,
                        -0.07822775095701218,
                        -0.15332745015621185,
                        -0.06656472384929657,
                        -0.007674199528992176,
                        -0.05490950495004654,
                        -0.004734431393444538,
                        -0.11095341295003891,
                        -0.043511152267456055,
                        -0.0665174052119255,
                        -0.013109082356095314,
                        0.13643571734428406,
                        -0.2517106533050537
                    ],
                    [
                        -0.1517246812582016,
                        -0.19031573832035065,
                        -0.08969539403915405,
                        0.15282821655273438,
                        -0.0481773316860199,
                        -0.2324160486459732,
                        0.012577949091792107,
                        -0.203871488571167,
                        0.16789479553699493,
                        -0.05362023040652275,
                        0.05772601440548897,
                        0.004354808013886213,
                        -0.24896042048931122,
                        -0.06806829571723938,
                        0.08811879903078079,
                        -0.06611453741788864,
                        0.071469247341156,
                        -0.15385563671588898,
                        0.14347611367702484,
                        0.015554029494524002,
                        0.1597812920808792,
                        0.06955971568822861,
                        -0.19348493218421936,
                        -0.037325628101825714,
                        0.09354065358638763,
                        -0.34341591596603394,
                        -0.007435469888150692,
                        -0.26599445939064026,
                        -0.07268630713224411,
                        -0.029279569163918495,
                        0.07331530004739761,
                        -0.04687386006116867,
                        -0.1771809309720993,
                        0.06128517538309097,
                        0.20166832208633423,
                        0.03598635643720627,
                        -0.11218968778848648,
                        0.06818777322769165,
                        -0.0012583550997078419,
                        0.09605889767408371,
                        0.067939892411232,
                        0.38171109557151794,
                        0.13298672437667847,
                        -0.02945692650973797,
                        0.18759027123451233,
                        -0.01349132601171732,
                        -0.2319326102733612,
                        -0.08065566420555115
                    ],
                    [
                        -0.11167407780885696,
                        0.015444708988070488,
                        -0.2612197995185852,
                        -0.0203094482421875,
                        -0.012742182239890099,
                        -0.13542701303958893,
                        0.06016015633940697,
                        -0.3667230010032654,
                        0.175832137465477,
                        -0.0962538793683052,
                        0.023078758269548416,
                        -0.14377973973751068,
                        0.012380179017782211,
                        0.1838010549545288,
                        -0.2531624734401703,
                        0.3624977767467499,
                        -0.1297491192817688,
                        0.07395768910646439,
                        -0.13564085960388184,
                        -0.19989386200904846,
                        -0.06770139932632446,
                        0.20186008512973785,
                        -0.05898018181324005,
                        0.08776745945215225,
                        -0.23492684960365295,
                        0.15305393934249878,
                        -0.074143186211586,
                        0.1578410267829895,
                        0.10455358028411865,
                        -0.18564778566360474,
                        0.010096020996570587,
                        -0.023203294724225998,
                        -0.046250198036432266,
                        -0.1956196427345276,
                        0.029205910861492157,
                        0.08267660439014435,
                        -0.04755561053752899,
                        0.06355069577693939,
                        -0.08280549943447113,
                        0.059668365865945816,
                        0.005822438281029463,
                        0.09974736720323563,
                        -0.11640756577253342,
                        -0.035204142332077026,
                        -0.03026939183473587,
                        0.2873242497444153,
                        0.034083861857652664,
                        -0.06898904591798782
                    ],
                    [
                        -0.07755229622125626,
                        -0.0550118163228035,
                        -0.10745162516832352,
                        -0.06044534221291542,
                        0.3418879508972168,
                        -0.2748081684112549,
                        -0.14227494597434998,
                        0.17154312133789062,
                        0.18636038899421692,
                        0.11781473457813263,
                        0.07738173007965088,
                        -0.020119037479162216,
                        -0.153680220246315,
                        0.14780448377132416,
                        0.16582554578781128,
                        0.03325027972459793,
                        -0.04720570519566536,
                        0.12147408723831177,
                        0.15732862055301666,
                        -0.005728087387979031,
                        0.0309734046459198,
                        -0.3553175628185272,
                        -0.01290342677384615,
                        0.031130842864513397,
                        0.13263729214668274,
                        0.15553219616413116,
                        -0.25324368476867676,
                        0.1671770066022873,
                        0.19822679460048676,
                        0.0413387194275856,
                        0.12848763167858124,
                        -0.1491919904947281,
                        -0.12370729446411133,
                        0.05461070314049721,
                        0.0758189707994461,
                        -0.10736347734928131,
                        -0.10723258554935455,
                        -0.196449413895607,
                        0.1602333039045334,
                        0.16497226059436798,
                        -0.02977856993675232,
                        -0.046112727373838425,
                        -0.025430159643292427,
                        -0.05771351605653763,
                        -0.25605490803718567,
                        0.03509838506579399,
                        -0.042176224291324615,
                        -0.08219406008720398
                    ],
                    [
                        0.21591761708259583,
                        0.06817638128995895,
                        0.24981306493282318,
                        0.14904756844043732,
                        -0.06749504059553146,
                        -0.07552305608987808,
                        -0.025050466880202293,
                        -0.13692133128643036,
                        -0.002583468332886696,
                        -0.13514958322048187,
                        -0.09094318002462387,
                        -0.045459773391485214,
                        -0.14142191410064697,
                        -0.03067406266927719,
                        0.20831508934497833,
                        -0.004874156787991524,
                        -0.1636890321969986,
                        0.23288163542747498,
                        -0.2747541069984436,
                        0.21149712800979614,
                        0.08599327504634857,
                        0.16050447523593903,
                        -0.03985122591257095,
                        0.18546894192695618,
                        -0.07935573160648346,
                        0.04208355024456978,
                        0.09306837618350983,
                        -0.08727823197841644,
                        -0.07653285562992096,
                        -0.025813769549131393,
                        0.10645192861557007,
                        -0.07508721947669983,
                        -0.12482352554798126,
                        -0.026209579780697823,
                        -0.11149889975786209,
                        -0.05852685123682022,
                        0.14445266127586365,
                        0.09431417286396027,
                        0.38574665784835815,
                        0.40788066387176514,
                        0.004323813132941723,
                        0.020827991887927055,
                        -0.034628622233867645,
                        -0.01771247573196888,
                        -0.13525648415088654,
                        -0.07022862136363983,
                        0.13077545166015625,
                        -0.06264717876911163
                    ],
                    [
                        -0.2376844882965088,
                        0.027877435088157654,
                        0.059031933546066284,
                        -0.0244887825101614,
                        -0.11980101466178894,
                        0.1682879477739334,
                        0.25414466857910156,
                        0.0006953254342079163,
                        -0.0006164498627185822,
                        0.08788196742534637,
                        -0.2950291931629181,
                        -0.08298567682504654,
                        -0.0673440545797348,
                        -0.009820273146033287,
                        -0.09271088242530823,
                        -0.003340005874633789,
                        -0.052942756563425064,
                        0.006115973927080631,
                        -0.30736905336380005,
                        -0.2698971927165985,
                        -0.15581077337265015,
                        -0.11052485555410385,
                        0.02952330932021141,
                        -0.3097374439239502,
                        0.17610383033752441,
                        0.04105140268802643,
                        -0.12196797877550125,
                        -0.08150362223386765,
                        0.02661188319325447,
                        0.11442022025585175,
                        0.24198095500469208,
                        0.007323050871491432,
                        -0.08139289915561676,
                        -0.03755807876586914,
                        -0.03609012812376022,
                        0.15897871553897858,
                        -0.14490625262260437,
                        -0.030085057020187378,
                        0.13693363964557648,
                        0.11021152883768082,
                        0.15561969578266144,
                        -0.043530602008104324,
                        0.3389902412891388,
                        -0.22112463414669037,
                        -0.05187106877565384,
                        -0.07136835902929306,
                        0.03566446900367737,
                        -0.0034400932490825653
                    ],
                    [
                        0.05298880487680435,
                        -0.14934518933296204,
                        0.08852282166481018,
                        -0.20276285707950592,
                        -0.05333470180630684,
                        -0.06197540462017059,
                        -0.15703558921813965,
                        -0.19094432890415192,
                        0.22355394065380096,
                        0.1977703869342804,
                        -0.03267040103673935,
                        -0.2020878791809082,
                        -0.12637121975421906,
                        0.04465321823954582,
                        0.06497916579246521,
                        0.03892266005277634,
                        0.18370184302330017,
                        -0.04350675642490387,
                        0.06716636568307877,
                        -0.08472631871700287,
                        -0.0905487909913063,
                        0.07525411248207092,
                        0.14179477095603943,
                        0.08160636574029922,
                        0.014516584575176239,
                        -0.0707147866487503,
                        0.02841191738843918,
                        0.2648523449897766,
                        -0.1578063666820526,
                        0.052463773638010025,
                        0.02622065320611,
                        0.037358593195676804,
                        0.17273786664009094,
                        0.10507030785083771,
                        -0.21041661500930786,
                        -0.016490377485752106,
                        0.07451838254928589,
                        0.008190790191292763,
                        -0.32018476724624634,
                        0.33027949929237366,
                        0.09753593057394028,
                        -0.1011880412697792,
                        0.28015056252479553,
                        0.24133417010307312,
                        0.023860270157456398,
                        -0.20149223506450653,
                        0.057529572397470474,
                        -0.07727192342281342
                    ],
                    [
                        0.077638179063797,
                        0.06940198689699173,
                        0.1726861447095871,
                        -0.02291272208094597,
                        -0.09684759378433228,
                        -0.05245351418852806,
                        0.10399211198091507,
                        -0.013473249040544033,
                        0.11343543231487274,
                        -0.05222897231578827,
                        -0.03858751058578491,
                        -0.014170868322253227,
                        0.012074297294020653,
                        0.25082191824913025,
                        -0.037579599767923355,
                        -0.35969987511634827,
                        -0.06229059025645256,
                        0.04286473989486694,
                        -0.10306261479854584,
                        -0.13676784932613373,
                        0.07521950453519821,
                        -0.23758935928344727,
                        -0.0155075304210186,
                        0.21791252493858337,
                        0.05637477710843086,
                        0.139045849442482,
                        -0.29529738426208496,
                        -0.14833709597587585,
                        -0.06160881370306015,
                        -0.008689694106578827,
                        -0.09775878489017487,
                        -0.19154450297355652,
                        -0.2065061330795288,
                        -0.1428406685590744,
                        -0.21674744784832,
                        -0.066790871322155,
                        -0.016690155491232872,
                        0.16762930154800415,
                        -0.2782469093799591,
                        0.013111255131661892,
                        -0.09565144032239914,
                        -0.10094039142131805,
                        -0.11603743582963943,
                        -0.025970667600631714,
                        0.35712823271751404,
                        0.012714315205812454,
                        -0.11944420635700226,
                        -0.04389228671789169
                    ],
                    [
                        0.07284572720527649,
                        0.029732031747698784,
                        0.018315602093935013,
                        -0.002826578449457884,
                        -0.12663677334785461,
                        0.13777218759059906,
                        -0.1677413284778595,
                        0.11198301613330841,
                        0.21872253715991974,
                        0.06634942442178726,
                        0.0005748718976974487,
                        0.1877802163362503,
                        -0.04679659754037857,
                        -0.21383239328861237,
                        0.06328127533197403,
                        0.2634502351284027,
                        -0.12969061732292175,
                        0.2334033101797104,
                        0.11857046186923981,
                        -0.12532250583171844,
                        -0.026602108031511307,
                        0.024482615292072296,
                        -0.20891477167606354,
                        -0.05583168938755989,
                        -0.17905573546886444,
                        0.08765793591737747,
                        -0.18225088715553284,
                        0.07336478680372238,
                        -0.2407258301973343,
                        -0.020492319017648697,
                        0.0766330361366272,
                        -0.07557587325572968,
                        0.12456001341342926,
                        0.0739530399441719,
                        0.184359610080719,
                        0.054073091596364975,
                        0.06908255815505981,
                        -0.08102446049451828,
                        0.07570993900299072,
                        0.09761428833007812,
                        0.04366934671998024,
                        -0.1941230595111847,
                        -0.04874568060040474,
                        -0.16870400309562683,
                        0.3822845220565796,
                        -0.07221344113349915,
                        -0.2191643863916397,
                        0.23917271196842194
                    ],
                    [
                        -0.135906383395195,
                        -0.06221991777420044,
                        -0.22371314465999603,
                        -0.21850866079330444,
                        -0.08858125656843185,
                        0.05561072379350662,
                        -0.0777730792760849,
                        -0.004906989634037018,
                        -0.16017206013202667,
                        0.1612003892660141,
                        -0.25038403272628784,
                        -0.030150681734085083,
                        -0.2535673677921295,
                        0.035522736608982086,
                        0.21518459916114807,
                        -0.01310337521135807,
                        -0.13856631517410278,
                        -0.23967787623405457,
                        -0.11194109171628952,
                        0.025075171142816544,
                        -0.00276821106672287,
                        0.09216436743736267,
                        0.07482689619064331,
                        0.382287859916687,
                        -0.07913697510957718,
                        0.03357419744133949,
                        -0.141431987285614,
                        -0.15493404865264893,
                        0.06691844761371613,
                        0.1456272006034851,
                        0.06218275427818298,
                        0.26743271946907043,
                        0.18478716909885406,
                        0.12700004875659943,
                        0.05917990207672119,
                        -0.14996092021465302,
                        -0.21122635900974274,
                        0.16788695752620697,
                        0.11529435962438583,
                        -0.03353572264313698,
                        0.014209035784006119,
                        -0.13285613059997559,
                        -0.15672682225704193,
                        0.017533617094159126,
                        0.04989806190133095,
                        0.1066657304763794,
                        -0.08673793822526932,
                        0.07386241853237152
                    ],
                    [
                        0.07166450470685959,
                        0.16714398562908173,
                        0.04006047919392586,
                        0.09159145504236221,
                        -0.06758836656808853,
                        0.09602735191583633,
                        -0.21567749977111816,
                        0.08690367639064789,
                        0.01688510924577713,
                        -0.18218950927257538,
                        0.08754497766494751,
                        -0.11165200173854828,
                        -0.2356504499912262,
                        0.09600254893302917,
                        -0.08065339922904968,
                        -0.052326902747154236,
                        0.20299310982227325,
                        -0.21594756841659546,
                        -0.11574508249759674,
                        0.010150857269763947,
                        0.09311388432979584,
                        0.012794861570000648,
                        -0.14507924020290375,
                        -0.006568802520632744,
                        -0.04996088147163391,
                        0.2999925911426544,
                        -0.05782940611243248,
                        0.03580590337514877,
                        0.18114371597766876,
                        0.20527318120002747,
                        0.11376701295375824,
                        0.2698688209056854,
                        0.14849771559238434,
                        -0.15925127267837524,
                        -0.01329890824854374,
                        0.004746057093143463,
                        0.1196514144539833,
                        -0.37317708134651184,
                        -0.03082306869328022,
                        0.03311318904161453,
                        0.02541537769138813,
                        0.2989962697029114,
                        -0.05256763473153114,
                        -0.09391133487224579,
                        0.18904663622379303,
                        -0.14077843725681305,
                        0.04994434863328934,
                        -0.09724150598049164
                    ],
                    [
                        -0.357305645942688,
                        0.05144061520695686,
                        0.07046303153038025,
                        0.04443066194653511,
                        -0.07348079979419708,
                        -0.015287216752767563,
                        -0.07743678987026215,
                        0.004103086888790131,
                        0.1876400113105774,
                        0.09273266792297363,
                        0.23810265958309174,
                        0.16146889328956604,
                        0.29577815532684326,
                        0.0762779712677002,
                        -0.13658294081687927,
                        -0.08711311966180801,
                        0.05352044850587845,
                        -0.13681623339653015,
                        -0.08247040212154388,
                        -0.030212119221687317,
                        0.12716880440711975,
                        0.056754134595394135,
                        0.010438084602355957,
                        0.1520841121673584,
                        -0.10486779361963272,
                        0.11157058924436569,
                        -0.06324013322591782,
                        0.053721435368061066,
                        -0.12073558568954468,
                        -0.11597806960344315,
                        0.21334408223628998,
                        0.06510031223297119,
                        -0.002073565497994423,
                        -0.16183330118656158,
                        0.08806680142879486,
                        -0.09232647716999054,
                        -0.06978657096624374,
                        0.16128133237361908,
                        0.27590084075927734,
                        -0.10701968520879745,
                        0.040156714618206024,
                        -0.057079561054706573,
                        0.03605136275291443,
                        0.221522256731987,
                        -0.10803025215864182,
                        -0.43154051899909973,
                        -0.08143353462219238,
                        -0.06509900838136673
                    ]
                ],
                [
                    0.8015030026435852,
                    -0.17172294855117798,
                    0.8592442274093628,
                    0.830223023891449,
                    0.7539759874343872,
                    -0.2217184454202652,
                    0.6495186686515808,
                    0.6272066235542297,
                    0.4316897392272949,
                    0.8662766814231873,
                    -0.22513000667095184,
                    0.858525812625885,
                    0.015952829271554947,
                    -0.04602612182497978,
                    -0.049850571900606155,
                    0.05242333933711052,
                    -0.04568668082356453,
                    -0.043322768062353134,
                    -0.012320131063461304,
                    -0.013528150506317616,
                    -0.0005913690547458827,
                    0.03224183991551399,
                    0.0557684563100338,
                    -0.063794806599617,
                    -0.037811651825904846,
                    -0.06888142973184586,
                    0.050664838403463364,
                    -0.092520572245121,
                    0.0917765349149704,
                    0.03446536138653755,
                    0.05177079886198044,
                    0.08658766001462936,
                    0.008075311779975891,
                    -0.07181791961193085,
                    -0.17362603545188904,
                    -0.019859082996845245,
                    0.9760931730270386,
                    0.0073041291907429695,
                    1.075634479522705,
                    1.0971027612686157,
                    0.7838269472122192,
                    -0.16353106498718262,
                    0.8908286690711975,
                    0.8615264296531677,
                    0.5042382478713989,
                    0.9964813590049744,
                    -0.27580592036247253,
                    1.0103318691253662
                ]
            ]
        },
        {
            "type": "dense",
            "activation": "",
            "shape": [
                null,
                null,
                1
            ],
            "weights": [
                [
                    [
                        -1.3381679058074951
                    ],
                    [
                        -0.7889775037765503
                    ],
                    [
                        -0.940057635307312
                    ],
                    [
                        0.8338425755500793
                    ],
                    [
                        -1.3622020483016968
                    ],
                    [
                        0.7889659404754639
                    ],
                    [
                        -0.7263814210891724
                    ],
                    [
                        1.2223749160766602
                    ],
                    [
                        0.6182123422622681
                    ],
                    [
                        -1.0271885395050049
                    ],
                    [
                        0.6679614782333374
                    ],
                    [
                        -1.229729175567627
                    ]
                ],
                [
                    0.01967811770737171
                ]
            ]
        }
    ]
}