{
    "in_shape": [
        null,
        null,
        1
    ],
    "layers": [
        {
            "type": "dense",
            "activation": "tanh",
            "shape": [
                null,
                null,
                128
            ],
            "weights": [
                [
                    [
                        -0.21550515294075012,
                        0.19392696022987366,
                        0.050650905817747116,
                        -0.20382994413375854,
                        0.17760632932186127,
                        -0.03199518844485283,
                        0.06087111681699753,
                        -0.2022581547498703,
                        -0.01681561768054962,
                        0.10583776235580444,
                        -0.0015940368175506592,
                        -0.06953800469636917,
                        0.1852065473794937,
                        0.15780103206634521,
                        -0.07115717977285385,
                        -0.035988930612802505,
                        0.10205654799938202,
                        0.033170316368341446,
                        -0.040709950029850006,
                        -0.13981615006923676,
                        0.08998733758926392,
                        0.08554879575967789,
                        -0.17957910895347595,
                        -0.161493718624115,
                        -0.19723886251449585,
                        -0.14130224287509918,
                        -0.07047728449106216,
                        -0.0071372585371136665,
                        -0.10272138565778732,
                        0.2006569653749466,
                        0.14879415929317474,
                        -0.10344244539737701,
                        0.007448006886988878,
                        -0.17575886845588684,
                        -0.20950905978679657,
                        -0.18914444744586945,
                        0.04298880323767662,
                        -0.030452962964773178,
                        0.09141791611909866,
                        -0.18158864974975586,
                        0.1809539496898651,
                        0.08614835143089294,
                        -0.0726567953824997,
                        0.10159070789813995,
                        0.08136967569589615,
                        0.190748929977417,
                        0.02207230031490326,
                        -0.13576069474220276,
                        0.006084970664232969,
                        -0.12180688232183456,
                        -0.032716233283281326,
                        -0.07971476763486862,
                        -0.17171542346477509,
                        -0.13732396066188812,
                        -0.2072768211364746,
                        -0.07680901885032654,
                        -0.07768597453832626,
                        -0.04932204633951187,
                        0.10107129067182541,
                        -0.08067282289266586,
                        -0.1441011279821396,
                        0.1780630350112915,
                        -0.03940650820732117,
                        -0.16702263057231903,
                        -0.1810668408870697,
                        -0.13016612827777863,
                        0.13233399391174316,
                        -0.12059401720762253,
                        -0.07715430855751038,
                        0.15897375345230103,
                        0.20800277590751648,
                        0.05369069054722786,
                        0.1436065286397934,
                        0.05149732157588005,
                        0.17370396852493286,
                        -0.18783046305179596,
                        0.040931280702352524,
                        0.04154512286186218,
                        0.08531805872917175,
                        0.1604948490858078,
                        0.03808562457561493,
                        -0.06545231491327286,
                        0.02942008525133133,
                        0.08449849486351013,
                        -0.17367874085903168,
                        0.18151940405368805,
                        0.02572689950466156,
                        0.16754217445850372,
                        0.20278578996658325,
                        0.0553252175450325,
                        -0.19494657218456268,
                        -0.05430736765265465,
                        0.13969475030899048,
                        -0.03955783322453499,
                        -0.21490585803985596,
                        0.07945942133665085,
                        -0.11438997834920883,
                        -0.14338327944278717,
                        0.1974886804819107,
                        0.11139306426048279,
                        0.06810661405324936,
                        -0.21089854836463928,
                        0.038977060467004776,
                        0.14709123969078064,
                        0.036041803658008575,
                        0.018678007647395134,
                        0.2026854157447815,
                        -0.0609947070479393,
                        0.18255212903022766,
                        0.01705089956521988,
                        0.17884604632854462,
                        0.09035427868366241,
                        0.14254695177078247,
                        0.10780435800552368,
                        0.12636443972587585,
                        -0.167657732963562,
                        0.1884438395500183,
                        -0.1520167738199234,
                        -0.15766111016273499,
                        -0.03546075150370598,
                        0.14315079152584076,
                        -0.16208118200302124,
                        -0.0836634486913681,
                        -0.03300649672746658,
                        -0.16515736281871796,
                        0.10291074216365814,
                        0.20386935770511627,
                        0.07044295221567154
                    ]
                ],
                [
                    0.0010598781518638134,
                    0.0012812857748940587,
                    8.969797636382282e-05,
                    0.0007509032730013132,
                    -0.00021259540517348796,
                    0.004850318655371666,
                    0.0005685340729542077,
                    0.00036435716901905835,
                    -0.0001393549027852714,
                    0.00017989832849707454,
                    0.0021051468793302774,
                    0.0019425336504355073,
                    -0.0006574020953848958,
                    0.0033609382808208466,
                    -7.662321149837226e-05,
                    -0.000762132927775383,
                    -7.543523679487407e-05,
                    -0.0017454258631914854,
                    0.00033023394644260406,
                    0.00038389189285226166,
                    -0.00013511576980818063,
                    -0.00844969879835844,
                    0.0005200792802497745,
                    0.000612440169788897,
                    0.001187091926112771,
                    0.0006248679710552096,
                    1.6124487956403755e-05,
                    0.002409139648079872,
                    0.00012932562094647437,
                    -0.0007231583003886044,
                    -0.00029814441222697496,
                    5.475884972838685e-05,
                    0.0002893240889534354,
                    0.0008454225026071072,
                    0.00047339810407720506,
                    0.0004099147627130151,
                    0.0005823753890581429,
                    -0.007901537232100964,
                    0.0003027520142495632,
                    -8.996161341201514e-05,
                    -0.006545914802700281,
                    0.0021041028667241335,
                    0.00010543736425461248,
                    -0.004139362834393978,
                    -0.0002793013409245759,
                    -0.0005348504637368023,
                    0.00012984176282770932,
                    0.00020008902356494218,
                    -0.0008705718792043626,
                    4.719657590612769e-05,
                    0.0005963736912235618,
                    0.0010188507148995996,
                    -0.0006604443187825382,
                    0.0004929380374960601,
                    0.0008355300524272025,
                    0.00020841084187850356,
                    0.0005522227729670703,
                    0.007666508201509714,
                    0.0009331799810752273,
                    0.00045052211498841643,
                    0.0008063020650297403,
                    -0.0013520370703190565,
                    -2.0742754713864997e-05,
                    0.00047418251051567495,
                    -0.00042216936708427966,
                    -0.0003446086193434894,
                    -3.9248785469681025e-05,
                    0.007280103862285614,
                    0.005082712974399328,
                    -0.009566601365804672,
                    0.0007044067606329918,
                    0.00025114649906754494,
                    0.0009437025873921812,
                    -5.921677075093612e-05,
                    -0.0014551272615790367,
                    -0.0008834845502860844,
                    0.0003403682494536042,
                    0.0004886201932094991,
                    0.0014255839632824063,
                    -0.0012729851296171546,
                    0.0010494082234799862,
                    0.0008434999035671353,
                    -0.00048527141916565597,
                    -0.0027453028596937656,
                    0.0032621778082102537,
                    -0.00025194574845954776,
                    -0.0005055457004345953,
                    -0.0006847835611552,
                    -0.0004041959182359278,
                    -0.0011669091181829572,
                    0.00042870198376476765,
                    -0.0013193198246881366,
                    -0.0010476300958544016,
                    -0.00015970820095390081,
                    -0.0006840319256298244,
                    -0.00014405201363842934,
                    -0.0010124753462150693,
                    3.328728780616075e-05,
                    -0.0005492181517183781,
                    -0.004012830089777708,
                    -0.003041030140593648,
                    0.00033692040597088635,
                    7.6252494181972e-05,
                    -0.00014362807269208133,
                    -0.0005014415946789086,
                    -0.000498764798976481,
                    -0.008673256263136864,
                    -0.00015283888205885887,
                    -0.0002586296177469194,
                    0.0003628241829574108,
                    0.000684207072481513,
                    0.0001824587379815057,
                    -0.0005444896523840725,
                    0.0006436397670768201,
                    -0.0013117707567289472,
                    0.002750737126916647,
                    -0.0013080881908535957,
                    0.00025999153149314225,
                    -0.0008281929767690599,
                    0.010084060952067375,
                    0.0002237174630863592,
                    0.004359877668321133,
                    0.0015109456144273281,
                    0.0011733082355931401,
                    -0.00019124249229207635,
                    -0.0009036072879098356,
                    0.0014418994542211294,
                    -0.0007366535719484091
                ]
            ]
        },
        {
            "type": "dense",
            "activation": "tanh",
            "shape": [
                null,
                null,
                128
            ],
            "weights": [
                [
                    [
                        0.005536810029298067,
                        0.04199642315506935,
                        -0.12185840308666229,
                        0.022278709337115288,
                        0.10965022444725037,
                        -0.07001542299985886,
                        -0.07128317654132843,
                        -0.06608450412750244,
                        0.09247787296772003,
                        0.04391416162252426,
                        -0.042201586067676544,
                        0.05354210361838341,
                        0.004895106423646212,
                        0.03433937206864357,
                        0.039792563766241074,
                        0.032542843371629715,
                        -0.12484890967607498,
                        -0.03636840730905533,
                        -0.12943588197231293,
                        0.02731582522392273,
                        -0.12317020446062088,
                        0.012603186070919037,
                        -0.15250352025032043,
                        -0.10526937246322632,
                        0.1499047577381134,
                        0.043064381927251816,
                        0.06425850838422775,
                        -0.02746659889817238,
                        -0.1492883861064911,
                        -0.08821021765470505,
                        -0.06227012351155281,
                        -0.010871391743421555,
                        0.15007464587688446,
                        0.13384729623794556,
                        0.020595090463757515,
                        0.002962193451821804,
                        0.13490355014801025,
                        -0.09242668747901917,
                        -0.06824419647455215,
                        -0.03878315910696983,
                        0.0941847413778305,
                        -0.04219304770231247,
                        -0.004279023967683315,
                        -0.07729828357696533,
                        -0.010330629535019398,
                        -0.14024406671524048,
                        0.1379242241382599,
                        0.14134308695793152,
                        0.12879426777362823,
                        0.14537067711353302,
                        -0.027885235846042633,
                        -0.06477299332618713,
                        0.04516845569014549,
                        0.10111972689628601,
                        0.05269778147339821,
                        0.14219194650650024,
                        -0.13277962803840637,
                        -0.02848929911851883,
                        0.06940935552120209,
                        0.12378191202878952,
                        -0.04579959809780121,
                        0.04523603990674019,
                        0.15104815363883972,
                        -0.12097423523664474,
                        -0.08268699049949646,
                        0.04307820647954941,
                        -0.01311835739761591,
                        0.013817175291478634,
                        -0.15251441299915314,
                        0.1267562359571457,
                        -0.014178759418427944,
                        0.13386037945747375,
                        -0.09370306134223938,
                        0.08804312348365784,
                        -0.045002374798059464,
                        0.123616062104702,
                        0.059827983379364014,
                        0.1325470507144928,
                        -0.12141497433185577,
                        0.07608942687511444,
                        -0.13094449043273926,
                        -0.055177073925733566,
                        -0.06336349248886108,
                        -0.024060510098934174,
                        0.09196975082159042,
                        0.048709869384765625,
                        -0.05836040526628494,
                        0.12179812043905258,
                        0.022026427090168,
                        0.0876111164689064,
                        -0.024455636739730835,
                        -0.14165756106376648,
                        -0.09672849625349045,
                        0.029182540252804756,
                        -0.0754370167851448,
                        -0.018413294106721878,
                        0.09566943347454071,
                        0.0006716619245707989,
                        -0.0693093091249466,
                        -0.06415379792451859,
                        -0.14247892796993256,
                        0.13739736378192902,
                        0.05807023122906685,
                        -0.029103314504027367,
                        -0.09257280826568604,
                        0.07833123207092285,
                        0.0939495787024498,
                        -0.017411572858691216,
                        -0.03741144761443138,
                        -0.02932947687804699,
                        0.11935701966285706,
                        0.07191134989261627,
                        -0.11930298805236816,
                        0.10643035173416138,
                        -0.14602337777614594,
                        -0.09766475856304169,
                        0.09932711720466614,
                        -0.05175887048244476,
                        0.016382651403546333,
                        0.08817292004823685,
                        0.09751372784376144,
                        -0.027697186917066574,
                        0.02902582660317421,
                        0.074238121509552,
                        -0.11071018874645233,
                        0.05651213601231575,
                        0.013229941949248314,
                        0.022056885063648224
                    ],
                    [
                        -0.0024846948217600584,
                        -0.0888652577996254,
                        -0.12165742367506027,
                        0.06883051991462708,
                        -0.06034300476312637,
                        -0.05579553171992302,
                        -0.09209462255239487,
                        0.04474577680230141,
                        0.144547700881958,
                        0.024104921147227287,
                        0.06275591999292374,
                        0.13283167779445648,
                        -0.06807851046323776,
                        -0.062242187559604645,
                        -0.12363779544830322,
                        -0.06591974943876266,
                        -0.08902816474437714,
                        -0.11790690571069717,
                        0.07221604883670807,
                        -0.14180831611156464,
                        -0.10856550931930542,
                        -0.012069697491824627,
                        -0.05100644752383232,
                        0.04543497413396835,
                        -0.054085731506347656,
                        0.09137407690286636,
                        -0.1429489254951477,
                        -0.054036710411310196,
                        0.07323871552944183,
                        -0.10606533288955688,
                        0.10058966279029846,
                        -0.12362868338823318,
                        0.08145886659622192,
                        0.015517046675086021,
                        -0.09056609869003296,
                        -0.09251299500465393,
                        0.13070468604564667,
                        0.0006093252450227737,
                        0.09904034435749054,
                        0.14386513829231262,
                        0.06594525277614594,
                        0.11541905999183655,
                        -0.021603034809231758,
                        -0.08266639709472656,
                        -0.013356095179915428,
                        -0.13349537551403046,
                        0.04611038789153099,
                        -0.1514168679714203,
                        -0.047097086906433105,
                        -0.1445775032043457,
                        -0.04766332730650902,
                        -0.12583614885807037,
                        -0.027703726664185524,
                        -0.09636487811803818,
                        0.005684151779860258,
                        -0.09921203553676605,
                        0.11647491902112961,
                        -0.08918588608503342,
                        -0.13356955349445343,
                        -0.02508002705872059,
                        0.11954297870397568,
                        0.13990789651870728,
                        0.08324051648378372,
                        -0.06257934868335724,
                        0.04893986135721207,
                        -0.05710221454501152,
                        -0.061319462954998016,
                        -0.11896118521690369,
                        -0.1324884444475174,
                        0.10820156335830688,
                        0.11727660894393921,
                        -0.01651468686759472,
                        0.027206359431147575,
                        0.05588001012802124,
                        -0.03344298154115677,
                        0.04830746352672577,
                        0.05340491607785225,
                        0.11568260937929153,
                        0.1412891447544098,
                        -0.09919419884681702,
                        0.055143192410469055,
                        -0.06866022199392319,
                        0.11900275945663452,
                        0.14642612636089325,
                        0.06269259750843048,
                        -0.07760541886091232,
                        0.1307515650987625,
                        0.006708698812872171,
                        -0.015796992927789688,
                        -0.05336610600352287,
                        0.07588210701942444,
                        -0.14870157837867737,
                        0.0037949434481561184,
                        0.13232994079589844,
                        0.029833504930138588,
                        -0.0854133889079094,
                        0.002780318958684802,
                        0.10666848719120026,
                        0.14449600875377655,
                        -0.008814914152026176,
                        -0.034081656485795975,
                        0.0874919593334198,
                        -0.0680055022239685,
                        0.07418976724147797,
                        0.12200142443180084,
                        0.09109777212142944,
                        0.08244897425174713,
                        0.11089380830526352,
                        -0.06362497061491013,
                        -0.04683152586221695,
                        -0.008662916719913483,
                        0.05350960046052933,
                        0.016652582213282585,
                        0.09381014853715897,
                        0.042423758655786514,
                        -0.05231378227472305,
                        -0.014402142725884914,
                        0.037816137075424194,
                        -0.10730031132698059,
                        0.041041526943445206,
                        0.10628531128168106,
                        -0.0156126469373703,
                        0.15066708624362946,
                        0.08525163680315018,
                        0.021847346797585487,
                        -0.004017143044620752,
                        0.09697701781988144,
                        0.017728975042700768
                    ],
                    [
                        0.1053290069103241,
                        0.04716043919324875,
                        0.14637407660484314,
                        0.13646477460861206,
                        -0.0699063241481781,
                        -0.0798521414399147,
                        -0.024574963375926018,
                        0.03189679607748985,
                        -0.11635933071374893,
                        0.1043393462896347,
                        0.0727776363492012,
                        -0.14599820971488953,
                        0.039309062063694,
                        -0.019836856052279472,
                        -0.11369723081588745,
                        0.04594159871339798,
                        0.0355023555457592,
                        -0.10112952440977097,
                        0.08257482945919037,
                        -0.09192496538162231,
                        -0.09433569014072418,
                        0.09302444756031036,
                        -0.0008797543705441058,
                        -0.05393809452652931,
                        0.11541677266359329,
                        -0.010804012417793274,
                        -0.10278189927339554,
                        -0.017103128135204315,
                        -0.06198030710220337,
                        -0.03764999285340309,
                        0.14877918362617493,
                        -0.15012726187705994,
                        -0.09744910150766373,
                        -0.13428498804569244,
                        -0.03928996995091438,
                        -0.05051218718290329,
                        -0.11512741446495056,
                        -0.0834336057305336,
                        -0.03781109303236008,
                        0.09332304447889328,
                        -0.12385161966085434,
                        -0.07926631718873978,
                        0.05668848007917404,
                        0.11251282691955566,
                        -0.08618836849927902,
                        0.15009842813014984,
                        0.04357253387570381,
                        0.04483242705464363,
                        -0.06639272719621658,
                        -0.1488557755947113,
                        0.1430409848690033,
                        -0.009623821824789047,
                        -0.11486975848674774,
                        0.028604358434677124,
                        -0.05419463291764259,
                        0.045187439769506454,
                        -0.094951331615448,
                        0.05120878294110298,
                        -0.07962857931852341,
                        -0.025935709476470947,
                        -0.04686010628938675,
                        -0.05432228371500969,
                        0.11725006997585297,
                        0.07317681610584259,
                        0.02381308563053608,
                        0.015064885839819908,
                        0.03812788799405098,
                        0.05407730117440224,
                        -0.05277097597718239,
                        -0.07622077316045761,
                        0.10862566530704498,
                        0.1353418231010437,
                        -0.052583541721105576,
                        0.022201938554644585,
                        -0.13920721411705017,
                        0.14487983286380768,
                        -0.04710530489683151,
                        -0.05592285841703415,
                        0.07783152163028717,
                        -0.12023361027240753,
                        0.08466396480798721,
                        -0.10864619165658951,
                        0.08167307823896408,
                        -0.07760313898324966,
                        -0.037954382598400116,
                        -0.08089230954647064,
                        0.09064632654190063,
                        -0.14363494515419006,
                        -0.0686960369348526,
                        0.11545681953430176,
                        -0.024429859593510628,
                        -0.14455899596214294,
                        -0.08695809543132782,
                        0.13298097252845764,
                        -0.14677594602108002,
                        0.029938768595457077,
                        -0.09639167785644531,
                        0.09436549991369247,
                        -0.0923740342259407,
                        -0.0011353001464158297,
                        0.08754323422908783,
                        -0.13648557662963867,
                        -0.09953442960977554,
                        -0.05906744673848152,
                        -0.015259558334946632,
                        -0.01029154658317566,
                        -0.03366231173276901,
                        0.06115907430648804,
                        0.051799431443214417,
                        -0.033739663660526276,
                        -0.12257570028305054,
                        -0.14944547414779663,
                        -0.11767610907554626,
                        -0.022215334698557854,
                        -0.12378238886594772,
                        0.07453279197216034,
                        -0.09101402014493942,
                        -0.04829244688153267,
                        -0.13513779640197754,
                        -0.09956607967615128,
                        -0.12421733886003494,
                        0.14872637391090393,
                        -0.09510494023561478,
                        -0.09446774423122406,
                        0.08297345042228699,
                        -0.085769422352314,
                        0.10308564454317093,
                        0.027206595987081528
                    ],
                    [
                        0.11985917389392853,
                        0.10250139236450195,
                        0.1431175023317337,
                        -0.14651940762996674,
                        -0.10707731544971466,
                        0.038603588938713074,
                        0.05377786606550217,
                        -0.08856151252985,
                        0.005378695670515299,
                        0.1505548506975174,
                        -0.05947581306099892,
                        -0.10874923318624496,
                        -0.01790306717157364,
                        -0.027123160660266876,
                        -0.022656364366412163,
                        0.07091074436903,
                        -0.11375028640031815,
                        -0.043508194386959076,
                        -0.1462315022945404,
                        -0.07751711457967758,
                        0.005185753107070923,
                        0.009726942516863346,
                        -0.10763994604349136,
                        0.09795298427343369,
                        0.05609412118792534,
                        -0.0953589454293251,
                        0.018100079149007797,
                        0.1433519423007965,
                        -0.020925013348460197,
                        0.11792576313018799,
                        0.11301519721746445,
                        -0.09319788217544556,
                        0.012058377265930176,
                        0.13641105592250824,
                        0.10956451296806335,
                        0.11117936670780182,
                        -0.05782204866409302,
                        0.13072848320007324,
                        0.042465146631002426,
                        -0.012609926052391529,
                        -0.09920626133680344,
                        -0.14088021218776703,
                        0.10174359381198883,
                        9.012861846713349e-05,
                        -0.00625185202807188,
                        0.04640766233205795,
                        -0.06999997794628143,
                        0.11977797001600266,
                        0.03921676427125931,
                        0.03971032798290253,
                        0.1035337969660759,
                        0.04739886522293091,
                        -0.09404265880584717,
                        0.035030972212553024,
                        -0.013702724128961563,
                        -0.12673211097717285,
                        -0.05604197829961777,
                        -0.09863969683647156,
                        -0.05074600875377655,
                        -0.12187124788761139,
                        -0.00010417681914987043,
                        0.030614715069532394,
                        0.004687476437538862,
                        0.044881533831357956,
                        0.03643114119768143,
                        0.015501129440963268,
                        0.022003822028636932,
                        0.09259951114654541,
                        0.0407540462911129,
                        -0.13802826404571533,
                        -0.060112807899713516,
                        0.038914792239665985,
                        0.053665511310100555,
                        0.13139845430850983,
                        0.10118653625249863,
                        0.08784997463226318,
                        0.07304973900318146,
                        -0.044383201748132706,
                        0.0036333014722913504,
                        -0.14538785815238953,
                        -0.027444861829280853,
                        0.04412711411714554,
                        -0.10391025245189667,
                        -0.1184006929397583,
                        0.08741390705108643,
                        -0.050027478486299515,
                        0.12155096232891083,
                        0.02025647833943367,
                        0.10241847485303879,
                        -0.07723113894462585,
                        -0.0578378364443779,
                        0.0759630873799324,
                        0.10087492316961288,
                        0.14286789298057556,
                        0.04812195152044296,
                        -0.022125720977783203,
                        -0.041256602853536606,
                        0.08724933117628098,
                        0.11848889291286469,
                        -0.015367665328085423,
                        -0.05505214259028435,
                        0.041358496993780136,
                        -0.09462875872850418,
                        -0.021315976977348328,
                        0.14040856063365936,
                        0.0970986858010292,
                        0.12479672580957413,
                        -0.11502961814403534,
                        0.12131548672914505,
                        -0.006338568404316902,
                        -0.01715840958058834,
                        0.02629895880818367,
                        0.0044822683557868,
                        -0.03744177147746086,
                        0.08460504561662674,
                        -0.021359261125326157,
                        -0.009711245074868202,
                        -0.12740375101566315,
                        0.10640910267829895,
                        0.12776236236095428,
                        0.09256120771169662,
                        -0.04679336026310921,
                        0.07050927728414536,
                        -0.15058951079845428,
                        -0.028931651264429092,
                        -0.12734346091747284,
                        0.018878193572163582,
                        0.057111792266368866
                    ],
                    [
                        0.03859188035130501,
                        -0.09375732392072678,
                        -0.14979742467403412,
                        -0.14724363386631012,
                        -0.0966091901063919,
                        -0.10809923708438873,
                        -0.011464716866612434,
                        0.07424351572990417,
                        0.14966967701911926,
                        -0.058356449007987976,
                        -0.01718498393893242,
                        -0.059672776609659195,
                        -0.11191094666719437,
                        0.15111880004405975,
                        -0.12885715067386627,
                        0.10435482859611511,
                        0.05342672020196915,
                        0.014176834374666214,
                        -0.07298875600099564,
                        -0.0863291323184967,
                        0.036164361983537674,
                        -0.03387763723731041,
                        0.021556813269853592,
                        -0.06591600924730301,
                        0.036865122616291046,
                        0.07972867041826248,
                        0.03758341819047928,
                        -0.11935102194547653,
                        0.09315043687820435,
                        -0.07977558672428131,
                        0.15104104578495026,
                        0.02578706480562687,
                        0.14097031950950623,
                        0.04154526814818382,
                        0.047852855175733566,
                        0.1038912832736969,
                        -0.022649526596069336,
                        0.086375392973423,
                        -0.07480890303850174,
                        -0.022114625200629234,
                        -0.027652012184262276,
                        -0.04531940072774887,
                        -0.03301194682717323,
                        -0.1433773636817932,
                        -0.046243831515312195,
                        -0.012845847755670547,
                        0.028373057022690773,
                        0.04459378868341446,
                        -0.10925841331481934,
                        -0.07950415462255478,
                        0.07432904839515686,
                        -0.10910841077566147,
                        0.12614469230175018,
                        0.09077152609825134,
                        -0.05297867953777313,
                        0.1142682135105133,
                        0.03638182580471039,
                        -0.035506196320056915,
                        -0.10547880083322525,
                        -0.09389476478099823,
                        0.1261446177959442,
                        0.0009057093411684036,
                        -0.10904243588447571,
                        0.1361098438501358,
                        0.0887354239821434,
                        0.13890127837657928,
                        -0.09473514556884766,
                        0.016278298571705818,
                        -0.06838951259851456,
                        0.1398657262325287,
                        -0.019509749487042427,
                        0.014660262502729893,
                        -0.022086316719651222,
                        0.024366488680243492,
                        0.06095198914408684,
                        -0.11713756620883942,
                        0.010099787265062332,
                        0.06929171085357666,
                        0.09986613690853119,
                        -0.14152254164218903,
                        0.06433022022247314,
                        -0.03869089111685753,
                        -0.018548553809523582,
                        0.07175840437412262,
                        -0.07982540130615234,
                        0.07671543210744858,
                        -0.13565249741077423,
                        0.15212824940681458,
                        0.084602952003479,
                        0.014116589911282063,
                        0.14381545782089233,
                        -0.14449474215507507,
                        -0.046638403087854385,
                        0.03820322826504707,
                        0.061004143208265305,
                        -0.017427416518330574,
                        -0.1165170818567276,
                        -0.025751033797860146,
                        0.13414153456687927,
                        0.07529406994581223,
                        0.06371668726205826,
                        0.0774204432964325,
                        -0.03901859372854233,
                        0.059492532163858414,
                        0.08464358001947403,
                        -0.020601052790880203,
                        0.09295643866062164,
                        -0.06827341020107269,
                        0.010116172954440117,
                        0.11320186406373978,
                        0.1102207750082016,
                        -0.07657788693904877,
                        0.07944878190755844,
                        0.13057003915309906,
                        -0.0522465854883194,
                        -0.10395477712154388,
                        0.0049495999701321125,
                        -0.14156651496887207,
                        0.07897312939167023,
                        -0.022784357890486717,
                        -0.12846015393733978,
                        -0.013195408508181572,
                        -0.0017324957298114896,
                        0.05601278319954872,
                        -0.06229070574045181,
                        -0.024884380400180817,
                        0.03655795007944107,
                        0.019813526421785355
                    ],
                    [
                        0.1156611517071724,
                        0.044525813311338425,
                        -0.021789338439702988,
                        -0.009311683475971222,
                        0.08308621495962143,
                        0.08570500463247299,
                        -0.06957933306694031,
                        -0.13092069327831268,
                        0.013049011118710041,
                        0.003304676851257682,
                        0.041641343384981155,
                        0.08781377971172333,
                        0.14065785706043243,
                        0.12402322143316269,
                        -0.05908973887562752,
                        -0.09767849743366241,
                        -0.12760747969150543,
                        0.1393657922744751,
                        -0.10729076713323593,
                        -0.052140042185783386,
                        0.02439391426742077,
                        0.12112481147050858,
                        0.005999780260026455,
                        -0.009735933504998684,
                        0.02599985897541046,
                        -0.01754286326467991,
                        -0.09046941995620728,
                        0.11931437253952026,
                        0.04993658512830734,
                        0.13473309576511383,
                        0.11421354115009308,
                        0.10981309413909912,
                        -0.016817061230540276,
                        0.001555376104079187,
                        0.08185922354459763,
                        0.08305906504392624,
                        -0.044977959245443344,
                        0.11872108280658722,
                        0.07477682083845139,
                        0.11614301055669785,
                        0.07024595886468887,
                        -0.08326765894889832,
                        0.07255643606185913,
                        0.05841873958706856,
                        -0.07852933555841446,
                        0.1326482892036438,
                        -0.043489307165145874,
                        0.02154322899878025,
                        0.017875177785754204,
                        0.029653511941432953,
                        -0.040059544146060944,
                        -0.12722979485988617,
                        -0.1297193467617035,
                        0.13820599019527435,
                        -0.09308665245771408,
                        0.07455331087112427,
                        0.10340607911348343,
                        -0.11922477930784225,
                        0.04715247079730034,
                        0.012933395802974701,
                        0.07226192951202393,
                        0.02562839910387993,
                        -0.0360543392598629,
                        -0.020504502579569817,
                        -0.04465923830866814,
                        0.004816505126655102,
                        -0.13021185994148254,
                        0.0910245031118393,
                        -0.12469061464071274,
                        0.09734093397855759,
                        0.1010841578245163,
                        0.036245036870241165,
                        -0.04820491373538971,
                        -0.10307857394218445,
                        0.10861993581056595,
                        -0.04314810037612915,
                        0.06807473301887512,
                        0.09869947284460068,
                        -0.009909145534038544,
                        -0.14129427075386047,
                        -0.039537444710731506,
                        -0.13814812898635864,
                        -0.1458044797182083,
                        0.032082244753837585,
                        0.07511076331138611,
                        -0.1225973591208458,
                        0.05445275455713272,
                        -0.03536984696984291,
                        0.1523229479789734,
                        0.08263462036848068,
                        -0.04480280354619026,
                        0.13720034062862396,
                        0.0025929517578333616,
                        0.06439714878797531,
                        -0.14927586913108826,
                        0.06648264080286026,
                        0.061470407992601395,
                        0.14696882665157318,
                        0.13823990523815155,
                        -0.07288432866334915,
                        0.03227555379271507,
                        0.12913064658641815,
                        0.02461806870996952,
                        -0.11397216469049454,
                        0.008249274455010891,
                        0.06167849153280258,
                        0.04195646569132805,
                        0.15228396654129028,
                        0.08173681795597076,
                        -0.07912113517522812,
                        0.04882889613509178,
                        -0.13426758348941803,
                        0.0453815758228302,
                        -0.1300373524427414,
                        -0.11034703254699707,
                        -0.06641777604818344,
                        -0.09551486372947693,
                        -0.11307632923126221,
                        -0.004480547271668911,
                        0.0746873989701271,
                        -0.11838556081056595,
                        0.014434462413191795,
                        -0.08654506504535675,
                        0.06772346794605255,
                        0.005383310839533806,
                        -0.06062816083431244,
                        0.06692264974117279,
                        -0.08552867919206619
                    ],
                    [
                        -0.03669700771570206,
                        0.11665003001689911,
                        -0.0026959702372550964,
                        -0.03867350146174431,
                        0.004401346668601036,
                        0.007150682155042887,
                        0.04698358103632927,
                        0.008105175569653511,
                        0.10340581089258194,
                        0.005867702420800924,
                        0.034918952733278275,
                        0.12445007264614105,
                        -0.11849091202020645,
                        0.006337040103971958,
                        -0.05778583511710167,
                        -0.03304966911673546,
                        -0.12855969369411469,
                        -0.0018359142122790217,
                        0.12023402750492096,
                        0.02020752802491188,
                        0.07603750377893448,
                        0.1382569968700409,
                        -0.14728765189647675,
                        0.03409388288855553,
                        -6.806827150285244e-05,
                        -0.07094745337963104,
                        -0.09604713320732117,
                        -0.061909109354019165,
                        -0.001970025012269616,
                        0.0688449814915657,
                        0.01640862599015236,
                        -0.11430437117815018,
                        0.12623418867588043,
                        -0.04191238805651665,
                        -0.12879349291324615,
                        -0.1244969367980957,
                        -0.008863198570907116,
                        -0.11549229174852371,
                        0.1478780210018158,
                        -0.05596579983830452,
                        0.0030298985075205564,
                        -0.019727900624275208,
                        0.114763543009758,
                        0.02195684053003788,
                        -0.0939776822924614,
                        -0.13121438026428223,
                        -0.04672296345233917,
                        -0.0075159380212426186,
                        0.11590467393398285,
                        -0.05912007763981819,
                        -0.1418112963438034,
                        -0.03667797893285751,
                        0.1117221862077713,
                        0.14133144915103912,
                        -0.11487246304750443,
                        -0.03363696113228798,
                        -0.07447516173124313,
                        -0.10291226208209991,
                        0.04057846590876579,
                        -0.004266869276762009,
                        0.08752190321683884,
                        0.03552006930112839,
                        -0.10798764228820801,
                        -0.08126956224441528,
                        0.0319252610206604,
                        0.03219503164291382,
                        0.033968597650527954,
                        0.026248948648571968,
                        -0.0568881593644619,
                        -0.13272233307361603,
                        -0.015049663372337818,
                        0.13969027996063232,
                        -0.09804625809192657,
                        -0.03440999984741211,
                        -0.14061294496059418,
                        -0.006616692524403334,
                        0.1254948228597641,
                        0.12445278465747833,
                        -0.07135659456253052,
                        0.03682386130094528,
                        0.05899770185351372,
                        -0.009075521491467953,
                        -0.03771562501788139,
                        -0.10892791301012039,
                        -0.04524856060743332,
                        0.037513718008995056,
                        -0.0019547322299331427,
                        -0.14480413496494293,
                        -0.09790613502264023,
                        0.04738033935427666,
                        -0.08122500777244568,
                        0.1436431109905243,
                        -0.09629742056131363,
                        0.07783354818820953,
                        -0.006079513113945723,
                        0.0714557021856308,
                        -0.13723298907279968,
                        0.10476526618003845,
                        -0.02904755063354969,
                        -0.15183499455451965,
                        0.09599241614341736,
                        -0.032358042895793915,
                        0.00019617968064267188,
                        -0.15215718746185303,
                        0.1360977292060852,
                        0.014544579200446606,
                        0.12954828143119812,
                        -0.0682651475071907,
                        -0.12138567864894867,
                        -0.01872544176876545,
                        -0.03802289813756943,
                        0.048325639218091965,
                        -0.04959176480770111,
                        0.03780486062169075,
                        0.034202080219984055,
                        0.032173242419958115,
                        -0.1428605616092682,
                        -0.07344695180654526,
                        -0.0044757104478776455,
                        0.10019325464963913,
                        -0.06020575016736984,
                        -0.010326433926820755,
                        0.10578026622533798,
                        -0.02687176689505577,
                        -0.037595320492982864,
                        -0.11946011334657669,
                        0.0036993464455008507,
                        0.01865135133266449
                    ],
                    [
                        0.1532239466905594,
                        -0.013588237576186657,
                        0.050850436091423035,
                        -0.012472751550376415,
                        -0.0301066841930151,
                        -0.1410907506942749,
                        0.04325922578573227,
                        -0.08762110769748688,
                        0.02589215524494648,
                        0.04036274179816246,
                        0.10575463622808456,
                        0.13478286564350128,
                        0.009914452210068703,
                        0.0913136899471283,
                        0.1339663863182068,
                        0.01627110131084919,
                        0.08068417757749557,
                        -0.07664782553911209,
                        -0.12414996325969696,
                        0.01625257171690464,
                        0.11170165985822678,
                        0.0864090621471405,
                        -0.08323240280151367,
                        0.07937206327915192,
                        0.10579413920640945,
                        -0.11492742598056793,
                        -0.00153607246465981,
                        0.08650033921003342,
                        0.1454293131828308,
                        -0.14783205091953278,
                        0.13407616317272186,
                        0.12215136736631393,
                        -0.02812979556620121,
                        0.03309409320354462,
                        -0.11567989736795425,
                        0.005911047104746103,
                        -0.0818697139620781,
                        0.006541021633893251,
                        0.018070150166749954,
                        -0.14463530480861664,
                        0.06396825611591339,
                        -0.1121445745229721,
                        0.08589132875204086,
                        -0.052676014602184296,
                        0.05603528395295143,
                        0.104836605489254,
                        0.12204194813966751,
                        -0.04463745281100273,
                        -0.003371075727045536,
                        -0.08016146719455719,
                        -0.039964016526937485,
                        -0.1415218710899353,
                        -0.07581683248281479,
                        -0.0958368107676506,
                        -0.07048751413822174,
                        -0.1221534013748169,
                        -0.021881669759750366,
                        0.03659655526280403,
                        -0.11387905478477478,
                        0.056536875665187836,
                        -0.1435694694519043,
                        -0.14244486391544342,
                        -0.0012700696242973208,
                        0.006718263495713472,
                        0.12338167428970337,
                        -0.04554371535778046,
                        0.0029005438555032015,
                        -0.14646129310131073,
                        -0.10951767861843109,
                        -0.024857185781002045,
                        -0.02227891981601715,
                        -0.06647482514381409,
                        0.0313706248998642,
                        -0.019447071477770805,
                        0.019096551463007927,
                        -0.10566006600856781,
                        -0.08917351812124252,
                        0.04265029728412628,
                        0.08432547748088837,
                        0.1378193497657776,
                        -0.1358511745929718,
                        0.13922181725502014,
                        0.10926073044538498,
                        -0.0036189681850373745,
                        -0.10084463655948639,
                        -0.0035704246256500483,
                        -0.05016298592090607,
                        -3.423223097342998e-05,
                        0.05200893431901932,
                        0.1264001578092575,
                        -0.10174582898616791,
                        0.022206904366612434,
                        -0.11989083141088486,
                        -0.03890670835971832,
                        -0.07324033230543137,
                        -0.05279140546917915,
                        0.0634789988398552,
                        0.032622020691633224,
                        0.04325956106185913,
                        -0.06383877992630005,
                        -0.12483890354633331,
                        0.14351889491081238,
                        -0.08031615614891052,
                        -0.13169261813163757,
                        0.052941251546144485,
                        0.013903853483498096,
                        -0.11378836631774902,
                        -0.11235978454351425,
                        -0.03475572168827057,
                        -0.028744367882609367,
                        -0.1118302196264267,
                        0.14359790086746216,
                        0.11007288098335266,
                        -0.041213665157556534,
                        -0.11565226316452026,
                        -0.07596707344055176,
                        -0.0035627540200948715,
                        0.03405003249645233,
                        -0.14437702298164368,
                        0.09146080166101456,
                        0.0922873318195343,
                        0.04142376780509949,
                        0.12785732746124268,
                        0.03835604712367058,
                        0.10888594388961792,
                        -0.1235712468624115,
                        -0.09317713230848312,
                        -0.04870831221342087
                    ],
                    [
                        0.06313060224056244,
                        -0.14502456784248352,
                        0.015484394505620003,
                        -0.014741135761141777,
                        0.04801522195339203,
                        -0.03774336352944374,
                        -0.025397880002856255,
                        0.1102917343378067,
                        -0.0007537209894508123,
                        -0.08863426744937897,
                        -0.056557223200798035,
                        -0.026991095393896103,
                        0.13055533170700073,
                        -0.1219126358628273,
                        -0.13070523738861084,
                        0.13595885038375854,
                        0.05851249769330025,
                        0.012077325955033302,
                        0.13845768570899963,
                        0.14446982741355896,
                        0.021121611818671227,
                        -0.09291157126426697,
                        -0.10729037970304489,
                        -0.006240451242774725,
                        -0.08704324066638947,
                        0.06535550206899643,
                        -0.031626589596271515,
                        -0.10873818397521973,
                        -0.025370165705680847,
                        -0.12016463279724121,
                        0.05863898620009422,
                        -0.056148968636989594,
                        0.07883534580469131,
                        -0.038304608315229416,
                        -0.07265907526016235,
                        -0.018374880775809288,
                        -0.055754512548446655,
                        -0.09496286511421204,
                        0.14635056257247925,
                        0.15083672106266022,
                        -0.08899551630020142,
                        0.00789701845496893,
                        0.07587792724370956,
                        -0.00990726612508297,
                        -0.12351656705141068,
                        -0.11973714083433151,
                        0.12257374078035355,
                        0.04855633154511452,
                        -0.002122340025380254,
                        -0.09221230447292328,
                        0.13405020534992218,
                        0.07361306995153427,
                        -0.08395194262266159,
                        -0.045930467545986176,
                        -0.006994339637458324,
                        0.04434124752879143,
                        0.042500559240579605,
                        -0.060348108410835266,
                        0.01387945655733347,
                        -0.05288995802402496,
                        0.11383756250143051,
                        -0.1342049241065979,
                        -0.11796584725379944,
                        0.12941911816596985,
                        0.12817656993865967,
                        0.0857643410563469,
                        0.032333534210920334,
                        -0.04773184284567833,
                        -0.14887620508670807,
                        0.04950537905097008,
                        -0.015253039076924324,
                        0.05799159035086632,
                        0.07844763994216919,
                        0.04318057373166084,
                        0.023534679785370827,
                        0.13659441471099854,
                        -0.08588799834251404,
                        0.11533060669898987,
                        0.12673446536064148,
                        -0.15039975941181183,
                        0.1510872095823288,
                        -0.07467624545097351,
                        0.021086756139993668,
                        -0.13477174937725067,
                        0.10977478325366974,
                        0.12784570455551147,
                        -0.07874347269535065,
                        -0.04178381711244583,
                        0.0924716666340828,
                        -0.05659785866737366,
                        0.056634340435266495,
                        0.04569319263100624,
                        0.0504000261425972,
                        -0.05466115102171898,
                        -0.07563119381666183,
                        -0.14302226901054382,
                        0.10481439530849457,
                        0.05490776151418686,
                        0.149082213640213,
                        -0.08909063041210175,
                        0.04441177099943161,
                        0.08395770192146301,
                        0.05232681706547737,
                        0.02937888354063034,
                        -0.06791813671588898,
                        0.14694899320602417,
                        -0.10279759764671326,
                        -0.12727653980255127,
                        0.11599120497703552,
                        -0.0003313436172902584,
                        -0.09714917838573456,
                        0.14426200091838837,
                        0.02779989503324032,
                        0.021740838885307312,
                        0.03162002190947533,
                        0.023257652297616005,
                        0.01994548738002777,
                        0.12215583026409149,
                        -0.06860387325286865,
                        0.1312406212091446,
                        0.06170600652694702,
                        0.06673797219991684,
                        -0.12969399988651276,
                        0.034625813364982605,
                        -0.14548754692077637,
                        -0.05045671761035919,
                        -0.0787670910358429,
                        -0.027867404744029045
                    ],
                    [
                        0.1394941508769989,
                        0.05994072183966637,
                        -0.06407198309898376,
                        0.057620394974946976,
                        0.006146461237221956,
                        0.008920188993215561,
                        -0.05948818847537041,
                        -0.05740314722061157,
                        -0.10503231734037399,
                        0.039566900581121445,
                        -0.10395070910453796,
                        -0.13137346506118774,
                        0.14979614317417145,
                        0.11487007141113281,
                        -0.12342557311058044,
                        -0.006590632256120443,
                        -0.03792760521173477,
                        -0.09813540428876877,
                        0.009239548817276955,
                        0.13313840329647064,
                        -0.1363438367843628,
                        0.041759978979825974,
                        0.0379147082567215,
                        -0.06438049674034119,
                        -0.07422401010990143,
                        0.09470389783382416,
                        0.022326935082674026,
                        -0.0541016086935997,
                        0.11590100079774857,
                        0.14609864354133606,
                        -0.14256727695465088,
                        -0.025204969570040703,
                        0.14464393258094788,
                        -0.003182155080139637,
                        0.1161203533411026,
                        0.12145128846168518,
                        0.14478237926959991,
                        0.029433460906147957,
                        -0.11533249914646149,
                        0.13852784037590027,
                        0.06614778935909271,
                        0.11892299354076385,
                        0.015687545761466026,
                        0.14398357272148132,
                        0.06721296906471252,
                        0.042105287313461304,
                        0.10636292397975922,
                        0.04120941832661629,
                        -0.15229107439517975,
                        0.1159590557217598,
                        0.053055182099342346,
                        0.09574110805988312,
                        -0.09460140764713287,
                        0.10269615054130554,
                        0.09061019867658615,
                        0.12156108766794205,
                        -0.13255859911441803,
                        0.1307278424501419,
                        -0.15106932818889618,
                        -0.11198404431343079,
                        -0.12009827047586441,
                        0.1239050105214119,
                        -0.1247500479221344,
                        0.06978266686201096,
                        0.010357117280364037,
                        0.0059615615755319595,
                        -0.030035998672246933,
                        0.04996250942349434,
                        -0.0016417744336649776,
                        -0.07693692296743393,
                        0.10463571548461914,
                        -0.12826533615589142,
                        -0.05336587503552437,
                        0.13489224016666412,
                        0.039264339953660965,
                        -0.057738058269023895,
                        -0.07590559124946594,
                        0.10806386917829514,
                        0.12349874526262283,
                        0.12004399299621582,
                        -0.008580323308706284,
                        0.12807708978652954,
                        -0.010964285582304,
                        0.14811252057552338,
                        -0.07932572066783905,
                        -0.10877887159585953,
                        0.028990613296628,
                        -0.025057220831513405,
                        -0.06721454858779907,
                        -0.07645674794912338,
                        0.07236551493406296,
                        0.05854272469878197,
                        -0.1396079808473587,
                        -0.07645333558320999,
                        0.057076290249824524,
                        -0.08413702249526978,
                        0.03192353993654251,
                        0.06508389860391617,
                        -0.10165256261825562,
                        -0.014379906468093395,
                        0.016705678775906563,
                        0.13019032776355743,
                        -0.13648571074008942,
                        0.022433092817664146,
                        -0.0958053395152092,
                        0.0736599937081337,
                        -0.03004291281104088,
                        0.12077999114990234,
                        0.09914707392454147,
                        -0.10100381821393967,
                        -0.11571621149778366,
                        -0.008410274982452393,
                        0.1482541412115097,
                        0.1155286505818367,
                        -0.036443617194890976,
                        0.008855456486344337,
                        0.06184137240052223,
                        -0.0061042229644954205,
                        0.0368807390332222,
                        -0.130072683095932,
                        0.008685249835252762,
                        0.02454088069498539,
                        -0.007141946814954281,
                        0.019998671486973763,
                        -0.07648082822561264,
                        0.03284623101353645,
                        -0.11543508619070053,
                        0.04586151987314224
                    ],
                    [
                        0.029177352786064148,
                        -0.14543955028057098,
                        -0.03380441293120384,
                        0.11359532922506332,
                        -0.053808677941560745,
                        -0.02940862625837326,
                        0.08128705620765686,
                        0.12445922940969467,
                        -0.06859876215457916,
                        -0.13476642966270447,
                        0.10821529477834702,
                        0.02911411225795746,
                        0.026787560433149338,
                        -0.14924994111061096,
                        0.06483449041843414,
                        -0.11018602550029755,
                        -0.08042967319488525,
                        0.004536406137049198,
                        0.003063154872506857,
                        -0.09295324236154556,
                        0.04444146156311035,
                        0.11807341128587723,
                        0.012633184902369976,
                        -0.05073104798793793,
                        -0.10784068703651428,
                        -0.015742328017950058,
                        0.044882744550704956,
                        0.10129917412996292,
                        0.04989521577954292,
                        0.05381316319108009,
                        0.15290068089962006,
                        0.07130993902683258,
                        -0.11608202010393143,
                        -0.04428871348500252,
                        0.1403103470802307,
                        0.007684875745326281,
                        -0.02581310085952282,
                        0.10528045147657394,
                        0.11992792040109634,
                        -0.08760450035333633,
                        0.1288495510816574,
                        -0.003601240459829569,
                        0.05841660499572754,
                        -0.04568669945001602,
                        0.004001646768301725,
                        0.15227684378623962,
                        -0.07530690729618073,
                        -0.07413376867771149,
                        -0.05118802934885025,
                        0.008472217246890068,
                        -0.06425593048334122,
                        0.14996053278446198,
                        0.012079239822924137,
                        -0.07749278843402863,
                        -0.1231919676065445,
                        -0.008580226451158524,
                        0.1475757509469986,
                        0.006574961356818676,
                        -0.13143639266490936,
                        -0.012712434865534306,
                        -0.016156738623976707,
                        0.14566823840141296,
                        0.07515023648738861,
                        -0.10003811120986938,
                        0.10970494151115417,
                        -0.12460827082395554,
                        0.11601173132658005,
                        0.13340356945991516,
                        -0.012057196348905563,
                        -0.07131998986005783,
                        -0.09443251043558121,
                        0.024897973984479904,
                        -0.12913070619106293,
                        0.1372663527727127,
                        0.14597494900226593,
                        0.033729907125234604,
                        -0.12523820996284485,
                        0.09759261459112167,
                        0.02164090983569622,
                        0.0809234231710434,
                        0.09604192525148392,
                        0.033170174807310104,
                        -0.0677775964140892,
                        -0.10399730503559113,
                        0.10099101811647415,
                        0.0988050252199173,
                        -0.03297024965286255,
                        0.11085376888513565,
                        -0.12302980571985245,
                        -0.07431685924530029,
                        0.0949845165014267,
                        0.06601493060588837,
                        -0.1463707983493805,
                        -0.0222945436835289,
                        0.015120981261134148,
                        0.06476189941167831,
                        -0.05060295760631561,
                        -0.09349983930587769,
                        0.07045198231935501,
                        0.00043266909779049456,
                        -0.13589182496070862,
                        -0.09779731929302216,
                        -0.037687767297029495,
                        0.017629416659474373,
                        0.09348192065954208,
                        0.10146133601665497,
                        0.11983104795217514,
                        0.0010247020982205868,
                        -0.011226966045796871,
                        0.1012440025806427,
                        -0.04703223705291748,
                        -0.03157060593366623,
                        -0.13773368299007416,
                        0.13891750574111938,
                        -0.04723689332604408,
                        -0.014891686849296093,
                        0.08948661386966705,
                        0.14828747510910034,
                        0.08486299961805344,
                        0.08343639969825745,
                        0.06905736029148102,
                        -0.1510392427444458,
                        0.1308639645576477,
                        0.0784321278333664,
                        0.05563928931951523,
                        -0.09981387108564377,
                        -0.11797773838043213,
                        -0.01868869550526142
                    ],
                    [
                        -0.009631933644413948,
                        -0.09476282447576523,
                        0.008872137404978275,
                        0.03832941874861717,
                        0.10196492075920105,
                        0.10959962755441666,
                        0.047866106033325195,
                        -0.15047062933444977,
                        -0.08549922704696655,
                        -0.03601337969303131,
                        -0.013606444001197815,
                        0.04837324470281601,
                        0.01877482235431671,
                        0.0015229959972202778,
                        -0.07052131742238998,
                        -0.045473262667655945,
                        0.09805309027433395,
                        -0.036484263837337494,
                        0.1521000862121582,
                        -0.11036072671413422,
                        -0.007212485186755657,
                        0.12417913973331451,
                        -0.10944941639900208,
                        -0.046814288944005966,
                        0.03096579760313034,
                        0.03183472156524658,
                        -0.06177300959825516,
                        -0.15016750991344452,
                        0.12114742398262024,
                        0.1195051297545433,
                        -0.05383138731122017,
                        -0.10446864366531372,
                        0.04795808345079422,
                        -0.1177951842546463,
                        0.021904001012444496,
                        -0.1453559696674347,
                        0.02662474475800991,
                        -0.04358595237135887,
                        -0.12689155340194702,
                        -0.00263865664601326,
                        -0.05538957938551903,
                        0.09600528329610825,
                        -0.07109898328781128,
                        0.14183492958545685,
                        -0.06897750496864319,
                        -0.10330776125192642,
                        0.010570519603788853,
                        -0.023977981880307198,
                        0.02994937263429165,
                        0.09790395945310593,
                        -0.045565295964479446,
                        0.05298839136958122,
                        0.039997994899749756,
                        -0.010940835811197758,
                        -0.013552677817642689,
                        -0.04493372142314911,
                        -0.07594521343708038,
                        -0.13099275529384613,
                        -0.10407999157905579,
                        -0.08575818687677383,
                        0.0058054374530911446,
                        -0.03452596068382263,
                        -0.0026012605521827936,
                        0.12177558243274689,
                        0.05892426148056984,
                        -0.06555408984422684,
                        -0.15140844881534576,
                        0.04311664029955864,
                        -0.07325151562690735,
                        -0.009599014185369015,
                        -0.026829320937395096,
                        0.09310794621706009,
                        0.12549073994159698,
                        0.006113275419920683,
                        -0.02160612866282463,
                        -0.04381890594959259,
                        0.08816540986299515,
                        0.019776763394474983,
                        0.03221428394317627,
                        -0.03686808422207832,
                        0.13706199824810028,
                        -0.034793175756931305,
                        0.019999923184514046,
                        -0.07484270632266998,
                        -0.07762215286493301,
                        -0.031163528561592102,
                        0.15022629499435425,
                        0.023213207721710205,
                        0.08631762862205505,
                        0.13794474303722382,
                        -0.03548555448651314,
                        0.026591770350933075,
                        0.03008025884628296,
                        0.14515461027622223,
                        -0.013257419690489769,
                        0.010038154199719429,
                        0.09908674657344818,
                        -0.03305746242403984,
                        0.10679572820663452,
                        0.018872343003749847,
                        0.11816854774951935,
                        0.10577056556940079,
                        -0.027129564434289932,
                        -0.029590535908937454,
                        0.04642321914434433,
                        0.13488103449344635,
                        -0.07562465220689774,
                        -0.14893992245197296,
                        0.0484427735209465,
                        0.10957321524620056,
                        -0.03140377253293991,
                        0.022461384534835815,
                        -0.1030147522687912,
                        0.06747598946094513,
                        0.035916272550821304,
                        0.08814117312431335,
                        0.013366716913878918,
                        0.012494994327425957,
                        -0.0512513667345047,
                        0.1182173565030098,
                        0.08261941373348236,
                        -0.13673344254493713,
                        -0.10219596326351166,
                        -0.07085088640451431,
                        0.05042906850576401,
                        -0.09446734935045242,
                        -0.14389462769031525,
                        0.13219115138053894
                    ],
                    [
                        -0.10809506475925446,
                        0.09675852954387665,
                        0.005466642789542675,
                        -0.14759747684001923,
                        0.05217921733856201,
                        0.11735771596431732,
                        0.007779696024954319,
                        0.10905423760414124,
                        -0.05887708440423012,
                        0.09779303520917892,
                        -0.12621735036373138,
                        0.10112175345420837,
                        -0.04560238867998123,
                        0.06600479036569595,
                        0.11482534557580948,
                        -0.12633328139781952,
                        -0.11703571677207947,
                        -0.09111718088388443,
                        -0.05827956646680832,
                        -0.09963563829660416,
                        -0.09861119091510773,
                        -0.025119712576270103,
                        0.04695164039731026,
                        -0.12873198091983795,
                        -0.046013638377189636,
                        0.14334091544151306,
                        0.06369642913341522,
                        0.004140276927500963,
                        0.0019828646909445524,
                        -0.14865270256996155,
                        -0.11253714561462402,
                        -0.0898110494017601,
                        -0.04138050600886345,
                        -0.03176732361316681,
                        0.10809282958507538,
                        -0.0007258625118993223,
                        0.053935304284095764,
                        -0.099201999604702,
                        0.10774955153465271,
                        -0.14428281784057617,
                        -0.002466877456754446,
                        -0.029652168974280357,
                        -0.06134416162967682,
                        -0.13238945603370667,
                        -0.14534488320350647,
                        0.06736347079277039,
                        0.11252935975790024,
                        0.06413149833679199,
                        0.1258608102798462,
                        0.0734284296631813,
                        -0.01280192844569683,
                        -0.0815487802028656,
                        -0.058663755655288696,
                        -0.03628198802471161,
                        0.0993351861834526,
                        -0.02517804689705372,
                        0.02663862146437168,
                        -0.13809704780578613,
                        0.04519156739115715,
                        0.10636378824710846,
                        -0.10932616889476776,
                        0.03457535058259964,
                        0.020013580098748207,
                        -0.07679598033428192,
                        0.06430856138467789,
                        0.10013353824615479,
                        -0.02070382982492447,
                        0.04627996310591698,
                        -0.011036453768610954,
                        0.04495370388031006,
                        -0.054370906203985214,
                        0.11032266169786453,
                        0.03178174048662186,
                        -0.03537074103951454,
                        0.004083357751369476,
                        -0.13189445436000824,
                        0.00010246267629554495,
                        -0.12362132221460342,
                        -0.01008544210344553,
                        0.09520835429430008,
                        -0.12055979669094086,
                        0.06046983227133751,
                        -0.08231475204229355,
                        0.07638181746006012,
                        -0.11130551248788834,
                        -0.14772120118141174,
                        0.0727483481168747,
                        -0.0035166863817721605,
                        0.029202474281191826,
                        -0.12095426768064499,
                        0.08890146762132645,
                        -0.04957620054483414,
                        0.11683893948793411,
                        0.13809078931808472,
                        0.04419886693358421,
                        0.04641827568411827,
                        0.12234470248222351,
                        0.15058700740337372,
                        0.13465149700641632,
                        0.07228656113147736,
                        0.06184559315443039,
                        0.14563381671905518,
                        -0.0757167637348175,
                        -0.12146702408790588,
                        0.13706925511360168,
                        -0.09379207342863083,
                        0.051262643188238144,
                        0.11113721132278442,
                        0.03849933668971062,
                        0.13570807874202728,
                        0.10334455966949463,
                        0.0903647243976593,
                        -0.0028482575435191393,
                        0.0600205734372139,
                        -0.08849531412124634,
                        0.03286938741803169,
                        0.09812930971384048,
                        -0.03421085327863693,
                        -0.10379379987716675,
                        0.043688781559467316,
                        0.05513272061944008,
                        -0.10070490092039108,
                        -0.04140434041619301,
                        -0.018638266250491142,
                        -0.05265375226736069,
                        -0.1411917358636856,
                        -0.13019950687885284,
                        -0.09895341098308563
                    ],
                    [
                        -0.02393028698861599,
                        -0.06767404079437256,
                        0.02499374933540821,
                        0.08686474710702896,
                        0.09752632677555084,
                        -0.10009323805570602,
                        -0.028618955984711647,
                        -0.07481101155281067,
                        0.019769098609685898,
                        -0.13897478580474854,
                        -0.024632690474390984,
                        0.052350301295518875,
                        -0.14169898629188538,
                        0.11772427707910538,
                        -0.041147246956825256,
                        -0.14703266322612762,
                        0.1016063466668129,
                        -0.12505562603473663,
                        0.08802724629640579,
                        0.14370934665203094,
                        0.09058983623981476,
                        0.12399029731750488,
                        -0.030530540272593498,
                        -0.09944751858711243,
                        -0.10896490514278412,
                        -0.11013990640640259,
                        0.09346845746040344,
                        -0.09211228042840958,
                        -0.112881600856781,
                        0.14701606333255768,
                        0.011910730972886086,
                        0.006288580596446991,
                        -0.11400002986192703,
                        -0.02430744282901287,
                        0.14435739815235138,
                        -0.07570851594209671,
                        -0.09752598404884338,
                        -0.017933722585439682,
                        0.13802623748779297,
                        -0.13528741896152496,
                        -0.05656954273581505,
                        -0.02863156609237194,
                        0.09453989565372467,
                        -0.1056399866938591,
                        -0.10308030247688293,
                        -0.1172911748290062,
                        -0.05837695300579071,
                        0.14097510278224945,
                        0.0216003879904747,
                        0.04680455103516579,
                        0.09079524129629135,
                        -0.1312483847141266,
                        -0.12823738157749176,
                        -0.07844601571559906,
                        0.06459233164787292,
                        0.021118102595210075,
                        -0.01606021076440811,
                        0.13290801644325256,
                        -0.06695599108934402,
                        -0.09414683282375336,
                        -0.022175323218107224,
                        -0.0010675519006326795,
                        0.02480870857834816,
                        0.047735847532749176,
                        0.0940328910946846,
                        0.0692506805062294,
                        -0.13396231830120087,
                        0.018533773720264435,
                        -0.06529547274112701,
                        0.008167486637830734,
                        -0.102682925760746,
                        0.08112625777721405,
                        0.10475977510213852,
                        -0.00407969206571579,
                        0.10814705491065979,
                        -0.12255366146564484,
                        0.027189726009964943,
                        0.02340785413980484,
                        0.14172020554542542,
                        -0.15201909840106964,
                        -0.067731574177742,
                        -0.0020951894111931324,
                        0.08444605767726898,
                        -0.12786294519901276,
                        0.06910569965839386,
                        0.1327926367521286,
                        0.11339695006608963,
                        -0.06130373850464821,
                        0.07423991709947586,
                        -0.0070191253907978535,
                        0.03301719203591347,
                        0.05965555086731911,
                        -0.04871406406164169,
                        -0.1304212063550949,
                        -0.036295853555202484,
                        -0.10406466573476791,
                        -0.13558894395828247,
                        0.11543674767017365,
                        0.10395894944667816,
                        0.05079726129770279,
                        0.03868335857987404,
                        0.017294293269515038,
                        0.08836237341165543,
                        -0.029067493975162506,
                        0.037859003990888596,
                        0.058350346982479095,
                        -0.10167450457811356,
                        -0.02352466620504856,
                        0.11130659282207489,
                        -0.15300606191158295,
                        -0.06483995914459229,
                        0.0731852576136589,
                        -0.009872335009276867,
                        0.06607646495103836,
                        -0.1264847368001938,
                        0.07458820939064026,
                        -0.08316537737846375,
                        0.06923207640647888,
                        0.014662496745586395,
                        0.14718665182590485,
                        -0.06632284075021744,
                        0.11401066184043884,
                        0.0987248495221138,
                        -0.07011821120977402,
                        0.015055390074849129,
                        -0.09332078695297241,
                        -0.039792101830244064,
                        0.08646218478679657
                    ],
                    [
                        -0.15096531808376312,
                        -0.10142257064580917,
                        -0.01721407100558281,
                        0.11416438221931458,
                        0.06442920118570328,
                        -0.0008948256727308035,
                        -0.03739907592535019,
                        -0.020626988261938095,
                        -0.15027332305908203,
                        0.11151522397994995,
                        0.0024623640347272158,
                        0.09920020401477814,
                        0.12641200423240662,
                        -0.05498065799474716,
                        0.05827333778142929,
                        0.07439471036195755,
                        -0.09420742839574814,
                        0.11215078830718994,
                        -0.025297528132796288,
                        -0.03774123266339302,
                        0.05208619683980942,
                        -0.09202065318822861,
                        -0.1417512595653534,
                        -0.0897398591041565,
                        0.10514264553785324,
                        0.1129264310002327,
                        -0.06456902623176575,
                        0.13460208475589752,
                        0.043597787618637085,
                        -0.026293698698282242,
                        -0.08320561051368713,
                        0.07797626405954361,
                        -0.06129077449440956,
                        0.02361736074090004,
                        -0.11541218310594559,
                        -0.10551930218935013,
                        -0.07828458398580551,
                        -0.093720942735672,
                        0.1250116378068924,
                        0.05620143935084343,
                        -0.09697981178760529,
                        -0.12155661731958389,
                        -0.101381316781044,
                        0.04842406138777733,
                        -0.05425811558961868,
                        -0.03954723849892616,
                        -0.09097609668970108,
                        -0.14189760386943817,
                        0.016205882653594017,
                        0.12342905253171921,
                        0.08586136996746063,
                        -0.06489335745573044,
                        0.13688531517982483,
                        0.10928818583488464,
                        -0.09832540154457092,
                        -0.12190885096788406,
                        -0.0635853111743927,
                        -0.03954752907156944,
                        -0.06862755119800568,
                        -0.08909224718809128,
                        -0.03255021572113037,
                        -0.1236095279455185,
                        -0.06748966872692108,
                        0.08320202678442001,
                        -0.06993291527032852,
                        0.10555121302604675,
                        0.13923345506191254,
                        0.12080712616443634,
                        -0.09045277535915375,
                        -0.06933639943599701,
                        0.08092403411865234,
                        0.032617561519145966,
                        -0.1493956744670868,
                        -0.1412704885005951,
                        0.060064636170864105,
                        0.02654281072318554,
                        -0.13691875338554382,
                        -0.07780984044075012,
                        -0.06951820850372314,
                        0.0509880855679512,
                        -0.13553597033023834,
                        -0.15266981720924377,
                        0.019683996215462685,
                        -0.08750379830598831,
                        0.0610436275601387,
                        0.0859672799706459,
                        0.0439864806830883,
                        0.11769335716962814,
                        -0.10379310697317123,
                        0.09699748456478119,
                        0.08551281690597534,
                        -0.12073127925395966,
                        -0.06468293070793152,
                        0.019766915589571,
                        0.009272363968193531,
                        -0.15316228568553925,
                        -0.062460046261548996,
                        -0.028241073712706566,
                        0.04801191762089729,
                        -0.044453028589487076,
                        0.030912216752767563,
                        -0.08016244322061539,
                        -0.11617451906204224,
                        0.11244073510169983,
                        -0.059529393911361694,
                        -0.10108727216720581,
                        0.0924965888261795,
                        -0.058010250329971313,
                        -0.050284139811992645,
                        0.08345215767621994,
                        -0.09871714562177658,
                        -0.014052296988666058,
                        0.15258197486400604,
                        0.08851603418588638,
                        -0.1289919763803482,
                        -0.030933761969208717,
                        -0.050543833523988724,
                        0.14838090538978577,
                        -0.13904863595962524,
                        0.048417557030916214,
                        -0.11617279797792435,
                        0.08696895837783813,
