{
    "in_shape": [
        null,
        1
    ],
    "layers": [
        {
            "type": "dense",
            "activation": "tanh",
            "shape": [
                null,
                128
            ],
            "weights": [
                [
                    [
                        0.12387040257453918,
                        -0.10516388714313507,
                        -0.1918160766363144,
                        -0.055947378277778625,
                        0.1505650281906128,
                        -0.19339410960674286,
                        -0.21274784207344055,
                        0.12084817886352539,
                        -0.07315236330032349,
                        0.12532448768615723,
                        0.08954799175262451,
                        0.16672679781913757,
                        -0.04974304139614105,
                        -0.08860908448696136,
                        -0.07364656031131744,
                        -0.0724523514509201,
                        0.11649975180625916,
                        -0.03598356246948242,
                        -0.17735226452350616,
                        -0.15348942577838898,
                        -0.0826377272605896,
                        -0.0008712410926818848,
                        -0.06821669638156891,
                        -0.17061801254749298,
                        -0.053289175033569336,
                        0.026199251413345337,
                        -0.12110763788223267,
                        0.09099695086479187,
                        -0.08134521543979645,
                        0.2042563557624817,
                        0.21358442306518555,
                        0.09708836674690247,
                        0.2124081254005432,
                        0.0007521063089370728,
                        0.09706524014472961,
                        -0.16083762049674988,
                        0.20687264204025269,
                        0.1438550055027008,
                        0.08102384209632874,
                        -0.09472507238388062,
                        0.08946725726127625,
                        0.07009780406951904,
                        0.14025357365608215,
                        -0.17320632934570312,
                        0.10276526212692261,
                        -0.015361681580543518,
                        0.18868118524551392,
                        -0.1518021672964096,
                        0.01888926327228546,
                        -0.05703456699848175,
                        -0.15722087025642395,
                        -0.1560383439064026,
                        0.17600375413894653,
                        0.00032053887844085693,
                        -0.12875790894031525,
                        0.017384037375450134,
                        0.10937219858169556,
                        0.12972453236579895,
                        -0.1588125377893448,
                        -0.164503812789917,
                        -0.18384787440299988,
                        -0.04395046830177307,
                        0.02532169222831726,
                        0.06372815370559692,
                        0.08514639735221863,
                        -0.05610312521457672,
                        -0.06778477132320404,
                        0.19688650965690613,
                        0.18958604335784912,
                        0.17614680528640747,
                        -0.17155593633651733,
                        -0.11803768575191498,
                        0.024677008390426636,
                        0.08577513694763184,
                        -0.09412944316864014,
                        0.14686504006385803,
                        0.1345389187335968,
                        -0.12653949856758118,
                        0.19837215542793274,
                        0.13286122679710388,
                        0.13392892479896545,
                        0.08479040861129761,
                        -0.15045134723186493,
                        -0.0013622790575027466,
                        -0.07126283645629883,
                        -0.1051616221666336,
                        0.09655013680458069,
                        0.0908038318157196,
                        -0.14889809489250183,
                        0.16558468341827393,
                        -0.09061990678310394,
                        -0.19778229296207428,
                        0.06486460566520691,
                        -0.028822943568229675,
                        -0.1627897173166275,
                        -0.10479701310396194,
                        0.006616860628128052,
                        -0.14510241150856018,
                        -0.02561040222644806,
                        0.09040138125419617,
                        0.21132135391235352,
                        -0.0596185177564621,
                        0.16833069920539856,
                        -0.08500206470489502,
                        -0.19099527597427368,
                        0.025733500719070435,
                        -0.01948598027229309,
                        0.011205613613128662,
                        -0.06963574886322021,
                        -0.02238459885120392,
                        -0.05600573122501373,
                        0.07730606198310852,
                        -0.05608399212360382,
                        0.1161598265171051,
                        -0.03222757577896118,
                        0.21388214826583862,
                        0.02042098343372345,
                        0.026351913809776306,
                        0.12274259328842163,
                        0.17273512482643127,
                        -0.19436398148536682,
                        0.13640540838241577,
                        0.06550624966621399,
                        -0.03376762568950653,
                        -0.07995650172233582,
                        0.19644993543624878,
                        -0.014673963189125061,
                        0.13805586099624634
                    ]
                ],
                [
                    0.0,
                    0.0,
                    0.0,
                    0.0,
                    0.0,
                    0.0,
                    0.0,
                    0.0,
                    0.0,
                    0.0,
                    0.0,
                    0.0,
                    0.0,
                    0.0,
                    0.0,
                    0.0,
                    0.0,
                    0.0,
                    0.0,
                    0.0,
                    0.0,
                    0.0,
                    0.0,
                    0.0,
                    0.0,
                    0.0,
                    0.0,
                    0.0,
                    0.0,
                    0.0,
                    0.0,
                    0.0,
                    0.0,
                    0.0,
                    0.0,
                    0.0,
                    0.0,
                    0.0,
                    0.0,
                    0.0,
                    0.0,
                    0.0,
                    0.0,
                    0.0,
                    0.0,
                    0.0,
                    0.0,
                    0.0,
                    0.0,
                    0.0,
                    0.0,
                    0.0,
                    0.0,
                    0.0,
                    0.0,
                    0.0,
                    0.0,
                    0.0,
                    0.0,
                    0.0,
                    0.0,
                    0.0,
                    0.0,
                    0.0,
                    0.0,
                    0.0,
                    0.0,
                    0.0,
                    0.0,
                    0.0,
                    0.0,
                    0.0,
                    0.0,
                    0.0,
                    0.0,
                    0.0,
                    0.0,
                    0.0,
                    0.0,
                    0.0,
                    0.0,
                    0.0,
                    0.0,
                    0.0,
                    0.0,
                    0.0,
                    0.0,
                    0.0,
                    0.0,
                    0.0,
                    0.0,
                    0.0,
                    0.0,
                    0.0,
                    0.0,
                    0.0,
                    0.0,
                    0.0,
                    0.0,
                    0.0,
                    0.0,
                    0.0,
                    0.0,
                    0.0,
                    0.0,
                    0.0,
                    0.0,
                    0.0,
                    0.0,
                    0.0,
                    0.0,
                    0.0,
                    0.0,
                    0.0,
                    0.0,
                    0.0,
                    0.0,
                    0.0,
                    0.0,
                    0.0,
                    0.0,
                    0.0,
                    0.0,
                    0.0,
                    0.0,
                    0.0,
                    0.0,
                    0.0
                ]
            ]
        },
        {
            "type": "dense",
            "activation": "tanh",
            "shape": [
                null,
                128
            ],
            "weights": [
                [
                    [
                        -0.0273456871509552,
                        0.005920156836509705,
                        -0.08676936477422714,
                        -0.12568099796772003,
                        0.11188162863254547,
                        0.03180108964443207,
                        -0.02324332296848297,
                        0.11899726092815399,
                        -0.1389983594417572,
                        -0.12638746201992035,
                        0.020697861909866333,
                        0.00026206672191619873,
                        -0.002672627568244934,
                        0.06658940017223358,
                        -0.14798329770565033,
                        -0.13649670779705048,
                        -0.038026608526706696,
                        0.04775753617286682,
                        0.008979424834251404,
                        -0.14911684393882751,
                        -0.10642477869987488,
                        0.011617735028266907,
                        -0.053299665451049805,
                        -0.0683969259262085,
                        0.01702447235584259,
                        0.12910710275173187,
                        0.10428772866725922,
                        -0.0014672428369522095,
                        0.1290658861398697,
                        0.039950430393218994,
                        -0.05955982208251953,
                        -0.051049456000328064,
                        0.1281176656484604,
                        0.04303364455699921,
                        0.057358965277671814,
                        -0.09138905256986618,
                        0.11404262483119965,
                        -0.07337092608213425,
                        0.12893293797969818,
                        -0.10019791126251221,
                        0.13429076969623566,
                        0.04298684000968933,
                        0.09686587750911713,
                        0.11796201765537262,
                        0.02543511986732483,
                        -0.06950485706329346,
                        -0.0775943323969841,
                        -0.005109995603561401,
                        0.14080442488193512,
                        0.022388413548469543,
                        0.07273805141448975,
                        -0.04883141070604324,
                        0.005385756492614746,
                        0.058470502495765686,
                        0.06570503115653992,
                        0.05820438265800476,
                        0.10003633797168732,
                        0.10521785914897919,
                        0.03432650864124298,
                        0.05356205999851227,
                        0.08017617464065552,
                        -0.014531180262565613,
                        0.1314006894826889,
                        -0.1131417378783226,
                        -0.15146173536777496,
                        -0.07999155670404434,
                        -0.1376497894525528,
                        -0.06837904453277588,
                        0.06713792681694031,
                        0.0394829660654068,
                        -0.05061995983123779,
                        -0.11582990735769272,
                        -0.12660805881023407,
                        -0.1098509132862091,
                        0.05499465763568878,
                        0.007713004946708679,
                        -0.04560478776693344,
                        -0.14901016652584076,
                        0.01055094599723816,
                        0.04085037112236023,
                        -0.013531222939491272,
                        -0.14925730228424072,
                        -0.059450358152389526,
                        0.13026045262813568,
                        0.04987053573131561,
                        0.1387753039598465,
                        -0.016376599669456482,
                        0.010745927691459656,
                        -0.02502274513244629,
                        0.12012787163257599,
                        0.017766818404197693,
                        -0.10326290875673294,
                        -0.032923951745033264,
                        -0.07860798388719559,
                        -0.05823281407356262,
                        -0.041037365794181824,
                        -0.07088533043861389,
                        0.09249924123287201,
                        -0.1018211841583252,
                        0.05922380089759827,
                        0.07268421351909637,
                        0.03520017862319946,
                        -0.02447187900543213,
                        -0.11416633427143097,
                        -0.07451196014881134,
                        0.10072027146816254,
                        0.14173774421215057,
                        0.041175633668899536,
                        0.06556625664234161,
                        -0.0081978440284729,
                        -0.06892333924770355,
                        0.107620969414711,
                        -0.14501696825027466,
                        0.1498635858297348,
                        -0.05545259267091751,
                        -0.026093438267707825,
                        -0.09102386236190796,
                        0.15055309236049652,
                        0.010879218578338623,
                        -0.04683900624513626,
                        0.14049889147281647,
                        -0.0906621515750885,
                        0.10707046091556549,
                        0.12500311434268951,
                        0.1508534699678421,
                        0.13472194969654083,
                        -0.14425097405910492,
                        0.030891358852386475
                    ],
                    [
                        -0.13941125571727753,
                        -0.11149663478136063,
                        -0.05368988960981369,
                        -0.0010005384683609009,
                        0.07237166166305542,
                        -0.07864787429571152,
                        0.002889469265937805,
                        -0.11020419746637344,
                        0.05827285349369049,
                        -0.05716981738805771,
                        0.0288592129945755,
                        -0.022792726755142212,
                        -0.12931634485721588,
                        -0.1252688318490982,
                        0.12568284571170807,
                        0.06554622948169708,
                        -0.06186345964670181,
                        0.04673506319522858,
                        -0.0014172345399856567,
                        0.022676244378089905,
                        0.08503301441669464,
                        -0.022658586502075195,
                        -0.10753431916236877,
                        0.006571471691131592,
                        0.046321868896484375,
                        0.10051701962947845,
                        0.103843554854393,
                        0.0006552934646606445,
                        -0.14513492584228516,
                        -0.05092900991439819,
                        -0.051046065986156464,
                        -0.14182807505130768,
                        0.0995529443025589,
                        0.09737829864025116,
                        -0.10160905122756958,
                        0.039500460028648376,
                        0.1292351633310318,
                        -0.060810573399066925,
                        -0.024742960929870605,
                        -0.04609560966491699,
                        -0.13260841369628906,
                        -0.054655060172080994,
                        0.012889042496681213,
                        -0.06232540309429169,
                        0.06919804215431213,
                        0.02842561900615692,
                        0.04049135744571686,
                        -0.12410896271467209,
                        -0.05582161247730255,
                        0.0884694755077362,
                        0.05314278602600098,
                        0.025212615728378296,
                        -0.03924166411161423,
                        0.12801970541477203,
                        -0.1014852374792099,
                        -0.07456641644239426,
                        -0.0058961063623428345,
                        -0.03288036584854126,
                        0.0366542786359787,
                        0.05931223928928375,
                        0.0994974821805954,
                        0.04183413088321686,
                        -0.13211314380168915,
                        -0.08551014214754105,
                        -0.00701567530632019,
                        -0.09794412553310394,
                        -0.09979071468114853,
                        0.06297382712364197,
                        0.04119575023651123,
                        -0.11135406792163849,
                        -0.14918215572834015,
                        -0.010301396250724792,
                        0.041091859340667725,
                        -0.0836825743317604,
                        -0.021591275930404663,
                        0.0237254798412323,
                        0.12317065894603729,
                        0.08678725361824036,
                        -0.12658944725990295,
                        -0.13625650107860565,
                        -0.11372555792331696,
                        -0.1473531275987625,
                        -0.08392179757356644,
                        0.13609658181667328,
                        -0.14591746032238007,
                        -0.08813538402318954,
                        0.04500389099121094,
                        0.03396303951740265,
                        0.009151890873908997,
                        -0.03976183384656906,
                        -0.10039348155260086,
                        0.05723930895328522,
                        0.007213950157165527,
                        0.15299148857593536,
                        0.08050428330898285,
                        -0.13845491409301758,
                        -0.0076843202114105225,
                        0.0770939439535141,
                        -0.08817443996667862,
                        0.019210219383239746,
                        -0.05250213295221329,
                        -0.12889257073402405,
                        0.05721570551395416,
                        -0.10483260452747345,
                        -0.018837228417396545,
                        -0.13364732265472412,
                        0.11388863623142242,
                        -0.06509300321340561,
                        -0.0723881945014,
                        -0.035803742706775665,
                        0.0009037107229232788,
                        0.0681513249874115,
                        0.026498734951019287,
                        0.06453593075275421,
                        0.07457554340362549,
                        0.005175665020942688,
                        0.05016782879829407,
                        -0.14434689283370972,
                        -0.0029984265565872192,
                        0.05924639105796814,
                        0.09456402063369751,
                        0.030780479311943054,
                        -0.12427814304828644,
                        -0.006828576326370239,
                        0.005711480975151062,
                        0.11305706202983856,
                        0.11301441490650177,
                        0.10630132257938385
                    ],
                    [
                        -0.012961089611053467,
                        -0.048902370035648346,
                        -0.08997689187526703,
                        0.035653769969940186,
                        0.071015864610672,
                        -0.033757321536540985,
                        -0.053399160504341125,
                        0.02263486385345459,
                        -0.11213400214910507,
                        -0.09413708746433258,
                        -0.14826540648937225,
                        0.0692054033279419,
                        0.049932628870010376,
                        -0.022939130663871765,
                        -0.0608111172914505,
                        0.058104559779167175,
                        -0.030801713466644287,
                        -0.12197691202163696,
                        0.08803434669971466,
                        0.07756808400154114,
                        -0.023502901196479797,
                        0.09001554548740387,
                        0.0868166983127594,
                        -0.03355857729911804,
                        -0.011904522776603699,
                        0.05296981334686279,
                        0.018699005246162415,
                        -0.11266829073429108,
                        -0.06640204787254333,
                        -0.1299516260623932,
                        -0.029000572860240936,
                        -0.13085070252418518,
                        0.10942666232585907,
                        -0.0949806421995163,
                        -0.01756654679775238,
                        -0.13532020151615143,
                        0.0918205976486206,
                        0.08194677531719208,
                        0.1527978926897049,
                        0.06638467311859131,
                        0.053185850381851196,
                        0.01965107023715973,
                        -0.03229577839374542,
                        -0.07445359975099564,
                        0.1468057781457901,
                        0.14763997495174408,
                        -0.14557398855686188,
                        -0.07709800451993942,
                        0.06762352585792542,
                        -0.01858861744403839,
                        -0.06175592541694641,
                        0.07307308912277222,
                        -0.1297222226858139,
                        0.04859273135662079,
                        0.017906293272972107,
                        -0.08702526241540909,
                        -0.11940419673919678,
                        0.052480489015579224,
                        -0.018528029322624207,
                        0.13169638812541962,
                        -0.13235637545585632,
                        -0.012301459908485413,
                        0.09242543578147888,
                        -0.0907936617732048,
                        0.08514170348644257,
                        -0.09210380166769028,
                        0.10724429786205292,
                        -0.04261377453804016,
                        0.13237272202968597,
                        -0.0656021386384964,
                        -0.09660154581069946,
                        0.07597671449184418,
                        -0.03783779591321945,
                        -0.06066599488258362,
                        0.08949753642082214,
                        0.10657449066638947,
                        -0.0827406495809555,
                        0.03526683151721954,
                        0.08335724472999573,
                        -0.055103689432144165,
                        0.057844847440719604,
                        0.07311126589775085,
                        -0.1489408165216446,
                        -0.042155079543590546,
                        -0.08848422020673752,
                        -0.10787719488143921,
                        0.057913944125175476,
                        -0.1011829823255539,
                        -0.07008302211761475,
                        0.04623325169086456,
                        -0.035444580018520355,
                        -0.034397393465042114,
                        0.11412592232227325,
                        -0.07488550245761871,
                        0.10738690197467804,
                        0.06422276794910431,
                        -0.11102016270160675,
                        0.04692496359348297,
                        -0.03002604842185974,
                        0.05414913594722748,
                        0.07517480850219727,
                        0.0975983589887619,
                        0.059265658259391785,
                        0.15084217488765717,
                        -0.04443199932575226,
                        0.0674719363451004,
                        -0.11650460958480835,
                        -0.11935247480869293,
                        -0.0816369578242302,
                        -0.14587657153606415,
                        0.08019176125526428,
                        -0.15300492942333221,
                        0.01286064088344574,
                        0.058742716908454895,
                        0.09654854238033295,
                        0.0948391705751419,
                        -0.11179859936237335,
                        0.0047234296798706055,
                        -0.12455017864704132,
                        0.10076351463794708,
                        -0.04211755841970444,
                        -0.008835360407829285,
                        0.1317579299211502,
                        -0.0840982049703598,
                        -0.13105615973472595,
                        -0.04103875905275345,
                        -0.014248669147491455,
                        0.03934350609779358
                    ],
                    [
                        0.030081897974014282,
                        -0.0009948164224624634,
                        0.08484452962875366,
                        -0.13051435351371765,
                        0.047908246517181396,
                        -0.03034626692533493,
                        0.10980270802974701,
                        0.07254178822040558,
                        -0.0003834366798400879,
                        0.10780347883701324,
                        0.01294630765914917,
                        -0.12139958888292313,
                        -0.04575812816619873,
                        -0.08987640589475632,
                        0.05415979027748108,
                        -0.11611855030059814,
                        -0.08384664356708527,
                        0.13049708306789398,
                        0.0174274742603302,
                        0.07846398651599884,
                        0.003928005695343018,
                        -0.014044046401977539,
                        0.12635602056980133,
                        -0.06560075283050537,
                        0.11767531931400299,
                        -0.09022754430770874,
                        -0.009914055466651917,
                        -0.02016003429889679,
                        0.12297786772251129,
                        0.147146537899971,
                        0.0038087666034698486,
                        -0.05310416966676712,
                        0.06129792332649231,
                        -0.014065444469451904,
                        0.054578155279159546,
                        0.1385239213705063,
                        0.00864902138710022,
                        0.14742742478847504,
                        0.09377868473529816,
                        -0.012476518750190735,
                        0.13923217356204987,
                        -0.00820477306842804,
                        0.04252953827381134,
                        0.11725322902202606,
                        0.10231979191303253,
                        -0.12782242894172668,
                        0.1457456797361374,
                        0.0423213392496109,
                        0.11548162996768951,
                        -0.11065241694450378,
                        -0.0009008944034576416,
                        -0.007570222020149231,
                        -0.07629386335611343,
                        0.053971633315086365,
                        0.026172205805778503,
                        0.09656602144241333,
                        0.0769309401512146,
                        -0.09263516962528229,
                        0.10613630712032318,
                        -0.08897770196199417,
                        -0.14722785353660583,
                        0.024879947304725647,
                        -0.10547453165054321,
                        0.123650923371315,
                        0.0564083456993103,
                        0.015019342303276062,
                        0.04733577370643616,
                        -0.008281752467155457,
                        -0.06098569929599762,
                        0.15174852311611176,
                        0.08179287612438202,
                        0.06650993227958679,
                        -0.06538897752761841,
                        -0.06396247446537018,
                        -0.023288577795028687,
                        -0.01692366600036621,
                        0.09058590233325958,
                        -0.0011324584484100342,
                        -0.12432749569416046,
                        0.06033085286617279,
                        -0.031089261174201965,
                        -0.007332563400268555,
                        -0.10332798957824707,
                        0.015716567635536194,
                        0.12584783136844635,
                        0.02177932858467102,
                        0.015391528606414795,
                        0.09285804629325867,
                        -0.084808349609375,
                        -0.13849231600761414,
                        -0.03070393204689026,
                        -0.051170386373996735,
                        0.0925351232290268,
                        0.022326365113258362,
                        0.11406119167804718,
                        0.11639703810214996,
                        -0.0058386921882629395,
                        0.10747511684894562,
                        -0.02826148271560669,
                        -0.007960408926010132,
                        -0.08843322843313217,
                        0.058739662170410156,
                        0.12000904977321625,
                        0.012142464518547058,
                        -0.12387645989656448,
                        0.10480467975139618,
                        -0.1350453495979309,
                        0.10474388301372528,
                        -0.004038318991661072,
                        0.12080909311771393,
                        0.10849989950656891,
                        0.02606000006198883,
                        0.014862418174743652,
                        -0.14256414771080017,
                        -0.09234010428190231,
                        -0.13895124197006226,
                        0.11302341520786285,
                        -0.10491100698709488,
                        0.0804407000541687,
                        -0.11964148283004761,
                        0.1067209392786026,
                        0.004701480269432068,
                        -0.068003349006176,
                        0.09648951888084412,
                        0.11800549924373627,
                        -0.022981107234954834,
                        -0.07930342108011246,
                        0.03662532567977905
                    ],
                    [
                        -0.06197062134742737,
                        0.12906797230243683,
                        0.11770264804363251,
                        -0.017531976103782654,
                        -0.08997740596532822,
                        -0.13255782425403595,
                        -0.13483765721321106,
                        0.1059236079454422,
                        -0.027042195200920105,
                        0.011194080114364624,
                        -0.07910799980163574,
                        -0.1124502420425415,
                        0.1202128678560257,
                        -0.0009558349847793579,
                        0.11583910882472992,
                        0.0673251748085022,
                        -0.09815841913223267,
                        0.017294511198997498,
                        0.03216281533241272,
                        -0.028589949011802673,
                        0.09888459742069244,
                        -0.10152728855609894,
                        -0.03257022798061371,
                        0.040450334548950195,
                        -0.07299771159887314,
                        0.0950450599193573,
                        -0.10883963108062744,
                        0.08433246612548828,
                        -0.08283974975347519,
                        -0.1511233001947403,
                        -0.07260569930076599,
                        -0.03572665899991989,
                        0.0934569388628006,
                        0.022681251168251038,
                        -0.05669049918651581,
                        -0.0013231635093688965,
                        0.013694524765014648,
                        -0.09848159551620483,
                        -0.09658347070217133,
                        0.045514851808547974,
                        0.008242771029472351,
                        0.10807682573795319,
                        -0.09344755113124847,
                        -0.12271440029144287,
                        0.011976540088653564,
                        -0.1326194703578949,
                        0.05560702085494995,
                        -0.06547220051288605,
                        -0.056200042366981506,
                        -0.07285171002149582,
                        0.1070086807012558,
                        0.05182909965515137,
                        -0.05957562476396561,
                        0.14927349984645844,
                        0.007097765803337097,
                        0.07963652908802032,
                        0.0880814790725708,
                        -0.045784153044223785,
                        -0.14790190756320953,
                        -0.08836635947227478,
                        0.13757829368114471,
                        -0.10075078159570694,
                        -0.0017489790916442871,
                        -0.14470386505126953,
                        -0.03970438241958618,
                        0.06249439716339111,
                        -0.03586141765117645,
                        -0.0018723160028457642,
                        -0.09758095443248749,
                        0.08449473977088928,
                        -0.12825623154640198,
                        -0.12827743589878082,
                        -0.059142693877220154,
                        -0.07859714329242706,
                        -0.023922070860862732,
                        0.08064210414886475,
                        -0.15106388926506042,
                        -0.037649966776371,
                        -0.05937928706407547,
                        -0.1162063330411911,
                        0.12017734348773956,
                        -0.1474645584821701,
                        -0.05331458896398544,
                        0.05800899863243103,
                        0.07800616323947906,
                        0.04625946283340454,
                        0.07650461792945862,
                        -0.07660919427871704,
                        -0.10629341006278992,
                        0.05429494380950928,
                        0.08883188664913177,
                        0.1506899744272232,
                        -0.12277060747146606,
                        0.058968618512153625,
                        -0.09123644232749939,
                        -0.03211619704961777,
                        0.02249845862388611,
                        0.12413786351680756,
                        -0.10494217276573181,
                        0.017725393176078796,
                        0.02962060272693634,
                        -0.14366112649440765,
                        0.06099310517311096,
                        -0.12401998043060303,
                        -0.08167111873626709,
                        -0.10687727481126785,
                        -0.1361861675977707,
                        0.11544246971607208,
                        0.11784051358699799,
                        -0.085573211312294,
                        0.1313963383436203,
                        -0.008232593536376953,
                        0.08510732650756836,
                        -0.03951253741979599,
                        -0.011824250221252441,
                        -0.13600023090839386,
                        -0.017631947994232178,
                        -0.04929525405168533,
                        -0.015061065554618835,
                        0.029108792543411255,
                        -0.0800289735198021,
                        0.015703395009040833,
                        -0.11882653832435608,
                        -0.04907260835170746,
                        -0.06812117248773575,
                        0.014576777815818787,
                        0.00488676130771637,
                        -0.03059421479701996
                    ],
                    [
                        -0.10929574072360992,
                        -0.1486309915781021,
                        0.10205899178981781,
                        -0.06592666357755661,
                        0.1324441283941269,
                        0.06912602484226227,
                        0.13226349651813507,
                        -0.0445358082652092,
                        0.0719376653432846,
                        -0.050892509520053864,
                        0.11577825248241425,
                        -0.003804132342338562,
                        0.05928894877433777,
                        0.08048836886882782,
                        0.03013591468334198,
                        -0.058038339018821716,
                        -0.01183764636516571,
                        0.13832883536815643,
                        -0.024391725659370422,
                        0.04953064024448395,
                        -0.08769216388463974,
                        0.034954383969306946,
                        0.04410448670387268,
                        -0.07046966999769211,
                        -0.04420427978038788,
                        -0.09284000843763351,
                        -0.08094760775566101,
                        0.06530393660068512,
                        -0.0813131257891655,
                        -0.09033083915710449,
                        -0.04332013428211212,
                        -0.09209000319242477,
                        0.014966443181037903,
                        -0.08381189405918121,
                        0.008185073733329773,
                        0.07473231852054596,
                        -0.11313407123088837,
                        -0.0028926432132720947,
                        -0.14259932935237885,
                        0.09688690304756165,
                        -0.12993218004703522,
                        -0.09902709722518921,
                        -0.019596070051193237,
                        0.0382278710603714,
                        -0.1369386613368988,
                        0.026653572916984558,
                        -0.03700514882802963,
                        0.08834059536457062,
                        0.13408659398555756,
                        0.053387776017189026,
                        0.06967180967330933,
                        0.03347517549991608,
                        -0.010484263300895691,
                        -0.12105970084667206,
                        -0.14205719530582428,
                        -0.06968958675861359,
                        0.12766368687152863,
                        -0.13305266201496124,
                        -0.004673019051551819,
                        0.09890784323215485,
                        0.083767369389534,
                        -0.07003714144229889,
                        -0.04745505750179291,
                        -0.1376960277557373,
                        -0.024950549006462097,
                        0.08234560489654541,
                        -0.05605316907167435,
                        -0.11656849086284637,
                        -0.08261600136756897,
                        -0.08041868358850479,
                        -0.13523738086223602,
                        -0.009862616658210754,
                        0.00406251847743988,
                        0.13719762861728668,
                        -0.10982868075370789,
                        0.07202465832233429,
                        -0.14581044018268585,
                        0.07161062955856323,
                        0.14136384427547455,
                        -0.13248799741268158,
                        0.11597330868244171,
                        0.151176318526268,
                        -0.1110135167837143,
                        -0.12575574219226837,
                        0.05034668743610382,
                        -0.09278405457735062,
                        0.012235790491104126,
                        -0.10323090106248856,
                        -0.0786350667476654,
                        0.05280829966068268,
                        -0.03630726784467697,
                        -0.08555058389902115,
                        -0.11476727575063705,
                        -0.09253139793872833,
                        -0.022705480456352234,
                        0.06524184346199036,
                        0.08060969412326813,
                        -0.022917985916137695,
                        -0.05703907459974289,
                        -0.057352833449840546,
                        0.05675514042377472,
                        0.05440317094326019,
                        -0.009273543953895569,
                        0.12937970459461212,
                        -0.08257202059030533,
                        -0.06254732608795166,
                        0.027351826429367065,
                        -0.06435277312994003,
                        -0.021808087825775146,
                        -0.0007298290729522705,
                        0.14480982720851898,
                        -0.0023572295904159546,
                        -0.14306598901748657,
                        0.06381294131278992,
                        0.038295283913612366,
                        0.017575517296791077,
                        0.1319057196378708,
                        -0.12637858092784882,
                        -0.0919700637459755,
                        -0.0013748854398727417,
                        -0.13244755566120148,
                        0.10195557773113251,
                        0.12390188872814178,
                        -0.1444898545742035,
                        -0.1356712281703949,
                        -0.07746530324220657,
                        0.06953190267086029,
                        -0.017508327960968018
                    ],
                    [
                        0.078791543841362,
                        -0.1360006332397461,
                        0.0014048218727111816,
                        0.036998867988586426,
                        -0.14870119094848633,
                        -0.11240987479686737,
                        -0.032881900668144226,
                        0.08890463411808014,
                        0.09309357404708862,
                        0.10363449156284332,
                        0.08963693678379059,
                        0.03953742980957031,
                        -0.12129709124565125,
                        0.020654872059822083,
                        0.08434903621673584,
                        -0.09997540712356567,
                        -0.12109518051147461,
                        0.15216971933841705,
                        -0.061502255499362946,
                        0.11729468405246735,
                        -0.09270721673965454,
                        -0.13638319075107574,
                        -0.08732438832521439,
                        -0.030152007937431335,
                        -0.04511192440986633,
                        -0.11467660963535309,
                        -0.14191345870494843,
                        -0.03918202221393585,
                        -0.12311717867851257,
                        0.11614929139614105,
                        0.13464738428592682,
                        0.05602805316448212,
                        -0.1053340807557106,
                        -0.015282541513442993,
                        -0.1412658989429474,
                        0.031250447034835815,
                        0.004594579339027405,
                        0.1526029258966446,
                        0.016643300652503967,
                        -0.10960198193788528,
                        -0.15194015204906464,
                        -0.12685903906822205,
                        -0.05424169450998306,
                        -0.11555010080337524,
                        0.00390961766242981,
                        0.07634599506855011,
                        0.041433170437812805,
                        -0.08945296704769135,
                        -0.13405093550682068,
                        -0.14586888253688812,
                        -0.01551869511604309,
                        -0.11993764340877533,
                        -0.0061495304107666016,
                        -0.05441652983427048,
                        -0.0329788476228714,
                        0.023124366998672485,
                        0.03919917345046997,
                        -0.1381877362728119,
                        -0.07221518456935883,
                        0.10860176384449005,
                        -0.002461537718772888,
                        -0.0854092538356781,
                        -0.018466636538505554,
                        0.020839452743530273,
                        0.09035718441009521,
                        0.14394725859165192,
                        0.09405097365379333,
                        0.01232631504535675,
                        -0.13899526000022888,
                        0.10806123912334442,
                        -0.07541114091873169,
                        0.05517497658729553,
                        -0.1407957375049591,
                        0.0022204965353012085,
                        0.09348627924919128,
                        -0.08017603307962418,
                        0.0006410479545593262,
                        0.030932456254959106,
                        -0.09841965138912201,
                        -0.010603681206703186,
                        -0.04774545878171921,
                        0.04064995050430298,
                        0.11442126333713531,
                        -0.005735427141189575,
                        0.028423726558685303,
                        0.09467491507530212,
                        -0.03690900653600693,
                        0.030870333313941956,
                        0.014210313558578491,
                        0.0014774948358535767,
                        -0.10142731666564941,
                        -0.030577272176742554,
                        -0.06507284939289093,
                        0.02093157172203064,
                        0.10312856733798981,
                        0.009098708629608154,
                        0.044351041316986084,
                        0.060761332511901855,
                        -0.055263519287109375,
                        -0.12426810711622238,
                        0.06655348837375641,
                        -0.015467703342437744,
                        -0.03014850616455078,
                        -0.04567647725343704,
                        -0.07524806261062622,
                        -0.02429087460041046,
                        0.05855828523635864,
                        -0.07407680153846741,
                        0.10990585386753082,
                        -0.08058640360832214,
                        -0.13832683861255646,
                        -0.13398541510105133,
                        0.029866978526115417,
                        0.003496691584587097,
                        -0.06858359277248383,
                        0.010945186018943787,
                        -0.12309816479682922,
                        0.13403703272342682,
                        0.1458352953195572,
                        0.09350953996181488,
                        -0.1390639841556549,
                        0.09714080393314362,
                        0.058081090450286865,
                        -0.003524214029312134,
                        0.08306118845939636,
                        -0.03773869574069977,
                        -0.09655748307704926,
                        -0.07764820754528046
                    ],
                    [
                        -0.056554026901721954,
                        -0.10598484426736832,
                        -0.08822783827781677,
                        -0.1530310958623886,
                        0.10843758285045624,
                        -0.06168103218078613,
                        0.044587790966033936,
                        0.01069815456867218,
                        -0.022874116897583008,
                        0.015478625893592834,
                        -0.12956732511520386,
                        -0.07487273216247559,
                        -0.037737488746643066,
                        -0.14572671055793762,
                        0.05766487121582031,
                        0.13407038152217865,
                        -0.10645365715026855,
                        0.06393258273601532,
                        -0.1483950912952423,
                        0.13641418516635895,
                        -0.1270524561405182,
                        -0.06443453580141068,
                        -0.04065152257680893,
                        0.14172066748142242,
                        -0.03546396642923355,
                        0.1121215969324112,
                        -0.06524016708135605,
                        -0.11192649602890015,
                        0.0553068071603775,
                        0.04693788290023804,
                        0.13871891796588898,
                        0.10554434359073639,
                        -0.07539227604866028,
                        -0.13670024275779724,
                        0.06871969997882843,
                        -0.14183920621871948,
                        -0.04913516342639923,
                        0.03692871332168579,
                        0.07611943781375885,
                        0.05677397549152374,
                        -0.042975060641765594,
                        0.018691256642341614,
                        -0.025194555521011353,
                        0.07241414487361908,
                        -0.09873706102371216,
                        0.03663325309753418,
                        0.055801019072532654,
                        -0.02177932858467102,
                        0.1378977745771408,
                        -0.026395738124847412,
                        -0.04613009840250015,
                        0.02224387228488922,
                        -0.05696764588356018,
                        0.11835606396198273,
                        -0.14043037593364716,
                        -0.07560809701681137,
                        0.09328147768974304,
                        -0.1242666095495224,
                        -0.0594153106212616,
                        -0.011225864291191101,
                        0.061666831374168396,
                        0.02204088866710663,
                        0.12730006873607635,
                        0.0026559382677078247,
                        -0.026504546403884888,
                        0.07764871418476105,
                        0.1268741935491562,
                        0.030153945088386536,
                        0.007205769419670105,
                        -0.1092967689037323,
                        0.012304157018661499,
                        0.04478353261947632,
                        0.03897064924240112,
                        -0.031229570508003235,
                        -0.02201533317565918,
                        0.03003425896167755,
                        0.036310479044914246,
                        0.0616288036108017,
                        -0.060865357518196106,
                        -0.037101730704307556,
                        -0.01784701645374298,
                        -0.0946577936410904,
                        0.09956194460391998,
                        -0.15305300056934357,
                        0.1355738788843155,
                        -0.10835626721382141,
                        -0.12446513772010803,
                        -0.035558246076107025,
                        0.0972132533788681,
                        -0.03531781584024429,
                        -0.035566531121730804,
                        0.007618770003318787,
                        -0.08303144574165344,
                        -0.08586904406547546,
                        0.10935242474079132,
                        0.04672318696975708,
                        0.07396624982357025,
                        -0.04056166112422943,
                        -0.1014472097158432,
                        0.08542725443840027,
                        -0.131285160779953,
                        0.03802117705345154,
                        -0.07909923791885376,
                        0.09912480413913727,
                        0.04296848177909851,
                        -0.14560607075691223,
                        -0.09312055259943008,
                        -0.02232252061367035,
                        -0.12758776545524597,
                        -0.09077796339988708,
                        -0.0824761688709259,
                        0.08204568922519684,
                        0.09562022984027863,
                        0.09996043145656586,
                        -0.11999432742595673,
                        -0.08758076280355453,
                        0.08388277888298035,
                        0.10287465155124664,
                        0.1365639716386795,
                        0.08181548118591309,
                        -0.09882287681102753,
                        0.006773605942726135,
                        -0.1248825192451477,
                        -0.04111405462026596,
                        -0.0012752115726470947,
                        -0.029607683420181274,
                        0.12577910721302032,
                        0.027563780546188354
                    ],
                    [
                        -0.08690641820430756,
                        0.10131119191646576,
                        -0.00968661904335022,
                        -0.05605918914079666,
                        0.1452881544828415,
                        -0.04653821140527725,
                        0.11820833384990692,
                        0.042060866951942444,
                        -0.1381836086511612,
                        -0.11415600776672363,
                        0.0771414041519165,
                        -0.030424997210502625,
                        -0.05462845414876938,
                        0.01576519012451172,
                        0.11112098395824432,
                        -0.14332105219364166,
                        0.015331566333770752,
                        -0.01126466691493988,
                        0.007509589195251465,
                        0.09539316594600677,
                        0.15130393207073212,
                        0.1509169191122055,
                        0.005299791693687439,
                        0.07390546798706055,
                        -0.10100311040878296,
                        0.053927868604660034,
                        -0.0165061354637146,
                        0.009286031126976013,
                        -0.0018530488014221191,
                        -0.07563525438308716,
                        0.1245826929807663,
                        -0.05584285408258438,
                        -0.0388035923242569,
                        0.138612762093544,
                        -0.0022907257080078125,
                        -0.016151607036590576,
                        -0.10336525738239288,
                        0.09892891347408295,
                        -0.04267627000808716,
                        0.1353542059659958,
                        -0.12199169397354126,
                        0.12261106073856354,
                        -0.12184171378612518,
                        -0.02704373002052307,
                        0.043361082673072815,
                        -0.059567779302597046,
                        0.14346961677074432,
                        -0.021341294050216675,
                        -0.1349341720342636,
                        -0.09256837517023087,
                        -0.03949902951717377,
                        -0.02374979853630066,
                        0.004442229866981506,
                        0.11297325789928436,
                        0.0966508537530899,
                        -0.09098948538303375,
                        0.06064620614051819,
                        -0.03338399529457092,
                        -0.1045609712600708,
                        0.10217581689357758,
                        -0.09957124292850494,
                        -0.11049583554267883,
                        -0.07974744588136673,
                        0.05355362594127655,
                        -0.011103734374046326,
                        -0.006312236189842224,
                        -0.10386118292808533,
                        -0.040564365684986115,
                        0.08794477581977844,
                        -0.07008667290210724,
                        0.15078045427799225,
                        -0.027254581451416016,
                        0.06641273200511932,
                        0.0043303221464157104,
                        0.14971889555454254,
                        -0.10366897284984589,
                        0.10625426471233368,
                        -0.051686786115169525,
                        -0.0913306176662445,
                        0.12198959290981293,
                        0.03806315362453461,
                        0.01940925419330597,
                        0.05461834371089935,
                        0.040848374366760254,
                        -0.13878045976161957,
                        0.0680132806301117,
                        -0.1135241836309433,
                        0.0433565229177475,
                        0.0433831661939621,
                        -0.08150055259466171,
                        -0.09346664696931839,
                        -0.05224812775850296,
                        -0.06704714894294739,
                        0.01084136962890625,
                        0.1440279632806778,
                        -0.14376087486743927,
                        0.07755707204341888,
                        0.08190333843231201,
                        -0.0950353592634201,
                        -0.04718795418739319,
                        0.06220926344394684,
                        -0.12354415655136108,
                        -0.05414683371782303,
                        0.10924310982227325,
                        0.11541400849819183,
                        -0.12120132148265839,
                        -0.10337920486927032,
                        0.05184800922870636,
                        0.06993117928504944,
                        0.011376872658729553,
                        0.0070318132638931274,
                        0.11110706627368927,
                        0.010153934359550476,
                        -0.043758757412433624,
                        0.005217120051383972,
                        0.0038297921419143677,
                        0.01861228048801422,
                        0.13468743860721588,
                        0.022929012775421143,
                        0.0851752907037735,
                        0.12633498013019562,
                        0.11843396723270416,
                        0.015151545405387878,
                        -0.06510715931653976,
                        0.09942741692066193,
                        -0.06849244982004166,
                        0.05409346520900726,
                        0.009723559021949768
                    ],
                    [
                        -0.0726023018360138,
                        -0.0022873282432556152,
                        0.11806471645832062,
                        -0.03902032971382141,
                        0.06282371282577515,
                        0.10041676461696625,
                        -0.1216452345252037,
                        -0.08503235131502151,
                        -0.010115087032318115,
                        0.0837857574224472,
                        -0.03553594648838043,
                        -0.13369929790496826,
                        0.11546684801578522,
                        -0.022583678364753723,
                        -0.11654312163591385,
                        0.06545960903167725,
                        -0.018400177359580994,
                        -0.12175203859806061,
                        -0.10044505447149277,
                        -0.106228768825531,
                        0.012138813734054565,
                        -0.12245407700538635,
                        -0.008044585585594177,
                        -0.13158081471920013,
                        -0.021704718470573425,
                        0.01030653715133667,
                        -0.11260956525802612,
                        -0.10853226482868195,
                        -0.1523469090461731,
                        0.017640382051467896,
                        0.024200931191444397,
                        -0.05576007068157196,
                        0.027064353227615356,
                        -0.07800590991973877,
                        -0.027897357940673828,
                        0.10048218071460724,
                        -0.14498268067836761,
                        0.08851589262485504,
                        -0.12034812569618225,
                        0.1176127940416336,
                        0.011585548520088196,
                        -0.11088758707046509,
                        -0.08944246172904968,
                        -0.03059753030538559,
                        -0.05605313181877136,
                        -0.13463738560676575,
                        0.05604444444179535,
                        0.036215946078300476,
                        0.12797020375728607,
                        -0.13298583030700684,
                        -0.10630473494529724,
                        -0.08450528979301453,
                        -0.08130261301994324,
                        -0.05688033252954483,
                        0.06834930181503296,
                        0.11454083025455475,
                        0.08153410255908966,
                        -0.1184733659029007,
                        0.12662814557552338,
                        0.08743830025196075,
                        -0.09405872225761414,
                        0.019287124276161194,
                        0.006439700722694397,
                        0.04047967493534088,
                        0.0858096182346344,
                        -0.000725477933883667,
                        -0.01965847611427307,
                        -0.03266439586877823,
                        -0.028195343911647797,
                        -0.05425862967967987,
                        -0.019180983304977417,
                        -0.09152184426784515,
                        -0.03406987339258194,
                        0.033846303820610046,
                        -0.016680613160133362,
                        -0.04561552405357361,
                        -0.13223165273666382,
                        0.024304702877998352,
                        -0.022567331790924072,
                        0.13567085564136505,
                        0.08755941689014435,
                        -0.10086933523416519,
                        0.12337253987789154,
                        0.04900409281253815,
                        -0.07983709126710892,
                        -0.0924120843410492,
                        -0.07563135027885437,
                        -0.13744692504405975,
                        -0.14149227738380432,
                        0.017575189471244812,
                        -0.10238708555698395,
                        -0.10571594536304474,
                        0.009111449122428894,
                        0.11362598836421967,
                        -0.036243245005607605,
                        -0.0418381467461586,
                        0.09778152406215668,
                        0.048565611243247986,
                        0.14384277164936066,
                        -0.007108822464942932,
                        0.15223462879657745,
                        0.11669816076755524,
                        -0.049149878323078156,
                        0.10430501401424408,
                        -0.09209613502025604,
                        0.09785191714763641,
                        -0.14864453673362732,
                        -0.06814533472061157,
                        0.011031761765480042,
                        0.09795726835727692,
                        0.09973372519016266,
                        -0.13132017850875854,
                        0.06345771253108978,
                        0.061061546206474304,
                        0.004312470555305481,
                        0.1369543820619583,
                        0.03266604244709015,
                        -0.05411646515130997,
                        -0.031818754971027374,
                        0.11097712814807892,
                        0.09430140256881714,
                        -0.12887819111347198,
                        -0.06576631963253021,
                        0.12688107788562775,
                        0.010280176997184753,
                        -0.13041722774505615,
                        -0.1116812527179718,
                        0.06984886527061462
                    ],
                    [
                        0.12961770594120026,
                        -0.028272688388824463,
                        0.1250034123659134,
                        -0.15213873982429504,
                        0.13433681428432465,
                        0.02060292661190033,
                        0.07450108230113983,
                        0.08212700486183167,
                        -0.04915487766265869,
                        -0.023787572979927063,
                        0.11604754626750946,
                        -0.052360616624355316,
                        0.0802716612815857,
                        0.007361993193626404,
                        0.06544862687587738,
                        -0.07750891894102097,
                        0.09402517974376678,
                        -0.01020127534866333,
                        0.025983870029449463,
                        -0.14527057111263275,
                        0.1530444473028183,
                        -0.13046205043792725,
                        0.1198311597108841,
                        -0.052651822566986084,
                        0.06810343265533447,
                        0.011291101574897766,
                        -0.019521385431289673,
                        0.0052863359451293945,
                        -0.004104822874069214,
                        0.052999988198280334,
                        -0.05729209631681442,
                        0.1317221075296402,
                        -0.09420895576477051,
                        -0.05133584141731262,
                        -0.14631907641887665,
                        0.13867975771427155,
                        -0.10930261015892029,
                        0.13396812975406647,
                        -0.05626187473535538,
                        -0.0837654322385788,
                        0.11628995835781097,
                        -0.027373433113098145,
                        0.1379726082086563,
                        0.06137877702713013,
                        0.0485115647315979,
                        -0.023394569754600525,
                        0.05503149330615997,
                        -0.0676550641655922,
                        -0.06270230561494827,
                        -0.09344755113124847,
                        0.09624402225017548,
                        0.12168379127979279,
                        0.08933033049106598,
                        -0.08608556538820267,
                        -0.08315882831811905,
                        0.07696039974689484,
                        -0.08895938098430634,
                        -0.09191549569368362,
                        -0.028735913336277008,
                        0.11639644205570221,
                        -0.10280610620975494,
                        -0.13370487093925476,
                        -0.03280601650476456,
                        0.024598821997642517,
                        0.01908038556575775,
                        -0.14642897248268127,
                        0.09925614297389984,
                        -0.029848657548427582,
                        -0.04053556174039841,
                        0.10937066376209259,
                        0.10572011768817902,
                        0.14962278306484222,
                        -0.004698172211647034,
                        -0.057169124484062195,
                        0.09752769768238068,
                        0.1308855265378952,
                        0.057969868183135986,
                        -0.003003418445587158,
                        0.06636692583560944,
                        0.04055936634540558,
                        -0.07157726585865021,
                        0.12613709270954132,
                        0.002285689115524292,
                        -0.08258223533630371,
                        0.09594511985778809,
                        -0.09692993760108948,
                        -0.07711230963468552,
                        -0.00881221890449524,
                        -0.1390496790409088,
                        -0.04405290633440018,
                        -0.018280968070030212,
                        -0.09856675565242767,
                        0.11574514210224152,
                        0.08841954171657562,
                        -0.1379813551902771,
                        0.03895385563373566,
                        0.05817590653896332,
                        -0.013228744268417358,
                        -0.125801220536232,
                        0.11944304406642914,
                        -0.04942545294761658,
                        -0.12858042120933533,
                        0.09123118221759796,
                        0.1433914452791214,
                        -0.14499345421791077,
                        0.02171972393989563,
                        0.12238980829715729,
                        0.04119902849197388,
                        0.07610544562339783,
                        0.0919308215379715,
                        -0.07558722048997879,
                        -0.0970543622970581,
                        -0.014073759317398071,
                        0.016119495034217834,
                        -0.04903453588485718,
                        -0.02558043599128723,
                        -0.0970693975687027,
                        -0.05713430792093277,
                        0.04891781508922577,
                        -0.10515876859426498,
                        0.1377553790807724,
                        0.13177426159381866,
                        -0.14104507863521576,
                        -0.07683034986257553,
                        -0.13867241144180298,
                        -0.09681528806686401,
                        0.04619152843952179,
                        0.06339679658412933
                    ],
                    [
                        -0.12841905653476715,
                        -0.10821036994457245,
                        0.046520769596099854,
                        0.04852841794490814,
                        -0.025902658700942993,
                        0.08794920146465302,
                        0.011534035205841064,
                        -0.11319203674793243,
                        0.13009612262248993,
                        -0.037271492183208466,
                        -0.07212071865797043,
                        -0.10458995401859283,
                        -0.07496561855077744,
                        -0.052958570420742035,
                        -0.11722610890865326,
                        0.07240600883960724,
                        0.11464808881282806,
                        0.14718632400035858,
                        0.10255305469036102,
                        0.029855743050575256,
                        0.04810582101345062,
                        0.0748351663351059,
                        0.08038736879825592,
                        -0.0013053268194198608,
                        -0.10942831635475159,
                        -0.10297784209251404,
                        -0.12398486584424973,
                        -0.05127806216478348,
                        -0.08215131610631943,
                        -0.012440994381904602,
                        -0.03562226891517639,
                        -0.13128681480884552,
                        -0.0929466262459755,
                        -0.09932982921600342,
                        -0.10659976303577423,
                        0.01880522072315216,
                        -0.026713505387306213,
                        -0.10981518030166626,
                        0.11568136513233185,
                        -0.08267045766115189,
                        -0.0511268749833107,
                        -0.05727377533912659,
                        0.007184088230133057,
                        0.0012812614440917969,
                        0.11990155279636383,
                        0.021926864981651306,
                        0.03983263671398163,
                        0.07245692610740662,
                        -0.1170412003993988,
                        -0.013483405113220215,
                        -0.11878025531768799,
                        0.007700636982917786,
                        0.13813333213329315,
                        0.09248244762420654,
                        0.151759073138237,
                        -0.023919522762298584,
                        -0.0324588268995285,
                        0.07628773152828217,
                        0.05763530731201172,
                        -0.08171678334474564,
                        -0.09280146658420563,
                        -0.13284380733966827,
                        -0.02541230618953705,
                        0.14083601534366608,
                        -0.1287231147289276,
                        0.12976039946079254,
                        0.09082920849323273,
                        -0.0022030770778656006,
                        -0.10772068798542023,
                        0.1319023221731186,
                        -0.01984262466430664,
                        -0.06409968435764313,
                        -0.09090053290128708,
                        0.0231417715549469,
                        -0.013420343399047852,
                        0.1416524201631546,
                        0.11959956586360931,
                        0.148794487118721,
                        0.07177090644836426,
                        0.10106299817562103,
                        -0.09933847188949585,
                        0.07471950352191925,
                        0.05462534725666046,
                        0.1352526694536209,
                        0.03279973566532135,
                        -0.12051299959421158,
                        -0.07696638256311417,
                        0.07580031454563141,
                        -0.08435231447219849,
                        0.1296388953924179,
                        0.07375366985797882,
                        0.05926106870174408,
                        0.06683763861656189,
                        0.14170853793621063,
                        -0.04401242733001709,
                        -0.0022323578596115112,
                        0.10875050723552704,
                        -0.1521708220243454,
                        -0.08371984213590622,
                        -0.09328491240739822,
                        -0.12365198135375977,
                        -0.0273197740316391,
                        -0.04103054106235504,
                        0.028030842542648315,
                        0.040169790387153625,
                        -0.07442523539066315,
                        -0.11027880012989044,
                        0.10848529636859894,
                        0.006909459829330444,
                        -0.15274935960769653,
                        -0.01119115948677063,
                        -0.020256683230400085,
                        0.07335786521434784,
                        -0.12742844223976135,
                        -7.869303226470947e-05,
                        -0.1242544949054718,
                        0.10945852100849152,
                        -0.025174468755722046,
                        -0.006177917122840881,
                        -0.00883626937866211,
                        -0.06975674629211426,
                        0.14733083546161652,
                        -0.1180107593536377,
                        0.008853718638420105,
                        0.010456666350364685,
                        -0.01895815134048462,
                        0.11050035059452057,
                        -0.056129053235054016
                    ],
                    [
                        -0.09815331548452377,
                        -0.0788416936993599,
                        -0.007244527339935303,
                        0.10182501375675201,
                        0.04698917269706726,
                        -0.06143710017204285,
                        -0.10848353803157806,
                        -0.06686048954725266,
                        0.1393486112356186,
                        -0.1132110133767128,
                        -0.13386693596839905,
                        0.08621014654636383,
                        -0.021504342555999756,
                        0.021509379148483276,
                        0.006780177354812622,
                        0.1204320639371872,
                        0.14173851907253265,
                        -0.1376352310180664,
                        0.03705534338951111,
                        0.08617177605628967,
                        0.10731957852840424,
                        -0.06921055912971497,
                        -0.10911586880683899,
                        -0.041385069489479065,
                        0.043060436844825745,
                        -0.03848085552453995,
                        0.0661565512418747,
                        0.01752069592475891,
                        0.00602385401725769,
                        -0.1203235611319542,
                        0.0072672367095947266,
                        0.11675743758678436,
                        0.1494046300649643,
                        -0.036279961466789246,
                        -0.09149986505508423,
                        -0.024770602583885193,
                        0.0766676664352417,
                        -0.08231330662965775,
                        -0.14236871898174286,
                        -0.1383080780506134,
                        -0.12454364448785782,
                        -0.08049416542053223,
                        0.0045438408851623535,
                        0.06843091547489166,
                        0.09815175831317902,
                        0.14251603186130524,
                        0.0272027850151062,
                        -0.025553852319717407,
                        -0.05655537545681,
                        0.14743159711360931,
                        -0.042450912296772,
                        -0.05646306276321411,
                        -0.14849397540092468,
                        0.04288336634635925,
                        -0.1106981560587883,
                        -0.09500184655189514,
                        -0.11575581133365631,
                        0.03417849540710449,
                        -0.09141895174980164,
                        -0.06397401541471481,
                        0.03342130780220032,
                        -0.13076868653297424,
                        0.0006294399499893188,
                        -0.08768639713525772,
                        0.05403909087181091,
                        -0.024062931537628174,
                        -0.0980655699968338,
                        0.09470465779304504,
                        0.10725019872188568,
                        0.02735842764377594,
                        -0.06569364666938782,
                        0.15108560025691986,
                        -0.027806535363197327,
                        -0.10569021105766296,
                        0.07535387575626373,
                        0.11081863939762115,
                        0.03824980556964874,
                        0.061769574880599976,
                        0.14910809695720673,
                        -0.10779780894517899,
                        0.03991396725177765,
                        0.011381864547729492,
                        -0.08124921470880508,
                        0.11469726264476776,
                        0.00988076627254486,
                        0.10015629231929779,
                        0.012643098831176758,
                        -0.001514539122581482,
                        0.024909451603889465,
                        0.135289266705513,
                        0.022511228919029236,
                        -0.04476802051067352,
                        -0.10624348372220993,
                        -0.026295244693756104,
                        -0.07593269646167755,
                        0.13001824915409088,
                        -0.05280209332704544,
                        0.103706493973732,
                        0.016059711575508118,
                        0.13727466762065887,
                        -0.14414548873901367,
                        0.09332349896430969,
                        -0.0487118735909462,
                        -0.003151729702949524,
                        -0.06882157176733017,
                        -0.03420054167509079,
                        -0.0807025134563446,
                        0.005246952176094055,
                        -0.06772591173648834,
                        -0.1106741726398468,
                        0.1353255659341812,
                        0.15205250680446625,
                        0.13257522881031036,
                        -0.06414906680583954,
                        0.016740113496780396,
                        -0.0918910801410675,
                        -0.06849434971809387,
                        -0.13603772222995758,
                        0.03904828429222107,
                        -0.13802774250507355,
                        -0.1409091204404831,
                        0.06330102682113647,
                        -0.06645996868610382,
                        -0.016840219497680664,
                        0.13620983064174652,
                        0.1334979087114334,
                        -0.07923341542482376,
                        0.09995387494564056
                    ],
                    [
                        0.10632623732089996,
                        0.12573383748531342,
                        0.12179107964038849,
                        0.10074596107006073,
                        0.03361150622367859,
                        0.09693782031536102,
                        -0.08876464515924454,
                        0.1395004540681839,
                        0.035055011510849,
                        0.07831783592700958,
                        -0.11799842119216919,
                        -0.09942253679037094,
                        0.004036203026771545,
                        0.1295417994260788,
                        -0.06062595546245575,
                        -0.017269179224967957,
                        -0.07687053084373474,
                        0.07277330756187439,
                        0.1062113493680954,
                        -0.060951679944992065,
                        -0.13422654569149017,
                        0.03731836378574371,
                        -0.1114848405122757,
                        0.06209874153137207,
                        -0.010271638631820679,
                        -0.0250156968832016,
                        0.01484479010105133,
                        -0.010228648781776428,
                        -0.06166865676641464,
                        -0.1005864217877388,
                        -0.11145560443401337,
                        0.023936063051223755,
                        -0.03150872141122818,
                        0.07309728860855103,
                        -0.14205405116081238,
                        0.06356896460056305,
                        -0.07832200080156326,
                        0.09823589026927948,
                        0.010048702359199524,
                        -0.10230174660682678,
                        -0.013382017612457275,
                        -0.14447511732578278,
                        0.03548334538936615,
                        0.0019374638795852661,
                        -0.10419045388698578,
                        0.1185639351606369,
                        0.07394975423812866,
                        0.11144943535327911,
                        -0.1285487860441208,
                        -0.09725821763277054,
                        -0.04913213849067688,
                        -0.12113383412361145,
                        -0.0719781145453453,
                        -0.028254471719264984,
                        -0.08468633145093918,
                        -0.04685722291469574,
                        0.12124229967594147,
                        -0.1257711499929428,
                        -0.04475969821214676,
                        -0.122881680727005,
                        0.10908399522304535,
                        -0.10905326902866364,
                        0.05691424012184143,
                        0.028102412819862366,
                        0.12864668667316437,
                        -0.015710726380348206,
                        -0.007321760058403015,
                        0.015461206436157227,
                        0.13546161353588104,
                        -0.060198210179805756,
                        0.060722678899765015,
                        0.12619145214557648,
                        0.05591876804828644,
                        -0.041840627789497375,
                        0.0021323859691619873,
                        -0.0008186995983123779,
                        -0.1179385632276535,
                        -0.10619494318962097,
                        0.029882267117500305,
                        -0.03416448086500168,
                        -0.023621201515197754,
                        -0.10449092090129852,
                        -0.1279185265302658,
                        -0.009740889072418213,
                        -0.0819796547293663,
                        -0.13251237571239471,
                        -0.0952451229095459,
                        -0.09288705885410309,
                        -0.05723624676465988,
                        -0.12768226861953735,
                        -0.12816286087036133,
                        0.10905517637729645,
                        -0.02051803469657898,
                        -0.09162747114896774,
                        -0.03829295188188553,
                        -0.10292284190654755,
                        -0.13495104014873505,
                        0.12491883337497711,
                        -0.06983883678913116,
                        -0.06770521402359009,
                        0.006637781858444214,
                        0.11420471966266632,
                        0.0016409456729888916,
                        0.08228325843811035,
                        -0.11059686541557312,
                        0.05753488838672638,
                        -0.11303223669528961,
                        -0.02831330895423889,
                        -0.028947792947292328,
                        -0.12758594751358032,
                        0.126425102353096,
                        -0.09693333506584167,
                        -0.08681951463222504,
                        0.11501099169254303,
                        -0.12724952399730682,
                        -0.030410759150981903,
                        0.050893381237983704,
                        -0.02970254421234131,
                        0.08489879965782166,
                        -0.12935039401054382,
                        -0.050877541303634644,
                        0.04577922821044922,
                        -0.14218008518218994,
                        0.09820820391178131,
                        0.045818641781806946,
                        -0.0839681550860405,
                        -0.08519922941923141,
                        -0.031196609139442444
                    ],
                    [
                        0.14313270151615143,
                        0.006182953715324402,
                        0.1507946103811264,
                        -0.13481050729751587,
                        -0.15271292626857758,
                        0.11951495707035065,
                        0.0540136843919754,
                        0.10788802802562714,
                        -0.12802967429161072,
                        -0.022302091121673584,
                        -0.04905497282743454,
                        0.07524426281452179,
                        -0.07105506211519241,
                        0.004661887884140015,
                        0.030914977192878723,
                        -0.09038756042718887,
                        -0.004905819892883301,
                        0.08341722190380096,
                        -0.1244574710726738,
                        -0.13250917196273804,
                        -0.13263903558254242,
                        0.1513342410326004,
                        0.11370779573917389,
                        -0.10932537913322449,
                        -0.12280160188674927,
                        -0.04834851622581482,
                        0.05725005269050598,
                        -0.0743999034166336,
                        -0.11938934028148651,
                        0.07776011526584625,
                        0.09054070711135864,
                        0.12333498895168304,
                        0.07343615591526031,
                        0.05082407593727112,
                        -0.13414818048477173,
                        -0.06556151807308197,
                        0.08154916763305664,
                        -0.036293067038059235,
                        0.10484756529331207,
                        -0.12967225909233093,
                        -0.14875644445419312,
                        -0.030363090336322784,
                        -0.019567087292671204,
                        -0.08936814218759537,
                        -0.056848250329494476,
                        -0.11558093875646591,
                        0.13314993679523468,
                        0.026231661438941956,
                        0.009003520011901855,
                        -0.013646095991134644,
                        0.08367092907428741,
                        -0.1315876841545105,
                        0.1503152698278427,
                        -0.02453283965587616,
                        0.11409489810466766,
                        0.10437418520450592,
                        -0.13257461786270142,
                        0.009749099612236023,
                        -0.006224051117897034,
                        -0.0869593471288681,
                        -0.09857584536075592,
                        0.043893590569496155,
                        -0.1390468329191208,
                        0.14948447048664093,
                        -0.09584398567676544,
                        -0.03728152811527252,
                        -0.0022582709789276123,
                        -0.0484544038772583,
                        -0.03073962777853012,
                        -0.045945554971694946,
                        0.1073901504278183,
                        0.0832749754190445,
                        -0.1507779061794281,
                        -0.04077182710170746,
                        -0.08507009595632553,
                        -0.10519636422395706,
                        -0.12668012082576752,
                        0.0045377761125564575,
                        0.03926393389701843,
                        0.06256532669067383,
                        -0.08675173670053482,
                        0.008203864097595215,
                        0.15175499022006989,
                        0.11200793087482452,
                        -0.012756586074829102,
                        -0.0014171600341796875,
                        -0.13710476458072662,
                        -0.038731031119823456,
                        -0.09789339452981949,
                        0.1081085056066513,
                        0.026387080550193787,
                        -0.05330634117126465,
                        -0.04897858202457428,
                        0.06921033561229706,
                        0.0838734358549118,
                        0.10695044696331024,
                        0.08093121647834778,
                        0.08163958787918091,
                        -0.08330380916595459,
                        -0.034485578536987305,
                        0.0977521687746048,
                        -0.005769118666648865,
                        0.111443892121315,
                        0.1165740042924881,
                        -0.024003654718399048,
                        0.11235354840755463,
                        0.0049530863761901855,
                        0.05822815001010895,
                        0.06689968705177307,
                        -0.0164787620306015,
                        0.062075018882751465,
                        0.05876550078392029,
                        0.11455990374088287,
                        -0.09305080026388168,
                        -0.1090126484632492,
                        -0.1209673136472702,
                        -0.10746613144874573,
                        0.07304312288761139,
                        -0.08250054717063904,
                        0.009797096252441406,
                        0.1076166182756424,
                        0.08832836151123047,
                        0.059491053223609924,
                        0.11600019037723541,
                        0.1497981995344162,
                        0.08596715331077576,
                        -0.14121092855930328,
                        0.06894537806510925
                    ],
                    [
                        -0.06288546323776245,
                        -0.09231667220592499,
                        -0.039031095802783966,
                        -0.030330680310726166,
                        -0.06422681361436844,
                        0.05886390805244446,
                        0.08686426281929016,
                        -0.10616982728242874,
                        0.1305333822965622,
                        0.01620665192604065,
                        -0.13888919353485107,
                        0.0829973965883255,
                        0.13722576200962067,
                        -0.0745275467634201,
                        0.09272901713848114,
                        -0.08207371830940247,
                        -0.0742916464805603,
                        -0.14720886945724487,
                        0.07762801647186279,
                        -0.09217143058776855,
                        0.07951201498508453,
                        -0.10778525471687317,
                        0.0913001000881195,
                        0.030802547931671143,
                        0.09852488338947296,
                        0.008088082075119019,
                        -0.04084453731775284,
                        0.05704981088638306,
                        -0.12049956619739532,
                        -0.06904557347297668,
                        -0.014460742473602295,
                        -0.056043967604637146,
                        -0.10853029787540436,
                        -0.060260109603405,
                        -0.04891667515039444,
                        -0.010986432433128357,
                        0.05641604959964752,
                        -0.039279185235500336,
                        0.10430721938610077,
                        -0.007686838507652283,
                        -0.06388823688030243,
                        0.0840599536895752,
                        0.11092104017734528,
                        -0.024408116936683655,
                        0.009621724486351013,
